0.01758496 -0.056233373 0.31161237 0.32907996 0.1465237 -0.17644776 -0.24222289 0.14300281 0.17193894 0.22625352 -0.51058453 -0.13678078 0.07546314 0.5286809 -0.0053586885 -0.4279414 0.03935035 0.24216807 0.5339955 -0.18722159 -0.31970057 0.16906945 0.34601262 0.11850805 -0.36844468 -0.12808165 -0.33688623 -0.3154627 0.18014076 0.24807623 -0.051109876 -0.012312116 0.2376907 0.49081898 -0.18137145 0.041275218 0.14094017 0.0365123 0.021662718 -0.030027587 0.35635942 0.31228322 0.03458734 0.07196684 -0.064508155 0.024340944 -0.13381319 -0.33891547 0.013404098 0.022680286 0.17536482 0.4184869 -0.14126499 -0.20450184 -0.6539314 -0.16531828 0.054160263 0.5510277 0.10120831 -0.55675346 -0.05478686 0.16580887 0.49111658 0.45875654 0.10056833 -0.23651372 0.047199994 0.11139857 0.21552224 0.010202563 -0.1651548 -0.19609824 0.04616384 0.06546681 0.06525287 0.19307348 0.45041698 0.42240274 0.283896 0.2586326 0.23122607 0.06996306 0.15554921 0.14759381 0.34812248 -0.35531887 -0.1394572 -0.07483024 -0.092176005 -0.07243849 -0.38998196 -0.60363513 -0.5638933 -0.20679574 -0.24318959 0.14891821 0.022837685 -0.017992217 -0.1411819 -0.025088597 0.07637545 -0.023939209 0.16981398 0.2975941 -0.13040644 0.27164018 0.32241014 0.3294998 0.4071404 0.23095262 0.26641774 0.093643725 -0.12818168 0.0990175 0.24680373 0.1962506 -0.23608674 -0.33613658 -0.23796983 0.023800928 -0.32254314 -0.41800067 -0.2099958 -0.20308395 0.052827265 -0.14237456 -0.3544013 -0.18584228 0.019828152 -0.02084148 -0.20710807 0.08270957 0.085417874 0.16737834 0.07115898 0.21847685 0.24785039 -0.03896178 -0.0032058968 0.13298441 -0.053246833 -0.10824894 0.15968679 0.08637579 -0.00499737 0.095257014 0.12728035 -0.057148885 0.28415984 0.20309062