0.08157574 -0.23927857 -0.024832679 0.13195385 0.12605958 -0.1432801 -0.05403685 0.27264103 0.17262226 -0.23979336 0.007080651 0.36134315 0.32204795 -0.3011981 -0.16322105 0.22854401 0.16146436 -0.016282463 -0.35229525 0.011175098 -0.16477163 -0.20595874 -0.3558011 -0.21663153 -0.26727152 -0.13479385 0.014036327 0.11999314 -0.041473962 0.08181377 0.0038644478 0.01735636 -0.06364655 0.10255837 -0.02574247 -0.102156855 0.13665926 0.21463023 0.119284846 -0.42574587 0.24544641 0.3394219 0.073665455 -0.3612453 -0.23562486 0.05848996 -0.056301363 -0.25274205 -0.14120603 -0.0139222955 0.054907866 -0.15442501 0.17176507 0.16346754 0.18118106 0.043201085 0.04251562 -0.0067762197 0.11015583 0.056551855 -0.07314586 -0.06104546 0.05761534 -0.04846046 -0.00787802 -0.09075696 -0.1266968 -0.049038433 -0.096405044 -0.16037183 -0.072915845 -0.10817686 0.06339872 0.009572477 0.065562874 0.06252396 0.11225255 0.1006498 0.1120561 -0.20452143 0.03598461 -0.15709849 -0.41226617 -0.40832362 -0.12953337 -0.13616207 -0.25626385 -0.21685565 -0.0408953 -0.027890552 -0.30894122 -0.077234775 0.013747645 0.046930242 -0.07103102 0.01939791 0.023915175 0.002454946 -0.060483046 0.1449452 -0.079979636 0.052205212 0.32740656 -0.026253806 0.07709059 0.07556527 -0.123640895 -0.2971281 -0.059275135 0.11768714 0.07136931 -0.21718368 0.05873808 0.09469114 0.049091652 -0.07972239 0.18109909 0.2073098 -0.046353992 -0.110806435 0.08727227 0.16572616 -0.0040940517 -0.023460507 -0.1873878 -0.095333196 -0.044924032 0.15593566 0.13311742 -0.12846334 -0.018567666 0.15476534 0.15665518 0.008745725 -0.23838721 0.13518207 0.20171672 0.16639757 -0.10081521 -0.23021534 0.0012839335 0.010855655 -0.11279183 -0.27795044 -0.11859866 -0.009551474 -0.105223484 -0.11612734 -0.09937062 -0.060908865 -0.10699799 -0.06781916 -0.02158354 -0.24727759 -0.056101095 0.001376908 -0.04068707 -0.11101128 -0.012429966 -0.21877202 0.07256411 -0.023413045 0.017807754 0.2330088 -0.37589797 0.17392728 0.11877205 -0.054048974 0.2685137 0.06846735 0.10601833 -0.015229249 -0.1091959 0.22800246 0.007458783 -0.11580378 -0.054931954 -0.040926732 -0.0427699 0.16459054 -0.16448359 -0.10205958 0.15994117 0.13100797 0.0768346 -0.03338377 0.12209515 0.11360262 0.12563838 -0.10844655 -0.085493706 -0.030001128 0.10894307 0.089984156 -0.23372315 -0.049540464 0.030731497 0.03187229 0.15005167 0.02927475 -0.18344505 -0.00029266608 0.15064189 0.09245702 -0.16055015 -0.09350943 0.047244653 0.27275753 0.20457715 -0.07747463 -0.10141152 0.12633227 0.076953106 0.31151846 0.23368075 -0.1440486 -0.058523055 0.029208595 0.24048807 0.27037326 -0.07964243 0.0071617775 -0.07076998 0.07565876 0.079613894 0.06702813 0.059689347 -0.13555737 0.08378205 0.21810623 0.14853841 0.14950712 -0.023734171 -0.26989302 0.1405566 0.17286459 -0.068360314 -0.06555528 -0.19745998 -0.32468924 -0.14039065 -0.19354607 -0.27389562 -0.24026364 -0.34978345 -0.0052555897 -0.048437648 -0.109866664 -0.19332099 -0.3910684 -0.04476461 0.042012945 -0.13197698 -0.33327854 -0.03521225 -0.017841512 0.052099433 0.0258835 -0.2603449 -0.07141561 0.05612425 0.044225264 0.036971565 -0.03680174 -0.14855 -0.10596727 -0.08572949 0.07798245 0.11524034 -0.015221207 0.0095155835 -0.11030318 0.007271606 -0.00019380555 0.06834282 -0.12102289 -0.09643455 0.035660088 -0.037514903 -0.07401812 -0.11341016 0.09208868 0.1437887 0.15862547 -0.17609173 0.0369483 0.02553896 0.20184189 0.05693357 -0.15249504 -0.039660625 -0.022015316 0.061679434 0.19477178 -0.1385984 -0.021159973 -0.0053661913 -0.022626238 0.107652724 -0.1578331 -0.06381636 -0.16330813 0.46698815 0.26128393 0.03460982 -0.13454072 -0.18294686 0.45023167 0.056372635 -0.16916843 -0.28482643 -0.10414201 0.39597625 -0.03159424 -0.31704322 -0.18821144 0.021504492 0.20747595 -0.07092663 -0.28792924 0.011043275 0.030493794 0.17774153 -0.13586175 -0.20400721 0.015434123 -0.0041366285 -0.025374336 0.04867436 0.19424412 -0.0820696 -0.09999492 -0.019531412 0.009977016 0.12378603 -0.089625746 -0.18060805 0.115415424 -0.038141984 0.04044094 -0.2082874 -0.0038145543 0.0921622 -0.04082933 -0.028177671 -0.21255468 0.030352054 0.02911216 -0.10804741 -0.046920262 -0.12758711 -0.12384942 0.16390678 0.058894545 0.060378022 -0.13032943 -0.3346768 0.032200657 0.08595873 0.035960156 -0.05121435 -0.3409663 0.19389562 0.18452203 -0.07173752 -0.12993222 -0.17687474 0.06757701 0.1509302 -0.16593689 -0.19008029 -0.20188767 0.071817294 0.17430043 -0.013188422 0.059369806 0.010536147 -0.28116643 -0.2725159 -0.011018332 0.046681277 -0.10933422 -0.38934752 -0.39686087 -0.12899122 -0.018912435 -0.3060838 -0.59359777 -0.35540965 0.030826388 0.105754584 -0.24734399 -0.3098272 -0.24173577 0.18926743 0.03060899 -0.23665416 -0.07128988 0.008530416 0.1009519 0.089437455 -0.014863544 -0.09247828 -0.046897903 0.19749767 -0.007195243 0.07937127 -0.19607827 0.123074844 0.15711175 -0.044258952 -0.11497496 -0.25630227 -0.018858824 0.08968092 0.12717687 -0.053808518 -0.05423872 0.07941384 0.064473465 -0.19610569 -0.032552075 0.007757109 0.09171613 0.10078421 -0.08287547 0.04213971 0.17049052 0.08713181 0.08498592 -0.29357246 0.016017826 0.14222829 -0.051835768 0.053941652 -0.2552324 0.06361005 0.15217945 0.04269798 -0.08960378 -0.06857698 0.045284282 0.1569857 -0.014143103 -0.2708865 -0.07472178 0.03430498 0.063867114 -0.093283966 -0.21906249 -0.12116252 -0.16900341 0.113338 0.27084208 0.01784842 -0.1750728 -0.16438468 -0.077558614 -0.20793872 -0.2087712 0.072780564 -0.21463491 -0.43103474 -0.23513395 0.0008570876 -0.07062668 -0.10435603 -0.036465 0.054728944 -0.08133977 0.07076211 -0.019404823 0.037428822 -0.029967824 0.09398596 -0.09997868 -0.19079912 0.022125177 -0.003217714 -0.048248105 -0.06951828 -0.12331368 -0.040990833 -0.26260805 -0.26285654 0.23129798 -0.10206058 -0.14844407 -0.13717256 -0.02277133 0.0793379 0.08079913 0.1206238 0.23087923 0.04234966 0.06021618 0.16233791 0.062234376 0.09356964 -0.1356292 -0.120002426 -0.09543697 -0.16078886 0.09117895 0.020869266 -0.032567527 0.1688037 -0.20705137 -0.08927559 -0.16363712 0.049413696 -0.009435695 0.0075909244 0.076862335 -0.006342298 0.13891578 0.08799418 0.031276394 0.0993057 0.009293777 0.2511761 0.2411439 0.1311438 -0.009299229 0.043517113 -0.021591373 0.0040197223 -0.018621987 -0.08877111 -0.08555462 -0.07073668 0.03086657 0.12035332 0.21892339 0.21502773 -0.32859638 -0.1507847 -0.04854366 -0.22166978 0.1269461 -0.09497674 -0.022809971 -0.06880464 0.16387303 0.045370355 -0.10447356 0.2130458 0.29405403 0.25809687 0.08015311 0.020607153 -0.008506796 -0.0094668735 -0.06705717 0.046887167 -0.14595762 -0.28204167 -0.13647255 0.08610352 0.1222851 -0.06234764 -0.17057183 -0.18302044 -0.29102337 -0.053484812 0.025368437 -0.01570236 -0.05067735 0.11252484 -0.076796636 0.008598337 0.21377313 0.21928743 0.1543261 0.051199656 -0.19553316 -0.3378687 -0.14004019 -0.12185932 0.034358595 0.01921539 -0.00248336 -0.14588994 -0.1648623 -0.081969485 0.113339946 0.082558095 0.037795912 0.024375342 0.055294033 0.14770603 0.19510347 0.08132537 0.064261235 0.12793022 -0.027743967 0.24514852 0.06784262 0.1481191 -0.19550312 -0.19076115 -0.08354943 -0.23473196 -0.03591154 -0.10981802 0.01459249 -0.036126655 -0.22703254 -0.10310868 -0.07185032 -0.15569147 -0.23734708 -0.15094823 0.021851094 0.12600842 -0.1363266 -0.18735941 -0.18758716 0.016029209 0.15744227 0.14167799 0.0009235115 0.013366334 -0.0053194896 -0.06926387 0.05895517 -0.0132000875 0.0011402473 0.019379037 0.06794284 -0.13628717 0.04615071 0.026052149 -0.022163203 0.06886057 0.06583448 0.041002072 -0.120384425 0.087306395 -0.15725537 0.02894509 -0.15676892 -0.1494016 -0.044735715 -0.07059715 -0.13803512 -0.012646868 0.118764706 0.032740872 -0.05093052 -0.07262139 0.010511796 0.015890164 0.0666095 -0.01871167 -0.08569841 0.0053956257 0.083337404 0.21396345 0.20416729 -0.21643466 -0.2535419 -0.2314246 0.2043005 0.28808898 0.021462623 -0.19783162 -0.16986884 -0.17828667 0.20186612 -0.02308751 -0.0103771025 0.03255372 -0.13447717 -0.21520716 -0.021310428 0.019890167 -0.09190995 -0.2795432 -0.050921675 -0.04060627 0.14820328 0.12644102 0.15155204 -0.074925624 -0.15783922 -0.079806924 0.055612832 0.13083103 -0.09212405 0.16200285 -0.053005073 0.025095621 0.08830052 -0.011230794 0.41543168 -0.051543288 -0.27719155 -0.112704374 -0.0018239628 -0.03080515 0.058246937 -0.05961153 -0.0364956 -0.12637189 -0.07974972 0.11761328 0.05464296 0.1269638 -0.021028994 -0.13791664 0.040241886 0.08801477 0.24212188 0.042860985 -0.05523685 -0.049395878 -0.20501786 -0.074894585 0.1405835 0.035757955 -0.008057011 -0.010435125 -0.08198109 0.09520201 -0.010294218 -0.010410502 0.0884809 0.14747249 -0.10122808 -0.120164834 -0.011870438 0.0267339 0.10078309 0.018429197 0.01937313 -0.2070499 -0.17861186 0.053644024 0.017257033 0.029894628 0.0035300893 -0.042275142 -0.09134777 -0.14525655 -0.066838294 -0.030620998 0.18521135 0.054093894 -0.036764994 -0.024410045 -0.050039344 -0.035907302 0.17639117 0.18604314 -0.042043477 0.03471881 0.086281165 0.4073903 -0.056191485 0.02725258 0.14041261 -0.03873871 -0.09588644 -0.3912822 -0.0066680214 -0.07639617 -0.26636067 -0.010687351 -0.20320812 -0.12126134 -0.06380295 -0.17363149 -0.031676 0.069198534 0.13552141 0.14516895 0.19975455 -0.06567562 -0.0036654337 -0.068075314 0.061355013 -0.046375807 0.15068856 -0.032553244 0.066905335 0.11166909 0.07521538 0.13032173 -0.3868468 0.14238486 0.056543153 -0.018683178 -0.13898137 -0.027127208 -0.039029066 -0.17068076 -0.09868548 -0.08541412 -0.004923952 0.028555615 0.037069075 0.23915698 0.26678237 0.022790149 -0.13670206 0.03550114 0.11838025 0.05507423 -0.022167688 0.013774608 -0.09186373 -0.09136537 0.09460884 0.08314972 -0.13558385 -0.14505225 -0.09430566 0.104911454 0.22161332 -0.20918019 -0.1442844 -0.11798158 0.12277805 0.07257714 -0.035317853 0.05608023 0.08232328 0.02715779 -0.4075532 0.24284568 0.058797706 -0.24750985 -0.44878143 -0.2677797 -0.099236816 -0.09443655 -0.11767736 -0.25307578 -0.12355067 0.034523036 -0.13216974 -0.11986158 -0.24394222 -0.26510793 0.05004116 -0.15407796 -0.2313556 0.040263385 0.4605294 0.081537336 0.09693067 0.19293213 0.08982466 -0.118565336 0.0028659254 0.049515124 -0.12771323 -0.077346265 0.021440404 -0.1957172 -0.07461756 0.16729763 0.102662206 -0.1627326 0.13495031 0.06409297 0.037923336 -0.017659994 -0.20705591 0.075392336 -0.051850304 -0.14728223 0.024863604 0.22487864 0.079434685 0.23970737 0.16623156 0.12988569 -0.04857106 -0.043344848 0.029604709 0.11673365 0.023847532 -0.18939525 -0.035129182 0.1009186 -0.017445115 0.00625782 -0.29756522 -0.075414054 -0.027936744 -0.19269215 -0.068254024 -0.0836871 -0.11360876 -0.18439779 -0.27430478 -0.0716946 -0.084102094 -0.03461578 0.26693285 0.2602763 0.093712404 -0.1821212 0.12980783 0.19935991 0.08552157 0.30290744 -0.09196287 -0.0015999892 -0.07260654 0.08854491 0.08348646 -0.07160448 -0.092717566 -0.25125656 -0.2558683 0.035260692 -0.0756427 -0.19899184 -0.1734552 -0.2104192 -0.09062841 -0.14777283 0.14310174 0.01713725 0.12656909 0.08600666 0.1620185 0.03187126 0.1891521 0.19813888 -0.051992312 0.097012185 0.012037421 -0.14392495 -0.059868556 0.049150903 0.009735155 -0.11736477 -0.115438476 0.03502757 0.07694846 0.11514234 -0.07163811 -0.16883007 -0.2436773 -0.13252492 -0.1257391 -0.078714326 0.24224995 0.21514957 0.25497985 -0.03954985 -0.041137982 -0.036388155 0.22091703 0.25086772 0.051986832 -0.14948517 -0.06073362 -0.28535607 0.35578352 0.07877088 0.08207418 -0.099404156 -0.28380075 0.0553971 0.14671667 -0.23169851 -0.25883824 -0.1813367 -0.29021722 -0.27273652 0.36743665 0.26622188 -0.32609046 -0.434147 -0.21895267 -0.25252217 -0.26323596 -0.26232955 -0.52949405 -0.4718806 -0.11215797 -0.24748905 -0.19015814 -0.102388315 -0.18840986 0.09460091 -0.045885734 0.0144145675 0.13660406 -0.049592283 0.21494153 0.14300434 0.053051688 0.08988452 0.26467738 0.14167625 0.09428277 -0.061466813 -0.16720624 0.02611096 -0.09565842 -0.040328868 0.20445633 -0.1272508 0.0060878037 0.013062844 -0.09574803 0.05997594 0.00036829757 -0.006955407 0.09029985 -0.054220855 -0.010706039 0.12894492 0.108221695 0.07680093 -0.029087856 -0.16989076 0.0064483006 0.09342052 0.045034964 0.050016265 0.18554993 0.04730764 0.07009695 -0.026707917 -0.097019024 0.06316423 0.09620397 0.01903 -0.08641491 -0.105798274 0.018642431 0.060097657 0.07974719 -0.09854363 -0.22809085 -0.03964347 0.048386574 0.031981908 -0.036712926 0.01751277 -0.11574232 -0.041095693 -0.090024225 0.16203795 -0.123126276 -0.16669628 -0.055166535 -0.045018163 -0.22773418 0.15286182 0.16826761 0.15074301 0.17767864 -0.1928353 0.24309286 -0.01709917 -0.055504672 -0.06464224 -0.13434544 -0.035414796 -0.39817148 -0.13428582 -0.2621218 -0.3351417 -0.17005719 -0.19193192 -0.09892143 -0.41445038 0.0022636836 0.06234025 -0.035990845 -0.13202596 -0.13377497 0.051162176 -0.21506475 -0.061235953 0.18212083 0.085692376 -0.09459696 0.1514209 0.11172869 0.13504466 0.083640315 0.12183034 0.15998144 -0.02876484 0.046458762 0.068501614 -0.1183529 -0.02808177 0.092761435 0.040975887 -0.07850275 0.057412338 0.042877175 -0.057485674 0.07938134 0.09070717 -0.109210126 -0.108952545 -0.08854159 0.020905688 0.1026261 0.07657975 -0.03537028 -0.0035669554 -0.16896659 0.041885763 -0.13735603 -0.005101632 0.019650737 0.093015805 0.062664635 0.16777752 0.12976928 0.19764099 0.09021661 0.122856535 -0.06684363 0.026177663 0.1278457 -0.16121867 -0.56134313 0.13190952 0.0737725 0.03268871 -0.24369588 -0.08183846 -0.023594461 -0.44855163 -0.05135483 0.0724737 0.075913124 0.08634444 -0.005023108 0.298098 0.2203812 -0.022930102 0.07150146 0.037407238 -0.026514847 0.19721241 0.23345323 0.0034291798 0.14580236 0.008047983 0.032476623 -0.2915253 0.16647674 0.09803748 -0.24041522 -0.006709718 -0.09861294 -0.12416346 -0.048427757 0.18293205 0.15948519 -0.031896457 -0.05764786 0.01977929 -0.00013134893 -0.0056563294 -0.18166156 0.0527739 -0.07125881 -0.12422231 -0.018601038 0.0114115095 -0.14184536 -0.085334964 -0.06719614 -0.01141018 0.15376808 -0.04434998 0.01994886 -0.04335579 0.048353806 0.03766414 -0.046821024 -0.017536042 -0.011715911 0.11973485 -0.028597822 -0.08192797 -0.04072658 -0.090879045 -0.041730292 -0.15293773 0.0024610802 0.02923772 -0.007452804 -0.017114162 -0.03268798 -0.05953581 -0.007494079 0.011647644 -0.1061607 -0.3622725 0.044867862 -0.093351826 0.04522409 -0.029406296 -0.05544423 -0.06055885 -0.05356935 -0.07886762 0.0649345 0.15661979 -0.016323948 -0.124459475 -0.037494484 0.069068946 -0.18789536 -0.02700376 -0.10011266 -0.31200042 -0.492867 -0.84457755 0.042261627 0.04966819 0.11736433 -0.09899641 -0.054200877 0.11170096 -0.008363237 -0.023240497 -0.07427097 -0.16253935 0.032422267 -0.010868955 0.03707761 0.04292513 0.10013668 0.11066593 0.14132625 0.10554284 0.13692586 0.048723124 0.06396527 -0.044056933 0.09087758 0.17175047 -0.16336453 0.08826369 -0.20299181 -0.06680705 0.04833122 -0.028788961 -0.0137902545 0.048586886 -0.12860562 0.07963793 -0.017066598 -0.07742139 -0.08075295 0.05684039 0.18598324 0.0764798 0.13084821 0.09454602 -0.15232871 -0.029543951 0.08703079 0.027140861 0.13676701 0.019095026 -0.0752475 -0.15680104 -0.16767825 0.029859507 0.063222155 0.104035355 0.0293551 -0.0197238 0.08376531 0.12746409 -0.027393047 -0.5082126 -0.25503433 0.17688897 -0.09163729 -0.1340245 -0.07127739 -0.016160984 -0.10463089 -0.23321249 -0.19633481 0.022364378 0.34799793 0.20036668 0.24017368 0.123523206 0.0836397 -0.25264165 0.107391596 0.054070167 0.00012296719 -0.22877349 0.03305383 -0.05219576 -0.14682715 -0.16237614 -0.31711283 -0.14774133 -0.14743519 0.035812654 0.0055222125 0.040524036 0.026253145 -0.1294694 -0.07986153 0.014809933 0.1020203 0.1289367 0.21784317 0.16451952 0.18259941 0.1416036 -0.07743155 -0.15146126 -0.030012637 -0.061939273 -0.21677414 -0.074747205 0.0569995 0.1302053 0.0042686127 -0.04125309 0.0016410871 0.024517624 0.09981703 0.067939356 -0.07265135 0.11110291 0.1990949 0.13213871 0.081198834 -0.19774836 -0.19536895 -0.10975077 -0.03735198 -0.13276245 -0.273088 0.019189432 0.026265653 -0.007862759 0.0199688 0.0099558495 -0.18463303 0.008095307 0.1423358 0.10824255 -0.16901727 -0.1777399 0.08063802 0.08588066 -0.21229906 -0.028235229 -0.5047089 -0.17401542 -0.4857676 -0.18557444 0.12525348 -0.24541062 -0.1489295 -0.15487124 0.07735412 -0.080958925 0.0572043 -0.08762748 -0.0039722356 -0.08436799 0.014728047 -0.08454244 0.076779224 0.0456453 0.2027725 0.10393319 -0.16341163 -0.11235838 0.09602083 0.24745658 -0.13341649 -0.33793256 -0.25994107 -0.19408844 -0.25550333 0.11371633 -0.42759517 -0.20556194 -0.024269115 0.17418107 0.19338599 -0.054219417 -0.06269925 -0.028631588 -0.064494334 -0.040630784 0.05701104 0.050257556 0.13048254 0.07591839 -0.03383713 -0.14279607 0.10814825 -0.043643687 -0.17213348 -0.07641671 -0.15307494 -0.3216427 -0.30013153 -0.34629124 -0.26772964 -0.26723194 -0.1606059 -0.058454342 0.02788088 -0.061314434 -0.19786873 -0.2190831 -0.11355607 -0.15985332 0.10428514 -0.0028070929 -0.20220385 -0.3029324 -0.11631385 0.09174684 0.22537532 0.29641622 0.45236576 0.3770174 0.17289498 0.19096853 0.28729168 0.34666947 0.03560891 -0.28059036 -0.1557091 -0.42332423 -0.28018898 0.094508775 0.18759638 -0.009331185 -0.09581428 -0.10890377 -0.23319988 0.02653316 0.008532778 -0.10057788 -0.119954154 0.025402563 0.16841915 0.12472132 0.18999867 0.26438567 0.2580876 0.07599354 -0.0932596 -0.007355389 -0.0054201777 -0.25447065 -0.3359837 -0.441029 -0.44601518 -0.27059937 0.093786724 0.13100225 -0.07208583 0.020329088 0.09883622 0.056364942 -0.024504729 0.05552903 0.1404584 -0.0073815845 -0.003992238 0.04572776 -0.21936207 -0.13659915 -0.18824357 -0.062285468 -0.09144812 -0.26147172 -0.18881169 -0.23485045 0.0446735 0.067344345 -0.108147584 -0.025557848 0.085234284 0.22194184 0.12114996 0.18077333 0.23959099 -0.033049524 0.030605659 -0.14101587 -0.23423931 -0.18587525 -0.3285887 0.05961556 -0.13901296 -0.46896526 -0.019512407 0.09298043 -0.06350344 -0.3320422 0.10202605 0.108025625 -0.015986549 -0.1336188 -0.037288688 0.2733516 0.109372154 -0.010988466 0.03358304 0.01866534 -0.018446766 -0.03155691 -0.22954838 0.084097125 -0.21170482 -0.00861429 -0.25912315 -0.12403599 -0.26048255 -0.047204483 -0.3408391 -0.22968933 -0.02339562 0.20196807 0.056904174 0.17904979 0.2002794 0.31322238 0.13146776 -0.18871216 0.19953623 0.196586 0.090163074 -0.08865605 0.037402652 -0.11961852 -0.06170202 -0.029071914 -0.18536045 -0.0840491 -0.024576658 -0.15303676 -0.1958034 -0.03605768 -0.09328717 -0.22425237 0.03387285 -0.031122636 0.057102513 0.12299405 0.10384291 0.05164518 0.05088907 0.019912409 0.07710975 0.010958526 0.10468659 0.06508671 -0.05791665 -0.060833476 0.041160736 0.10588691 -0.053822245 -0.13244349 0.024564544 0.072343454 0.25913593 0.11211877 0.052551493 0.07708815 -0.07375864 -0.044751436 -0.21142629 -0.18186696 0.0793015 -0.24179482 0.02620334 0.2057582 0.2942263 0.32254294 -0.17180832 -0.21385145 -0.15598902 0.10669732 -0.014604929 -0.04352341 0.19666503 0.020669559 -0.061591033 -0.0628818 -0.013200129 0.09655619 -0.227342 -0.14081131 -0.17868347 -0.17686842 -0.24352641 -0.3030669 -0.056414764 0.10510154 -0.33309457 -0.20666306 0.1849555 0.21023151 0.084090516 0.047101185 0.05566864 0.09359443 -0.022703955 -0.042057894 -0.025019888 -0.09477809 -0.31015337 -0.14584705 -0.22160427 -0.14603046 -0.1755514 0.023302581 -0.0203917 -0.088682555 -0.022615029 0.114608854 0.018506058 0.019301351 0.07208389 0.21037017 0.24755377 0.18034133 0.14553511 0.005018672 0.09260779 0.14911348 0.05988414 -0.23401737 -0.050191317 -0.1417835 0.034014355 0.0017407518 0.1316152 -0.19173218 -0.0067402218 -0.1387715 -0.08708248 0.13177817 -0.072217554 -0.107367784 -0.43170097 -0.22419855 -0.07093371 -0.020869095 -0.081336446 -0.28704995 -0.00917301 0.11467972 0.031237135 0.10793391 0.11353814 0.104217924 0.07061748 -0.022873843 -0.027058003 0.09988809 -0.067254126 0.1915296 0.1473729 0.052452233 0.06285125 0.1520157 0.18534143 -0.09008516 -0.0946707 -0.17703216 -0.12150338 -0.11394883 -0.13078037 -0.073167704 -0.17877613 -0.13393103 -0.14456822 -0.10616241 0.042173643 0.004020665 -0.0725323 -0.06420533 -0.1755717 0.0058248527 0.16817763 0.08917934 0.058635168 0.0062225573 0.062479902 -0.032729328 0.018527532 -0.04995451 -0.0708722 -0.010260181 -0.06769308 -0.053053033 -0.14100586 -0.21331578 -0.08015068 -0.085294865 -0.24703705 -0.0434532 -0.17288527 -0.1319294 0.09906044 0.010283143 0.025956778 -0.031040223 0.10912141 0.028127983 -0.078526504 -0.24076653 -0.06379644 0.24546883 0.34588292 0.39434692 0.2600285 0.27139625 0.23042691 0.265508 0.17543718 0.0018995411 -0.22710893 0.20153806 0.045400076 -0.052886486 -0.09614031 -0.16082256 0.050293013 -0.002687986 -0.081202 -0.046674844 -0.04234119 0.033094194 0.03922144 0.014421359 -0.05040996 -0.0233361 0.04069928 0.15702228 0.10440966 0.21728751 0.19451343 0.1338701 -0.007560774 0.08332365 -0.22023606 -0.26064613 -0.073140755 -0.19184232 -0.22227947 -0.1397334 -0.06935109 -0.0003577121 0.027282143 -0.12724271 -0.08208951 -0.033226423 0.020718727 0.06679478 0.05260418 -0.0031659107 -0.13398515 -0.09299885 -0.0068757795 -0.07435962 0.028636917 -0.11207708 -0.14584826 -0.1512322 -0.26168498 -0.16042237 -0.21544717 0.045935478 -0.013684052 -0.1231568 -0.14882888 -0.13212943 0.21790402 0.05514709 0.11159413 0.06615914 -0.029122323 0.06113709 0.20732594 0.055230122 -0.06267154 -0.08825745 -0.21886466 -0.21086557 -0.2706544 -0.09564075 0.09765768 0.005418225 -0.23497258 -0.3631129 -0.5667807 -0.32662132 -0.09862144 0.11364358 0.090242766 -0.118081085 -0.35994285 -0.095692046 -0.08415135 0.08599655 0.2781012 -0.23043647 0.004708159 0.095712565 0.06260317 -0.02470588 0.08695918 0.03422228 0.07788887 -0.12165869 0.11044813 0.0056808866 -0.019153532 -0.0061932993 0.01043555 0.1949478 0.16751754 -0.02934778 0.017658789 0.025801394 -0.098949 0.15580556 -0.2798399 -0.22108723 -0.080394246 0.0110670095 -0.030507784 -0.10257466 -0.09156118 0.057187308 -0.0047629406 -0.048740905 0.06790959 -0.023959318 -0.085934974 -0.00050760835 -0.0092813065 0.09498976 0.41299108 0.47115546 0.20368607 -0.070128664 -0.089575574 -0.1334679 0.23131312 0.41070822 0.033896834 0.061932776 -0.15458536 -0.12439929 0.0154335555 0.032582123 -0.0137466 -0.22280072 -0.07174349 0.0813922 0.11443608 -0.13554196 -0.49411732 -0.29207873 0.18342511 0.15325327 0.3190397 0.18731737 -0.43552503 -0.19827811 0.07547371 -0.10711301 0.37152663 0.50551665 0.25096208 0.09039431 -0.24922176 -0.23001352 0.08222155 0.09064805 0.052784253 -0.039662663 -0.03461315 0.17313085 0.13713436 -0.02958134 0.00995438 -0.1791533 -0.33179906 -0.14695407 -0.08815891 0.133778 0.1616274 -0.15123531 -0.18340243 -0.13488606 -0.13943279 0.15966068 0.43330982 0.20103604 0.033064842 -0.140429 -0.22800831 -0.0747822 0.1494511 0.084370345 0.041949634 -0.1538758 0.019381285 0.04097788 -0.089938864 0.046982754 0.2776754 0.01958475 0.08921897 -0.015829634 -0.05779249 0.09326785 0.20833363 0.19599372 0.15644573 -0.14358534 -0.092028886 -0.033373427 -0.0008681162 0.0810793 -0.100476824 -0.12561886 -0.048985727 0.07698326 -0.28224626 0.31620598 0.2576717 -0.08937601 0.29589853 -0.051460207 0.5451899 0.254852 0.11235012 0.1049384 0.049091294 0.4231978 0.15926999 -0.25473168 0.080393456 0.13170128 0.19434273 -0.018536102 -0.05997279 0.1771366 0.052077673 -0.059389904 -0.10468575 0.05775681 0.22808972 -0.108592175 0.16699632 0.05370199 -0.18766254 -0.2438523 -0.14722417 -0.02705464 -0.023891924 -0.21686889 -0.182186 -0.09047 0.10259484 -0.1712161 -0.23636374 -0.18140441 0.112012826 0.103436686 -0.31200987 -0.16239446 0.100923054 0.13203108 -0.038033776 0.085409395 0.22408523 0.21475244 0.2054276 0.27619687 0.2500721 -0.107937746 -0.41974393 -0.20061614 0.2510255 0.19035678 -0.14552175 -0.17381793 -0.13069521 0.18206885 0.051183973 -0.25121683 -0.16239189 -0.092971526 0.039403696 -0.07860727 -0.102892704 -0.10769095 -0.07869636 -0.09387587 0.08607168 0.018442612 0.091098145 0.012327755 -0.16338009 -0.2995678 -0.3642365 -0.27042967 -0.17771506 -0.41567603 -0.45249414 -0.3862107 -0.4229052 -0.12281088 -0.26409823 -0.6918078 -0.5892458 -0.38596866 -0.4545381 -0.12703802 -0.13429658 -0.7214175 -0.63901746 -0.11622771 -0.08608483 -0.15752916 -0.038922444 -0.14949116 -0.05370165 0.12524645 0.05570457 -0.11376421 -0.20913649 -0.16167977 0.001492724 -0.07135506 -0.0027252312 -0.11161059 -0.28591442 -0.058782328 0.077891774 -0.08047125 -0.28950718 -0.24201141 -0.007183517 -0.07560309 -0.15648274 -0.12292956 0.06484577 0.017567918 -0.047022827 -0.09502566 0.003057626 0.17565036 0.016059218 0.06597686 -0.12091174 -0.12541313 -0.0168952 0.08990224 -0.11679784 -0.2100866 -0.1378463 -0.0112819215 0.046895232 -0.15004736 -0.15321234 0.012880226 0.122741975 0.0089826165 -0.09415579 0.09887274 0.0023516493 0.17226669 0.015275243 -0.016897425 0.1813982 0.1018835 0.013473909 0.08692051 -0.023228025 0.059905503 0.015529586 -0.16823833 -0.048507262 -0.47365558 -0.5454418 -0.30717093 -0.29350454 -0.17193872 -0.44345897 -0.48608476 -0.70408773 -0.15830404 0.14135425 0.009447449 -0.2072155 -0.5846367 -0.20596841 -0.026026506 0.026796103 -0.1805868 -0.05582645 -0.13625148 0.10250041 -0.011358216 0.021314012 0.012363851 -0.12577741 -0.11540668 -0.18558592 -0.37845707 -0.3821728 -0.28747714 -0.028056106 -0.07799753 -0.06669799 -0.37170157 -0.311623 0.18119963 -0.018955398 0.006835462 -0.018940492 -0.06430241 0.18931171 0.22676332 0.09440691 -0.04478846 0.075601384 -0.07912142 -0.26608813 -0.10940833 -0.17904411 -0.0992883 0.05125308 -0.2198504 -0.3430308 -0.29715863 -0.03663598 0.36804935 -0.012227378 -0.27372816 -0.28303814 -0.03712839 0.19400811 0.35544226 0.016601736 -0.07805948 -0.088821664 -0.0017163247 0.11117689 0.25869215 0.087092966 0.055320162 0.22289336 0.25179362 0.28068873 0.24462403 0.2778843 -0.26284266 0.118096314 -0.038183276 -0.19490558 -0.10177852 -0.07906709 -0.49245292 -0.47830835 -0.019731676 0.12153775 0.15199442 -0.17264819 -0.2741849 -0.35046545 -0.093863174 0.14044084 0.049218528 -0.19702959 -0.7015712 -0.5882929 -0.09064795 0.051760793 0.13767584 0.17656994 0.2239424 -0.2752084 -0.20633516 -0.35556534 -0.123946026 -0.07331504 0.040174562 -0.39268976 -0.49365607 -0.533415 -0.2318604 0.1422161 0.021392345 -0.2550498 -0.52546734 -0.39561313 0.21154365 0.25206038 0.10392212 -0.13756436 -0.29030707 -0.119984865 -0.055328563 -0.18208896 -0.020117486 -0.13143557 0.09772679 -0.3124996 -0.460255 -0.26098728 -0.19308351 0.08081271 -0.0016757017 -0.056245126 -0.05497141 -0.10557697 0.24414968 0.17386584 0.18068041 0.067708895 -0.030646676 0.14422299 0.13842495 0.05614947 -0.012198325 0.012343448 -0.087802425 -0.028783418 0.22585642 0.1996662 -0.28860447 -0.16654822 0.4394947 0.07235566 -0.24326521 -0.041583844 0.157249 0.20673917 -0.27472004 -0.41024205 0.058615174 0.18532541 0.061888706 -0.16022217 -0.045679435 0.12833793 -0.12028107 -0.07857166 -0.0897746 0.07340014 -0.12734105 -0.026912406 -0.09814142 -0.027316706 0.17025562 0.081279196 -0.12362867 0.1011297 0.34951144 0.20301697 -0.19084568 0.09690381 0.33676073 0.13152756 -0.1758532 -0.1844927 0.00053280086 -0.09273271 -0.25998935 -0.13056205 0.031635493 -0.16235574 -0.07186252 0.07621858 0.03192594 -0.037077993 -0.059561986 -0.026405426 -0.010224209 0.0066782464 -0.11007377 -0.020754343 0.0045556277 -0.16669588 -0.11020634 0.093833655 -0.13664365 -0.10750687 -0.022212492 -0.124970786 0.00060982694 -0.059564967 0.004218352 0.037866414 0.077055454 0.028174452 0.06622774 0.18143849 0.14218216 0.14539728 0.026680265 0.3465645 0.19093433 -0.19489162 -0.28078055 -0.001896739 -0.28879917 -0.64078265 -0.3652858 0.12991367 0.042286597 -0.14805822 -0.18585925 0.03455786 0.18527718 -0.031813383 0.025249537 -0.044784132 -0.028868642 -0.01228291 0.08770289 -0.12889142 -0.04393643 -0.04239314 0.24157305 0.20175162 0.16776682 0.019683601 -0.1868928 -0.053827513 0.13114356 -0.20914133 -0.34986955 0.09047855 0.27776515 0.05498037 -0.04376951 0.046884287 0.22239524 0.050007425 -0.044395637 -0.051261377 0.08125197 0.021552483 -0.15005979 -0.074532844 -0.06654671 -0.021028487 -0.17561045 -0.10737237 0.00044092335 -0.120594844 -0.12037706 0.12165526 0.120036334 -0.06108392 -0.07585441 0.16225004 0.17997062 0.079104215 -0.24065785 0.10357067 0.062316865 -0.039431434 -0.21826027 -0.24585599 -0.12108081 -0.055387244 -0.1439014 0.0039726226 -0.1322821 -0.06699387 -0.0773556 0.045032784 0.06756749 -0.113012865