-0.09934586 -0.04528449 -0.06093771 -0.044489846 -0.09069878 0.017204093 0.026345104 0.029693402 -0.09696913 -0.06686916 -0.0060083303 -0.029557725 -0.07596494 -0.049051166 -0.0071735424 0.029419895 0.033538226 -0.074214466 0.103564136 -0.0640722 -0.055176355 0.033483487 -0.059973545 0.0068685035 0.080345355 0.11680103 -0.049292356 0.12477868 0.008726013 -0.016525058 0.114582606 0.046936646 0.09916842 -0.04440898 0.015219935 -0.08035786 -0.019093676 0.167126 0.12282482 -0.0249172 0.02254829 0.020632908 -0.04260647 0.073490985 -0.01011845 0.01671334 -0.039142236 -0.00604189 -0.03772737 0.053841934 0.027165415 -0.024531197 -0.03741428 0.10588716 -0.0035920301 -0.06364485 -0.0074700294 0.025160555 -0.07028387 -0.052204963 -0.015230902 -0.018587496 -0.05078327 0.026918119 0.077575795 0.05887332 0.09550995 -0.042328738 -0.062128272 -0.017661601 -0.0815758 0.09287175 0.023653172 0.056608457 0.03165803 0.02669052 0.08119228 -0.09049883 -0.0050367573 0.016094951 0.013130228 -0.104400605 0.11932362 -0.059254207 -0.021103125 0.09130626 -0.02565925 0.045065977 0.024219234 -0.14101201 -0.03490763 -0.12396824 -0.06298159 -0.017487576 0.05045782 0.08223064 0.024019029 0.05156572 -0.016392786 -0.009367731 0.111105174 0.10254174 -0.025456741 0.09047441 -0.042464808 -0.040534347 -0.041589696 0.016154839 -0.0053718593 -0.038872775 0.044929747 0.0674442 0.103036225 -0.01590384 -0.07506117 0.018260382 0.06080686 -0.04832077 -0.10372711 0.032541648