0.106134206 -0.15371859 -0.024261892 0.11146133 0.19182518 0.15701716 0.08158593 0.042713 0.12980838 -0.0232004 -0.41915956 0.059905734 -0.13806847 0.0808409 -0.14620714 0.20191011 0.22568063 0.049186826 -0.027091082 0.09262866 0.03678894 0.17116885 -0.25510165 -0.33011878 -0.07588105 0.028199285 -0.032340705 -0.25555772 0.24536127 0.00776774 -0.04711393 -0.14166948 -0.1747813 0.18755735 0.043963157 0.21108966 -0.09906691 -0.017819026 -0.17547067 0.1434084 -0.03399668 -0.01301099 0.010962256 -0.22559045 -0.037831932 -0.26057342 0.061537534 0.0494605 0.07671195 -0.06802351 0.07849837 -0.28333387 0.025192788 0.29413065 -0.0775123 -0.07410566 0.11982192 -0.21667424 0.17871962 0.07879497 -0.12410736 -0.015048228 0.23357806 -0.036840662 0.09048827 -0.42904386 -0.048944928 0.22432967 -0.04862751 0.28178832 -0.019417968 -0.094437614 0.11110854 0.049645297 -0.06870478 -0.015989142 0.07443336 0.036974948 0.025906483 -0.27693748 -0.031639844 -0.0953127 0.116384596 0.056666613 -0.092961095 0.13016388 -0.38987547 -0.15423535 0.046936493 0.1105265 -0.036071174 -0.24181622 -0.29576102 0.0747387 -0.0011727284 0.19647592 -0.12072796 -0.3831557 0.005654975 -0.05072261 -0.37225267 -0.10993948 0.09169478 0.005108839 0.046508852 -0.0453371 0.18732916 -0.07000967 -0.40247652 -0.05715937 -0.035249874 -0.20467098 -0.020743864 0.0477551 -0.12441212 -0.046711557 0.17923436 0.03921166 0.032540638 0.049088605 0.12209758 -0.24534236 0.063734666 0.060932446 0.22687894 -0.008849556 -0.078846075 0.060911406 -0.05493181 -0.0033471435 -0.2402546 -0.050342456 -0.01889099 -0.031378806 -0.17000411 0.051133193 0.16313912 0.15493706 0.20136738 -0.042979393 -0.05230509 0.019811923 -0.2183288 -0.07591893 0.03707984 0.013051149 -0.15265387 -0.048844576 0.15876712 -0.27015698 -0.3604033 -0.056917798 -0.09758243 -0.17146769 0.14158379 -0.07048178 0.3868409 -0.119417064 -0.115310326 -0.17095254 0.019257918 -0.013961798 0.13262296 -0.17380658 0.01569018 0.0037343127 0.062330805 -0.09496789 0.030019762 -0.055747967 0.2699531 -0.008806431 -0.07616264 -0.010123701 0.12808684 -0.030795127 0.107017435 0.14798677 0.057482373 0.059010565 0.07393125 0.090604626 0.06167817 0.033254385 -0.18937093 0.08195933 0.24281071 0.19120482 0.10043462 0.27142775 0.09958282 -0.060414102 -0.16802333 0.1920478 -0.19435768 -0.03785027 0.15646993 -0.06020022 -0.11483429 0.13072327 0.0888078 0.11971387 -0.23792052 0.1254155 -0.12888364 0.0593366 -0.062091544 0.069071084 -0.14899528 0.10818671 -0.04581301 -0.1287109 -0.0023792505 0.07516166 -0.12419091 -0.02178579 0.030730998 -0.047166634 0.09970512 0.07522836 -0.20493175 0.057039518 -0.016818665 0.0793041 -0.0005407996 -0.09802528 0.2704466 -0.07480312 -0.012262691 -0.05470564 0.090165205 -0.090307444 0.17316465 0.025410678 0.13832483 0.06048852 -0.0833806 0.07242166 -0.00022790015 0.04526962 0.07450445 0.030336652 -0.05160157 0.046324898 -0.058571268 0.021073831 -0.06573602 0.094312735 -0.03343162 0.05785366 0.07237067 0.0029783822 0.16551109 -0.05597533 0.054344807 -0.3026842 0.21300025 -0.04150866 -0.17874014 -0.044352353 0.074821934 -0.039827496 0.15038598 0.15613575 0.1451029 -0.08427203 0.23662202 0.071004964 0.052039523 -0.027064534 0.13170041 0.16941974 0.21327157 -0.014129861 0.02409482 0.18457828 0.13791184 -0.022067212 -0.05430086 -0.005033364 0.11557471 -0.08472373 0.14155953 -0.032335818 0.09215965 -0.0023565562 -0.07462942 -0.023600886 -0.053725496 0.143339 -0.24028283 0.057323355 -0.029289749 -0.010332208 0.11718899 -0.037015233 -0.22861968 -0.038017586 -0.11203589 -0.0428594 0.08793963 0.052448235 -0.21028906 -0.007908619 0.083954155 0.19349124 -0.18391095 -0.046568584 -0.021679906 0.0017442753 -0.039454512 0.046403944 -0.17928693 0.031363454 -0.14511214 -0.28520396 -0.10931108 -0.046067216 -0.07816179 0.14333022 -0.16392286 0.008830095 -0.0913652 -0.3305514 -0.037551217 0.02085832 0.003828385 0.18276286 0.06171718 -0.07753826 -0.09225115 0.22683154 -0.006546035 -0.02515917 -0.09162845 -0.03636298 0.04503204 0.158732 0.067094795 0.06913185 0.1128221 0.17410578 -0.06869158 -0.13501817 0.19490218 -0.080266856 -0.13614379 -0.11840806 -0.07571858 0.050592832 0.061757613 0.029628767 0.14392623 0.0565819 -0.056237545 0.047443207 -0.1495697 -0.029157333 0.037281238 -0.08210563 0.18438837 -0.0507228 -0.050147414 0.03371578 -0.12101837 0.068079576 -0.023483066 0.034405846 -0.14317825 -0.07655233 -0.012700582 -0.025042348 -0.058944497 0.014054919 0.2506466 -0.13191597 0.06410494 -0.04894546 -0.23589842 0.24558182 0.008198321 0.06585615 -0.07803499 0.117053956 -0.10716135 -0.11243452 0.20449208 -0.07725323 0.09813997 0.25277203 0.14847958 0.1795734 -0.06323704 0.044838235 0.13163495 0.12697756 0.05293038 0.041351426 0.10097996 -0.043993924 -0.104049854 0.028199311 0.16454767 0.015075662 0.005924531 0.06508902 -0.02968653 0.09147021 0.066937216 -0.29071307 0.15984757 -0.29359448 0.2062246 0.14302446 -0.06687671 0.0501039 -0.076009355 0.055036776 0.1419885 -0.00615131 -0.07389213 -0.026236668 -0.019185336 0.009032548 0.22522469 -0.087940894 -0.080415234 0.21919759 -0.07629621 -0.16484539 0.021143083 0.054683633 0.19321728 -0.1796012 0.114659056 0.112809 -0.21674179 -0.059195176 0.09356312 -0.12341024 0.11004509 -0.027501179 0.3091873 0.079406746 0.07385728 0.057824478 -0.10119035 0.12074296 0.041791394 -0.23107569 0.010276407 -0.055118255 0.02726861 -0.006613365 0.13612843 -0.13678348 0.075404935 0.0004977567 0.06803292 -0.068604775 -0.04322353 0.02808587 -0.045761738 -0.17659603 0.09944148 0.05513741 -0.07102175 0.13256787 0.048753146 0.048799332 -0.0029100652 0.08647672 -0.080482684 0.16530189 -0.046227243 0.040627867 0.19512576 0.019075714 -0.04111954 -0.06486782 -0.10723006 0.020783698 -0.0072898716 -0.052687302 -0.017642578 0.05390544 0.08567712 0.03718539 -0.30273822 0.06937134 -0.057298124 -0.05595112 -0.08093447 -0.022263106 -0.11773324 0.046498016 -0.108059496 -0.072287194 0.016272202 -0.11726511 -0.08447542 -0.02296194 -0.08111336 -0.2355842 0.04949794 -0.07328597 -0.15036918 -0.0050795902 -0.021258855 0.020204168 0.015729949 -0.017177958 -0.1263987 0.00395566 -0.28194842 -0.07444368 0.11213517 -0.080645315 -0.114846334 -0.11537042 -0.17284933 0.048674483 -0.15798227 -0.13905698 -0.018478714 0.09989403 -0.1706502 0.053285398 0.08445406 -0.09587856 -0.25731757 -0.024849651 -0.0028429609 0.1288137 -0.08936098 0.059531815 -0.1485466 -0.038112227 -0.18735991 0.07153056 -0.055843506 -0.05342781 -0.08535955 0.08446587 -0.13685384 0.04828662 -0.013609929 0.0012647144 0.021202916 0.028891614 -0.068543956 0.0368287 -0.16285029 -0.049983263 0.013948905 -0.07673265 -0.054484967 -0.07550063 -0.030540556 0.040642742 -0.14266022 -0.17469095 -0.113541886 0.016569393 -0.044859737 -0.065324895 0.034082264 -0.16996026 -0.05879802 -0.049554687 0.064337306 -0.25324738 0.01715809 0.0564174 0.011706474 -0.20046756 -0.06840467 0.12128221 0.053881556 0.04954865 -0.08001787 0.013253363 0.074486576 -0.05097792 -0.087193415 0.044542454 -0.1581569 -0.072629586 -0.09920971 -0.008559441 -0.04660423 0.16648242 0.06874723 -0.03633064 0.05009646 0.02564831 -0.10751644 -0.0005166886 -0.044104513 0.0018716231 0.16554096 0.12668946 -0.066988215 0.018848546 -0.24614899 -0.030751472 -0.066926986 0.04708506 -0.09416033 0.10112612 0.07420565 -0.06858647 -0.07692491 0.023262233 -0.0074360576 0.085289836 0.009506808 -0.008175192 -0.014166981 0.049179684 -0.09140719 -0.23463707 0.19554475 -0.085671745 0.075836584 0.11256369 -0.032143515 -0.02361145 -0.08941238 0.1509869 0.3017086 -0.009006608 0.03850531 0.29819703 -0.073553994 0.080154926 0.13594009 -0.061786454 0.20540728 -0.17800045 -0.1576601 -0.078877635 0.14217314 0.17511055 -0.03171158 0.023061419 0.043411326 -0.05207127 -0.050817713 0.03974943 -0.016120395 0.0034825313 0.13240129 -0.051785216 -0.25833118 0.08821979 -0.30739948 -0.030341515 0.03552781 -0.07995548 0.07394139 0.064268626 -0.3038007 -0.025762552 -0.012531679 -0.044390112 0.01392625 -0.03655722 0.027828828 0.11339369 0.04750042 0.035310365 -0.02069331 -0.18277115 -0.0695811 0.24390037 0.1692801 -0.02391743 -0.04282541 -0.11939663 -0.016442696 0.36665842 -0.04526815 -0.035145648 -0.020750795 0.05103146 -0.06735599 0.05122592 -0.08194569 -0.17676945 0.021110605 -0.013652419 -0.058523756 -0.021480199 0.049576785 0.08825549 -0.005244147 -0.1712508 -0.020323029 0.066368416 0.009377199 0.061028242 -0.17686665 -0.11700316 0.07603698 0.057327643 -0.006630809 0.21688949 0.05574667 0.07486582 -0.19436154 -0.1512911 -0.049982112 0.10786209 -0.076349854 0.009850161 0.071298555 0.044013523 -0.025888667 -0.05316416 -0.11213535 -0.20865957 -0.037745606 0.021472143 0.29342306 -0.11008509 0.024597974 -0.06234996 -0.07157907 -0.037496507 0.047924954 0.0397798 0.14656192 -0.09555286 0.061494153 -0.36526233 -0.041712143 -0.1363317 -0.16071905 -0.2372311 -0.039404526 0.07295272 0.09219198 0.09386563 0.037525386 -0.0061428845 0.00043578618 0.14508341 -0.24577099 -0.14241108 0.057514306 -0.20046307 0.0033584454 -0.23163864 0.09307561 0.10033579 0.4417754 0.027969379 0.0030217103 0.061596226 -0.10236512 -0.017478583 -0.059580386 -0.045547523 0.045826912 -0.039223425 -0.32303885 -0.011775412 -0.07068187 -0.2556402 -0.14284705 0.24774925 -0.06852886 0.13858278 -0.094837606 0.037827037 0.07712249 0.34682322 0.018349454 0.06620789 -0.011261168 -0.06766065 -0.11660227 0.10237919 -0.05048308 0.2086959 -0.16767609 0.025001964 -4.8887527e-05 0.0023312273 0.07505092 0.07900003 -0.040115308 0.14067991 0.21183103 -0.19038771 -0.09501498 0.13510531 0.005367368 0.01977437 -0.17248832 0.06699719 0.12937738 -0.39732417 -0.012801897 -0.047204703 0.15219161 0.062097065 0.0342768 0.11730193 0.05156428 0.11806599 0.28079194 0.13357605 -0.016033988 -0.113246016 0.115783125 0.22565179 0.04060129 0.046975147 0.003208624 0.001404759 0.062019076 -0.04529462 -0.29381886 0.05263504 -0.14560714 -0.106977835 0.008153208 -0.060908612 0.095939234 0.20572552 0.03271799 -0.046799026 -0.12844673 0.08341476 0.07416756 -0.031456307 -0.2586607 0.08678943 -0.37730023 0.096157394 -0.06669228 0.03642042 -0.029969687 0.022201464 -0.07687938 0.07026926 0.038257327 0.04485445 0.287122 0.019820623 -0.014183859 -0.0016588815 0.20810269 -0.09878161 0.038305018 -0.24495448 -0.13047318 -0.052837573 -0.04497765 0.038747575 -0.03400158 0.045095444 0.05977751 -0.0137012 0.15094389 0.19333476 0.08766368 -0.04127237 0.02547226 0.13797949 0.19197248 -0.06793714 0.04851698 -0.0743721 -0.03732863 -0.027720505 0.042557035 0.19240214 0.099852264 -0.016273575 -0.14957783 0.06232014 -0.10041353 0.023596495 0.088130414 -0.061485168 0.028427958 0.06627373 -0.33850294 -0.011639776 -0.059962317 0.0558605 -0.003224839 -0.03749149 -0.19904128 -0.03285418 -0.09737745 0.053182073 -0.09146261 0.08285246 0.029363412 0.0645081 0.1885232 0.01644042 -0.0005617832 0.13284612 0.0015601985 -0.060156666 0.004189171 0.11876353 -0.0375167 0.028266545 0.09609836 -0.37865365 0.026671974 -0.04601494 -0.003075247 0.019990206 -0.018621316 -0.066392735 0.09983618 -0.14050053 0.058825184 0.18281573 0.09782432 0.04556616 -0.01805189 0.02052168 0.079419635 0.07710906 0.051914517 0.040358637 0.11445882 -0.12585159 -0.07436449 0.137235 0.039614968 0.03339321 0.031997263 -0.049681343 -0.33804673 -0.12640132 0.1324857 -0.086286314 -0.47300562 0.03152233 0.10736949 0.04040747 -0.027763963 0.046572994 0.06246937 -0.0487874 -0.041916028 -0.028273195 0.036098983 -0.04831858 -0.2847968 0.023723323 -0.0854206 -0.0018164003 -0.04103114 -0.033687808 0.042477172 -0.087318815 -0.080404 0.005231172 0.009263282 -0.08930049 -0.07331161 -0.008403257 0.065445945 -0.05825627 -0.06387903 0.072325796 -0.19692372 -0.016206356 0.052669197 -0.10306484 -0.0030345544 -0.05391489 0.048171807 -0.012347067 0.06125656 -0.06524882 -0.0021620847 -0.03247966 -0.03578077 0.024585461 0.031532705 0.09701357 -0.04700058 -0.027771808 -0.1845082 -0.12140762 0.03958953 -0.08505181 0.041933645 -0.04481703 -0.120837085 -0.086602546 -0.057582527 -0.13229305 0.0009730682 -0.01729332 -0.11618592 -0.0781299 0.06498781 -0.088611595 -0.08874627 -0.060769916 -0.032917 -0.084513396 -0.14370766 -0.025624894 0.050279807 0.05267644 -0.055012245 -0.07379402 -0.09699935 0.09096174 -0.107974544 -0.05820498 -0.014405408 -0.0011428213 -0.08565518 -0.080717035 0.00082280487 0.1268234 0.007605016 -0.12770367 0.041567255 -0.049747538 -0.12617655 -0.0047562905 0.045595493 0.082757965 0.044188768 -0.029612603 0.113079414 -0.17808968 0.036894556 -0.09204847 -0.06297098 -0.0066820504 0.012077527 -0.09486152 0.007970675 -0.07252193 0.08351806 -0.0069954908 0.011626291 -0.10248401 0.089768745 -0.03809023 -0.007040323 0.04017556 -0.08773159 -0.07166808 -0.05979237 -0.17512843 0.11472282 -0.09753184 0.014710909 -0.0610831 -0.121447995 0.065168776 -0.06807525 -0.045936856 0.01222618 0.09739855 -0.19572456 -0.14004853 -0.10903446 -0.061532497 -0.07680977 0.0584822 -0.065348774 -0.025784142 -0.14814179 -0.02414535 0.04460874 -0.05995849 -0.40273586 0.07727376 -0.017872894 0.012670053 0.19371614 -0.0870632 -0.047175013 -0.3126955 0.103242576 0.063223 -0.15908986 0.11449541 0.009271943 0.016159821 -0.15848938 0.048081253 -0.07710352 -0.2509357 -0.039831974 0.04533494 0.11694501 0.0958662 0.19692214 -0.018346949 -0.09868284 -0.017238183 0.11824855 -0.0063779014 -0.0024153176 -0.12589233 -0.07632675 0.06872317 -0.11395184 -0.0070201936 0.1675416 0.0021621042 0.024730142 0.016473724 -0.09217725 0.121547855 -0.0380597 0.2251564 -0.045902997 -0.038200546 -0.0034907113 -0.008882633 0.08764012 0.041859206 0.10547538 -0.20682512 -0.004218385 -0.05870272 0.067226954 -0.3098546 0.04257533 -0.011939297 0.16438879 0.0074113086 -0.026171073 0.2124168 0.17162894 -0.113828324 0.00219867 -0.2546929 -0.030275783 0.013873657 0.0049024764 0.041491225 0.13334976 0.021881664 -0.09056823 0.021830613 0.046195902 -0.043453988 0.03793081 -0.11365733 0.089984395 -0.21700744 -0.14102069 -0.15494536 -0.04694931 -0.024413323 0.086654164 0.11093499 0.11194745 -0.07426516 0.06804015 0.19570251 0.16439092 0.006435043 0.001723695 -0.033431128 -0.01055213 0.07477386 0.052689612 -0.08119658 0.23277757 0.1789445 0.06621643 0.012083218 0.102700874 -0.050031018 -0.1941972 0.0816604 -0.06821312 0.0076594576 0.08600998 0.24285123 0.060063854 -0.0068554576 0.13474184 -0.05378247 0.10172274 -0.08360514 0.0054615424 0.07028148 0.039863754 0.013475013 -0.051201753 0.059939936 0.109912895 -0.019000908 0.035121437 0.058461078 -0.026204448 0.00056272524 0.25120836 0.05721742 -0.03947531 0.00637737 0.11375064 -0.07032351 0.23715627 0.16318294 0.27528173 -0.015807958 -0.026688702 -0.11016084 -0.17487304 0.026970193 0.08654786 0.06322862 0.0071128733 0.19975205 0.19153401 -0.007484151 -0.10995961 0.0057325806 0.07562825 0.036939025 -0.066529095 -0.055501394 -0.0006985381 -0.041736264 0.12767619 -0.19949013 0.011596817 -0.06278265 0.16444601 0.18444276 0.078178324 0.19189103 -0.31621096 -0.060592167 -0.05582934 0.08912875 0.036595836 0.11248723 -0.1439942 -0.07255943 0.018492604 0.007554988 -0.05785762 0.08073295 -0.084334195 0.036632482 -0.11696659 0.021075295 0.04997959 0.107882015 -0.024280494 0.073540665 0.1618916 0.13192645 0.096209094 -0.20701629 -0.052479982 0.12716866 -0.08607895 0.17332584 0.17958356 -0.01221869 0.16666244 -0.026764963 0.09938416 0.10905966 -0.12155274 -0.28995433 -0.06514626 0.021674074 0.06520048 -0.010940952 0.096376285 -0.12819546 0.062473048 0.021646224 0.10558262 -0.2338562 0.09446349 -0.13902508 0.058937654 0.14258035 0.13486491 0.24963498 -0.014254971 -0.02132589 0.19432102 0.00762331 -0.03232573 -0.032945607 -0.13025415 0.10914038 0.115195565 -0.0070760814 0.19067441 -0.022160038 -0.019111052 -0.09489163 0.26196995 0.19863516 0.11353049 0.043949775 -0.33001432 -0.08274484 -0.103086114 0.02245402 -0.08028585 0.040983163 0.048376262 -0.035048045 -0.047894463 -0.13519199 0.01827082 0.06551714 -0.15059726 -0.01899869 0.0003895607 0.11881676 0.21575332 -0.0837846 -0.08054974 -0.08042017 -0.05738895 -0.093121834 -0.038080517 -0.020367412 -0.08506105 -0.114595756 -0.0467513 -0.25476357 0.016956722 0.02026752 0.037461877 -0.022505645 0.11586911 -0.1553311 -0.16741222 0.17526259 -0.0049785003 -0.19240461 0.08580599 -0.11602642 0.04376324 0.09235953 -0.19341384 -0.08527734 0.09802763 0.009394705 -0.23991407 0.11018263 0.040280104 -0.0043121725 -0.12663943 0.012561191 -0.07957185 -0.16259669 -0.115145855 0.13395058 0.19498521 0.031933434 -0.049141083 -0.07394873 -0.112889245 -0.125363 -0.17790656 0.001410943 0.08767533 -0.062020056 -0.1312133 -0.13630527 -0.11393205 -0.056944914 0.048204627 -0.019095877 0.010797625 -0.27336338 0.07183592 0.014176903 0.0935601 -0.012800041 -0.43025732 -0.15680584 -0.41467103 0.10896118 -0.013822712 0.22221695 -0.23554602 0.20054242 -0.12440594 -0.080061704 -0.037585665 -0.049429975 -0.0032044172 0.19880033 0.12771432 0.008433093 -0.028230958 0.03732019 0.27775544 0.030077193 -0.05987786 -0.03006967 -0.020838195 0.029378898 0.049342915 -0.059958562 -0.028021581 0.011099205 0.015552843 -0.073736586 0.078773275 -0.017409882 -0.1305157 -0.25794926 -0.13335155 -0.029519616 0.021637127 -0.08192275 0.07552715 -0.09259631 0.043163385 0.047721133 -0.17306165 -0.009459793 0.1279158 0.05132757 0.1368933 0.13369988 0.015386218 0.042137835 -0.3883207 0.12891398 -0.03902202 -0.079155214 -0.1769475 0.021353176 0.29637516 -0.12199099 -0.06769007 -0.014430439 -0.19222026 -0.11887664 0.17461514 0.054854125 0.18368211 -0.041572746 0.027628412 -0.104203366 0.17333747 -0.12433522 0.14733806 0.05607016 0.025044784 0.027980577 0.28823122 -0.029560147 0.25166973 0.27915928 -0.06556041 0.009851211 -0.024247885 0.0756828 0.07228702 0.19303454 0.11231193 -0.28399983 -0.111364394 -0.02041132 0.18761289 0.27504075 -0.0055406373 0.24543452 -0.19346242 -0.0814821 0.03630949 0.02660392 -0.0031671918 -0.15867265 0.0024707224 -0.26330528 -0.09279951 0.033703715 -0.20163886 -0.18877503 0.10561197 0.045098547 -0.28279567 0.06737418 -0.10450449 -0.1712054 -0.19577788 0.016520325 0.18733771 0.0858346 -0.007058803 0.03415449 0.06612384 0.18482141 -0.13474394 -0.11485604 -0.2222852 -0.018021138 0.039962396 -0.097422875 0.09630365 0.071879424 0.04418449 -0.07646078 0.21430509 0.080326 -0.032767184 0.086565636 -0.0077376636 -0.20702712 0.0012120717 0.01649536 -0.054190233 -0.24223194 0.09426405 0.08548243 -0.11808696 0.08249853 -0.03600573 0.0062562847 -0.030950682 0.039595827 0.22473258 0.08192697 0.02461759 -0.08047312 0.03718737 -0.044524252 0.105324544 0.116369754 0.13510428 -0.022857081 -0.23507184 -0.07735004 0.0014213935 0.09604615 0.04712536 0.050359227 -0.2637202 0.06587118 -0.1295781 0.07966364 -0.053820614 -0.20560314 0.030535733 -0.049968462 -0.29913506 0.060860865 0.05129618 -0.04637657 0.10908371 -0.050660703 -0.170335 0.0051385933 0.018984059 0.061088674 -0.105327375 -0.03735063 -0.011024715 -0.08680909 -0.09555436 0.09535197 0.03383763 0.07906816 -0.44361252 0.004580301 -0.006962838 -0.075078614 -0.08230593 0.062129542 -0.19625536 0.1405788 0.15780404 -0.25170037 -0.029541923 -0.16640456 -0.0097916685 0.121586606 -0.09648639 -0.034653474 -0.04269177 -0.044086117 0.06534034 -0.071670435 0.01388077 0.058964968 -0.084930934 -0.059221257 -0.40091664 -0.003944573 -0.0203773 -0.2808155 -0.11349624 0.097279355 -0.11377122 0.16836785 0.029626692 0.0762837 0.044579133 0.10861441 0.30073273 -0.013016897 -0.031528894 -0.030584745 0.15650237 -0.08868943 -0.09220818 0.033198655 0.021192495 0.004076314 0.0197459 -0.047450475 0.059925828 0.14189047 0.3920619 0.0008485112 0.21953534 -0.14814849 -0.010086627 0.01916153 -0.05129978 -0.15962532 -0.13114089 -0.29853615 0.18868612 -0.1543401 -0.009008377 0.088801205 0.016486181 0.06617614 0.12198595 -0.16611868 0.07451943 -0.032209035 0.12506254 -0.07871532 0.27370313 0.015867015 0.08910864 0.14813052 0.015330759 -0.034843676 0.26074666 0.17991436 0.28661206 0.11362326 -0.18506056 0.00076203985 0.046862524 -0.03871056 -0.17831883 0.037648108 0.13244028 0.045328937 -0.11427858 -0.011114663 0.049435787 -0.0066476613 0.07401468 0.040781166 -0.011966011 0.06519581 -0.054799393 -0.10401155 -0.006414048 -0.019884989 -0.033317912 -0.10429077 0.008591355 0.061943527 -0.23321773 -0.077180296 0.07208605 0.17216252 -0.05339358 0.02374539 0.11462561 -0.0317569 0.14931314 0.07884369 0.061898448 0.192635 -0.0229393 0.07503574 -0.13897683 0.02832014 -0.033996016 -0.12451279 -0.031227602 -0.0053846324 0.094506696 0.03291815 -0.10109258 0.12262934 0.17665601 -0.04411238 0.036325708 -0.09457525 -0.06303864 -0.014807457 -0.0683199 0.07186472 -0.0070884074 -0.046223983 0.15355042 0.0011291141 0.033193454 0.08542708 -0.20644923 0.05511664 0.003051799 -0.02454223 0.007456274 -0.092272334 0.13438798 0.02977973 -0.07132248 -0.0079207225 0.055458236 -0.16404212 0.09630666 0.042745702 -0.23540969 -0.05689845 -0.07543852 -0.051995132 -0.134141 0.0032518413 0.04563001 0.105344094 -0.04098054 0.0010092679 -0.013836656 0.10651367 0.11522599 -0.037858177 -0.024162494 -0.0014078204 0.030374778 -0.036989834 0.0016549211 0.0028179083 0.06361373 -0.05283504 0.03782351 0.08164536 -0.0068253893 -0.2419759 -0.027046198 -0.034565646 0.015937246 -0.056061115 -0.02338136 0.055921838 0.043864682 -0.019454544 0.08529243 0.092674494 0.17081715 -0.04853347 -0.034107924 -0.006652056 -0.09009025 -0.09945136 -0.047969047 0.16425836 -0.026777394 -0.07038704 0.13098675 0.034120154 0.18495214 0.023908107 -0.14947778 -0.04509062 -0.019914882 -0.060995314 0.048487894 -0.09086877 -0.023838777 0.028918862 0.10958312 0.046047416 -0.045380395 0.03575113 -0.025307454 0.0144484565 0.06667497 0.02600154 -0.002913563 0.05286699 -0.07250976 -0.08609819 -0.15716426 0.036224265 0.050423685 -0.032461893 -0.14491801 -0.08724499 0.023701463 -0.0740462 0.024953136 -0.014982613 0.0476636 -0.004239995 0.06288065 -0.003851047 -0.020869153 -0.06920905 -0.04165234 -0.12543339 -0.0068248785 -0.10259759 0.056168336 0.03481739 0.10954609 -0.103993125 0.006314552 0.07105458 0.0023209879 0.02934789 -0.17380449 0.07160882 0.019217042 -0.022975337 -0.041547384 -0.10515872 0.062886834 -0.06253863 -0.112712875 -0.0067668497 -0.036962967 0.04696971 0.036558647 0.016819842 0.103017375 -0.10563403 -0.0029753866 -0.07327811 -0.11611757 0.028391514 -0.083389536 -0.052888785 -0.020746171 0.011896862 0.02245008 0.05028649 -0.18380395 -0.053581957 -0.087659724 0.0033546183 0.016430523 -0.16712144 -0.036292683 -0.090756066 -0.117427744 0.09145005 -0.12586781 0.04628453 -0.15300845 0.016023524 -0.032733288 0.013924143 0.03937606 0.027054984 0.055307712 0.10222959 -0.014967733 -0.051023286 -0.055518664 -0.09574898 0.116509035 0.052172597 0.07101318 0.14258984 -0.09667271 -0.07618041 -0.0764933 -0.109908834 -0.11188419 -0.0032447553 0.06562944 0.09493998 -0.12503916 -0.053948674 -0.042847622 -0.13951692 0.025016425 0.07273063 -0.047697138 -0.061639585 0.086534835 0.030893156 0.039943866 -0.10672735 -0.08307246 -0.086070485 -0.051190477 0.08632052 -0.20256235 -0.0303408 -0.07521501 0.026004992 -0.21299124 0.011707628 -0.08048038 -0.10319214 -0.2916405 0.09411805 0.0031091953 0.09217452 0.10697479 0.07107183 -0.13590758 -0.100403905 -0.010257987 0.038155194 -0.13583227 0.17272514 -0.049044438 -0.021413151 -0.10549979 0.097120784 -0.060303025 -0.22598334 0.0852766 0.120731965 0.12881698 0.1124608 0.15460677 0.062386792 -0.09109711 0.0381388 0.13034458 -0.009384876 0.14172697 -0.17480613 -0.11271902 -0.23653927 -0.11710167 0.16978472 0.23009446 -0.050376542 -0.0037742674 0.07998184 -0.013885942 0.14416501 -0.0609376 0.042718433 0.13803938 -0.073425435 -0.00754452 0.017516645 -0.10971444 0.08679661 -0.18102103 -0.35814887 0.0091608185 -0.06619193 0.054208618 -0.057886086 -0.17886084 -0.019221157 0.18139252 -0.013657641 -0.012098094 0.011619985 0.098339655 -0.07387776 -0.011771258 -0.1266615 -0.056385905 0.0044276407 -0.025443874 0.07119024 -0.010828497 0.004643441 -0.018438375 0.051826686 0.028511912 -0.085558034 -0.11457159 -0.02874304 -0.00026340582 0.049962264 -0.14269912 -0.13353674 0.07936212 0.03655032 0.048313316 0.054455772 0.018048426 -0.005110901 -0.04736406 0.19483955 0.074664235 -0.10433476 -0.004312073 -0.053767588 -0.12325028 -0.002417669 0.0063419333 0.08470704 0.1632755 0.14046198 -0.05053966 0.05575657 0.022164213 0.04624894 -0.25987744 0.16768758 0.109345146 0.0040914854 0.116867594 0.07874493 -0.029014163 -0.12246238 0.08410568 0.081464365 0.2825756 -0.000876235 0.15503314 -0.050001156 -0.37953323 0.265798 -0.034145247 0.035886712 0.13252756 0.00028545703 -0.010928228 0.038893152 0.03902644 -0.005396571 0.09985295 0.08179695 -0.009982719 0.053979836 -0.05041627 0.26872462 0.13921298 -0.08631574 0.115172744 -0.021237273 0.009194068 -0.072046265 -0.09363812 0.10019374 0.11821816 0.086647026 0.23457281 0.19542684 -0.20351979 0.20133704 -0.046394486 0.0996863 0.15413985 -0.08249567 -0.0074958135 -0.4880982 -0.19088139 -0.074940644 0.08313905 0.2139024 0.21606927 0.065804735 -0.057733197 0.09700537 -0.05661955 -0.077575974 0.37183046 -0.0025954098 -0.028851861 0.00921361 -0.16405852 0.11064047 -0.16130881 -0.17364058 0.095952794 0.019382112 -0.08010426 -0.17852022 -0.26098016 0.0365051 0.04269833 -0.026719026 0.07424472 -0.023112258 -0.01522012 0.040300358 0.0340236 0.003692211 0.07618928 -0.0022199512 -0.04539362 -0.039432712 -0.12171411 -0.12829348 0.16094665 0.11622828 0.14802112 0.061071392 0.03455589 0.038632877 0.106603876 0.15928853 -0.03465463 0.07313513 -0.01062613 0.057331167 -0.035673916 -0.12276433 0.13333398 0.10250668 -0.060598683 0.0053059272 -0.14459573 -0.21911764 0.010267001 -0.045860566 -0.030858736 0.14323767 0.08993993 -0.020716717 0.12861216 0.103764 0.021490062 0.10864798 0.20694903 0.044016324 -0.19614464 0.1278733 0.24469861 0.06384447 0.025776979 -0.09235017 0.13213545 -0.14105509 -0.08626742 0.033049267 0.048493274 0.10703881 0.023688111 -0.08662555 -0.05972324 -0.083001 0.045562014 0.04174605 0.04568045 -0.08103759 -0.015185431 -0.018891253 0.018620493 -0.062060755 -0.052369896 -0.099842586 -0.013073608 0.08895649 -0.027940936 0.041378856 -0.05345608 -0.075853266 -0.06108604 -0.044950314 -0.020038448 -0.053647302 -0.061165243 -0.017990265 -0.07211083 -0.027734479 -0.024946444 -0.05809202 -0.12779215 -0.008041719 -0.0753644 -0.09458176 -0.0076941294 -0.103704005 0.023084775 0.0028183993 0.03602718 -0.07056509 -0.0041820235 -0.04362444 -0.027479582 0.090691105 0.033455543 -0.043146346 0.027792498 -0.120921575 0.07609123 -0.012614213 -0.036067247 0.05634698 -0.031663794 -0.061533045 0.060234886 -0.043725647 -0.07248036 -0.020990364 -0.06341348 -0.044752173 0.026046993 0.06673436 -0.044694696 -0.0778984 -0.022810329 0.027315037 -0.052946385 -0.10306433 -0.13125464 -0.097192906 -0.0515292 0.04075246 0.01705569 0.015247211 -0.0998997 0.01847795 0.00399658 -0.048185173 0.0026628315 -0.045865916 0.08726022 -0.02243384 -0.012989523 -0.10042388 -0.11019255 -0.072261244 0.046919793 -0.016318314 -0.041314613 -0.025775546 0.063585214 0.051314894 0.071369156 -0.05382999 0.039721765 0.020934202 -0.09539056 -0.06460247 0.039879344 -0.118935 -0.061570913 0.058866307 -0.036930338 -0.034766577 -0.08826393 -0.05517434 -0.08318459 -0.051233474 -0.08515974 0.014679327 0.059301388 -0.0071925893 0.026738957 0.05843492 -0.08898107 0.037437435 -0.016997453 0.041775882 -0.14159031 0.030384691 -0.00942412 0.09032731 0.0022262176 -0.15572798 -0.09171197 -0.033539332 0.30278367 -0.015183263 0.08833518 -0.104581825 -0.077581055 -0.03877745 0.17949253 0.06457734 0.02004497 0.0031857616 0.00720323 -0.14006127 0.17833501 -0.03545077 0.1495562 0.11734737 -0.08405377 0.20328885 -0.14265199 0.004693694 -0.061285913 -0.03743541 0.0960759 -0.12319685 0.38625824 -0.13646992 -0.106181845 0.051535007 0.191218 0.10683738 0.11717419 0.04769929 0.12786134 -0.23925965 0.040067207 -0.15152368 0.11711579 0.07833015 0.119748615 -0.05401655 0.07132888 0.104952 -0.107023545 0.06548647 0.054457657 -0.06880179 0.08396474 -0.005453753 0.09944086 0.06050625 0.078390546 0.03668292 -0.0332525 -0.20017907 0.10855249 -0.04088725 -0.056700554 0.05513444 0.11041645 0.10932243 -0.0840946 0.07869548 0.07975659 0.35143483 0.04694887 0.04071196 0.11308741 0.13835315 -0.09130592 -0.006414018 -0.11561838 -0.0054412824 0.06167453 0.007552803 -0.056564108 0.07738242 0.06584128 0.043158125 -0.11115695 0.08166012 0.08676176 -0.23285532 0.004481049 -0.007309464 -0.06665581 0.011171261 0.00042019752 -0.39873907 -0.16124618 -0.034517758 -0.09642898 0.11130256 0.15416431 -0.014023782 -0.045461938 0.06303532 -0.050727725 -0.041394655 -0.07505457 -0.1581243 -0.13450101 0.06692858 0.19238682 0.08594467 -0.09473897 -0.01813693 -0.04718164 0.012615677 0.047502127 0.089208655 0.14014256 -0.07371459 -0.3230329 -0.055227958 0.20445193 0.02350732 -0.23392482 -0.1130511 -0.070921116 0.08403233 -0.14973295 0.15299988 -0.048471145 0.037064377 0.091924764 -0.010753585 -0.3864133 -0.036918122 0.006187774 0.013580715 -0.24204975 0.120573625 -0.01882133 -0.017400984 0.20695668 -0.08450754 -0.0025411395 0.0675061 -0.26984167 -0.11951667 0.061274886 0.16218756 -0.12062896 0.06146289 0.31160593 0.004287933 0.094747595 -0.13343379 0.0037545303 -0.16268864 0.073647566 -0.010477002 0.118753485 0.07341401 0.15944566 -0.25654307 0.12633693 0.07684495 -0.098734096 0.045475725 0.054521654 -0.0920233 -0.051770624 -0.013600628 -0.09909978 0.024477238 0.04588025 0.01565388 -0.19762233 0.17762996 -0.01605626 -0.013978907 0.11107336 0.14244182 0.13289854 -0.048688803 -0.04619194 -0.032833125 0.14585024 0.047025714 0.07219255 -0.036724284 0.22261758 0.13564494 -0.072394356 0.1555584 0.0434416 -0.0023800584 0.026995905 0.062190283 0.014821919 0.24769507 0.15591413 -0.015552711 -0.10988438 -0.1355135 0.081987694 -0.2316421 0.20900756 -0.045550857 -0.1416726 0.19548707 -0.00990478 0.007484391 -0.14860699 -0.04881174 -0.018542528 -0.21252473 0.0058351513 -0.12305893 0.02834511 0.15298182 -0.012664259 0.061359946 0.10019697 0.0382646 -0.0012013374 -0.0011953958 0.19708493 0.13201827 -0.06631339 -0.03378205 -0.04102232 0.14103651 -0.15407579 0.027287424 -0.04803026 0.0035558033 0.111305885 0.032647394 -0.01815049 0.0035837633 0.033886828 0.03436752 -0.14832596 -0.033173237 -0.12935738 0.16968527 0.003952226 0.100482 0.42891783 -0.09436049 -0.0512377 -0.029662516 -0.024845641 -0.007382862 -0.1883166 0.2558577 -0.12341589 -0.034241922 -0.15157746 0.13216804 0.09313678 -0.058623847 0.18817143 -0.03731997 -0.011894022 -0.16676235 -0.09021057 -0.16118686 0.11288069 -0.14331234 -0.14205775 0.15086469 -0.046675727 0.08820014 -0.02056688 -0.0030296608 -0.044343613 -0.020958655 0.056224864 -0.23559064 -0.015569731 -0.10641896 0.07941542 0.1022218 0.23790725 -0.029992089 -0.034933086 0.14282162 0.015674597 0.03082525 0.33383733 -0.031049617 0.00039233605 -0.029556056 -0.105236016 0.008792625 -0.04827708 0.15298724 -0.066271976 0.06695876 -0.06895805 -0.16229203 -0.23965128 0.007882485 0.016966408 -0.0045407373 0.15499894 -0.06738497 0.07737578 0.13137905 0.067102216 0.09875674 0.08687495 0.07542281 0.032624472 -0.052812394 -0.25531727 0.0991712 0.12593585 0.0840528 0.037652142 -0.035216276 0.08205638 -0.03841817 -0.0063212416 0.017584672 0.0646589 0.09043838 0.042834926 0.15458433 -0.063009314 -0.029232696 -0.07208753 0.031316683 0.039277207 -0.0629433 -0.11947218 -0.07058247 -0.0053590443 0.14106375 -0.070474476 -0.10353526 -0.046267647 0.065667436 0.10478802 -0.07579683 -0.0748122 0.21475227 0.18860576 0.07951131 0.054909293 0.062730804 0.121216595 0.0444073 -0.19744785 -0.31253114 0.09695122 -0.13685681 -0.09003093 0.012708436 -0.17461492 -0.0072494536 0.067172654 -0.0143733015 -0.32044187 -0.22431661 -0.03458622 0.030064812 -0.46348733 0.18337628 -0.08604372 -0.059389994 0.10586822 -0.060993105 -0.118958406 -0.059431154 -0.038746376 -0.020108506 -0.17463425 0.20149145 0.025233153 0.15974982 0.32459134 0.058432326 -0.05105723 -0.0008316219 -0.15801853 -0.08105512 0.17777362 0.20267339 -0.1345793 -0.009345906 0.13519378 0.05437365 -0.012318623 -0.092490695 0.06387377 -0.2564929 -0.10058243 0.045035914 -0.21700077 0.104501024 0.011727648 -0.17933132 -0.08695819 0.097093165 0.17761225 0.18628438 0.037431728 0.12963699 -0.09289771 -0.004219163 -0.08690663 0.037356254 -0.2724457 0.106893465 -0.009746476 -0.20341979 0.08335316 -0.008250703 0.16885076 -0.19253501 0.044284046 -0.0751 -0.09784348 0.042303413 0.071123846 0.01230966 0.069973655 -0.07892453 0.038518917 -0.1071173 -0.020425357 0.029336018 -0.028152255 0.15766598 0.11013081 -0.04299928 0.043417815 0.17307194 0.2091162 0.01603903 0.10945817 0.09941539 -0.10267134 0.007153171 0.09594332 -0.34536672 0.026880039 -0.023025893 0.12931982 -0.13962397 0.14370152 -0.06771886 0.071702614 -0.05975809 0.047963534 -0.067096904 0.2055794 0.1839443 0.13840756 0.01228283 -0.038232964 0.07465056 0.1278834 -0.027005723 0.26786765 0.23202631 -0.19459845 0.008056354 0.15252808 0.1364096 0.1557551 -0.005683192 0.032056086 0.1285715 0.047328636 0.016710335 0.09316921 -0.04850284 0.15575711 0.026057102 -0.047302246 0.03307086 -0.013515537 0.089335956 -0.08396759 -0.036960714 -0.036198728 -0.1609487 0.00023870498 0.018439896 0.04840647 -0.057608373 -0.07973642 0.030390972 0.08943035 0.010996878 0.09849236 -0.06450326 -0.06361689 -0.095468424 0.02398547 0.061924025 -0.016240604 -0.05999187 -0.070128754 -0.0059152637 0.09840599 0.05274357 -0.040503014 0.06398376 -0.07045099 -0.15754054 0.013969509 0.0514915 -0.0040747807 -0.053931292 0.039971698 -0.17441802 0.17367724 -0.016377497 -0.11046034 -0.03305387 0.07619948 0.00942263 -0.029787162 -0.23275194 -0.0641595 -0.0028283612 -0.03307563 0.07449256 -0.049279757 0.079263836 0.030475104 -0.025678964 -0.042450637 -0.03303876 0.055678513 0.03512177 -0.062533304 0.07054288 -0.1666076 0.059778497 0.0540357 -0.03966365 -0.037874278 0.08764331 -0.13515678 -0.003274971 -0.17680046 -0.019472871 -0.02435723 0.11084974 -0.01514405 -0.19859137 -0.17064716 0.035870135 0.052075174 -0.11388281 -0.03980952 0.065683216 0.03648615 0.122448176 -0.017558368 0.0996676 -0.17688425 -0.043158773 0.089090064 -0.03552006 -0.052616585 -0.0807591 -0.050145425 0.031984013 -0.06186039 0.09113756 0.0652877 0.062220052 -0.052392267 -0.13186902 -0.14660007 -0.13911103 0.013177238 0.036514536 0.03605658 -0.16444193 -0.063231125 -0.030228635 0.027404808 0.041727677 -0.14026803 0.101094715 -0.12949555 0.020324893 0.049950287 0.055253003 0.055851396 -0.1320024 -0.023213588 -0.02953621 -0.12814407 -0.008470431 -0.13365537 0.015139684 -0.15387334 -0.08354426 0.068238415 -0.060824327 0.41669172 0.07904669 0.060403593 0.04818381 0.1472537 -0.06748169 -0.023251694 0.07884667 0.0019400106 -0.03141829 -0.055200875 0.11092089 0.14800589 0.0792978 0.14644125 0.11619356 -0.058897767 -0.05186149 -0.25701284 -0.014327077 0.0712683 -0.1650482 -0.021979772 0.06811164 0.054549366 -0.073600836 -0.25324106 -0.06562713 0.14872868 -0.09906621 0.10008739 -0.12956628 0.13339567 -0.061933868 0.05432047 -0.11971779 0.13767084 -0.046622965 -0.10756183 -0.14426075 0.078388646 -0.112071045 0.19110334 0.016910788 -0.028527478 0.078769326 -0.031113325 0.07128355 -0.10036775 -0.004772723 0.18380414 -0.012010707 0.10392335 -0.084103115 -0.06618325 0.111936525 0.03723267 -0.0521182 0.11422954 0.21791694 -0.034493107 0.08358169 0.112416506 0.070780315 0.100477725 0.040924426 -0.031531215 0.035523016 -0.07688334 0.3205332 0.063888416 0.0003361973 0.053925462 -0.014913303 -0.023118967 0.090514176 -0.019751398 0.2077034 -0.119937256 0.1093732 -0.013565082 0.0033322747 -0.030619955 0.09877436 0.037317116 0.13831942 0.0049632597 -0.20795222 -0.051892146 -0.015052022 0.058727045 -0.01452597 -0.003249297 0.17544933 0.08579849 -0.023209637 -0.13276872 -0.044538215 0.063834764 0.0818211 0.036019452 0.018492488 -0.0011881014 -0.18592507 -0.00268888 -0.02427493 -0.07161406 -0.015896771 0.25165454 -0.05345144 0.043731436 0.020480769 -0.10282851 -0.029160295 0.1538894 0.055670243 -0.17583893 -0.041052457 -0.010485569 -0.038635615 0.096107334 -0.009795194 -0.0038926364 0.08257587 0.07646585 -0.053278513 -0.030547941 0.1939978 -0.06926295 0.04012335 -0.08254157 0.066386506 0.10876451 0.075094454 0.039337568 0.023650052 -0.07228362 -0.11504757 0.04589069 0.17665114 -0.07103582 0.12311948 0.110608004 -0.04843383 -0.10737325 0.0332241 0.02580445 0.07001547 0.11447766 0.0157992 -0.19558828 -0.2941804 -0.22698067 -0.22094361 -0.052078694 0.15214537 -0.03825606 -0.010405814 0.04256651 -0.1557865 0.057281192 0.035754506 0.00032765314 0.012496277 0.059033327 0.17166339 -0.07947856 0.028466344 0.12127526 -0.15229739 0.15733905 -0.09331765 0.09547642 -0.04765817 -0.018738097 -0.046591885 0.06858886 -0.056468688 0.07609856 0.089574434 -0.28868204 -0.05794974 -0.124768116 -0.07256187 0.014346541 -0.0063324226 0.01744593 -0.03423481 0.004700564 -0.10764706 -0.15486372 0.20757915 -0.16460925 0.088052966 0.0833587 0.008027093 0.045769457 0.29361004 -0.09637137 -0.02329887 0.09477044 -0.07352249 -0.06940145 -0.16122891 0.13636668 0.020764349 -0.038414605 0.27729166 0.04813377 0.05632303 -0.009865571 0.031983607 0.18259452 -0.2509911 0.0031403713 0.049720902 -0.17952485 -0.021906197 0.21253467 0.18176715 0.03902169 0.0007232328 -0.07947078 0.099545725 0.17900632 0.097882055 -0.067448616 0.05084359 -0.09423193 -0.3655821 0.095963895 0.013420063 0.054782435 0.104056485 0.11946915 0.069670394 0.008532933 0.056033302 -0.07880091 -0.019450994 -0.04777296 -0.030436445 0.07317851 -0.023519907 0.00909594 -0.041750304 -0.0658652 -0.20805205 -0.029044786 -0.021167401 -0.16707121 -0.109405644 -0.0761037 4.713598e-05 0.048069775 -0.17148013 -0.04534559 -0.12858997 0.012651083 -0.09068011 0.08843361 -0.0002182829 -0.057106722 -0.051280096 -0.17987879 -0.12976497 -0.092827745 -0.06291028 0.044131998 -0.1366145 -0.041535255 -0.02094347 0.17530714 -0.045543995 -0.13047196 -0.024694107 -0.012047217 0.055043817 -0.103678174 -0.17100441 -0.07003393 0.117016025 -0.015267998 0.04485548 -0.0065670386 -0.06983186 -0.076230384 0.023223715 -0.121440865 -0.035276916 -0.119455665 0.019865027 -0.105962425 -0.0327436 -0.030707244 -0.10988524 -0.080049604 0.07414098 -0.10636716 -0.078388855 -0.13056682 -0.017878765 -0.13540389 0.06879223 -0.06901777 -0.041457828 0.031615213 -0.07966908 -0.009635218 -0.11858315 0.018469324 -0.073390625 0.04572459 0.010506429 -0.04714394 -0.013077803 -0.105694234 -0.058197077 -0.109231226 -0.10435277 -0.024679692 -0.043081336 -0.0014057263 -0.01743079 0.004334764 -0.0059774704 0.015388466 -0.10904117 -0.037324667 0.081669986 -0.030163383 5.7717616e-06 -0.04758943 0.062766165 -0.057293713 0.060207617 -0.10289473 -0.028977212 -0.003487739 -0.050959017 -0.0152183985 -0.072697714 -0.13106821 -0.06439063 -0.10954641 0.044933543 0.05241793 0.10571171 -0.060208052 -0.14509103 0.010176768 0.015129186 -0.05059269 -0.042118784 -0.0053351163 0.027599424 -0.16337955 0.12050837 -0.062257193 -0.023704402 -0.19869518 0.11751288 -0.08166507 0.057344835 -0.016788423 0.06513774 -0.005466795 0.06429189 0.010540301 -0.0036291366 -0.015442383 0.038778186 0.035435766 0.040171996 0.34153578 0.11942737 -0.0581059 -0.23511535 -0.35987025 0.065663256 -0.044627253 0.07797673 0.19472685 0.23062098 0.04761369 -0.07129798 0.013915957 0.06410769 0.1944992 -0.06501691 -0.12864015 -0.11935387 -0.12874559 -0.02383549 0.1721141 -0.093437865 -0.061451513 -0.057895914 0.005308288 0.12258682 -0.036861334 0.24303424 0.005713183 0.08500646 -0.001676293 0.06382751 -0.16168934 0.07240631 -0.09237602 -0.3166397 0.118143454 -0.031744413 -0.10341221 -0.15967695 -0.20725442 -0.002082813 -0.05565493 0.06040402 -0.012876761 0.1108457 0.003542675 0.11383248 -0.06845754 -0.11520331 -0.015929786 0.04659039 0.056765433 0.14040652 0.055934902 -0.12903962 -0.04251528 -0.027563827 -0.092596404 0.05068402 0.04719445 0.12644403 0.022285188 0.054283667 -0.1772986 -0.22829707 -4.0881718e-05 -0.1100786 0.021581538 -0.058240518 -0.033440836 0.037169985 0.03060696 -0.2133361 -0.1448012 0.022350881 -0.17384405 0.0627907 0.061172094 -0.02826945 -0.08084162 -0.07486892 0.06240771 -0.012601523 -0.07706414 0.13204166 -0.023238692 0.0055010584 -0.00041454352 -0.05999456 0.11761337 -0.02437336 -0.20887157 -0.09925809 0.023125261 -0.025661727 0.16480881 0.06905361 -0.17617656 0.02600622 0.21513058 -0.013924181 0.017594976 -0.123750955 -0.07629734 -0.010497695 0.330994 0.059329033 -0.07205813 0.09015095 -0.1658009 0.040200833 0.26409182 0.29189146 -0.004270668 0.0025397267 0.07977241 -0.33940396 0.069220774 -0.11001323 -0.04079485 0.055544134 0.085672334 0.18285683 -0.16776857 -0.076057196 0.047600944 -0.31814158 0.022363026 -0.19186902 0.0696713 -0.02171714 -0.19449389 0.036343206 0.077650405 -0.31304163 0.15986466 0.07277664 -0.14901948 -0.08012212 -0.2979656 0.24837258 0.10636558 0.014695489 -0.25738987 -0.04966232 -0.012493168 0.0067730867 -0.17921758 -0.046784703 0.042425722 -0.20572364 0.07453517 0.0049484842 0.25730002 0.09934977 -0.13580292 0.08163084 -0.20342168 -0.06125565 0.076015 0.10244664 -0.1449729 -0.07496146 0.10764649 0.008199577 -0.073982894 0.09149691 -0.123915076 0.19581106 0.016672976 -0.15211292 -0.033095416 0.08673081 0.010307842 0.08193414 0.028262582 -0.07153464 -0.22787878 0.098602295 0.041694246 0.09479847 -0.17426836 0.018385703 0.0115009565 0.08252741 0.05905071 -0.09900114 -0.05606918 -0.00086251117 0.0459265 -0.08904315 -0.018932587 0.16953512 -0.063776925 0.10147495 0.040325657 -0.2853516 0.12562372 0.23132353 0.08852887 -0.055534575 -0.01174493 -0.10271086 0.047315624 -0.34117973 0.10263945 0.032438166 0.0023222447 -0.024305105 0.12256353 -0.078675814 0.119313404 0.019866388 -0.06225569 0.007993354 0.03151762 0.03030216 -0.12283427 0.00583432 -0.0845911 0.029814785 -0.050765697 -0.040554974 -0.03562731 -0.04051313 -0.007974654 -0.118626274 -0.04450822 -0.073913254 -0.12312533 -0.053505875 -0.026579134 0.033510186 0.038836285 -0.080355905 -0.037745707 0.009945301 0.014857534 0.01796748 -0.07193084 -0.044352144 0.03641233 0.043388627 -0.017487898 -0.03904213 -0.101101965 0.020349044 0.048080813 -0.012852883 -0.11210526 0.004450935 0.014400985 0.056479055 -0.16877393 -0.13004217 -0.09515822 -0.09281571 -0.024720168 -0.07699617 -0.026041247 0.046954136 -0.028926179 -0.013294861 -0.092540376 -0.12718882 0.07787198 -0.019959299 -0.037940346 0.043664925 0.082156405 -0.07553545 -0.08085578 -0.057562344 0.035596266 -0.087416805 -0.12292114 0.0064638034 -0.081019424 0.02959631 -0.009342062 -0.0395508 -0.11836749 -0.03908289 -0.011640255 -0.08323285 0.05829687 0.04225499 0.006508216 -0.09714799 0.041444957 -0.056728996 0.0055692713 -0.016276134 -0.016643453 0.038291242 -0.017247563 -0.071445405 0.034081716 -0.073858105 -0.04535054 0.00046840459 -0.06264804 -0.09591215 -0.084181115 -0.05940694 -0.04691148 -0.042465854 -0.16149746 0.038926654 0.04424712 -0.10230126 0.04116033 0.038742077 -0.09151699 0.030891174 -0.102414615 -0.028329449 -0.038552504 -0.006579585 -0.060706817 -0.02414991 -0.111989446 -0.117185295 -0.055758063 -0.06581432 -0.03609066 0.07983081 0.008010166 0.033577118 -0.07961397 0.08485604 -0.08227521 0.017669357 0.021694748 -0.06057277 0.036693774 0.089934215 0.028567625 -0.052023973 -0.017714208 0.015196666 -0.10743001 0.032282017 -0.03992438 0.06486058 -0.1406869 -0.18602094 0.08496598 -0.040156618 0.08829305 0.051703706 -0.0031652758 -0.05690422 0.03240075 0.01997763 0.11232915 -0.049657803 0.0038164684 0.057835724 -0.26714724 0.13186352 -0.029879175 -0.16457939 -0.14759755 -0.10993012 -0.03417036 -0.087608755 -0.22572029 -0.19462033 -0.21046688 0.032950953 -0.2349726 -0.030587954 0.091216244 -0.013357517 -0.20667125 -0.13072556 -0.21087894 -0.3732678 0.23659182 0.0656384 0.0634949 -0.032437325 0.011556538 0.06875528 0.0019123405 -0.033796966 0.21341705 -0.08842375 -0.065338254 0.037398376 0.101152904 -0.008966587 -0.020906247 -0.053256378 0.027076164 -0.062123045 0.10789585 -0.28430557 -0.08043242 0.030885085 0.14133526 0.07316712 0.02287712 0.16026995 0.061480533 -0.11257259 0.020908415 -0.33792594 0.07905687 -0.047539957 0.032044947 -0.08079208 0.039103307 -0.22273797 0.09282805 0.20517103 -0.052404743 0.041567773 -0.016339354 -0.048999127 0.039858483 0.08700833 -0.022521567 -0.0611166 -0.04220493 -0.4035184 -0.024811432 0.032978192 0.04256744 0.13358146 -0.017538235 0.124742664 0.063981384 0.062002257 -0.033591013 -0.030247018 -0.15468302 -0.2777855 -0.036787763 0.018269517 -0.40228906 -0.43077692 -0.089309916 -0.04308432 -0.07578674 -0.008513413 0.11655268 0.023704411 0.14153995 0.06892938 0.020928437 -0.10149939 -0.12037953 -0.30244112 -0.072198085 -0.024394535 0.13211542 -0.0531639 0.059360247 -0.036876693 -0.3286426 0.07798737 -0.07297142 0.06779469 -0.12665634 -0.14284009 -0.03285505 0.035640962 -0.22302476 0.0865848 0.076196544 -0.12851468 -0.13893028 0.04831465 -0.46974543 0.1451521 -0.04969835 -0.0735748 -0.007170081 -0.12758902 0.035065737 -0.02721076 -0.20702033 0.05319177 0.06123709 0.11828334 -0.00880138 0.06914983 0.04471645 0.020565007 0.29814488 0.051852625 0.0647569 -0.101773 -0.14317717 0.028558755 -0.17982829 0.23393726 0.14494157 -0.12062829 -0.04319593 0.04655142 -0.2355911 0.07191237 0.042350415 0.007853532 0.18237524 0.09044194 0.055363398 0.0040638335 0.061401963 -0.025447344 -0.24178475 0.40951455 -0.14361908 -0.07936723 -0.27379572 -0.053120077 -0.1789548 0.06802278 -0.18738395 0.04452023 -0.26625457 -0.06597413 0.34888175 -0.027594265 0.19975877 -0.010015898 0.051877275 0.048190996 0.07609509 -0.112631485 -0.019177116 -0.14187673 0.016775804 -0.019491335 0.1519431 0.0737192 -0.013069445 -0.023134712 0.1296489 -0.058024757 0.13235901 -0.13469796 0.06518284 0.16386878 0.113505885 -0.01865269 0.11000367 -0.07286179 -0.07321516 -0.11187074 -0.24327093 -0.15178038 0.044967953 0.08314507 -0.12271952 0.050094057 -0.024277769 -0.0909824 -0.015416782 0.049939603 0.0089910785 -0.104200706 0.007772893 -0.006449505 -0.1352258 0.13658075 0.12224284 0.078060135 -0.15710431 0.29697925 0.21560195 -0.104401335 -0.1515267 0.04979942 0.1008224 -0.010691736 -0.1673756 -0.0739875 0.022394652 -0.17204395 0.044169813 0.025842853 -0.23276675 -0.035488456 0.031219348 0.05784911 -0.14119785 -0.041190173 0.0009758186 -0.060937185 0.041180238 -0.0545176 -0.05910198 -0.0785028 0.033847198 -0.31909966 0.07504244 0.045979958 -0.039371986 0.018112792 -0.025514454 -0.16206868 -0.034812607 0.04072971 0.014623268 -0.15136327 0.019447034 -0.084578186 -0.0733356 0.08290797 -0.21099612 0.08356992 -0.088244066 0.052062955 0.013448907 -0.09828651 -0.05339896 -0.12580208 -0.19790886 0.009786576 -0.07964937 0.003814349 0.010429673 0.03331415 -0.18088804 -0.03290858 -0.049201764 0.016575992 0.028981714 -0.111696415 0.024036016 -0.13251898 -0.118250795 0.021618526 -0.28709632 -0.13722675 0.09860321 -0.07046977 -0.026975004 0.024754323 -0.11928328 -0.0047252057 -0.019061636 -0.11753384 -0.08978296 0.012823297 -0.019611157 0.13937955 0.021538913 0.049663223 0.008037756 0.021425236 -0.21962176 -0.17037365 -0.100665115 -0.064165175 -0.034782585 -0.039622735 -0.22924668 0.25278324 -0.05909777 -0.16984883 0.005519077 -0.04283878 0.076117516 0.04147688 -0.057186246 -0.04745173 -0.08986867 -0.110467985 0.00041901114 -0.014015566 -0.110299535 0.10448197 0.09509774 -0.16369286 -0.07807189 -0.06859952 -0.2319404 0.02222307 0.121800676 -0.22779684 -0.14177057 -0.0685993 -0.019479617 0.016638858 -0.05793511 0.009855449 0.07625039 0.021949297 -0.06115006 0.058384255 0.10963637 0.07162388 -0.08031875 -0.059268385 -0.030138738 0.07395749 -0.03654704 0.09789049 0.05808362 -0.022783967 0.120347306 0.22159155 0.0030439429 -0.019562963 0.04057231 0.012895712 -0.11639276 -0.13828027 -0.010158649 -0.04478563 -0.3565905 -0.09986329 0.07190712 -0.10442825 0.11260959 0.0005903153 -0.00054144143 0.017234216 -0.11812987 -0.31071457 0.09053557 0.044153742 0.12844901 -0.1056029 0.037397005 -0.03340377 0.09103653 0.12487786 -0.09913264 -0.1258475 0.030564837 0.056844212 0.25573504 0.009925039 -0.0715654 -0.030915402 -0.18188633 -0.0069308137 0.015191838 0.12388667 -0.051894423 -0.031505067 0.063780226 0.04338104 0.0985681 0.14153588 0.07491365 -0.08098618 0.04350329 0.08406364 -0.32752314 0.007696844 -0.23642346 0.037297323 0.0019070109 -0.10315086 0.16124347 -0.050469708 -0.03827702 -0.071659714 -0.077653624 -0.03027436 0.11401302 0.21660215 -0.069907226 0.22258945 0.040133204 0.07312278 -0.13663721 0.036541022 -0.47293076 0.26627582 0.11409926 0.04566047 0.04687695 -0.03625663 -0.091394365 0.22923991 0.09066869 0.17095825 0.06900119 0.1556285 -0.07391409 0.10754259 0.14279442 -0.24193174 0.00012899838 0.004894094 -0.1513694 0.23223595 -0.2803172 0.084917516 0.022317298 -0.14810595 0.07097889 -0.08710885 -0.1571302 -0.086766 0.20560618 -0.3725472 0.25163734 -0.06984711 0.0034936683 -0.010849133 -0.07133184 -0.078943126 -0.038435604 0.08302896 -0.07264793 0.0812234 0.00059768 0.08313373 -0.06393414 0.10391131 0.24669139 -0.038668398 0.18939468 -0.0062091537 -0.061251383 -0.022543631 -0.19615023 0.017468289 0.038201142 0.05785516 -0.058720667 -0.053339016 0.29089814 0.11858465 0.0216793 -0.0060115033 0.26681784 0.090696774 -0.06836659 0.11563697 -0.011784635 0.011123502 -0.0066545103 0.011398385 0.3359798 0.0056098546 0.031071683 0.114723414 0.17304344 0.08154424 -0.27487302 0.104394786 -0.10431046 0.096210405 0.18314895 0.057961427 -0.14483692 -0.19428004 0.07798379 -0.16513371 -0.124668084 0.22050036 -0.11602981 0.04775522 0.17290604 0.08470525 0.040732067 -0.14486936 -0.10621398 0.018323705 0.004636441 0.14561933 0.008620761 -0.018934669 0.008357446 0.045505393 -0.002770117 0.11158753 0.027437096 0.23883763 -0.16689423 0.077754445 -0.15344009 0.10044973 0.110284366 -0.36278498 -0.17074326 -0.019427447 -0.023010315 -0.018048396 0.014046187 -0.13290302 -0.030845625 0.009610852 -0.01648993 -0.20759371 -0.00871872 0.040217616 -0.19024433 0.080418356 -0.051348418 0.17691024 -0.07089623 0.36565667 -0.10642466 -0.07662988 -0.11809235 -0.06914967 0.10532707 0.019338751 0.031033898 0.19416103 -0.021983223 0.0020517064 0.13351099 0.10057083 0.030031087 -0.105569154 0.12454763 -0.30020976 0.074183404 0.06404682 0.009469015 -0.15213053 -0.20559217 0.20452353 0.010411621 -0.08082089 0.15476702 0.020174062 0.18050103 0.019177783 -0.17945017 -0.24141504 0.044293474 -0.14350681 -0.07737174 0.0007677741 -0.090222016 0.08327498 0.027847549 0.07748751 -0.15976064 0.2009388 0.054953303 0.051318496 0.1786297 0.031761557 0.001515818 0.06907494 0.0144803785 -0.0037913865 -0.033353098 0.15630649 0.048357148 0.063083194 -0.0096137 0.19772917 -0.01196086 0.01487788 0.044150025 0.09064231 -0.009585656 0.120166376 0.16602239 0.12056628 -0.04480764 -0.04874986 0.10640063 0.09134189 -0.13776715 0.17075486 0.124588236 -0.046716347 0.10359599 0.2804145 -0.15541402 -0.19683439 -0.23957793 -0.045517076 0.053770658 0.32427302 -0.014941199 -0.014254642 -0.018037062 -0.036656868 -0.08045148 -0.045314487 0.195973 0.06319231 -0.089937985 0.152812 0.06484177 0.087892406 0.06196701 -0.021555541 0.071241446 -0.010110476 0.10833033 -0.13082303 0.012393501 -0.04578478 0.029163605 0.06453651 0.1923863 -0.13091719 -0.10742527 -0.099228494 0.0063697645 -0.015865443 0.03932885 -0.15685838 -0.05856267 -0.06290842 0.00875076 -0.10276337 0.046394546 0.23721004 -0.033418454 -0.060794104 0.06680403 -0.06467006 -0.015188783 0.2749303 0.19053154 -0.08076542 0.048916902 0.090292834 -0.1566539 -0.16031574 0.14362712 -0.055085167 -0.027754832 0.11353671 -0.07874483 -0.08205188 0.11371361 -0.03539193 0.03222814 -0.22179618 -0.04776564 -0.071002394 0.032896288 -0.020819066 0.22536878 0.2430952 0.06741049 -0.106878616 -0.07479972 0.05989624 0.1730777 0.039608046 -0.021985069 -0.07944788 -0.020906918 -0.15318325 -0.028323416 0.011946914 -0.05970213 0.07703855 0.14315787 0.03209324 -0.10370856 -0.14162776 -0.09733961 0.025619758 0.19233803 0.05681238 -0.053276397 0.023510883 0.038462527 -0.0075272373 0.08050266 0.006364471 -0.047565654 -0.018354569 -0.22015642 0.083105594 -0.06404939 0.13269901 -0.07522578 0.16791873 -0.03366527 0.19122075 -0.18965998 0.19427907 0.095176436 -0.0668591 0.2178474 0.07300358 0.056120798 0.19337392 0.32600677 0.0024057645 0.15964928 0.007933209 0.15077096 0.11896732 -0.11304232 -0.027389586 0.11841479 -0.19102025 0.15756238 -0.095786296 0.07485385 0.045511723 -0.03052144 -0.07758562 -0.0061291363 -0.030636642 0.022913748 0.105387256 -0.27619404 -0.06827121 0.018348943 -0.0789883 -0.1861591 0.06771695 -0.17680229 -0.35780284 0.15004355 -0.048520505 0.13836029 0.017879535 -0.044811446 -0.07300881 0.15373 -0.072050214 0.21574338 0.021585947 -0.04905801 -0.09908775 -0.03756358 0.08149892 0.0013741488 -0.011761358 -0.18262213 0.20600764 -0.025214894 -0.06364222 0.04443631 -0.16228482 0.14440408 -0.2855749 0.09005483 -0.040895727 -0.053478908 0.14766239 0.08865538 0.008699967 0.046388518 -0.17115891 -0.06729851 -0.1645272 -0.15761843 -0.1815367 -0.04920286 0.09299623 -0.0951328 0.21611212 -0.016013488 -0.046936687 0.09229668 0.20549078 0.11501482 -0.09355073 0.15235238 -0.025581617 0.08025507 -0.13295643 -0.07931077 0.04602508 0.00464793 0.029821392 -0.040030785 0.18637475 0.05269623 0.064414956 -0.10636335 0.07511795 -0.12935933 -0.08366917 0.098507255 0.2129185 0.019575281 0.018701052 -0.23473118 -0.19181374 -0.039902616 0.014107065 -0.052444797 0.020187803 0.24737008 0.11920813 -0.012985123 -0.051573988 0.11442035 -0.10954379 0.13695139 -0.08783301 0.15237918 0.04731431 -0.06852815 -0.23791951 0.15862796 0.0273594 0.0031484785 0.08877297 0.043855667 0.10274323 -0.13406561 0.0279212 -0.123259395 0.12078377 4.358042e-06 0.11120118 -0.16591312 0.024558082 0.11260631 -0.0758632 0.04992036 0.031723008 -0.18624523 -0.021778848 0.09881257 0.10094509 0.027460903 0.064872816 0.07257271 -0.029096505 -0.018778188 0.111495696 0.1798246 0.053358767 0.00650289 0.0056337877 0.01278936 0.053762298 0.049884155 0.13965727 -0.3010398 0.0059385514 -0.16037595 -0.05991742 -0.12645723 -0.107184276 -0.2226988 0.19746119 -0.103633106 -0.24124812 0.016009256 0.09626654 0.003725872 0.17122366 -0.007110333 0.0023777718 0.02114898 0.023091717 -0.013946514 0.011331189 0.03432145 0.13865153 -0.14298221 0.40243626 -0.35699043 0.15168445 0.04534797 -0.23045312 0.15708978 -0.005983631 -0.16601074 0.107112035 0.1056118 0.1430709 0.08345951 -0.018603673 -0.14383529 0.026668021 0.25658557 -0.17483017 0.0051221563 -0.06469872 -0.17299122 -0.074721076 -0.23745601 -0.0022952755 0.02147356 0.0026413845 0.16164464 0.013608031 0.012791963 0.035450898 -0.0010445954 -0.18168184 -0.009389015 0.009403636 0.14725375 -0.07364648 -0.06551373 0.10387255 0.33390605 0.08800023 0.081986114 0.031996664 -0.055651292 -0.04623232 0.25680065 -0.051611066 -0.06370098 0.0574788 -0.123812124 0.100765616 0.324096 0.022977315 -0.039630298 0.05006907 0.044126168 -0.20314917 -0.0008274202 -0.049358007 0.2565002 -0.14558366 0.043761205 -0.019595552 0.08023897 -0.03318182 -0.08148899 0.098074615 0.044539243 0.1160512 -0.19791177 -0.06321773 -0.38131952 0.10052629 0.089457504 0.26378644 -0.18011427 -0.3644451 -0.07587839 0.0017316509 0.10848691 -0.22391972 -0.02856966 0.044578835 0.2212827 -0.058020275 -0.016698616 -0.019126216 -0.20055023 0.019393682 0.0013794765 0.120649874 0.19431978 0.119751126 -0.18949062 0.21634828 0.13495952 0.051409833 0.018547738 0.14261477 -0.23640393 -0.08298117 -0.44101167 -0.03437608 0.14334385 -0.1778014 -0.18296945 -0.04168064 0.11969468 0.06496868 -0.048850454 -0.01295246 -0.07236534 0.15139349 -0.14105785 -0.10056426 0.017061075 -0.034229092 0.05984695 -0.023359165 0.043140925 0.105670296 -0.15718 0.1403909 -0.19480443 0.12782219 0.02598335 -0.3455405 -0.0076394477 -0.21803415 -0.13241787 0.056482878 0.022402054 -0.24282749 0.10513342 -0.4708772 0.060409192 0.025667578 -0.04716346 -0.10037444 -0.02760785 -0.09066363 -0.09589482 -0.15088739 -0.07146896 -0.01177849 -0.319078 -0.07510708 0.24733491 -0.049126074 0.2190945 0.07436873 -0.17628103 -0.38285196 0.08076692 -0.078334 0.0841429 0.06013373 -0.24977387 0.048106473 -0.07392195 0.0377292 -0.023158196 -0.018389594 0.063457385 -0.015148736 -0.0011588829 -0.027940048 0.029415319 0.05426742 -0.069264315 -0.0798916 -0.115456946 -0.011014077 0.095919676 -0.009788446 0.1444346 -0.34491196 0.010086607 -0.03931016 0.017418323 -0.16856097 -0.08507723 0.08735502 0.100256115 0.036059752 0.010105822 -0.038932096 -0.0378783 -0.0605581 -0.05717982 -0.09210015 -0.17669882 0.027785629 -0.25071543 -0.14096206 0.06139234 0.14307848 -0.013700248 0.45801753 -0.3465288 0.05783298 0.048688624 0.08438541 -0.062172573 -0.092016466 -0.04321163 -0.18238679 0.07186109 -0.086636506 -0.009496113 -0.055581626 -0.32757655 0.019179234 -0.10155857 -0.016467916 0.033561792 -0.06935198 -0.015063172 0.29923585 -0.018016586 0.03339118 0.1866434 0.0541711 0.04174446 -0.043417916 0.13567984 0.033144522 -0.18936348 0.17594895 0.0063643456 0.15787748 -0.016373374 -0.1546924 -0.070623584 0.042827167 -0.23247527 -0.2637719 -0.33803895 0.03339933 -0.063337006 0.22414103 -0.13870248 -0.0712287 0.09856997 0.21356662 0.15826261 -0.0037613313 0.004478894 0.15390824 -0.0676244 0.11563723 -0.048738997 0.4212178 0.100489415 0.2649279 -0.12935878 0.012929666 -0.100627705 -0.02698392 -0.011631936 -0.06548768 0.13423651 0.12978992 -0.1730228 -0.015018246 0.10720789 0.026853824 -0.18590604 -0.30718485 0.023349758 0.042433515 0.18521197 -0.065356515 -0.10376677 0.04883678 0.113547534 -0.034061085 0.219135 -0.012106225 -0.16615117 -0.01826964 0.22336476 -0.14269437 -0.05557417 -0.026536366 -0.21142398 0.1515509 -0.07795899 0.0475704 0.04948229 -0.05872352 0.136997 0.17478849 -0.03332184 -0.06188431 -0.12228748 -0.03228556 0.022871252 -0.06362571 0.2553471 0.11863965 0.02275249 0.24645092 0.1241937 -0.1124384 0.019505488 -0.02157777 0.0027456824 -0.1937779 0.11377954 -0.026695866 0.03401709 -0.018002287 -0.022141885 -0.017093394 0.09645749 0.2465263 0.10018794 -0.14633267 -0.17780784 -0.028193172 -0.08312195 -0.015744999 0.092647634 0.110852584 0.010523829 0.022985928 -0.112995446 -0.02523548 0.09960267 0.07320223 0.030125674 -0.14462207 0.20566703 -0.18308434 -0.27305496 0.036041886 -0.2933611 -0.14918403 0.08278693 -0.09346785 0.071451016 0.064186275 0.061872024 0.075399145 -0.14459708 -0.039043676 0.09475301 0.23439784 -0.013446805 0.08206099 0.10816281 -0.017712621 -0.18744889 -0.048079327 -0.39052337 0.074436136 -0.041577496 -0.05062846 0.032452438 0.20537728 -0.005774364 0.15726243 0.13453388 0.19926214 0.03092185 -0.022764286 0.020984171 0.07106586 -0.063449115 0.05797282 -0.07928686 0.09739986 -0.060775608 0.20723908 -0.16860913 0.16814995 0.13315195 -0.16921179 -0.07239103 -0.01798769 0.05296752 -0.12919863 -0.13275251 -0.46769828 0.19170947 0.022402216 0.1742584 0.029539054 -0.15467907 0.009036457 -0.12289771 -0.01765244 0.03388955 0.050042532 -0.008641283 -0.04092452 -0.014898577 0.013576867 0.29654363 -0.06674188 -0.0044068987 -0.18720277 0.08260005 0.027562609 -0.20990382 0.11575032 -0.025629703 -0.03207818 -0.07554347 0.009744454 0.08257108 -0.010208479 0.0762149 0.022948472 0.035357255 0.056827705 0.14667864 -0.05694362 0.0037372152 -0.09283768 0.045026466 0.08728051 0.081111304 0.13580148 -0.044245817 0.13065612 0.095327646 0.10376206 -0.0818057 -0.09693186 0.2960223 0.064606644 -0.01755636 -0.015757456 0.05232757 0.36292562 -0.07463218 0.3256763 0.054082736 -0.16667016 -0.05701295 -0.074611545 -0.037564207 0.061934244 -0.043833576 -0.06122816 -0.15889959 0.067434974 0.07931111 0.10415833 -0.111126654 -0.0919203 0.061886415 -0.19501941 -0.055201788 0.020691449 -0.111097164 0.114887185 0.08615167 -0.06675791 0.15808846 -0.022260986 0.017598726 -0.13186535 0.17158054 -0.091612205 -0.06555149 -0.112423986 -0.053973056 0.09169243 0.054722972 -0.0338889 -0.030938564 -0.15004608 -0.09788097 0.08330276 -0.02148237 0.010225406 -0.10982165 0.01587805 0.09691417 -0.11231255 0.19954121 -0.042064477 -0.04327437 0.21324457 -0.0006542037 0.10883748 -0.13190463 -0.03695887 0.036019158 0.028509507 -0.15068379 -0.016839456 0.0018693969 0.16234286 -0.11733847 0.06491489 -0.052852117 0.041424945 0.114562616 0.25357717 0.11396214 -0.043006625 0.043292858 0.067395985 -0.11107303 -0.03203623 0.028702429 -0.0339264 0.057950173 0.21216929 -0.1737978 0.14978065 0.18251666 -0.0643202 0.13697335 -0.059978347 -0.0733524 -0.09390757 -0.008704266 -0.0020821393 0.032603633 -0.060015406 0.4411143 -0.040072627 -0.037511412 0.04752262 0.12710771 0.014701226 0.015743207 0.029356016 0.036767926 -0.0598444 -0.028028324 0.008323734 0.003884215 -0.0740644 -0.24640867 -0.016654834 0.01676438 0.12052669 0.030679764 0.107742295 0.072416104 -0.04483566 0.050753508 -0.053966142 0.012049757 0.025890036 0.03759419 0.06932497 0.17765999 -0.05751285 0.11135781 -0.0057980795 -0.14862065 0.10251622 -0.028852904 0.20434752 0.1865711 -0.07939253 -0.15849535 -0.12780878 0.03265425 -0.09039533 0.14625344 -0.043343462 -0.037152644 -0.044890314 -0.02731049 -0.009164788 -0.061335575 -0.05451209 2.1292595e-05 0.026939081 -0.16227391 -0.032880295 -0.05167324 -0.011405211 0.19586533 0.06263164 -0.01659656 0.1252039 0.18621176 0.032664426 -0.014224611 -0.039972648 0.059346717 -0.020041706 0.046345968 -0.044549204 -0.09783962 0.013044042 0.18329932 -0.19785434 -0.0129755 -0.030360997 -0.0748765 0.054621357 -0.0014969371 -0.0018621777 0.039263047 0.0043216487 0.048625927 0.14034379 0.08426024 0.12888876 0.13462926 0.064740576 0.0006906149 0.24123748 -0.13926779 0.14379889 -0.0064233844 -0.18174969 -0.11474205 0.08879958 0.035572965 0.040580817 0.07005672 0.11906775 -0.11708398 -0.123668544 0.0228265 0.030265046 -0.31377605 -0.08209399 0.105977684 0.09429716 0.0570667 -0.015903698 0.09654384 0.07400661 0.04833486 0.0007888132 0.014593165 0.032150943 -0.32637507 -0.0007270923 0.040548235 -0.50338835 -0.035386983 0.053110108 0.042962685 -0.05041461 0.029307665 -0.03342315 -0.12530667 -0.010232098 -0.17993061 -0.21413752 0.0573448 -0.0020492407 -0.06418792 -0.26104587 0.0874381 -0.018714204 -0.07214473 0.026063409 0.03673787 -0.067221075 -0.14991644 0.014224303 0.13933171 0.091540396 0.13306026 0.0024430542 -0.06867355 -0.28050262 -0.029609676 -0.10189452 -0.17621422 -0.2069499 -0.07106342 0.243667 0.18662064 0.036238585 -0.1280233 -0.31205264 -0.30078405 -0.084926344 -0.04508752 -0.00061471824 0.03450265 0.15284285 -0.33883214 0.056576867 0.06259194 0.0010142935 -0.054896418 -0.012099139 0.03416812 0.23180762 0.106179036 -0.07559789 -0.028807942 0.3296606 0.08311756 0.06328651 0.23889509 0.03605886 -0.016198874 -0.104764655 0.11847841 0.18286228 -0.055285215 0.14839558 -0.028444186 -0.018499866 -0.015511696 0.044136964 -0.06803523 0.26941448 -0.0815582 -0.211777 0.10356268 0.012002524 -0.08877448 0.10245805 -0.33492056 0.0273212 -0.007212669 -0.21167313 -0.035513002 -0.0695504 0.1120594 0.2100009 0.09902673 -0.07146524 -0.0037976755 0.22294216 0.059075102 0.3676086 -0.15889148 0.1745666 0.084018566 0.02612763 -0.0020838594 0.052524883 0.13245168 0.043000273 0.17181362 -0.17263499 -0.106193766 0.0050594327 0.21400487 -0.3708135 -0.24611738 0.08416481 0.1793139 0.28735656 -0.03276861 0.043809738 0.1198556 -0.05908766 0.027491953 -0.014783869 0.1773285 -0.011318343 -0.060879253 0.046252873 0.027213246 -0.027104802 0.013403833 -0.062402613 -0.013454065 0.09089057 0.04929589 -0.054082267 -0.080909185 0.054836955 -0.052347533 -0.019957907 -0.026610162 -0.006697788 -0.12100882 0.03708667 -0.08213393 -0.014942053 -0.01863584 0.040221322 -0.016726857 -0.028922461 -0.0148274675 0.026004622 -0.07485085 0.04200607 -0.019486908 -0.09018787 -0.044735946 0.0014969693 -0.010249529 -0.05435355 -0.109642744 -0.055872783 -0.0051521026 0.02982814 -0.07857242 -0.06689697 0.03802433 0.059151694 0.055546876 -0.028954368 0.09100236 -0.05443101 0.027822245 0.08625327 0.008526519 -0.054817174 0.06568523 -0.0103776455 0.07871982 0.022622187 -0.118580416 -0.075656466 -0.06328985 0.03953182 -0.0059491885 0.0016273111 -0.0022396438 -0.012936778 -0.11721169 -0.033134762 -0.029667884 -0.040909 0.07925846 0.015351934 -6.146729e-06 -0.07593626 -0.052503575 -0.09330406 0.03206106 -0.022357788 0.010315215 -0.051697243 -0.08042147 0.05410008 -0.081871 -0.0026998415 -0.057171617 -0.015617779 -0.06863651 -0.07455712 -0.056847602 -0.04082975 -0.08065385 -0.0686823 -0.022698188 -0.04201979 0.030685887 -0.094644934 -0.10684662 -0.057550285 0.05224752 -0.045203816 -0.115053244 -0.064871445 0.049210325 -0.0850751 -0.018967777 -0.06150895 -0.08391115 0.050293013 -0.077465214 -0.08614585 -0.034133893 -0.048075937 -0.06883356 0.05108671 0.040911674 -0.032998372 -0.087211646 0.04111135 -0.0790895 0.004874781 -0.06771623 -0.07063406 -0.08235055 0.04336974 -0.12591025 -0.22660904 -0.055045366 0.044451922 0.03448601 -0.08008691 0.118992075 0.062300254 -0.042519625 -0.08433555 0.10375695 0.1447466 0.08256394 0.07565783 0.13073476 -0.2347211 0.062488012 -0.09219086 -0.16115068 -0.0442878 -0.021383507 0.0020454451 -0.27238625 0.1804085 -0.10252193 -0.18114546 0.11216289 0.032801647 -0.06385443 0.15285125 0.09444088 -0.060517654 -0.052849066 -0.048042387 0.07726884 0.064676344 0.2001524 0.049290124 0.05114073 -0.10187771 0.17477801 0.0065362696 -0.16051926 -0.12177743 0.046549797 -0.06935111 -0.22318783 -0.008881867 0.015761979 -0.2674975 0.07993608 -0.23990858 0.07855356 0.2548537 0.031711902 -0.08298367 -0.06546797 0.06671941 0.18677056 0.092342824 -0.11146259 0.069786206 -0.09550259 -0.13013104 0.17843378 0.043171074 0.049797893 0.09617414 -0.043392293 -0.031903382 0.001284564 0.1811227 0.07987953 0.079438806 0.21562356 -0.19540441 -0.077454746 0.005901584 0.029469585 -0.21530506 -0.08331002 -0.23059356 0.096650675 0.019844916 -0.026464913 -0.102055974 -0.037614536 0.19357716 -0.13366511 -0.13838969 0.049964875 -0.07763979 0.00058520323 -0.18071622 0.07614218 -0.046792094 0.22172654 0.13377754 0.003804379 0.02378638 0.10097373 0.15857054 -0.041088946 -0.11468857 -0.21119553 0.058397364 0.06356986 -0.18466824 0.018917017 -0.06243644 0.07392622 0.15241157 0.00034447323 0.109488346 -0.08610085 0.03761861 0.21457747 -0.022455474 -0.21642545 0.014759654 0.227291 0.29321 -0.06611745 -0.04626694 0.21663749 0.009515196 -0.04526679 -0.06786829 0.15516208 -0.032483894 -0.0011742443 0.16043097 0.0067559485 -0.010794013 0.21267103 0.1583862 -0.13560975 -0.015169903 -0.08603549 0.04861227 -0.07026168 0.31206352 0.35422525 -0.18188159 -0.03538255 0.06133564 -0.047092102 -0.029795868 -0.09430358 0.085487776 -0.010177752 0.011199538 0.0029122522 0.1948912 -0.042467646 -0.0044342433 -0.05525152 -0.014945885 -0.1259793 0.21905762 -0.08149862 -0.027618377 0.117108345 -0.001234532 0.07987239 -0.11733857 0.035096724 -0.03531311 -0.05504444 0.08887232 0.10448119 -0.09254207 0.3488578 0.24783885 -0.09032668 -0.030743755 0.03396516 -0.21102187 0.11978704 0.065329656 -0.011525238 -0.06883098 0.14486353 -0.09361328 -0.040362477 -0.12579733 0.0476621 0.034214187 0.040255856 0.20593686 0.042298287 -0.2183076 0.1538191 -0.21681295 -0.23615114 0.092450105 -0.043552417 0.054033708 0.04203858 -0.025271738 0.16306911 0.086483 0.08129134 0.23302163 0.08898725 0.032273613 -0.11085599 -0.08776909 -0.030085228 0.010752002 -0.043373078 0.17347205 0.05301151 0.071383 0.021364924 -0.10040925 -0.05039047 -0.5697169 -0.0029855345 -0.022100503 -0.40683684 -0.22755939 0.029815363 -0.07829611 0.11161472 0.035762727 0.019637775 0.07362622 -0.09304078 0.08782188 -0.12148767 -0.26861992 -0.036630765 -0.053625327 0.09568385 -0.0011162651 0.047293864 -0.056889653 0.089162074 -0.046519976 -0.091694236 0.09456258 -0.07589199 0.026447264 -0.1243159 -0.013211214 -0.08277409 0.08090278 -0.035244696 -0.027864188 -0.09230331 -0.2903089 0.0983304 0.014825924 -0.14866374 0.030040966 0.06159775 -0.07878344 -0.029448017 -0.06244678 -0.039000146 -0.18082486 -0.073203065 0.078626804 0.14215717 0.06781716 -0.046644192 0.09327534 0.42788145 -0.088673465 0.1367521 0.082984716 0.022135487 -0.20790814 0.16938028 0.03145499 0.4125988 0.22582856 0.3026887 -0.28367758 -0.022935404 0.066022225 -0.09939869 0.09504532 -0.04094369 0.0899821 0.030328834 -0.048183892 0.111255914 -0.026177054 -0.027176341 -0.008972255 -0.24602275 -0.10770197 0.03873096 -0.015470244 0.026917849 0.17397799 -0.010098408 0.04557722 0.12840547 -0.023845926 -0.095055826 0.14869446 0.07373593 -0.069155626 0.114035144 0.24204828 0.015682416 0.14985037 0.065569244 0.10813394 -0.1877626 0.18638581 -0.15064026 0.010373682 0.07288969 0.032073718 -0.11883074 0.099142544 0.12990361 0.08304995 -0.01299878 0.1443442 0.0851442 0.09629375 0.058899716 0.12611173 -0.09338594 -0.071604386 -0.08211545 -0.082202375 -0.10585832 0.030501911 0.0036730291 0.16790205 -0.12616661 -0.022812204 -0.038963616 0.0013565648 0.11855346 0.14791316 -0.085880816 -0.010936309 0.033517875 -0.057124868 -0.07270022 0.21630195 0.024116775 0.0269613 0.14164497 0.0125963725 0.16033985 0.22305529 -0.01425011 -0.01627669 -0.07859425 0.07464087 -0.03663935 -0.06217049 -0.0025485554 -0.10500397 0.067297354 0.025704022 -0.075891666 0.03469168 0.034912124 0.07731914 -0.07077763 -0.0145126805 -0.03794971 0.019032417 0.021319605 0.082375504 0.09235302 0.09652184 0.15248233 0.091472544 0.12576813 -0.2722372 -0.07078815 -0.0020336127 0.046947964 0.017653225 -0.025476934 0.04521939 -0.20086387 -0.00012758018 -0.2237834 -0.07837685 -0.17277856 -0.07308932 -0.113215245 -0.17783621 -0.023789288 -0.0781482 0.07548937 0.21895929 -0.20524885 -0.093552776 -0.034334842 -0.04843465 -0.07116296 -0.083601594 0.051976275 -0.044552866 -0.12987304 -0.014594266 -0.0047970586 -0.18051898 0.009915433 0.118163645 -0.14843844 -0.07249844 0.13106158 -0.064328544 0.21014293 0.18240221 -0.023167472 0.10053367 -0.0759623 0.039301403 0.100285456 -0.105721965 -0.17759028 0.119704865 0.043520823 -0.21339639 -0.02876206 0.24594916 0.052025214 -0.052891202 0.17347258 0.12758982 0.1653656 -0.07741943 0.10090251 -0.012626901 0.07904399 0.06777656 -0.09617167 0.38785243 -0.1609783 -0.17709805 -0.15572928 -0.100035734 0.09365121 0.14044997 0.040626828 0.14788733 -0.0034354946 0.15124948 0.079249896 0.20196642 0.0070012263 -0.051078115 -0.044434164 -0.009524777 0.101523235 0.04661022 0.017267656 -0.048832573 0.079258345 0.29375815 -0.11201488 -0.027848447 0.16379961 -0.11139217 0.09569585 -0.011855453 0.10583808 -0.06456365 0.0040441826 -0.035390925 0.0856098 0.032603268 0.301495 -0.08143799 -0.10098057 -0.05334721 -0.06962806 -0.10430435 -0.08213431 -0.049505357 0.16799511 0.0870059 0.052581277 0.093717486 0.067970596 0.064182155 0.14325786 0.14418963 -0.015744574 0.017157275 0.18592343 0.10646498 0.07950385 0.05487939 -0.071448594 -0.21714164 -0.045928724 0.14286074 0.030574892 0.072611965 0.1754345 -0.035290677 -0.100105725 0.052961774 -0.1592393 -0.1518157 -0.068902686 -0.20429493 0.12601571 -0.27398783 0.13509761 0.016673919 -0.07755468 0.059821364 -0.22303206 -0.08173273 0.15757422 0.08366474 -0.10274971 -0.1664427 0.04667938 0.002204345 -0.16253793 -0.059160575 0.035532266 0.020121396 -0.04797949 0.2110286 -0.14763854 0.1383041 0.18925074 0.050955508 0.10843002 0.2767001 0.0037371751 -0.0042556156 0.13371171 -0.029467456 0.15640953 0.18852423 -0.012183454 0.12480715 -0.0913623 0.016954593 0.09467019 0.14029007 0.060823075 0.15883017 0.16965973 0.2814982 0.24739757 -0.30564427 -0.030874683 0.028586648 0.035042454 0.22693467 -0.014452569 -0.23527987 -0.013867892 -0.06673456 -0.06730465 0.08723254 0.20006354 0.19871575 0.031170104 0.1509008 -0.043786682 0.13935404 0.22486123 0.09861132 0.13162258 -0.05790952 -0.041900717 0.23067743 -0.008674193 -0.09347463 0.06600109 0.015521013 0.08652356 0.05516769 -0.21422222 0.086090125 0.0025424268 -0.10762017 -0.088397086 -0.05442066 0.17092872 0.1889383 0.15691087 -0.011302562 0.04616592 -0.018147577 0.1836422 -0.05764252 -0.17643848 0.10031351 -0.21483344 -0.043405373 -0.09160241 -0.06796399 0.26824322 -0.07213366 0.014411769 0.011948932 0.046755202 -0.024939775 0.052431345 0.030709181 0.06393033 0.0428583 -0.14411426 0.16727223 0.24626508 0.08088684 -0.06801618 0.13367079 -0.07705431 -0.29134154 0.030406939 0.03966281 0.12537445 0.14631277 0.09105878 0.1317391 0.12062619 -0.08760742 -0.06861427 0.1397917 0.28591958 -0.20931786 0.21653798 -0.33922952 -0.03603792 0.11533579 0.1274392 -0.14497705 0.1841626 -0.04140458 0.19763003 -0.10290616 0.043214884 -0.11360992 0.34206924 -0.068645634 0.047276508 0.21335706 -0.2537665 0.119666204 -0.2888202 -0.37092996 0.008884573 -0.04409184 -0.071799755 -0.020547425 -0.12966447 0.098688915 0.034970056 -0.03201752 0.067332156 0.09061983 -0.06693522 0.1300428 0.101847626 -0.1551155 -0.06553687 -0.1338001 -0.051865995 0.083008155 -0.16013716 0.11134288 -0.04718218 0.099755846 0.12821731 0.08248291 -0.026431203 0.27989277 0.027358662 0.21532612 -0.11135064 -0.08662741 -0.056077827 0.084852464 0.044474725 0.14669822 -0.066068895 0.08528627 0.07255701 -0.012937303 -0.12902483 0.04184317 -0.10751315 0.01614082 -0.2196243 0.004669305 -0.050322216 0.0775313 -0.05915441 -0.06856589 -0.026092345 0.06897332 0.15238641 -0.040791072 0.04428824 -0.030856157 0.1278458 0.046992682 -0.03694883 -0.1771517 0.040405266 -0.1933884 0.096795164 -0.020605361 -0.10221948 0.08060536 0.13577548 0.043944374 0.20191295 -0.16051945 0.008662686 -0.072302386 -0.23709483 0.058751233 -0.13407348 0.013292018 -0.09893606 -0.034366637 0.106671154 0.23543908 0.071883135 -0.010941073 -0.14824548 -0.21533969 0.011999581 -0.17153564 0.101399206 0.060427982 -0.02763207 0.23486392 0.021924604 -0.21598013 0.064265124 -0.1628649 0.13543263 -0.13230266 0.019828323 -0.059767053 0.17215224 0.18889938 0.09966545 -0.16417581 -0.025777258 0.026620774 -0.02127612 0.03605533 -0.286753 0.13098185 -0.066863716 -0.062015798 0.007155715 0.17844552 0.051611807 0.10177159 -0.16977231 0.07474813 0.0063110995 0.09353801 -0.11081542 0.08618686 0.27392143 -0.039060608 -0.094468206 -0.020266416 -0.48364577 -0.23850523 -0.12352311 -0.06674544 -0.17663069 -0.010993182 0.034058228 -0.039890945 0.052443944 0.05463345 -0.058014136 0.3067858 -0.06833361 0.059899695 0.013710969 0.10432018 -0.121536784 -0.016456809 -0.11988083 0.08289737 0.0004111551 0.053854052 -0.035610713 0.13231406 -0.13690826 0.06682417 0.20249864 0.0081212595 0.12632951 0.06433068 -0.009078657 -0.13558646 -0.040345524 -0.0385348 -0.0029038808 0.18336071 -0.01253833 0.11197329 -0.004391582 0.08126046 0.17249899 0.0836536 -0.10760918 0.04111584 -0.033598375 -0.09600701 -0.14563212 -0.29205933 0.037014566 -0.061670855 -0.08887953 -0.029320754 -0.024859985 -0.032098006 -0.21000008 0.04751905 0.01793231 -0.0639149 -0.050883085 -0.0411306 -0.09525858 0.009336989 0.18563363 0.07944453 -0.06984613 -0.20192653 -0.007797214 -0.05770102 -0.31814474 0.05704798 -0.017333923 0.02295019 -0.026310084 -0.063013345 -0.04937975 0.08610552 -0.021636829 -0.019290349 -0.0312578 0.038979016 0.091473505 0.12228823 0.08757824 0.08357959 0.0652868 -0.039401125 -0.18347903 -0.101513006 0.10313216 0.13725248 -0.11703067 0.15124941 0.08022144 -0.015428325 0.022731924 0.113518134 -0.06935041 0.034404986 -0.033577815 -0.038204197 -0.0936397 0.10164293 0.08495681 -0.16442844 -0.017683284 -0.0662289 0.13619071 0.23103821 0.006474079 0.12235373 -0.0804264 0.06725089 0.03435833 -0.02371045 -0.010961193 -0.09948771 -0.05904108 -0.021529675 -0.103313774 -0.06456235 -0.052610505 -0.063462466 -0.013699245 -0.04989809 -0.20952858 -0.07136365 -0.09031937 -0.1287981 0.083779834 -0.111616604 0.21509035 0.026721045 -0.047096867 -0.03283214 -0.035189435 0.09901434 0.094265826 0.016754117 0.044827104 0.2013064 0.22392862 -0.046267778 0.014550978 0.14185286 -0.008421274 -0.3390916 0.19318748 -0.027364735 0.015087244 -0.020599991 -0.029890526 -0.087185465 0.077588394 -0.06933349 0.08417688 -0.06774307 0.13770264 -0.07555625 0.11440495 0.15229696 0.003365604 0.015988499 -0.038765173 0.01996407 0.1610076 -0.03908828 0.006288979 0.0775229 0.081987865 0.07112544 0.08123556 -0.087647416 0.16210607 -0.056788985 -0.18068117 -0.06514597 0.08889092 -0.06877162 0.008503126 0.020452473 0.06898094 -0.018762695 -0.13423239 0.0761 0.15610456 0.10121743 -0.020233138 0.0012099696 0.13234493 0.0049287574 0.020413093 -0.0511821 0.059182197 -0.059906553 0.03659748 -0.15046577 -0.063830964 -0.05131038 0.05141644 0.1416849 -0.073169634 -0.07276533 -0.055588167 0.15475655 0.04352305 -0.26411027 0.20539396 0.13900518 -0.041697968 -0.048301898 0.15933259 -0.18554448 -0.008904374 -0.01809561 0.0052782623 0.054890737 0.04439981 0.18496779 0.10193007 -0.08572775 0.10493222 -0.09326032 0.11487521 0.17128356 0.10525174 -0.0232224 -0.04940839 -0.119205914 0.06310424 0.10097318 0.2622071 -0.061228268 -0.015689466 0.061986595 0.22624671 -0.08131241 0.058645673 0.004199434 0.057176463 0.06676014 0.18864898 -0.20754962 0.022283949 0.014121026 0.23440495 -0.038158156 -0.095835306 0.20290887 -0.044719018 -0.00987135 -0.19015135 -0.07683074 -0.04233101 0.09222684 0.053925067 -0.11978881 -0.044867408 0.10044659 -0.23910378 0.14602457 -0.11967623 0.019244408 0.04970431 -0.06920751 0.16249919 0.340803 -0.1429867 0.18648629 0.009068515 -0.1137156 -0.025568264 0.17227745 0.08488945 0.12394142 -0.03231895 0.071566254 -0.07445786 -0.020759463 -0.110567786 -0.14028691 0.04367913 -0.045011412 0.045392767 0.05851859 -0.1950465 -0.040846087 -0.029528653 -0.11602999 0.10509243 -0.09284241 -0.074796535 0.17205073 -0.10137002 -0.07287325 0.11833828 0.18722853 -0.15715559 0.030359352 0.08380604 -0.015770704 -0.15221757 0.052615352 0.23436342 -0.026319755 -0.2666989 -0.024476215 0.0040152073 0.08982034 -0.1159784 -0.15502016 0.029229583 -0.023309037 -0.067250445 -0.05884139 0.14300114 -0.30486727 -0.08374815 0.081508644 0.09329248 -0.049267564 0.056414306 0.004382706 0.12021902 -0.0981005 -0.03596811 -0.26918134 0.04400024 0.058631577 0.0007364894 -0.030231318 0.02246461 0.03609406 0.45850852 -0.03475655 -0.101558626 -0.010865631 0.22211595 -0.18723802 0.17975172 -0.22580405 0.2370442 -0.0022653157 0.10332583 0.12372868 0.17103136 -0.076498486 0.102226436 -0.10878463 0.047418658 0.09123661 0.24621795 0.06299354 0.032213174 0.053812273 -0.41137794 0.037154663 -0.3803872 -0.1604125 0.0944101 0.060506746 -0.1675261 0.22200136 -0.45887542 0.08902221 -0.009435569 -0.038696513 -0.084093004 0.029098019 0.3358051 0.078155175 0.051888954 0.07311527 -0.06067686 0.0048898403 0.03099171 -0.08821643 -0.38325232 0.15215772 0.26774085 -0.20410733 -0.037051387 0.07199357 0.01573942 0.12309134 0.07477257 0.17459296 -0.09207553 0.071958214 0.024697278 0.020629816 0.062917724 0.032049555 0.08963069 0.0044000857 -0.086283594 -0.14318824 -0.171572 -0.039372966 -0.023993379 -0.16232489 -0.3662609 -0.155717 -0.027530849 -0.03632742 0.010934068 0.017037667 -0.37280226 -0.108471446 0.31859323 -0.045598887 -0.2524088 0.10207085 -0.031649012 -0.06266451 -0.022072103 -0.1691012 0.00941038 -0.09084988 0.060948145 -0.042757 -0.011320104 0.034808893 -0.4170779 0.05378817 -0.22840124 0.20495614 -0.057920568 0.034327045 -0.29291448 -0.10243366 -0.068613954 -0.04068315 -0.09045564 -0.0019049966 -0.011294836 -0.08857223 0.059675604 -0.011707187 0.11959047 0.15735185 0.02932455 -0.1154575 -0.10483853 -0.11502819 -0.07490135 -0.37686366 0.26320893 0.09828631 0.07221285 0.10963623 -0.003938071 0.04068359 -0.2710073 0.16271013 0.20740664 0.19811544 -0.06829034 0.24311495 -0.09832959 -0.4392803 -0.10007689 0.18235001 0.1547118 0.046791058 -0.13883057 -0.0777832 -0.06529412 0.0997215 -0.031241031 0.10817911 0.22481354 -0.027135232 0.04321895 0.046248104 0.17902456 0.111264184 -0.0030175182 -0.0037627628 0.049111895 0.03415747 0.09647453 0.08779176 -0.32864287 -0.008164301 0.011957069 0.03181323 0.0075842296 -3.0168187e-05 0.10908826 0.03595862 -0.10390508 -0.23428416 -0.0963008 -0.098687835 0.031470586 -0.008714377 0.04461196 -0.20933288 0.24222147 0.15096033 0.11038144 -0.07047701 0.012089946 -0.15573053 0.08292575 0.35787514 -0.048667546 0.035259433 0.009458337 0.066012576 0.05340237 -0.02246864 0.020838102 0.19453587 -0.0348883 0.17789844 0.15667534 -0.1300612 0.04456305 -0.16879937 -0.05779758 -0.12836935 0.014112841 -0.038419206 0.0043167323 0.16294523 -0.15413147 0.28724483 0.03943708 0.09749619 -0.03573722 0.16758932 0.15968214 -0.0053662024 0.10603821 0.055953834 0.00025638618 -0.14989632 0.036414206 -0.021123756 0.29395866 -0.058441173 0.052435677 0.017676998 0.011276521 -0.10554076 0.08844869 0.040694244 -0.031182867 0.0009817176 -0.00639666 -0.018909752 -0.10820554 -0.045210585 -0.09056003 -0.023213435 -0.0052883495 0.062104516 -0.049838167 0.005570016 -0.09427502 -0.026331516 -0.11396061 0.013811505 -0.032035485 -0.0853777 -0.04364671 -0.0071387636 -0.022692217 -0.0025797088 -0.07168119 0.008184007 -0.0875133 -0.08271339 -0.06555808 -0.04661876 -0.022299603 -0.018324757 -0.06508013 -0.08315622 -0.036406916 -0.009675968 -0.07910941 -0.028504092 -0.063788675 -0.030693932 0.04313038 0.013729866 0.051020607 -0.0437469 -0.010281667 -0.0691787 -0.00304275 -0.098295934 -0.0442511 0.05321255 -0.010033901 -0.064500846 -0.051044106 0.025343351 0.00681891 -0.008994271 -0.103156835 0.037929676 -0.037373886 -0.012597166 -0.06357763 -0.04817582 0.013320635 -0.07430956 -0.116557516 0.045530554 -0.010361471 -0.09278768 0.06305911 -0.089920595 0.0334234 0.011569039 -0.0686634 -0.07971544 -0.011938514 0.047057018 0.013096854 -0.0823831 0.055452164 -0.051190976 -0.021323204 -0.011779329 -0.006635706 -0.015665013 -0.104896076 0.052393533 -0.049539458 0.027939877 0.035926327 -0.004850386 -0.017030396 0.03662916 -0.00040815596 -0.0739069 0.03770778 -0.0116785895 0.08146119 -0.0033494057 -0.0008727645 -0.07635296 -0.11481925 -0.046335395 0.050333306 -0.07578991 0.068742536 -0.026280144 -0.1078828 -0.032772545 -0.05407297 -0.012383763 -0.07930076 -0.043950383 -0.091999464 -0.025679335 -0.06563384 -0.05006625 -0.018222049 -0.022440873 0.106874906 0.06018869 -0.017924076 0.042934302 -0.2162106 0.053688437 0.04021783 -0.0960752 -0.043843806 -0.015445537 -0.20130485 -0.3351062 0.09630361 0.056768678 0.06929851 0.18833503 -0.099722326 -0.06628978 -0.050736237 0.027053028 0.025942963 -0.30415833 -0.06292189 0.10559093 0.05793641 0.1713997 0.23013754 -0.1137267 -0.13441832 -0.1907118 0.08583445 -0.044155397 -0.050085537 -0.042545497 -0.28153154 0.09260447 -0.09332667 -0.1721261 0.12918156 0.10399299 -0.19307168 0.0028284062 0.051259488 -0.067231 0.06329307 0.057450958 -0.06599521 0.01814717 -0.032179635 0.068698175 0.30226415 -0.09897484 -0.030374441 0.1148724 0.056921117 0.04689996 -0.002236498 -0.077805616 0.12057183 -0.0023387715 0.10625221 0.08900752 0.0008265945 0.22167291 0.2061424 -0.17201172 -0.0027746109 -0.041815776 -0.103159085 0.17507991 0.055915333 0.1096878 0.24447933 -0.08186389 -0.17928831 -0.090453245 -0.03081564 0.04242542 0.005003411 -0.16594896 0.12360468 -0.1262927 -0.10604496 -0.052015096 0.021611502 -0.1818745 0.021561943 0.107675985 0.026343409 -0.15033561 0.008209064 -0.04090222 0.16385646 0.07630671 0.0153289335 -0.060030937 -0.012522309 0.048903983 -0.039544675 0.013508378 0.03397109 -0.00484968 0.23178548 -0.2156974 -0.029457532 0.09218866 -0.118311 0.19271806 -0.2014974 -0.0062675336 0.06840727 0.274359 -0.06634166 0.10370726 0.13106132 -0.019921526 0.18710679 0.0031173918 0.19200584 -0.04836871 0.041185707 -0.117284134 0.024201512 -0.078555174 -0.03383339 -0.020031095 -0.051332243 -0.07499582 -0.1711541 0.057255298 -0.098735 -0.036721934 0.030208573 0.005157247 -0.1142213 -0.056193557 -0.083576374 -0.04819924 -0.117449656 -0.026940629 0.07819776 -0.04374019 -0.051395927 -0.09341587 -0.08868733 -0.06987325 0.06489056 -0.05035275 0.016896468 -0.06227518 0.053772576 0.049622957 -0.070966214 -0.057865098 -0.014680877 -0.04321928 0.0008660714 -0.087824926 -0.02584367 0.049803987 -0.070869885 0.08702855 -0.078259684 -0.15131527 -0.0074071437 -0.096844934 -0.050198164 -0.0359627 0.054219887 0.045493674 0.014495643 -0.058784302 -0.056451254 0.013422821 -0.11863219 0.02026359 -0.093457386 0.056477826 -0.03495235 0.0642371 -0.119571865 0.009557313 -0.017458282 -0.08165318 -0.055986613 0.114435144 -0.06526631 -0.032676335 -0.044378266 -0.05425575 0.005684234 -0.042640027 -0.028131317 0.05382422 0.026318239 -0.096122585 0.028170059 -0.087395534 -0.021510743 0.12977527 -0.1233635 -0.08895337 0.06322603 0.03500629 0.027822621 -0.16756465 -0.1470057 -0.08510727 -0.039917737 -0.16343515 0.04459782 -0.004360168 -0.041446596 0.009709654 -0.137778 0.050892346 -0.024267895 -0.049803574 -0.028841637 -0.05880789 -0.14127561 0.040454425 -0.12704909 -0.040811934 0.00967279 0.055579796 -0.10199547 0.012185768 -0.07274111 -0.043180693 0.011695153 0.022930568 -0.09084056 -0.10258923 -0.10434233 0.067463115 0.03244252 -0.045806073 0.08474782 -0.030400336 -0.01792891 -0.03211075 -0.008867972 -0.07131029 -0.15918441 -0.12152385 0.078782395 -0.0021726415 -0.12056653 -0.051717345 -0.12632765 -0.062151868 0.051262468 0.0056395754 0.04424707 0.22022448 -0.016459445 0.037127975 0.062018555 0.012053715 -0.033906378 -0.02292131 -0.1658054 0.017857194 -0.13625778 -0.026334368 -0.051885758 -0.20389389 -0.01786007 -0.12718828 -0.11150483 -0.1070994 -0.19861561 -0.039996527 0.031330902 0.078933164 -0.16822857 -0.02788819 -0.14101557 -0.09877887 0.0029733095 0.012350008 -0.034099683 -0.094546355 -0.019393235 -0.060561415 -0.016095405 -0.07132482 0.068138376 0.054741055 -0.10974424 -0.14330123 0.044378202 -0.104736075 -0.035419546 0.006624177 -0.13196616 -0.11070047 0.0099331215 0.08600877 -0.04508574 0.055098057 -0.12999524 0.004416865 -0.09568808 0.0027910185 -0.09231777 -0.014907656 -0.07404375 -0.13564518 0.0007583499 -0.10019149 0.016561843 -0.1030624 -0.10412306 0.038206268 -0.05946109 -0.07768322 0.02701936 -0.114149 0.0017625707 -0.075372204 0.08702309 -0.19428828 0.05645661 0.012288679 -0.06383791 -0.0048933206 -0.16861917 -0.18256937 0.07734525 0.020962434 -0.18281294 -0.0008878184 0.0032545347 0.0376463 -0.03235398 0.040082242 -0.013164237 0.0022896975 -0.0071946126 -0.1409726 -0.06739249 -0.10110297 0.023273392 -0.0076215044 -0.0910583 -0.14037153 -0.063929096 0.06932731 0.029671881 -0.15096344 -0.0430599 0.0036387509 -0.14847267 0.06994495 0.094935626 -0.03628388 -0.095446326 0.055675596 -0.03278042 0.029476058 -0.03396694 0.008862821 -0.35057503 -0.16269056 0.01997047 0.04754004 -0.09390288 0.042694047 0.28964108 0.19767739 0.10563575 0.048437446 0.2711196 -0.14199148 -0.011062737 -0.011764219 -0.3681405 0.14587037 -0.0034349908 0.29362488 0.11307657 0.0044005387 -0.0016246621 -0.3088888 0.06951221 -0.2344783 -0.047361046 0.14453313 0.108189225 0.25854275 -0.034968562 0.041010033 0.08315194 0.101760454 0.03805166 -0.009802279 0.02459653 0.11188451 -0.035864618 -0.0013042999 -0.103907205 0.086585656 0.081353895 -0.06995344 -0.2314622 -0.03857172 0.020137785 -0.20254886 0.10315257 -0.0028956006 0.36830908 0.1634906 -0.060524795 -0.0054531917 -0.02010177 0.037241805 0.10535674 -0.040039793 0.019660404 0.07652082 0.008386915 -0.23526505 0.12268623 0.09105456 -0.15397897 0.14153592 -0.017093208 -0.4197249 -0.085378066 0.018841539 0.121677995 -0.12046001 0.11419409 0.04529783 -0.2721936 0.029710801 0.08513475 -0.06899876 0.12304809 0.047712877 0.21370377 0.12375561 0.038895357 -0.09798012 -0.09314299 -0.014828958 0.053283595 0.09397623 -0.067032546 0.07987518 0.17629813 0.026273672 0.04294996 -0.31088892 0.11271037 0.12371808 -0.050632797 0.029961478 -0.018154925 0.0060060252 -0.23850057 -0.12886082 -0.04333989 -0.03918586 -0.034610227 -0.09179139 0.36675227 -0.045218684 -0.016483346 0.069281496 -0.122915484 -0.1412268 -0.07474048 0.04639341 0.14231804 -0.023113148 0.029147072 0.06430264 -0.0036382175 -0.034775406 -0.038111906 -0.055388197 0.038492665 -0.061297316 -0.012940336 -0.038452033 -0.10714109 0.021297276 -0.06603475 -0.021687074 -0.0387487 0.09018342 -0.0364389 -0.048182867 -0.0853426 -0.06872091 -0.058816608 -0.0808954 -0.05426322 0.008218909 0.03926338 -0.10000608 0.020543333 -0.088915035 -0.004526798 -0.05059724 0.0030414215 -0.06382772 -0.06756116 -0.05399779 -0.027799303 0.021935333 -0.009905393 -0.028978407 -0.074372694 0.06452185 -0.012676154 0.029755112 0.061062198 0.05249417 0.005149933 0.01681748 0.01331906 -0.029349266 -0.006925566 0.070638396 0.079528056 0.04454132 0.029352404 -0.0008275337 0.059620947 0.070562854 -0.02287229 -0.037067167 -0.10586166 -0.05734123 -0.0153711755 -0.0023580045 -0.10260314 -0.043583658 -0.04778978 -0.049847055 -0.018862868 -0.009368692 -0.11965181 0.03142116 -0.05478159 0.020891435 -0.027180985 -0.020389855 0.0028149015 -0.069401026 -0.060541775 -0.023524294 0.05580098 -0.048447993 -0.018277362 0.035486773 -0.032626297 0.0066834115 -0.061398435 -0.021090366 0.073956 0.048027787 -0.07574851 -0.0881041 -0.0014929401 0.04178047 0.031853363 -0.037007626 -0.031747524 -0.07606387 -0.020953368 -0.060994975 -0.040008444 0.03161743 0.060216054 -0.08131983 -0.05242355 -0.07333209 -0.106223024 -0.021812199 -0.099226005 0.018829733 -0.06461392 0.028743241 -0.054294225 -0.031228792 -0.007918243 -0.06960606 0.039355926 0.0047030593 0.06938258 0.07660149 -0.0935595 -0.028078988 -0.0563171 -0.027570032 0.12703559 -0.08669257 0.041237697 0.052779324 -0.27125788 -0.0646748 -0.039994545 0.047547966 -0.0072297547 -0.05213798 0.07924366 -0.08838487 -0.042977434 -0.05156025 0.046321593 0.06080328 0.0006483005 0.117428504 0.25017437 0.09059541 -0.049701035 -0.16861996 -0.22752981 0.008803541 0.11133513 0.09538225 0.0074256104 -0.054576848 -0.06258746 -0.1156611 -0.11144849 -0.11996958 0.06896881 -0.21068162 -0.1341413 0.13107517 -0.12955026 -0.10377982 0.2189908 -0.2548637 -0.19033003 0.07021088 0.036810488 0.14271727 0.055646937 0.30152905 -0.15035596 0.048546914 0.04212624 0.07258403 0.101929955 -0.017277196 9.139741e-05 -0.11215439 0.043212205 0.07453861 -0.05306014 -0.025754461 0.099934995 0.026724746 -0.00050661404 0.05185776 -0.014288529 -0.02507286 0.055072136 0.08990645 -0.037825957 -0.18208672 -0.049894642 -0.02464487 0.03989802 0.16202751 0.21199231 -0.08687085 0.07899632 0.035094667 0.045106206 -0.023417508 0.039013498 0.12264391 0.034524005 -0.11008863 -0.15736811 0.07078745 -0.022604264 -0.33428437 0.008161446 0.031636085 0.09216602 -0.075693235 -0.036162063 -0.04011302 0.15183264 -0.096865475 -0.09765809 0.14363411 0.071925156 -0.0996063 0.029804349 -0.010057497 0.06943339 0.015261503 0.023106953 -0.044383094 -0.11378824 0.11709158 0.07701575 0.14999428 0.027370024 0.037957318 0.0011829457 0.13700512 -0.06993624 0.12510897 0.09892986 -0.063196346 -0.07168052 0.060656536 -0.07498754 -0.011060317 0.1414386 0.016490258 -0.043259025 -0.08826448 0.35979143 -0.1209863 -0.016570844 -0.04488923 0.023930319 -0.10719301 0.025852786 0.16776481 0.12402134 0.010077696 0.2977098 0.06498277 0.060389724 -0.0033993223 -0.2754992 0.17196271 0.105175346 0.0094487155 0.25625446 0.01168161 0.07481354 -0.26006913 0.066973455 0.046538815 -0.14050588 0.13018519 -0.12270564 0.039941274 0.1925575 0.017506614 0.15382725 0.12417081 0.04095881 0.061097845 -0.027388174 0.15747122 0.23933162 -0.005107574 -0.2111574 -0.28274408 0.005849738 -0.21558714 -0.08810143 0.08059837 0.026002325 -0.18372202 -0.05333728 -0.018533934 0.04069923 0.14159963 0.1132652 -0.080810204 0.1853966 0.20613909 0.089756355 0.039853085 0.22715396 -0.048725218 0.14746714 0.2216205 -0.029937234 0.056769654 -0.31174824 0.09123628 0.008190722 -0.13196392 0.0076757865 -0.2066808 0.12798911 0.16021249 -0.049195662 -0.0467179 -0.2648663 0.12842095 0.035039663 -0.109584406 0.16917181 -0.061807577 0.0073193777 -0.086062275 -0.0132198725 -0.10087809 -0.037948806 0.14208344 0.22958879 0.0041432874 -0.01215367 0.22072399 0.031207833 0.066621676 -0.06513886 -0.20679383 -0.06872055 -0.07112094 0.02551751 -0.02354221 0.051781178 0.046008285 0.016699387 0.027002426 -0.07905871 -0.060254764 -0.003735191 0.07461567 0.013790524 0.09231422 0.18599497 -0.10843234 -0.13681324 -0.031469297 0.15122852 -0.015449516 0.118891336 0.057274736 -0.1284256 0.01718899 -0.21781535 0.084095314 -0.010197465 -0.08090404 -0.28605074 0.0017651352 0.056489453 0.026909595 -0.11039419 0.009978205 0.028227873 -0.0041807354 0.081963204 0.035539955 0.16628812 -0.28124705 0.045542266 -0.18268536 -0.1323252 -0.13630785 -0.059965096 0.11186809 0.1618043 0.20235991 0.03857058 -0.15020987 0.10472643 0.11765677 0.06253209 0.06051393 0.11598051 0.11481548 -0.00947941 -0.13063614 0.15422666 -0.096856214 0.21218115 -0.0101331 0.20717542 0.13474922 0.11372809 0.07732 -0.19570829 -0.2639781 -0.013565873 -0.35683447 -0.113771014 -0.05616328 -0.005025931 -0.27418658 -0.08882901 0.0064070397 -0.118553855 0.32016942 0.07035243 -0.06854255 -0.14566258 0.21289797 -0.0055264113 0.08431436 -0.19559377 0.0031407631 -0.13385597 0.09840463 0.25459045 0.19652301 -0.12822694 0.2549486 -0.08876424 -0.13339484 -0.05851444 0.014643692 -0.046867788 -0.023238312 0.028210638 -0.13512473 -0.09412517 0.02135449 0.023302777 0.015789038 0.098844424 0.024050906 0.17511621 0.16856132 0.012510572 0.030182077 0.08069349 0.113295734 0.050160345 0.11346656 0.07939664 0.0161774 0.0059993467 -0.16665696 0.11101502 0.0968065 0.09061519 0.090073735 0.086584836 0.07222273 0.12947682 0.12676646 -0.28581116 -0.03832249 -0.050488163 -0.09072134 -0.31028962 -0.053360473 -0.12303429 0.019763015 0.09094651 0.16183197 -0.007033209 0.07878272 -0.1110569 0.028634304 0.06438135 -0.021849057 -0.14779752 -0.024910284 0.25226176 0.22643125 -0.058818176 0.030700266 -0.044209395 0.058388926 -0.019844282 -0.0010194349 -0.15269499 0.018959695 0.13010918 -0.115970045 0.09013389 0.06252837 0.15858997 -0.12460539 0.10623054 -0.189229 -0.016244888 0.041850068 -0.040898353 0.11379375 0.18027836 -0.23321219 0.013183212 0.022779062 -0.019536754 -0.06284913 -0.0011694147 0.07183085 0.03369047 0.11691433 -0.27722937 0.38469887 0.20316842 0.21246487 0.31781608 0.30556494 0.0034967312 -0.019626824 -0.113176994 -0.07392063 0.19923736 0.031127242 -0.044527926 0.02456592 0.16029136 0.002398169 -0.026294561 0.06584761 0.16467966 -0.2697828 0.10718557 0.12332821 -0.116575666 -0.019090412 -0.112087294 0.064673714 -0.1174354 0.05246232 0.021004628 0.0020990747 -0.05816111 -0.028295536 -0.051317316 -0.014356968 0.030331096 0.2067913 -0.025063366 0.12843849 -0.01707158 -0.14350559 -0.105308786 0.041795712 -0.23299082 -0.095069535 0.039202493 0.044831604 -0.010793107 -0.17707944 0.040822513 0.057395045 0.10745553 0.19751872 0.010830221 0.17915313 -0.019487381 0.14448555 -0.046260055 0.029833756 -0.02737792 0.07608446 -0.123543166 0.23850362 -0.14418271 -0.003226057 -0.052337334 -0.24224454 0.0018504586 0.06953622 -0.016728636 -0.06338817 -0.07575185 -0.22529617 0.21739298 -0.0009685759 0.0749055 0.0840244 -0.03048241 -0.040959988 0.08852102 -0.15385155 0.11023902 0.101127274 0.08993849 0.06737081 -0.06848452 0.03234721 0.19521348 -0.06775768 -0.15440044 -0.1129342 -0.0030471787 -0.05043244 -0.069672026 0.022087405 -0.075597055 0.027507104 0.100697525 0.061141793 -0.12496027 0.18584403 0.036056288 -0.05076293 -0.08582452 0.23075221 -0.014410922 0.053283274 0.21587701 -0.05833053 -0.04955043 0.05482347 -0.062584616 -0.11167599 0.06500727 0.14604522 0.029862914 0.05054942 0.102677494 0.1508961 0.085746475 0.014378148 -0.012647838 0.076418795 -0.055759642 -0.14930709 -0.21927415 -0.0066013127 0.011361666 0.07972998 -0.09227117 0.05754979 0.021550467 0.10152065 -0.05011928 -0.06104436 0.12866656 0.028028373 -0.09104493 -0.04667204 -0.17418431 0.0100630745 0.10232459 -0.09269858 -0.036752723 -0.022400456 0.09172646 -0.30780852 0.060351416 0.03552468 -0.104652286 0.039237563 -0.06929231 -0.13733403 0.03370074 -0.12063906 0.163025 -0.036432162 -0.0031890885 0.15936173 0.046342038 0.01566021 0.0257619 -0.23208523 0.03968016 0.312108 0.027593954 -0.046810187 0.014469003 0.15385482 -0.023459883 0.13861126 0.12449019 -0.025285646 0.007929747 0.035629142 -0.029525748 -0.18286037 0.00754817 0.01446317 -0.050024163 -0.123805195 -0.07581661 -0.010720816 0.07018707 0.11746699 -0.06047366 -0.17219727 -0.04064986 0.009562729 -0.070842125 -0.084408425 0.15244775 0.1706967 0.15921645 0.020215945 0.07358349 -0.04651337 0.14184608 -0.081364535 -0.13713628 -0.18268406 0.1385184 -0.056859985 0.062075917 0.012813126 -0.0478271 -0.08686014 0.17260459 0.06878705 -0.012806088 -0.034276824 -0.029870912 -0.009106365 -0.4244898 0.10832225 -0.0050826482 -0.07137683 0.08264197 0.06641593 0.30633035 0.111183606 -0.042213913 -0.03571541 0.09214365 0.009644316 -0.09223689 0.007941206 -0.27469686 0.16998076 -0.08380962 -0.004224135 0.12415793 -0.0037017926 -0.10148359 -0.06698082 0.14838266 0.055980574 -0.26619083 0.18802358 0.1486701 0.19805498 0.19623113 -0.11945727 0.14158994 -0.028572014 -0.45514345 -0.042150453 -0.04502758 0.107290626 0.09724893 -0.023168704 0.02585986 0.07185044 0.011423916 -0.18461744 0.046278823 -0.001435475 0.06752426 -0.031209376 -0.08223226 0.011756403 0.23606382 -0.079710275 -0.103546515 -0.07201185 -0.074968204 -0.0064173164 -0.057825394 0.00919935 0.07743431 0.057555065 -0.010525074 -0.15064788 -0.16372764 0.072082415 0.01530915 -0.041160997 -0.037637785 -0.24951182 -0.021458851 0.08758495 0.06759037 -0.18998812 0.1107325 0.21009238 -0.16781262 -0.049495433 0.07188622 0.12411611 0.115101546 0.08827058 0.12286364 0.024913367 0.011346164 0.09185761 0.012247421 -0.07088491 -0.019621363 -0.020275775 0.022961803 0.32003337 -0.068002306 0.0129640475 0.16255845 -0.12996492 0.09689055 0.09769644 0.008353413 -0.08599455 0.01601078 0.10888659 -0.005918235 -0.08167138 0.05642572 0.006592996 -0.14984338 0.08235696 0.23902786 -0.036660016 0.1629868 0.0053840666 0.12094246 -0.086690314 -0.24416868 -0.03435895 -0.009235308 0.096412525 0.13785803 0.05981996 -0.031057693 -0.28872216 0.07005257 0.07065618 0.43104887 0.07873019 -0.01559431 -0.090940446 0.17720765 0.053565864 -0.16440536 0.06525759 -0.047771532 0.04638135 -0.075950384 -0.118376836 -0.07153196 0.031172408 -0.13378601 0.18807441 -0.063613646 0.24434558 -0.34928167 0.06722182 0.04405127 -0.054593086 0.013416445 0.07000983 0.07187264 -0.057240188 0.099052265 -0.10805365 0.068566434 0.011620315 0.0150263095 0.14796203 -0.04368123 0.03519849 0.104054846 0.017628368 0.06733386 0.037637763 -0.1895501 -0.20431353 -0.119760685 -0.11054032 -0.00015550826 -0.06364172 -0.039833203 -0.06930838 -0.08141557 -0.013934618 -0.071866974 0.22267798 0.034436002 0.06773618 0.14678152 -0.035575498 0.27060008 0.09840167 0.12920442 -0.0019382184 0.056633424 0.120066844 0.13879909 -0.11015016 -0.040047854 -0.05989774 -0.038529683 0.02970577 0.047740843 0.041444708 0.077686265 0.148664 0.1799403 0.053654846 -0.041562274 -0.1101396 0.008638823 -0.28554204 -0.072524376 -0.3859973 0.19287716 -0.21892944 0.044562154 0.14359082 0.095614344 0.045538764 0.035054922 -0.102276996 -0.06347073 -0.15040395 -0.09275991 -0.040002503 0.045776296 -0.025328329 0.07114034 0.32816523 0.06702954 0.036562763 0.070707716 0.14914432 0.26331457 -0.017318206 -0.13596544 0.11412099 -0.017543336 -0.10736035 -0.16197142 0.0067957826 0.055853505 0.019246709 0.0015651915 -0.0072998116 -0.013066476 0.0652508 0.17510822 -0.030440655 -0.19961436 0.06217564 0.0028598565 -0.14669123 0.014299613 -0.11173648 -0.10734656 -0.0018558801 -0.0131894685 -0.052321028 -0.048325878 -0.040796094 0.14074762 0.15616433 -0.026192175 -0.011765303 0.10320102 -0.1429216 0.045361258 -0.13085641 -0.069664955 -0.071893856 0.006402121 0.25285092 -0.047258526 0.004183524 -0.03099347 -0.13358688 -0.08814531 0.11020821 -0.04359467 -0.07010367 -0.022399241 0.08537626 0.047706902 -0.050208434 0.23328495 0.2616922 0.10716417 0.20890294 -0.119282305 -0.12880658 0.16436084 0.018990152 0.047696408 -0.003970724 -0.050108667 -0.090661675 -0.09066134 0.04399484 0.006932641 -0.10562057 -0.04146099 0.07123101 -0.05486825 -0.06712087 0.063612066 -0.0116783 -0.09893125 0.24246994 0.05507334 -0.04970539 -0.023021933 0.09058565 0.13053608 -0.13336323 0.027826922 0.044225555 -0.24195829 -0.006387493 -0.043124035 0.023655329 -0.00034187306 -0.00031332485 0.029625123 0.17969365 0.15765889 -0.2983707 -0.09172234 0.0028363327 0.09516876 0.13578789 0.021012584 -0.4243756 -0.026723124 -0.025547124 0.027700093 -0.045138955 -0.09339516 0.14144 -0.12486528 0.15441321 -0.027673967 -0.10264313 0.005265042 0.0033583888 0.08338962 -0.097446695 0.009179458 0.099508055 -0.096536055 -0.0024416663 0.09122882 0.04360063 -0.087457284 -0.030787366 -0.30607823 0.03881461 -0.0041476726 -0.23480354 -0.029680105 -0.02101927 0.16219285 -0.041920047 -0.021872638 0.05757932 0.028601369 0.02879771 0.13179947 0.045201052 -0.22151875 -0.006254452 -0.30625725 0.08815191 0.052923396 