0.2402029 0.21121955 -0.26330066 0.03143953 0.045417015 -0.25579914 -0.1619705 -0.10689523 0.0016050723 -0.18173991 -0.19839568 -0.12596993 -0.29125583 -0.19713299 0.050383084 -0.025712943 -0.3477385 -0.06961782 0.08994801 0.16792072 0.08629628 0.1563067 -0.17247935 -0.10859755 0.19922797 0.024413433 -0.0019947186 -0.23055252 0.00060697563 -0.010117792 -0.07635412 0.0040416103 -0.09665669 0.15948336 -0.39145738 0.09341423 0.072378345 -0.3966622 -0.25188008 -0.41433412 0.041623704 -0.14836024 0.043154325 0.025415875 -0.09951998 -0.004248888 0.17478512 -0.018886827 -0.056545783 -0.15043864 0.063866906 -0.12949605 -0.22310121 0.163691 0.14008273 -0.4059229 0.028101882 -0.058240477 -0.058991484 0.031406507 -0.1318717 -0.05185515 -0.33662993 0.045812882 -0.2501756 0.06314513 0.09363519 -0.28645346 0.13351154 -0.40966123 0.07688401 0.1325944 0.07781159 0.056806013 -0.024634574 0.1927115 0.13494791 -0.0989177 0.15186398 -0.2705952 -0.115010425 0.16543312 -0.010068873 -0.17340542 0.2643856 -0.06548354 -0.19537498 0.14701414 -0.02257952 0.13837063 0.069008 -0.06610007 -0.19263342 -0.22564739 0.09305399 -0.17266011 0.036728833 -0.27357534 0.0049416283 -0.026023341 -0.16308331 -0.07681654 -0.016049264 -0.23258407 0.11677667 0.09827451 -0.28536198 -0.06909368 -0.10462924 -0.23162197 0.06394452 -0.12246048 -0.3501551 -0.09405709 0.025953885 0.17702894 0.03907042 -0.041200534 0.1836856 0.051543646 -0.13488686 0.11584525 0.40088275 0.031905603 -0.58790165 -0.028622102 -0.09300638 -0.44236863 0.078216225 0.1699169 0.027380256 0.13604674 0.10387137 -0.2631445 -0.35710835 -0.24350475 0.073315136 -0.08110553 -0.01831687 0.18171123 0.014655924 0.040256113 -0.039340403 -0.032449443 0.18196733 -0.043238472 0.030478895 -0.036942214 0.23017679 0.15217021 0.01936492 -0.07468763 -0.17003115 -0.0017890668 0.38777494 0.16548362 -0.119901344 -0.4604385 0.0045828843 -0.03164569 0.13617815 -0.36848593 -0.2900921 0.10955101 -0.05533311 -0.18116803 0.027697746 -0.25159055 -0.38762364 -0.20029452 -0.23531842 0.056523792 0.031734373 0.013583502 -0.16966152 -0.21002512 0.025408698 0.13121288 -0.29678357 -0.11606401 -0.50777555 0.03399602 0.076825425 -0.11167101 0.095522836 0.108597845 -0.010988831 -0.14356695 -0.26370284 0.047401227 0.008774274 -0.06760705 -0.061237432 0.1670295 -0.04553452 -0.053708903 -0.03470301 -0.015667466 0.16571766 -0.02357917 -0.016672166 -0.49229997 0.10296394 0.19953255 -0.21880433 0.111666866 -0.26623157 -0.25955057 -0.06672668 -0.18519814 0.05334529 0.09819821 -0.02033199 -0.017062247 0.17161256 -0.37037247 0.11037208 -0.021506216 -0.1064455 -0.05593886 -0.16073652 0.16696228 -0.34527534 0.22963251 -0.09301601 0.35584745 -0.10039615 -0.032939322 0.07404751 0.019569336 0.09406174 0.08512772 -0.19029666 -0.29252547 0.019109234 0.17473838 -0.15261917 -0.20293109 -0.050817885 0.1070447 0.024415016 0.08530254 -0.032800954 0.14451061 -0.031783585 -0.25439906 -0.15021752 -0.118539 0.17588761 0.12505384 -0.017891452 -0.006083465 -0.028915428 0.09327561 -0.14299113 -0.24110171 -0.009085532 -0.19835968 0.0025403518 -0.0034847055 -0.15702297 -0.16067083 0.18133625 -0.11521171 0.026155025 0.019430386 0.12652028 0.003798186 -0.06092604 0.1293269 0.009102042 0.092889525 -0.03670256 0.12483694 0.15586136 -0.017942062 0.14131163 0.050227273 -0.11762276 0.17972223 0.21851209 5.6862656e-05 -0.092069514 -0.5847198 -0.11065836 -0.22437304 0.10969929 0.07939192 -0.2714202 0.08046373 0.25959736 -0.15988277 0.053610288 -0.4201668 -0.04026292 -0.23538588 0.09584246 -0.2392706 -0.18028133 -0.17080484 0.16486627 0.043390285 0.14691487 0.13826932 0.10328174 -0.2217739 -0.07609046 -0.04661234 -0.069175884 -0.39987653 -0.03137079 -0.057704408 -0.2405537 -0.09500666 0.08993738 -0.24731189 -0.5251885 -0.273135 0.08536623 -0.044144247 -0.0892912 0.05604025 -0.32584327 -0.09771694 0.06504972 -0.13884695 0.015983375 0.09395759 -0.24704534 -0.071108714 0.08518665 0.18386638 0.1577696 -0.05273981 0.029061738 0.038490865 0.011656964 -0.34181195 0.17023076 0.18992627 -0.112689026 -0.24375345 0.18052478 0.15416758 -0.17062679 -0.0072692884 0.061110117 -0.09935088 -0.089052446 0.09459438 0.032804575 -0.11183403 -0.079529 0.01854032 0.10166126 -0.009525973 -0.1798787 -0.0482179 -0.23799945 -0.019776056 -0.10617145 -0.11152451 0.0058946256 -0.1247163 0.15331873 -0.034708373 -0.041271653 0.18515031 -0.017203838 -0.31609058 -0.06415445 -0.0091013685 0.13020241 -0.09043666 -0.2094279 0.005052859 -0.10195619 0.0230945 0.118903734 0.0861147 -0.06884904 0.22928862 0.045078423 -0.101633735 -0.15252803 0.09858192 -0.44927162 0.05705827 0.0063327793 -0.12545882 -0.09036177 -0.1019265 0.032643754 0.060604632 0.07569173 0.05711181 0.21935771 -0.039120153 0.024957983 0.24263212 0.24178383 -0.087581925 -0.31352147 0.053650852 0.12015434 0.1440942 -0.2033809 -0.049481157 -0.011251051 0.0749818 0.021618433 -0.17884184 0.11156514 0.043284375 -0.06172903 -0.06261731 -0.015775716 -0.18955198 -0.08685211 0.109944254 -0.29264006 0.11196279 0.13755658 0.05441516 -0.09269232 0.09731078 -0.2042146 -0.28119326 -0.03561986 0.04229253 0.11690388 -0.17892003 0.22913072 -0.17869376 0.07397904 -0.07736909 -0.0114085255 -0.1787666 0.057788014 0.19369866 -0.09258404 -0.093938924 0.0527581 -0.24374756 -0.007882021 -0.12654856 -0.05585663 0.09868233 0.014794921 -0.056751 0.0020412826 -0.25964016 0.19401069 0.13921122 -0.043332644 -0.18499216 0.06902741 0.031697568 -0.1788253 -0.3857999 0.20785777 -0.022379952 -0.24410042 0.20310424 0.065715216 -0.18387377 -0.113394454 0.14867295 -0.27554604 -0.15247549 0.092628606 0.14432071 0.072818264 0.121504836 -0.077366374 -0.273485 0.03604396 0.060912963 0.02570131 -0.11532569 -0.13577642 -0.018544022 0.13944985 -0.2831376 0.050323386 0.10960994 -0.0011899117 -0.019710995 -0.23298329 0.018188708 0.04653038 -0.16395882 -0.17526203 -0.20445395 -0.0030357342 -0.012605444 -0.16979373 0.101247616 -0.028586509 0.06220784 0.08930343 0.11576381 0.07568052 0.15504593 0.1374367 -0.15992351 -0.2621049 0.12955043 -0.039039034 0.15788142 -0.19066344 -0.089756295 0.03145855 -0.104214594 -0.31815544 -0.0068285917 0.11936637 0.063461155 0.08224316 0.11775581 -0.15958944 -0.19301009 0.024209095 -0.08090595 0.038820688 0.015147963 0.12689216 -0.077890195 -0.33351398 0.028164838 -0.07338131 -0.2048392 0.11589341 -0.04361315 0.07572745 0.010953361 0.11649306 0.21255751 -0.020551322 0.093107976 0.06457364 -0.34221488 -0.24489345 0.12772979 0.18054208 0.06852418 -0.024085086 -0.14774495 -0.06981511 -0.08259224 0.19225925 -0.07426983 -0.31557837 -0.44214553 -0.03885677 0.20510972 0.10874825 -0.13085204 0.15325771 -0.30559003 0.073398314 -0.064914525 0.059424493 -0.049255937 0.20496456 -0.016886227 -0.013657236 -0.25093776 -0.14371954 0.15087348 0.13172318 0.031081498 -0.010103138 -0.03972758 0.016985409 -0.5316631 -0.048246402 0.07999654 0.083089516 -0.047228046 -0.21432094 0.06330796 0.11962555 -0.52151483 -0.10575071 0.14542471 0.08002327 -0.36675125 -0.3158657 0.05369313 0.13208985 -0.38092044 -0.03316526 0.18817905 0.0837065 0.057353377 -0.06388482 -0.012412014 -0.09648053 0.29152048 -0.0892185 -0.5082419 -0.27926755 0.107118234 0.091325566 0.07478664 -0.07348555 -0.22321564 -0.23059316 -0.04467839 -0.26870582 0.020612618 0.04352324 0.006712075 0.08710288 -0.048135452 0.082072094 -0.08354673 -0.29896644 0.15746874 0.020042751 0.070870526 0.12184739 -0.032489236 -0.16414155 0.08623534 0.12643175 0.15479127 0.14496428 -0.010495516 0.14253518 0.09717461 0.050732777 -0.3002768 -0.048310302 0.09822346 0.15302093 0.08177363 0.14461558 0.057834156 -0.2355766 0.0049274834 0.25339878 0.1692922 0.061976776 -0.1686695 -0.1191203 -0.0044011003 -0.13204356 -0.04685328 -0.16781324 0.10459643 0.056012172 0.2472373 -0.21584821 0.067875996 -0.1622952 0.053241756 -0.39760515 0.046329707 -0.041623555 0.08571658 -0.026240086 -0.0426445 0.23433696 -0.3192562 -0.35718897 0.11549859 -0.19143173 -0.31291243 0.097425 0.09575994 -0.35061568 -0.31144473 -0.013964953 0.06378344 0.06483003 0.028424114 -0.31144553 0.07927727 -0.017679999 0.20119047 0.06391105 0.07597173 0.12561294 0.082166374 -0.005168303 0.018482525 0.20216462 0.2217506 0.0074065565 -0.2686229 0.19808476 0.11254238 0.2071199 -0.110995196 0.05947345 0.010232097 -0.02963323 0.1125446 -0.13012187 -0.012626067 0.18640241 0.25001723 0.022256704 -0.050829776 -0.30173755 0.09548482 0.16876388 -0.30529764 -0.47324446 -0.12789904 -0.32945582 0.00063295907 0.045503933 -0.5136516 -0.050374333 0.0029725577 -0.44419998 0.17807426 -0.17904784 -0.05898454 0.16958557 -0.08340023 0.15093705 -0.000118393575 0.17450128 0.08151245 0.06271662 -0.025776362 0.05844904 -0.13351475 -0.11065855 0.04027999 0.046150316 -0.3388967 -0.07743695 -0.13917811 0.093584016 0.018280854 0.13069682 -0.039040152 -0.09814679 -0.13572371 -0.0658147 -0.034922536 -0.013743802 -0.14200999 -0.40721998 0.01861018 0.14361945 -0.20495471 0.04886131 0.13815919 0.04809728 0.049280394 0.19946657 0.096705586 -0.0062760776 -0.047955617 0.12953681 -0.15025698 0.22667837 -0.109444536 0.02291507 0.05596379 0.11004915 -0.18036549 -0.027642332 0.17607734 -0.035027876 0.020902954 -0.0088161025 -0.41996467 -0.044422403 -0.074289344 0.1804909 -0.47418118 0.117318906 -0.06021322 -0.006057414 -0.29033166 0.09356815 -0.23114115 -0.3130535 -0.006817664 -0.2563869 0.00848514 -0.20587711 -0.055129264 -0.34949827 -0.24512318 -0.02253587 -0.03756943 0.12640259 0.030664347 -0.036653366 -0.010619111 -0.0060054334 0.32641533 -0.06521694 0.12444321 0.0043899002 0.06921957 0.11443049 0.18777405 -0.14476602 -0.4307009 0.056132723 -0.17604887 -0.25063187 -0.075959235 0.06871174 0.14631894 -0.020680625 -0.07452788 -0.30555347 -0.11238946 0.11492401 0.084150955 0.0041656885 -0.23186187 -0.035272814 -0.42045772 0.1252874 0.086795054 -0.32338718 0.08396264 0.02037897 0.11197254 0.031381853 0.07005123 -0.07629243 0.16669396 0.049798854 0.14768516 -0.2942851 -0.18169534 -0.0023895092 0.10318293