0.07275686 0.18499902 -0.2182899 -0.1413914 0.08188066 -0.18904833 -0.21275435 -0.3676203 -0.07572108 0.011884732 -0.086279646 -0.2057649 0.004194433 -0.0660968 0.16247958 0.08959738 0.043793928 -0.08362701 -0.17570579 0.0275563 0.0819846 -0.049358234 -0.14185697 0.016443888 0.0322206 0.04785034 -0.043447047 0.07351647 0.07439352 0.13944443 -0.09133308 0.037462417 0.23317231 0.15983033 0.0143008325 -0.17319101 0.019571012 0.09932704 -0.027612735 0.10950125 -0.12175809 -0.14280388 0.07667034 0.18323709 -0.27042422 -0.09544388 0.016741801 0.015249732 -0.046115365 0.046213962 -0.11133838 -0.05061337 -0.13841593 0.19578215 0.07321262 0.017252928 0.0001024637 0.026771743 0.004664963 0.06403464 0.048295107 0.12189934 0.13642877 0.094607875 0.10242933 0.11236447 0.026833953 0.09649571 -0.16573785 -0.008966262 0.11740342 0.13448544 -0.10218668 0.05935841 0.08226686 -0.039318834 -0.011413996 -0.08884449 0.052766457 -0.05952969 0.1270802 -0.015619669 -0.0483529 -0.040192474 0.11364986 -0.03598146 -0.14659491 -0.03798122 0.025619674 -0.020138659 -0.014564869 -0.023164922 -0.0123289535 -0.07733176 0.06386687 -0.036571983 0.21081086 0.14985907 0.20438454 0.24871382 -0.005963856 -0.046732426 -0.12379819 0.017129354 0.011917491 -0.20007676 -0.32574794 0.10443155 -0.022031363 0.040565263 -0.025212742 0.04123929 -0.01720175 0.010117571 0.118992895 -0.1962313 -0.04003772 -0.16379607 -0.07836412 -0.2290229 0.0068741 0.04358533 -0.03675594 -0.073806964 0.05111603 -0.06238841 0.03437258 0.039461233 0.04453596 -0.10168016 -0.1361265 0.0015109828 -0.0297571 0.04397751 -0.26463434 -0.105931856 0.088972926 -0.056052454 -0.1708482 0.10505322 -0.035005316 0.08523206 0.15254031 0.19057675 -0.2183153 0.10342677 0.07467632 0.118235186 0.08124244 -0.070221506 0.059277967 0.15956801 0.023275172 0.070923686 -0.20531294 -0.18160069 0.28271616 0.122249775 -0.25517058 -0.0616277 0.03211409 0.10434103 -0.071876004 -0.22262056 -0.08121082 0.05830753 -0.22717676 -0.40002704 0.2541862 0.0091427285 -0.005820689 -0.0036918297 -0.015146646 0.0780374 0.16624856 0.2713204 0.06565307 0.18616717 0.18584368 0.043260258 0.078639865 0.11384886 0.08315763 0.09621243 0.15834168 -0.05200588 0.0068388823 -0.032583363 -0.07992885 -0.04758963 -0.29769337 -0.059027113 -0.1344814 0.14548592 0.13295008 0.17659132 -0.010647779 -0.09216032 -0.22819287 0.070196725 -0.17562684 -0.084924415 -0.039542977 -0.07147588 0.009144157 0.14883196 -0.033176135 0.13365929 0.008555349 0.1900027 -0.14274935 -0.22397949 0.08977199 0.120492764 -0.01910677 -0.11460915 0.060957894 -0.21603476 0.2610177 0.12254045 0.024994772 -0.0120818 0.27141327 -0.08206363 -0.05036342 -0.2672765 -0.0915789 -0.23455238 0.1307428 0.14587098 0.210485 0.15853195 -0.080136016 0.076834455 -0.014870324 -0.07721164 0.008467829 -0.22441706 -0.054308735 -0.25150564 0.014601278 0.115023375 0.0988874 -0.18686289 0.15431014 -0.0787729 -0.2385394 -0.3680839 -0.04434453 -0.17279652 0.030194849 -0.20105563 -0.029241323 -0.12211999 -0.038223114 0.13451411 0.13487871 0.105756804 0.023481155 0.11026824 -0.064190984 0.1529526 -0.0021967236 0.015693922 -0.12261985 -0.016580291 0.005860483 0.06324547 0.17504051 0.08907733 0.01774327 -0.2582629 0.04143236 0.004814671 -0.0035895412 0.009207669 0.009976019 -0.021761939 0.07049112 0.088993624 -0.14070898 0.0054881014 0.050939325 -0.14548028 0.019345988 0.107094675 0.110588096 -0.14595014 0.12613901 0.23301879 0.118313015 0.23816371 0.021365458 0.031785175 0.19976528 0.045701288 -0.08243074 -0.092256844 0.119631894 0.04693914 0.13093168 0.2593395 0.020643095 -0.008917712 0.2023093 0.19507739 0.06874086 0.056027748 -0.029520897 -0.39012414 -0.2809437 0.13124397 0.0001776903 -0.16737804 0.014838669 0.041331872 -0.14676173 -0.06439508 0.05206675 0.1627599 0.12031734 -0.04234801 -0.053951807 -0.07474457 -0.037383772 0.074901916 0.09877294 0.0778229 -0.032754626 0.0060752793 -0.115518525 0.055305265 -0.045223694 -0.09089255 0.013873037 0.13082945 0.20660432 0.16763926 0.11181844 0.03527397 0.15820584 -0.1682614 0.044805445 0.011869897 -0.044381995 -0.00027547503 -0.02897884 -0.20328741 -0.07604093 0.039475407 -0.01667958 -0.15581548 -0.0073422357 0.017298877 0.06634541 -0.08769129 0.025577515 -0.0041716485 0.0008230916 -0.1027923 -0.13725601 -0.089990824 0.02962147 -0.14949493 0.027540127 0.111999854 0.06222984 -0.3943899 -0.16560084 -0.05900364 -0.06483908 0.02726674 0.1414233 0.21430667 -0.34444433 -0.002574869 0.08463258 -0.03582931 -0.12734386 0.23236343 0.16083565 0.09492487 -0.0880302 0.034367733 0.12174178 -0.07570136 0.15106599 0.09168314 -0.069205284 -0.12345686 -0.20260824 -0.1947399 0.16304642 -0.016229674 -0.09931766 -0.096413925 -0.06446373 0.04743167 0.09570621 0.2986395 -0.014269772 0.043307826 0.07646685 0.05357729 0.18988296 0.11480057 0.111673675 0.016540984 0.28859964 -0.08226971 -0.078226395 0.34063694 -0.278813 -0.31668785 -0.08067872 0.0044718976 -0.015655214 0.025773682 0.06756625 0.10264332 -0.15218782 0.0056370455 -0.19542955 -0.048245654 0.45184174 0.13299188 0.09134067 -0.032283705 0.15009125 -0.024407502 0.0048966724 -0.10717322 0.08138739 0.072838895 0.07350254 -0.07087488 -0.05550462 0.06590753 0.00026717916 -0.013811222 0.095303886 -0.087260455 -0.18974717 -0.0847844 -0.07111659 -0.10213554 -0.26715398 0.04428085 0.068285756 0.21960306 0.13203026 0.04227681 -0.13377735 -0.26420927 -0.2901606 0.058464825 -0.20288645 -0.09323173 -0.30653465 -0.053230546 -0.12599298 -0.0610087 0.18972933 0.11686916 0.0038484053 0.13832133 0.20248607 -0.11551476 -0.107687816 -0.00830251 0.09285512 -0.004297757 -0.05891833 0.10471663 0.011459333 -0.0019511527 -0.11779303 0.11599993 -0.0021911743 -0.20648839 0.04686081 0.16077852 0.24185525 -0.09748689 0.12446856 0.06248821 0.32627615 -0.15362601 -0.1418027 0.17401838 -0.27377355 -0.15839696 -0.43800303 -0.15642388 -0.13685142 0.19428271 0.04269442 -0.008885511 0.038549848 0.019508544 -0.14908378 -0.0074579404 -0.019270837 -0.02504085 -0.23023002 -0.022366533 -0.042462673 0.13524593 0.056935888 -0.012184901 -0.10977544 -0.11986369 -0.061472356 0.022774786 -0.037090734 0.031805005 0.055190817 -0.007665117 0.015345637 -0.0718896 0.028986214 0.04025727 0.0043816273 -0.01747854 -0.055104766 -0.027592788 -0.060862534 -0.04193638 -0.023663206 0.026910018 -0.03097578 -0.013110848 -0.05655367 0.018094711 0.044735365 0.02596716 -0.045221243 -0.07513392 -0.05117822 0.010888889 -0.040659256 -0.07449238 -0.059705142 0.05925835 -0.047596626 -0.06180741 0.040702324 0.024710592 -0.048024066 0.03788019 0.018021839 0.053281695 -0.011957615 -0.026314994 -0.02439905 0.017410822 -0.04410875 -0.06651085 0.03696294 -0.0141398385 0.04050997 -0.016036535 0.01238997 -0.022371087 0.034677833 0.011105073 -0.04466554 -0.068994276 0.027015606 0.00988624 -0.058573082 0.0013068467 0.041628525 -0.07100692 -0.042050928 -0.038661122 0.013791724 -0.05693363 -0.022828659 -0.041879237 -0.062846124 -0.027778033 -0.023165977 -0.07025414 -0.066884816 -0.034677636 -0.039387688 -0.035943214 -0.0765448 0.0029616726 -0.047208015 -0.028089236 0.026594931 0.0262595 -0.07207733 -0.064164184 -0.04589871 -0.022140581 0.011950505 0.024624852 -0.05123744 0.0074926373 0.03461316 -0.0070220744 -0.063383855 0.04486453 -0.07536909 -0.048577502 0.027122248 -0.027517796 0.04464781 0.040894493 -0.04731399 -0.05705344 -0.024611713 0.022087319 -0.05444103 -0.06431521 -0.0040122936 -0.055054747 -0.0025835093 -0.05627177 -0.009771008 -0.057031915 -0.03318705 0.004671578 -0.07474603 -0.04005384 0.03221648 -0.017060626 -0.0735824 -0.07746729 -0.012846316 -0.02128098 0.0020093243 -0.040964518 -0.017539173 -0.05046988 0.0128384745 -0.057278648 -0.0001174164 -0.04336137 -0.010545841 0.04146236 0.0152627835 0.03806628 -0.00087557384 -0.014355987 -0.043552745 0.0007537753 0.06123835 -0.021551982 -0.05324375 -0.06150698 0.039976265 0.051938318 -0.06314482 -0.0035098428 0.057968125 0.04309252 0.03302859 0.02434431 -0.06315554 -0.029751197 -0.011494208 -0.03337196 -0.0029454404 0.034452155 -0.05147419 0.020226058 -0.07736455 -0.026695447 -0.035105273 0.025433246 -0.04091652 -0.045676507 0.03949497 -0.0023800868 -0.0043852176 -0.041713074 -0.07270993 -0.03394573 -0.039221883 0.035551958 -0.06100795 0.044489354 0.03749001 -0.05390301 0.027337238 0.04931757 -0.03041941 0.05702374 -0.059804127 -0.023320094 -0.03984681 -0.07454494 -0.01952337 0.02193665 0.040353734 0.033201195 0.021596402 0.0067080404 -0.06843889 -0.056003425 0.002811782 -0.059425294 0.017022803 -0.0038024362 0.015241707 -0.071388565 -0.01159175 -0.029432239 -0.034605477 -0.062359013 0.016131192 -0.046193324 -0.066524476 -0.00047013164 -0.048135817 0.04222688 0.0002488568 0.03202005 0.040554073 -0.007833671 0.032330126 -0.061962977 -0.04218576 -0.0075758207 -0.00058527995 -0.043676935 0.016976029 -0.014377296 0.002661854 0.010895266 -0.03217821 -0.075383134 0.02044031 0.0104037225 -0.0004146546 -0.061542876 -0.0057024285 -0.008846365 0.059539653 0.05935599 0.04062181 0.036157355 0.04082515 0.0195826 -0.05421195 -0.0082326755 -0.006817296 0.059743844 0.005080478 -0.042767763 0.023830678 0.009338778 0.04814747 -0.04210874 -0.002157357 0.036207914 -0.0069208182 0.026336864 0.024360536 -0.0087445825 0.0011167055 -0.047576256 -0.07059318 -0.011786498 -0.09346006 0.014063383 -0.07230199 0.0024962148 -0.031164346 -0.043208785 -0.03247465 0.01628552 -0.056390602 0.009384978 0.00021371714 -0.09014554 -0.022220952 -0.038642902 -0.02983367 0.019514345 -0.034952655 -0.038730487 -0.061477683 -0.02815263 -0.067471825 -0.055511396 0.015741875 -0.08612828 -0.05145487 0.023458848 -0.021093467 0.00999337 -0.010074841 0.04863797 -0.018244572 -0.052515674 -0.049776997 -0.078528866 -0.06354629 -0.012803022 0.0015082376 -0.05240907 0.05120729 0.013178843 -0.006347714 -0.06006943 -0.015741926 -0.010254067 -0.03451408 -0.03189273 0.017552773 -0.04103228 0.0018737011 -0.053496107 0.013996423 -0.05655142 0.03943505 0.033765312 -0.057581034 -0.058436632 -8.329749e-05 -0.08919007 -0.051781878 -0.050529208 -0.07417092 -0.07133927 -0.0725123 -0.00536874 -0.027729396 0.041485146 -0.048013534 -0.08689688 -0.021206792 -0.036112577 0.013063312 0.0070163077 -0.020944823 -0.005847901 -0.05654756 0.018043196 0.030255344 -0.04654499 0.015808148 -0.06380838 -0.032482684 0.029573705 -0.086925745 -0.045714002 -0.04285744 -0.02195021 -0.07741267 0.01589779 -0.03284102 0.021661608 -0.038494892 -0.09549788 -0.022073772 0.024876043 -0.056471594 -0.037338648 0.005168691 -0.05107875 -0.025306758 0.03253643 -0.040444657 -0.043603305 -0.001996881 0.016457502 0.021942534 -0.06302011 -0.031682726 0.02132448 -0.004340036 -0.046167105 -0.06323756 -0.05903275 -0.020487955 -0.06699707 0.01779605 -0.043184392 0.0043232245 -0.08420368 0.022364734 -0.06748684 0.028228384 0.043170005 -0.05596328 -0.073890716 -0.0009486341 -0.015908044 -0.053463213 -0.08068835 -0.05628898 -0.008129565 -0.074513204 -0.03063389 -0.017397441 -0.05698639 -0.018418934 0.009387981 0.00060381496 -0.024878556 -0.042243548 -0.04851705 -0.017039487 -0.052871898 -0.045409534 -0.05441901 -0.045122232 -0.021011585 -0.03007053 -0.06591664 -0.09083204 0.009563696 -0.038996663 -0.030681418 0.029814139 -0.0671937 -0.015038696 -0.0050861645 -0.044076074 -0.029669998 0.033435557 -0.04511762 -0.036402043 0.010617494 -0.093688495 0.0406579 0.0054706926 0.00040704757 0.04066683 -0.06955545 0.02368137 -0.0071046283 0.0089345155 -0.0020204112 -0.008063511 0.03658921 0.019744782 -0.020583095 -0.0012701853 -0.014729243 -0.07880069 -0.052897803 -0.055163335 -0.056060985 -0.05562779 -0.03180857 -0.009095387 -0.069409385 -0.044108164 -0.0011111004 -0.015715482 -0.013427599 0.0072320737 -0.040357243 -0.08099866 -0.06329547 -0.058349293 0.02198647 0.0109796375 0.026013216 0.01886243 -0.07501808 0.010793996 -0.04742442 -0.042087525 0.03635982 0.0075900997 -0.021738222 -0.0007478326 -0.004376035 0.016322792 0.011490025 -0.008616291 -0.0034524316 0.05115435 0.020110456 0.0043514892 0.037382197 -0.05714405 0.022948345 -0.0888152 0.0121896565 -0.067924134 -0.10027032 -0.027839419 -0.05067814 -0.019457541 -0.036269054 0.033771873 -0.03674791 0.028214969 -0.01689411 -0.06273806 -0.011678837 0.040375076 -0.032189563 0.015080126 0.055170126 -0.028314196 -0.019506996 0.0152844265 0.017399162 0.03202486 -0.014619675 -0.025784716 -0.015482194 0.011846228 -0.09019735 0.039103348 -0.008805189 -0.096237086 -0.007289213 -0.042393874 -0.020262718 0.014334055 -0.0013150285 -0.034214187 -0.046820033 -0.06063066 -0.194934 -0.013090622 0.046295434 0.15093143 0.02136222 -0.08405647 -0.47297752 0.18889293 -0.118986756 -0.47131312 0.038563337 -0.1335756 -0.2799455 -0.15014325 0.09636234 0.023102472 0.018151976 0.045766518 0.3267905 -0.039416533 -0.14201409 -0.18046816 0.1556102 -0.100958206 -0.059600323 -0.096029334 -0.065598495 -0.036400806 -0.048873898 -0.4030732 -0.10084148 -0.11056846 -0.10942985 -0.46289724 -0.015800461 0.05876826 -0.044018466 -0.5140814 0.0290918 0.07155647 -0.102303155 -0.48914972 -0.046975847 -0.106224716 -0.19632187 -0.009329579 0.12742431 0.271957 -0.08105724 -0.06089534 0.10759111 -0.12594001 -0.24324366 -0.17348789 -0.07631391 -0.012441446 0.1365487 0.10545092 0.09983423 0.02062975 0.01501873 0.10585017 0.084887736 -0.035167888 0.0088188695 0.0013666662 0.34566805 -0.018786738 0.010596177 0.06357071 0.2841429 -0.073637255 -0.07280485 0.124539904 -0.03365535 0.02362223 -0.12944004 -0.055827744 -0.17135201 -0.5004716 -0.0045296843 0.039966695 0.078562245 0.14478898 0.24998315 -0.08973433 0.036356796 -0.059326965 0.023841243 -0.45227256 -0.034787603 -0.14201638 0.14193442 -0.36339915 0.050599165 -0.47204655 0.048119992 0.08967919 0.10644965 -0.37359315 0.20348597 0.20750526 0.4144083 -0.06562028 0.08326521 -0.049816087 0.13222605 0.08550047 -0.108537264 -0.30321306 -0.004823138 -0.09828383 -0.05370425 -0.03741169 0.091248125 0.0348535 0.17412497 -0.009794939 0.040813457 0.14222024 -0.11813938 -0.14110495 0.18419749 0.0904474 -0.12704827 -0.05380501 0.15546237 0.10904534 -0.036958013 -0.056677986 0.043383934 0.004640456 -0.20442815 -0.44865337 0.012116791 -0.016727421 -0.035547722 -0.014159259 0.13173041 0.054560483 0.058825284 0.101185426 0.15337403 0.11507873 0.07398821 -0.1711391 0.22762153 -0.11286151 -0.21409707 -0.097133376 -0.031311095 -0.37611002 -0.17802455 0.09039046 0.032457445 0.19967426 0.08074172 0.10533547 0.0656636 0.1783943 -0.006437578 -0.043773443 0.1621995 0.115435354 -0.030674525 -0.50221246 -0.2916623 -0.29629532 -0.014376398 -0.25213677 0.057497025 -0.2535476 -0.043751083 -0.014615647 0.14354952 -0.3516644 -0.28813767 -0.19694285 -0.22293505 -0.13395344 -0.21861364 0.0269162 0.1356298 -0.2945405 0.0007759028 -0.028154645 0.07115575 0.21175799 0.19986652 -0.054070637 0.08954196 0.2074419 -0.03193813 0.03986099 0.16735798 -0.24637948 -0.108419724 0.114046216 0.06918899 0.22122954 0.030224022 -0.14358307 -0.10018536 0.13409168 0.04871077 0.081106395 -0.061825536 -0.19563185 -0.23860106 0.13416606 -0.13487881 -0.04411795 -0.08013754 -0.500065 -0.3050464 0.09768365 -0.06649445 -0.08081242 -0.36040178 0.21722831 -0.20283364 0.24863787 -0.4752721 0.2876948 0.60911137 0.2247536 -0.04783295 -0.09953997 0.27751312 0.43387067 -0.1937557 -0.13686062 0.01901789 -0.17462675 -0.239784 0.029259114 0.25280765 -0.016543612 -0.53789026 -0.08059638 -0.19302991 -0.047269527 0.063816756 0.11165419 -0.15527275 0.030927537 -0.33976403 0.22203778 -0.072321616 -0.18509135 -0.36292854 -0.017996632 -0.5518215 -0.19910502 0.050247416 -0.0076326043 0.02077293 0.057607252 -0.11409413 -0.024686093 -0.098054945 0.06302106 0.01682765 0.03347757 -0.068906985 0.020376967 0.00071410765 -0.123229384 -0.12039989 -0.03084404 0.2450371 -0.14634487 -0.16310084 0.03735955 -0.12199793 0.086934365 0.023787128 -0.09593053 0.013574075 0.21308702 0.112293534 0.06460336 0.0664934 -0.057744607 -0.013880095 -0.14115901 -0.2000306 0.15442912 0.00050966284 0.05889375 -0.07798347 0.11120514 0.016230248 -0.058339395 -0.18277708 -0.0012475274 0.027654639 -0.065609656 -0.07720718 0.011292621 0.05419548 -0.34390584 -0.27574322 -0.049834505 0.032571916 0.05278355 0.085667424 -0.049009997 0.10285627 0.07484016 0.046425533 -0.01432145 0.14047462 0.03090184 -0.0145375915 -0.22275397 0.060691517 0.04286853 -0.03879117 -0.17915946 -0.23229763 -0.009132682 0.12878174 0.03574608 0.12146582 -0.124811895 0.15793496 0.069368534 -0.037033644 -0.072185695 0.16094267 0.08139176 -0.016959162 -0.10540506 -0.13896418 0.026913574 0.06973919 -0.04809436 -0.06825792 0.109717764 -0.007039908 0.056208983 0.0204123 0.050734397 -0.11814058 0.052758146 0.14438315 0.11767106 0.027929945 -0.14634842 0.06816093 -0.22355676 -0.16101626 -0.09090585 0.35246557 -0.06568124 -0.03578595 -0.05117143 0.17080432 0.04038594 -0.10993114 -0.08260786 0.005788837 0.14264692 0.1245159 0.055512093 0.0638406 0.006662078 -0.03916166 0.08509924 -0.11133678 0.06903287 -0.029493364 0.10397931 0.12434063 -0.039158877 -0.089768775 -0.02584058 -0.04967372 0.05462072 0.022201361 -0.020807108 0.066500776 -0.063646875 0.05779314 -0.00321769 0.021617921 0.06941351 0.09097241 0.13612457 0.08382474 0.011749475 0.052258685 0.09090725 0.019078923 -0.043475065 0.01868551 0.10007025 0.08348699 -0.18606266 -0.062743664 -0.15034561 -0.049177624 -0.3071765 -0.08322618 0.18804856 0.07963514 -0.14027411 -0.143901 -0.028545344 -0.12402498 -0.17810062 -0.09818876 -0.00046800604 0.12575062 -0.103995614 0.15788822 0.08535467 -0.011446484 0.1010827 0.03670318 0.0917701 0.024900783 -0.018240383 0.10143063 0.0631579 0.0063254284 -0.0875564 -0.04462891 -0.1348433 -0.062650695 -0.025167504 0.1087437 0.08225711 0.23586674 -0.15072921 -0.07674347 -0.19405359 0.17391138 -0.2363688 -0.0731477 -0.12517884 0.15106517 -0.2419145 -0.10860743 -0.08561446 0.019548204 -0.31474686 -0.20542449 -0.056322943 0.0487275 -0.0054179686 -0.023324559 0.11307634 0.0674331 0.04617872 0.018925121 0.073075116 -0.01975858 -0.09041351 0.07980929 0.16907194 -0.0734197 0.23900111 0.16832797 -0.12515391 -0.016954985 -0.024571845 -0.008473013 -0.09825151 0.06018058 0.065982826 0.08298385 0.03491853 -0.10221867 0.10922689 -0.052787814 -0.084413044 0.0785477 -0.11348242 -0.03992955 0.077361554 -0.014932173 -0.14603198 -0.17248683 -0.19439396 0.12611127 0.04525901 0.019898484 0.024545409 0.011706741 0.053727165 -0.23746201 0.11353396 -0.10891413 0.19255696 0.079730205 0.14268845 -0.14010102 0.054857768 0.0045524663 0.01451677 -0.08189342 -0.07383284 -0.17929143 0.057739224 -0.07733964 0.02098692 -0.0062930104 0.06260375 -0.03758662 -0.054932833 -0.02511527 -0.05610355 -0.06572367 -0.073964566 0.022276118 0.00085625704 -0.008121795 -0.00077390054 -0.06905719 0.0072650905 0.057708215 -0.020506108 -0.0689288 0.03491189 -0.015749738 0.029158609 -0.010587483 0.056867354 -0.024449639 -0.055002276 -0.078248836 -0.042688243 -0.016029697 -0.11740032 0.055749256 -0.016875219 -0.029368207 -0.03953311 1.986532e-06 0.046983972 -0.008679906 -0.0461869 -0.08101856 -0.056553174 0.04669638 -0.0130119575 0.023813251 -0.052829616 -0.02600428 -0.09925584 -0.03430958 0.0007800496 -0.019267602 0.005970084 0.010088284 -0.033439882 -0.010184783 -0.09169459 -0.072072685 -0.026787579 -0.048128907 -0.04995949 0.024269886 -0.032671887 -0.0014210338 -0.061387386 -0.073109984 0.05918118 0.03796936 -0.12719934 -0.073265865 -0.09734145 0.042225517 0.0034784975 -0.016030237 -0.03961749 -0.04360042 -0.082367994 -0.013782687 -0.03189896 -0.073228166 0.017734133 -0.07683404 -0.08043367 -0.038611952 -0.041694958 0.052518312 -0.0152049055 -0.02182388 -0.0834017 0.0111034475 -0.02584448 -0.07953755 -0.069401555 -0.023440873 -0.024233095 0.035614017 0.04079315 -0.04896549 -0.03609905 -0.079142354 0.03236756 -0.031591337 0.0036728901 0.021989321 -0.0043885815 0.028386014 0.03169263 -0.013195088 -0.08890157 0.03159145 0.027129604 0.00858281 -0.08005286 0.0636184 -0.02480455 -0.11883202 -0.007858439 0.06786461 -0.05909024 0.018427754 0.0016273286 -0.07923628 -0.06353809 -0.053579524 0.038196873 0.0011815189 -0.068698786 -0.105156966 -0.057766207 -0.030082209 0.021403816 -0.05687985 0.039565545 0.04819171 0.023198413 0.03803331 -0.12669902 0.023993494 -0.081398524 -0.023234334 0.055402935 -0.01255723 -0.040906113 0.037174515 0.045025058 -0.07964319 -0.09319432 0.048152067 -0.008224447 -0.045149878 -0.046933386 -0.0155350575 -0.016193215 -0.04083498 0.0033536635 -0.043728456 0.0121151935 -0.10010558 -0.009257315 0.0063990816 0.008651249 -0.008024676 -0.06491444 0.047638547 0.05858461 -0.025946338 -0.008565668 -0.07140054 -0.15347037 -0.098423555 -0.06279017 0.03890891 -0.018716846 -0.029889401 0.024629366 -0.06840872 -0.023563232 -0.06446466 -0.042658567 -0.036055494 -0.05698047 -0.059042897 0.019899726 -0.011902541 0.07092748 0.022792073 -0.045562945 -0.11427087 -0.031787768 -0.042607855 -0.050802562 -0.100246735 -0.04018422 -0.033533666 -0.098115206 -0.0026324496 -0.020070022 0.084455036 -0.13420017 -0.06416291 -0.01131246 -0.047796194 0.018035952 -0.05097398 -0.038371507 -0.09214645 -0.05758211 -0.12968943 -0.055911873 0.008115019 0.0046359175 -0.060397778 -0.14142273 -0.03174644 -0.04956348 -0.036091294 -0.013791546 -0.07082008 -0.024731033 -0.0423947 -0.05290267 -0.018906742 -0.04090643 -0.071019635 -0.007882029 0.045618635 0.08231872 0.05323973 -0.057643406 -0.057012122 0.05251986 -0.01014375 -0.016678825 -0.050950896 0.03206159 -0.041518588 -0.021285597 -0.010332788 0.010430187 -0.04496616 -0.073605314 -0.024057247 0.07781041 0.014662308 -0.076820925 -0.04746276 -0.054422747 0.03118971 -0.026152328 0.038922887 -0.019160828 -0.042999223 -0.043217395 -0.08271949 -0.11148931 -0.066991575 -0.07109244 -0.044754803 0.02003419 -0.026469963 0.023665631 0.03585986 0.008717862 0.016975082 -0.06147943 -0.018758895 -0.038306467 -0.08352131 -0.020831872 0.016061291 0.01889106 -0.022881292 -0.046546664 -0.031191878 -0.094228156 -0.054854706 -0.029660644 -0.0564453 -0.083817415 0.001386526 -0.07923267 -0.07845134 0.001136684 0.003278679 -0.0031040928 -0.011356444 0.0294631 -0.05426949 -0.059266295 0.002588787 -0.08516059 -0.069894895 -0.001776209 -0.0367711 -0.045937493 0.011802329 -0.08776938 -0.030532148 0.035474345 -0.015254505 0.0038111594 0.012764028 -0.09464217 0.004224231 0.009455185 -0.03496038 0.01873264 0.0074250475 0.028047837 0.051681396 -0.07674607 0.023144066 -0.058373455 -0.0089939125 0.012589038 -0.017686995 -0.019169502 0.0045240163 -0.08167778 -0.07889441 -0.056115344 -0.049029045 -0.045478363 -0.06789641 0.0047445577 -0.02024284 0.016899792 -0.047633823 -0.025194546 -0.052225884 -0.032912478 0.0076917033 -0.03609784 0.009012434 -0.0722016 -0.042569153 -0.007689635 0.01882168 0.027813913 -0.020607335 -0.03196675 -0.035440877 -0.065538056 0.0007681321 -0.09283011 -0.073835246 0.01302307 0.026721934 -0.054762315 -0.03387951 -0.084900215 -0.079284325 -0.06679639 0.026875446 0.017763387 -0.07140322 -0.04580655 -0.023271808 0.0034230587 -0.07891893 -0.012287368 0.00794341 -0.026452284 -0.008869611 -0.043552734 -0.04325605 -0.043215822 0.011975457 -0.056524634 -0.0781417 -0.006746018 -0.0065130075 -0.061501577 -0.043874566 -0.031282417 -0.03670371 -0.05073209 -0.089179166 -0.02315601 -0.0010720469 -0.050687414 -0.032724287 -0.082526 0.024842637 -0.07550506 -0.044469904 0.017832322 0.007399026 -0.050815955 -0.08492606 0.0054027312 -0.030806236 -0.026531858 0.016137866 0.01810149 -0.011301513 -0.076017834 -0.06411353 -0.06319452 -0.002663867 0.009625595 -0.013044625 0.01885029 -0.04373059 -0.022565488 0.02096165 -0.049139388 -0.025200253 0.043460056 0.001410503 -0.046339016 -0.032448918 0.02131953 -0.05060724 -0.08634723 -0.056675177 0.0025839068 -0.07554185 -0.07035563 -0.02375092 -0.06593289 -0.01652111 -0.052926492 0.050378583 -0.09013711 -0.043414965 -0.05583907 -0.041358825 -0.02060549 -0.08199915 -0.08054631 -0.046364762 0.03394395 -0.043469895 -0.060792044 0.010874414 -0.024267405 -0.03758259 0.013957081 0.015366315 0.023977332 0.013421185 -0.03274402 -0.06615266 -0.046746623 0.019850334 -0.057424508 -0.010179604 -0.03244225 -0.07818174 0.019441396 -0.07718261 -0.02211769 -0.030938182 -0.035928234 0.018809557 0.014772562 -0.093439706 -0.07174223 0.0518895 0.023907838 -0.024730055 0.0365704 -0.038179807 -0.010220594 0.0043883547 -0.031507697 0.01131699 -0.06341934 0.031439602 -0.07067807 0.020797748 -0.011643483 -0.027303925 0.027522594 -0.011154976 0.05464565 -0.0028507018 -0.060169872 0.020250667 0.0066562626 -0.03632304 0.019097695 0.0055438615 -0.049118 -0.008492731 0.052725818 0.020874796 -0.057401665 -0.0022925362 0.019842163 -0.03253368 0.056785844 0.051116355 -0.06053567 -0.08490271 0.05810137 0.058140755 0.018891923 -0.054124627 0.04186967 -0.00903324 0.005228214 0.049875148 0.040372416 -0.016534086 -0.014936458 -0.0221447 0.007713586 -0.074023336 0.002014528 0.025963107 0.026166849 -0.055524796 -0.021612827 0.013218973 0.0095648775 -0.007058853 0.01930031 -0.04925903 0.044980768 -0.11462556 -0.26857844 -0.14405964 0.03454523 0.08638536 -0.06929941 0.056099888 0.115719214 0.07090558 0.12951432 0.053267684 0.07900584 -0.031448327 -0.07985638 -0.023921795 0.016355945 -0.010977514 0.09400767 0.015746925 0.037911847 -0.034213144 -0.048487164 -0.098772444 0.122001916 0.088176824 -0.15795739 -0.020638166 0.017949356 0.18171194 -0.12026202 -0.10740993 0.0770142 -0.05118351 -0.17464562 -0.13083014 0.025205646 -0.076564305 0.008401329 0.15322356 0.13945739 -0.014414319 -0.058198445 0.06904233 0.11035733 -0.038195383 -0.08075501 -0.21279827 0.05190227 -0.035162065 -0.06550584 0.0044702515 0.24289832 0.013323229 -0.10311388 -0.12954229 -0.07793738 0.031334992 0.020953786 -0.0644217 -0.24759002 -0.07579427 0.03384769 0.16562822 -0.005108488 -0.039719015 0.14710926 0.18800893 0.18143986 -0.03231786 -0.0047598714 0.11964381 0.042172533 -0.11585845 -0.14418729 -0.011150307 -0.019960137 -0.0022532246 0.055955805 0.3356694 -0.14863054 0.06809908 0.023228336 -0.0033852037 -0.03547105 -0.06801582 0.028777096 0.030656159 0.08611109 0.062659815 0.075134754 -0.012862537 0.17151046 0.18384299 -0.21189679 -0.17610087 -0.02754611 -0.057378322 0.07655109 0.025861608 -0.1875437 0.081987634 0.17744128 0.030580653 -0.2157359 0.03036552 -0.11849893 -0.0718517 0.20999728 0.08056498 -0.12840098 0.06288425 0.1219095 -0.09115 -0.21225388 -0.07333955 0.016369559 0.11624271 -0.053383715 0.11339847 0.13136746 -0.023910977 0.0353881 0.15187559 0.06577463 -0.08859804 -0.06392461 0.051416878 -0.021627381 0.10566186 -0.07151924 -0.21096884 -0.028446717 0.020961884 -0.05068654 -0.09979305 0.097186096 0.044896714 0.082179375 -0.03896992 0.021117488 -0.030769799 0.03230507 0.19263068 0.019029284 0.03398637 -0.15468997 -0.097932175 -0.05371481 -0.03788907 -0.017068934 0.02848197 -0.18720028 -0.09836934 0.07314561 0.098014764 -0.1435053 0.0816331 -0.00013144549 0.16036245 0.036629297 0.076499015 -0.094415985 -0.04208143 0.18925273 0.14614435 -0.12907924 -0.068000115 0.1715479 0.075819 0.11851939 0.12804116 -0.20125587 -0.08563024 0.02983647 0.19079357 0.10295187 0.04035146 0.08728096 -0.3314892 0.06057748 0.06305667 0.086773336 -0.044284567 -0.064629965 0.089308694 0.018874217 0.07416068 -0.1196552 -0.11368401 -0.042722516 0.03093715 0.031559527 0.0001429856 -0.014460952 0.07782533 -0.090825446 0.0024521204 0.05535865 -0.10215839 -0.016243631 -0.091670714 -0.077134356 -0.036647856 -0.047814377 -0.03203419 0.13309006 0.0658458 -0.0051518846 -0.23045908 -0.059684314 -0.11096129 -0.12099284 -0.10800439 0.04292537 0.17849621 0.09271833 -0.021302655 0.109014176 -0.054631144 -0.015423471 -0.038904298 0.10022686 0.02445987 -0.0072590373 0.17225522 0.1989477 0.17213248 -0.03993298 0.09505818 -0.023880498 -0.2819661 0.13131341 0.031275794 0.13841833 -0.06710312 0.072600424 0.1375452 -0.08202397 0.07132867 0.13999498 0.044038236 -0.1981778 -0.41114914 0.11706811 -0.055532068 -0.14009716 0.09467396 0.11084361 0.15192977 0.017168745 0.08673281 0.08786632 0.024013761 0.10923003 -0.14305466 -0.0413234 -0.01353851 0.022575913 -0.051934946 0.033347186 0.009752337 0.011809244 0.004332982 -0.057082854 0.019059584 -0.06336773 -0.0122730285 -0.028604109 0.025612004 -0.05871959 -0.04704 -0.012027227 -0.02385856 0.02254253 0.02646318 -0.06731667 -0.060797684 -0.008785598 -0.017527774 -0.036627434 0.01668069 -0.06103676 0.042669468 -0.0244212 -0.065582916 -0.07773882 -0.054763906 -0.040061176 -0.07637819 6.691034e-05 0.0062874183 0.04065099 0.018954096 -0.068027705 -0.060674213 0.017154073 -0.07208882 -0.035465755 0.014324509 0.04395838 0.022586798 0.027317131 -0.027322784 -0.03863221 -0.013187249 -0.07767075 -0.01440757 0.028763326 -0.040790275 -0.027361216 -0.06797574 -0.014297612 -0.038041517 -0.045287013 -0.023221642 -0.027428862 0.017587438 -0.014437211 -0.006249847 -0.047174662 -0.001580889 -0.00969369 0.039423212 0.0020859255 0.02369311 -0.025860844 -0.031570777 0.009968881 0.014271698 -0.026448054 -0.039118744 -0.049186297 0.025709128 0.034889493 -0.0043358803 0.01516434 -0.04271334 -0.0495483 0.021325689 -0.0020871498 0.003644558 -0.0007573593 -0.057406843 -0.06674642 -0.060888298 -0.011245061 -0.024495918 -0.04421635 -0.060296517 -0.03429778 0.0042466195 0.023046762 -0.024073571 -0.056444086 0.018123858 -0.05588856 0.016259516 0.030183883 -0.017461017 -0.047523104 -0.014020615 -0.053426247 -0.05635958 0.040848505 -0.013673926 -0.030225711 -0.048892483 -0.05921515 -0.02950728 -0.06997192 0.040347323 0.025125634 -0.057433482 -0.016093792 0.01414072 -0.040043313 -0.028726963 0.013145611 0.020465592 -0.011733504 0.01701933 -0.06035634 -0.0038602112 0.025029283 -0.016751856 -0.081106864 -0.047497712 -0.008337176 -0.07885618 0.014684017 0.026023865 0.027524471 -0.041962355 0.029948553 -0.0193953 -0.0002691532 -0.06176989 0.026253562 0.041851312 -0.0053448495 -0.01721356 -0.008954555 0.03232102 -0.07324155 0.013002232 0.020311907 0.029312737 -0.024018122 0.004800966 -0.03895038 -0.038390227 0.010382385 -0.0072147446 -0.050008267 -0.050957054 -0.013337508 -0.06742035 -0.048588734 -0.06575932 -0.013419619 -0.0761065 -0.016775332 0.02467036 -0.020590648 -0.017797984 0.014030057 -0.0075420304 -0.06320599 -0.04700517 -0.058639485 -0.008582054 -0.0039404556 -0.005901359 -0.0019787475 0.003550926 0.018328302 0.014342643 -0.025338102 0.0019212196 -0.04589361 -0.0461138 -0.07333335 0.022125166 -0.058924366 0.048500735 -0.06493188 -0.033912882 -0.019792154 -0.031558163 0.02106781 -0.03259467 -0.0144725945 -0.07808745 0.036973577 -0.009924728 -0.03939452 -0.020127095 -0.012492127 -0.032974042 -0.050674796 -0.04095914 0.02803917 -0.066156425 0.041447137 -0.016116243 0.015716441 0.00053451327 -0.05250263 0.009235211 -0.04940921 -0.021268027 -0.0071768984 0.0010754243 -0.059140928 -0.018209092 0.046694785 -0.033083223 -0.047957055 0.03153477 0.057371393 -0.009129256 -0.03601139 -0.0014957733 0.047984004 -0.05367455 0.05856847 -0.00899967 0.016081683 0.029122382 0.028692119 -0.0013824981 -0.05833312 0.034854107 0.039340906 -0.036747046 -0.007174164 0.014699724 -0.0550547 0.043723438 0.007850438 -0.014882124 0.042264972 0.04080219 0.035153452 -0.031967055 0.011077786 0.010669462 -0.0098603945 -0.042579263 -0.0124126095 -0.053561248 -0.26683646 0.0380113 -0.037023135 0.20089693 0.10207545 0.117809765 -0.25726587 -0.16429769 0.12434446 -0.3010176 -0.21523167 -0.1978456 -0.16253468 -0.1185955 0.09539565 -0.053999178 0.037841503 -0.08750001 -0.051791403 0.028174838 -0.16490918 -0.09404671 0.05660161 -0.19095422 0.020408794 0.13678503 0.073013954 -0.10491265 0.24809141 -0.018737273 0.08083766 0.02114854 -0.25040978 0.025048643 0.29219458 -0.009808843 -0.14004365 0.022445373 0.16186425 -0.29563326 -0.020009803 -0.061979167 0.13252054 -0.07870857 -0.26297572 0.035074994 0.161829 0.100823574 -0.049116064 -0.084778145 -0.09994851 -0.1737219 0.100902684 0.053377356 -0.07449802 -0.046166796 0.2603882 0.1188448 0.16229317 0.19592074 0.036728736 0.023877932 0.14776061 -0.09794823 0.17762084 0.23937227 0.11454497 -0.20373741 -0.06672293 -0.084229946 0.11400333 -0.08819242 0.10500995 0.12720035 0.06768219 -0.1759039 0.11975722 0.014861892 0.18488923 -0.09193534 -0.10658807 0.014825926 0.048622973 0.10176448 0.04762392 -0.057914842 -0.04123952 0.14568712 -0.008055465 -0.08398376 0.008992875 -0.07262395 -0.08459626 0.03535657 0.057704855 0.07992361 0.0694293 -0.012487612 -0.014806817 -0.061733987 -0.10406377 -0.18633074 -0.0057580266 -0.20148909 0.052332394 0.14841229 0.010010637 -0.1223002 0.024214948 0.05784073 0.06987192 -0.14505221 -0.24821647 0.00524819 -0.022899922 0.09199953 0.06987364 0.02773367 0.1163115 -0.002411169 0.021924363 -0.26643264 -0.015790729 -0.15539107 -0.010049578 0.07795019 -0.042002454 0.16015609 -0.097766936 -0.2179378 -0.09173213 0.010977838 0.047930393 -0.076966695 -0.0019644583 -0.21859612 -0.0861455 0.091739275 0.13223605 0.12198008 0.057099063 0.13765872 0.06951085 -0.063258104 0.21469635 0.2309408 0.17948762 -0.0042223996 0.19841601 0.12506902 -0.15374726 -0.027450385 0.12602648 0.07791798 0.08669613 -0.03665786 0.29950532 0.042640734 0.034554303 -0.07304705 -0.24465364 -0.23570253 -0.17907004 -0.13908117 0.19426657 0.115541585 -0.17304306 -0.10478595 0.020090768 -0.12900336 -0.04052562 -0.15114397 0.05153957 0.048235353 0.1907397 -0.057028294 0.40894502 0.1252125 0.074748315 0.05018046 0.0700588 -0.059290413 0.075436525 0.09989475 0.2219705 0.061694276 -0.0075850864 -0.16427535 0.026289707 0.05724518 0.13133202 -0.022577047 0.15911746 0.005616877 -0.09465066 -0.0860473 0.13613713 0.07175009 0.016244033 -0.07457348 0.08902833 0.1484376 0.076805525 0.06402161 0.09224956 -0.03261436 0.0014394543 0.07586433 -0.20615155 -0.13017564 0.32696795 0.1975111 0.08726025 0.1925015 0.11541193 0.03302 -0.17526202 0.13721766 -0.05022733 0.12445576 -0.40874276 0.19025822 0.23405176 -0.021793425 0.36090735 -0.29575884 -0.40487075 -0.15805231 0.36942354 0.004287708 0.3114551 0.06546763 0.14724982 0.10933471 0.07967928 -0.040068112 0.38004497 0.11611334 0.29185396 0.04092754 -0.44863376 -0.35210094 -0.021599041 0.08138315 -0.07477453 0.022317225 -0.10083525 -0.0832791 0.1451141 0.068451114 -0.12524602 -0.13640769 -0.021688169 -0.09805162 -0.037058637 -0.10381684 0.067777656 0.2438084 0.06415758 0.033016935 0.21151616 0.22003676 -0.074792214 0.001228415 0.07483134 -0.09328536 0.12144665 -0.027355127 -0.018828882 0.1136993 0.013150519 -0.013777125 0.1944865 0.02722614 0.06337121 -0.05117387 0.021489765 0.02312421 0.023993567 0.05838388 0.123405874 0.19716905 0.03294031 0.050232578 -0.028707808 -0.2501128 -0.04658361 -0.11050343 -0.27489895 -0.024798784 0.021369576 0.22217456 -0.05782728 -0.08616369 -0.072643876 0.1365648 0.114732124 -0.12465372 -0.074772626 -0.0011158629 0.06457759 -0.062225826 -0.07651465 0.04132529 -0.027648179 -0.18393323 -0.21258633 -0.1297493 -0.05882664 0.11082181 0.15139437 0.2125562 -0.28966302 0.028489212 -0.0010747743 0.075641535 -0.014441678 -0.009493345 -0.080330275 0.0162218 0.23609623 0.080028646 -0.011303817 0.02589942 -0.20356654 -0.020842306 -0.10514731 -0.1319203 -0.045789346 0.014071787 0.056379754 0.3192829 -0.03245952 0.12266307 0.03710247 0.06222127 -0.06937531 0.26044226 0.17015834 -0.22899252 0.11506954 -0.019216387 -0.040317666 -0.1607227 -0.08131743 0.01581918 -0.027319418 -0.0674222 -0.12524278 -0.047475472 0.12915456 -0.01457045 0.2109569 0.13543521 0.24855745 0.0062442855 0.010372908 -0.029442837 -0.14899646 -0.071371384 0.10903181 0.13463601 -0.05325631 -0.020041035 0.15627506 0.045491017 0.08522419 0.12522162 -0.051673416 0.13957517 -0.082620166 -0.15418997 0.0660757 -0.1373347 0.0404595 0.05338671 0.08558621 -0.0449982 0.14714229 -0.17187007 0.014111389 0.0097189555 -0.03563744 0.09375246 0.079667896 0.044781156 -0.138956 -0.062184982 -0.10190462 -0.033067618 0.006564618 0.05860527 0.07206684 4.159352e-06 -0.07738721 0.10530126 0.045514427 -0.105682485 -0.08379524 -0.09434007 0.43716973 -0.14662871 -0.05283107 -0.2110142 0.17087783 0.01931354 -0.1393461 -0.2525985 -0.040655877 0.041571926 0.13711312 0.056540266 -0.16764626 0.05863552 -0.20428844 -0.15144193 0.0020007282 -0.062977485 -0.2611265 -0.035753686 -0.0065952823 0.013293228 0.044808373 0.034043323 0.07562968 0.17186782 0.050067063 -0.0072410777 -0.14700179 -0.024407167 -0.13939635 -0.08890876 0.30341744 -0.23558082 -0.0013725162 -0.2373553 0.27792835 0.15743653 -0.0476232 -0.15449281 -0.040698193 -0.15839873 0.024258163 -0.08916668 0.080428295 0.09838429 0.13076395 0.0029798166 -0.04328011 -0.3209594 -0.21948919 -0.217454 -0.15865216 -0.0056370157 -0.00642686 0.24980025 -0.16702507 0.11112732 0.13558568 0.212633 -0.15830284 0.06404041 -0.094484515 -0.021673296 -0.018643884 0.020652441 0.32163194 0.2964567 0.3692212 0.08739636 0.10686059 0.1596417 0.102672555 -0.11488595 -0.036866415 -0.057762932 -0.010681371 -0.34458512 -0.5004067 -0.03951686 0.38213024 0.043459043 0.051136304 0.11511376 0.089305215 -0.018341752 0.14516892 0.17116061 0.20557486 -0.069086924 0.3873899 0.006940676 0.127004 -0.088114284 -0.19563681 -0.32662696 -0.008171229 -0.20752555 -0.08473214 -0.047027 0.23065118 0.20682797 0.013405122 -0.018080775 0.0866605 0.17864299 0.02161358 -0.041484598 0.10541492 0.080614544 0.09173735 0.07833697 -0.07192707 -0.070376866 -0.10401413 -0.085686766 -0.08987366 -0.011428199 -0.104986794 -0.10003451 -0.05160762 0.00856048 -0.045213647 -0.034040462 -0.008567818 0.03635597 -0.12626866 0.022336675 -0.057080533 -0.10781062 -0.105203144 -0.020692922 0.005912839 -0.03142974 -0.029001784 -0.076949455 -0.082842834 -0.11038398 0.013104015 -0.0041433778 -0.05808093 -0.08778613 0.023443649 7.282288e-05 -0.063114315 -0.14476614 -0.007038815 -0.014049968 0.012171819 0.029134672 -0.080656596 -0.01629958 -0.032465566 -0.023694297 -0.011301086 0.05985922 -0.11041517 -0.0853628 0.02308653 0.044310857 0.040504064 -0.0030313607 0.008545446 -0.06753038 -0.08299889 -0.0046730563 -0.041389734 -0.031425584 -0.036336295 -0.11016203 -0.09784832 -0.12665343 -0.06889509 -0.062214278 -0.008768072 -0.061668497 -0.097627774 0.0033108012 -0.052930776 0.07406301 -0.03976078 -0.08826129 0.010852561 0.060984388 -0.0039309585 -0.02996853 -0.10662208 -0.075115986 -0.06323408 -0.04351631 -0.03304949 -0.021565272 -0.028411958 -0.09402476 -0.06744163 -0.046581488 -0.025218021 -0.042174917 -0.065515615 -0.06049713 -0.05002226 -0.014950498 -0.019030344 -0.08469418 -0.118143514 -0.042703394 -0.022492481 -0.00997584 -0.111509174 -0.11550184 0.009185458 0.02484411 0.0013266511 -0.038431995 0.025800664 -0.061905604 0.012388903 -0.0764256 0.030648336 -0.031402197 -0.15787569 -0.042712107 -0.047966193 -0.10232597 -0.087916695 -0.03901004 -0.015180788 -0.024539402 -0.12436309 -0.09391284 -0.026127009 -0.0300163 -0.03526545 -0.104866944 -0.030417806 -0.01926932 -0.14988837 -0.108002305 -0.098702654 -0.014997667 -0.07395101 -0.09740023 0.020341022 -0.015268941 -0.05149779 -0.03763744 -0.076258555 -0.09449733 0.031526648 -0.06579249 -0.11286878 -0.053824864 -0.12466278 -0.100205764 -0.018199984 -0.05203957 0.049453724 0.016325017 -0.05210213 -0.052598868 -0.00520354 -0.04608431 -0.06621739 -0.04818261 -0.08392894 -0.014537047 -0.024605796 -0.058233656 -0.053936098 0.07826018 -0.026917366 -0.0808162 -0.0548255 -0.03374068 -0.027805725 -0.024328414 -0.098046646 -0.038961343 -0.043113753 -0.041367963 -0.048999462 -0.13978925 -0.094773695 -0.014471982 -0.06682577 -0.045359448 0.04527504 -0.073545344 -0.034303125 -0.047534093 -0.0076122424 -0.049966253 0.07887435 -0.080214694 -0.059229415 -0.020950263 0.038110074 -0.03884969 -0.005671802 -0.051600076 0.019107826 0.008528726 -0.023990458 -0.13291861 0.037371527 0.0019823113 -0.055062495 -0.0039637764 -0.068869926 -0.058725018 0.011624345 0.05301276 -0.10757103 -0.06729833 -0.026859475 -0.01903334 -0.07053655 -0.04794278 -0.07000176 -0.011745281 -0.122510396 -0.056139708 -0.05828189 -0.115736514 -0.044365216 -0.094032764 -0.093417585 0.0086515015 -0.057702165 -0.043711357 0.044141226 -0.05839601 0.06820142 0.039214652 -0.01845684 0.0021643022 -0.059316397 0.06611193 0.22827736 0.2275764 0.03455468 0.02804321 0.06081878 0.10823978 0.14779077 0.15179804 0.0082136225 0.041580103 0.008730037 -0.0054709893 0.06749882 0.07713787 -0.010747966 -0.07278885 -0.08036989 -0.04657457 -0.10926664 -0.097097985 -0.17779174 -0.08465826 -0.079012506 -0.075257465 -0.011234906 -0.1130415 -0.124886334 -0.116854414 -0.015775537 0.028279694 0.027986182 -0.059134938 0.013160218 -0.039071374 0.012531274 -0.080679335 -0.04098511 -0.023596384 0.021812283 -0.06802202 0.03165003 0.0422644 -0.06750532 0.03414025 -0.067453004 0.02624357 -0.03410895 0.0026951786 -0.051227197 -0.03433208 -0.01229266 -0.0011939498 0.0030219904 0.02394213 -0.04044078 -0.04478065 -0.028739203 -0.03275027 0.03211886 -0.033900827 -0.004240601 -0.07300255 0.014355044 0.036386076 0.02179604 0.03478385 -0.060364965 -0.038946163 0.0012057172 0.060411576 -0.069208674 0.029216247 -0.029942844 0.06771653 0.0057302625 0.034750685 -0.04862705 0.009464997 -0.003863212 -0.0033182274 0.0015224979 -0.08204257 -0.04433798 0.040291544 -0.04088153 -0.051278558 0.055820793 -0.0018249736 -0.01535539 0.017106839 0.01834209 -0.022269713 -0.009540023 -0.08110945 -0.0019071236 0.0069218557 0.041803624 -0.018809464 -0.0073622284 -0.0639066 0.040017445 -0.00017027988 -0.07541467 0.03314617 -0.028112235 0.016838215 0.03189691 0.038737293 -0.071548775 0.043468215 -0.07294357 -0.06191769 0.017732207 0.0085995365 0.009479684 0.009358629 0.0010939474 0.00039809447 -0.042761777 -0.007874574 -0.06987147 -0.032755267 -0.022221645 0.0030490619 -0.031646967 0.023955107 -0.05570901 -0.004083549 0.023042766 0.0024137027 -0.029052943 -0.03750469 0.012084727 -0.0076057203 0.041552924 0.015928395 -0.00979453 -0.0069189924 -0.041243684 -0.043740764 0.04058927 -0.033342812 -0.028703496 -0.039602038 -0.034234878 -0.030559853 0.02404831 -0.038990952 -0.007926572 -0.042098943 -0.057162102 -0.016588427 -0.016690137 -0.046727523 -0.07637425 -0.05837146 -0.0011807381 -0.05666005 -0.051312234 0.011341564 -0.008411344 -0.070622966 -0.034645442 -0.07627988 -0.031640846 -0.03974913 -0.04754105 -0.013571657 0.0035371033 -0.020257652 0.012914936 -0.038502403 -0.06002741 -0.0009387676 -0.004401587 0.025128867 0.017733186 -0.029301245 -0.0700622 -0.002272651 -0.049082454 0.03345836 0.027492264 0.041522704 -0.020658765 0.0008460584 -0.05246845 -0.029235166 0.036651358 -0.03744653 0.005673258 -0.034806754 -0.079389125 0.014040408 -0.030145878 -0.010597861 -0.03824002 -0.06784486 0.051112466 -0.01932546 0.0056819003 -0.05315972 -0.01503443 -3.47225e-05 -0.06839144 -0.039671164 -0.013472167 0.01398732 0.009045009 0.04907134 0.0073768147 0.016137676 0.0091210455 -0.05180199 -0.043292716 0.04971939 0.036735497 0.020868426 0.014335501 0.045766026 -0.0051196893 0.042771887 -0.017766602 0.002051126 -0.017299585 -0.008115832 0.031240461 0.013868993 0.006422594 0.030033426 0.020497883 -0.024449497 -0.027346997 -0.026827423 -0.06544618 -0.06380226 -0.027265297 -0.04777811 0.045068473 -0.07642835 -0.007310197 0.0281222 -0.03350894 -0.00450652 0.014439414 -0.064975575 -0.015334659 -0.028233508 -0.008291629 -0.019865097 -0.048396215 0.022075906 -0.063665174 0.00013623135 -0.02103547 0.017683268 0.060943812 -0.031880297 0.048665434 0.003601323 0.0496291 0.05427748 -0.059711486 -0.0028616935 0.041870765 -0.061912954 -0.061816856 -0.014047928 0.040025398 0.0016740784 -0.008344374 -0.001978358 -0.033300065 -0.0048637865 -0.01124356 0.04174147 -0.018685969 -0.04396613 0.0005903656 -0.032864206 0.037299566 0.011350043 0.023783874 0.0024576646 -0.02611936 -0.063481 -0.13697891 0.055050503 -0.15646757 0.17718518 0.03286964 -0.0039173947 -0.10379579 -0.12249047 0.13167052 0.11131202 -0.10164631 -0.08034108 0.13372953 0.03281336 0.03779333 -0.11697974 0.22672208 -0.051986776 0.03900518 0.19693503 0.09314737 -0.08526728 0.026083663 -0.06277615 -0.08151006 -0.023868477 0.022971017 0.060758885 0.027716666 0.116288856 -0.021050984 -0.072002955 -0.029200833 -0.1277105 0.02794043 0.20128462 -0.08914732 0.08903914 0.036820788 0.13936055 -0.039247867 -0.09055422 0.045260746 0.22124119 -0.1093737 -0.03799703 0.25113487 0.15700385 0.05579771 0.057313297 -0.07251117 -0.14010516 0.17129326 0.13333601 0.08290225 -0.06517158 0.08456948 0.10570017 0.062011518 0.24650715 0.051545825 -0.09914313 -0.25926465 -0.058652416 0.16321717 -0.01165183 0.08638433 -0.043341875 -0.15401106 -0.08466117 0.15407313 -0.25184983 -0.19225073 -0.011639905 0.14645045 -0.18323396 0.068064444 0.1678296 0.057541043 0.27184632 0.12137287 -0.0017162793 0.026269823 0.017401213 -0.025526382 -0.14894477 -0.029786928 0.10968797 0.08658494 -0.004213599 0.036285415 -0.18893458 -0.02310796 -0.031684402 0.1578022 0.0031239446 0.10611053 0.036677204 0.27740029 0.12398487 -0.18422878 -0.20286596 -0.018886123 -0.014503952 0.054346647 0.12823492 -0.011792095 -0.0940514 0.051379982 0.04656957 0.12890758 0.041598596 -0.17057507 0.14382063 0.13721795 -0.018015767 0.13529494 -0.096934386 0.002773241 -0.14259858 0.13036129 0.032174014 -0.04598014 -0.11849037 0.1267851 0.08471066 0.08573252 0.14209159 0.12613037 0.0017784121 0.055063255 0.014088657 0.22240722 -0.09083617 -0.074842036 -0.22069804 0.16718191 0.1682145 0.076969825 0.12540355 -0.008524114 -0.16977988 -0.33609334 -0.09986455 -0.0871176 0.06911152 0.18412308 -0.12558787 0.1597513 0.09452287 0.12160831 -0.12603351 0.037614103 0.05844623 0.023976382 -0.22102314 0.3888473 0.16390982 -0.13905253 -0.06497579 -0.07368009 -0.034764413 -0.08263988 -0.2026979 0.15588436 0.042333186 -0.07960526 -0.12639199 0.2155387 0.1523135 0.133515 -0.028191986 0.34027857 -0.05285836 0.1138662 -0.24444273 0.4031336 -0.13371876 0.04318923 -0.36059138 0.00489284 0.032304928 0.102646716 -0.23491666 0.065452866 -0.17103747 -0.21395212 -0.4718926 0.15346168 0.15595594 -0.05734509 0.003744903 0.12924351 -0.028607259 -0.040280662 -0.12516777 -0.03136298 0.035237964 -0.20469284 -0.38762942 -0.07109191 0.06961587 0.17080519 0.14130524 -0.014149569 -0.08428716 -0.114902616 0.25308165 -0.10952973 -0.0051076342 0.11368431 0.07778499 0.15056796 0.24460384 0.21586859 0.16164197 -0.051790312 -0.060377408 0.08995781 0.059702303 -0.04847118 -0.17601556 -0.17153564 0.013451371 0.24286383 0.10700174 0.066506505 -0.065430105 0.2083243 0.060572095 0.20076275 0.07882861 -0.048726384 -0.10661919 0.076889925 0.13846481 -0.028743321 -0.085736334 0.053530984 -0.001207269 -0.44518998 -0.1528159 -0.07672233 0.003646532 -0.058573946 0.012096113 -0.13047789 0.005727315 0.11423703 0.08180895 -0.008392475 0.11218432 0.12754957 0.065639734 -0.088895164 0.02928836 0.07852492 0.074442536 0.058615603 -0.0370392 -0.00035686095 0.072565265 -0.025469229 0.08728856 -0.18026996 0.15636069 0.14774407 0.14835972 -0.056061205 -0.07245461 -0.16099457 0.11943935 -0.19059594 0.0035999436 0.038409792 -0.060635105 0.0689031 -0.121459424 -0.028501049 -0.11318937 0.0037264095 0.058352087 0.19773805 0.28198868 0.14905667 0.2847871 0.05621982 0.1556119 0.11623704 -0.06361983 -0.098816335 0.2625925 0.11714709 -0.03923338 0.058889166 0.38433203 0.06567045 -0.00507301 -0.12573081 0.11699729 0.1639238 0.11473108 -0.14640905 -0.01680879 -0.13508224 -0.15154971 -0.09246865 -0.014830111 0.11175765 -0.13844973 -0.018127332 -0.015538685 0.14510237 0.13710442 0.06576436 -0.06471678 -0.33089966 -0.14309095 -0.019214002 0.23508105 -0.07919884 -0.09325443 0.049591362 0.37716118 0.05556827 -0.0046614823 0.030038008 0.12976342 0.004500095 -0.075023316 -0.10079293 -0.15777442 0.013509083 0.048135627 0.11535346 0.13104685 -0.18866262 0.1897668 0.034216873 -0.04825971 -0.094744705 -0.036695365 -0.04521275 -0.00032908912 -0.007364559 0.117734164 0.11874665 0.015357828 0.2783019 0.23875356 0.09132139 0.0155890845 -0.14409786 0.026285449 0.100778975 0.1235278 -0.02690078 0.017405847 0.1026025 -0.09712611 -0.13382259 -0.1362228 -0.034217235 -0.1660988 0.03875503 0.1441632 0.036534484 0.280393 0.061953053 0.03306427 0.018086817 0.06028611 0.04756688 0.04968921 -0.26111102 0.0036383467 -0.21981688 -0.05612475 0.0021151698 -0.03895523 0.10386823 -0.045800976 0.06759034 0.00346048 -0.09384239 -0.104477905 -0.09561384 -0.091024496 -0.19429617 0.07730924 -0.0632039 -0.026358657 0.12876558 0.03398831 -0.030962061 0.048907492 -0.054954566 -0.09797114 -0.007400586 0.19809447 -0.01273068 0.008988726 0.056875344 -0.0040443665 -0.18004444 -0.15059684 -0.19945253 -0.09983415 -0.001204576 -0.08049287 -0.1943892 -0.26253378 -0.2934176 -0.0819569 -0.058110025 -0.009354356 -0.022382917 0.055922236 -0.01107896 -0.12896496 0.050668705 -0.18069848 -0.0012795952 -0.11580634 0.22243151 0.15705968 0.084881924 0.07064347 -0.12677237 -0.18057851 -0.065476656 0.1563969 0.08646672 0.07036583 -0.041965894 0.074455805 0.015216338 -0.089448705 0.010311639 0.06670623 -0.13353916 -0.25074783 -0.35020405 -0.16023828 -0.087778606 -0.11425118 -0.318895 -0.23666236 -0.085969016 -0.115047544 -0.03668319 0.059600916 0.05605413 0.035751402 0.045463998 0.021264622 0.00920127 0.036699764 0.118859366 0.19824786 -0.24575825 -0.15600547 -0.02534061 0.12589192 0.23104511 -0.36357954 -0.20554219 -0.091066904 -0.20918712 -0.16086233 -0.1699333 0.17177112 0.15124574 -0.06048619 0.022977397 0.09198216 -0.051890936 0.18960643 0.070523694 0.10942413 0.1144623 0.03770737 0.14999487 0.095256284 0.18074867 0.26110438 -0.17117386 -0.12911777 -0.19559608 0.13492982 0.0173562 0.16559407 -0.08651633 -0.24576463 -0.102933645 0.14109619 0.2685303 0.14243552 0.1588496 -0.115779415 -0.03515582 0.106588736 -0.21639632 0.117460676 -0.13193038 0.050611228 0.11263063 0.15522973 0.09122761 0.12385071 0.049259778 0.016021786 0.027294155 -0.059174158 -0.00014155815 -0.021017717 0.0060605635 0.124777064 0.02607201 0.12780948 -0.0996861 -0.1193043 -0.040526494 -0.055317722 -0.10795936 -0.018712822 0.16404676 0.19363637 0.20794097 -0.048608962 0.047452778 -0.064604975 -0.067139804 -0.039131798 0.020503607 0.08961272 0.00957293 0.031257812 0.062852286 0.166275 0.01928528 -0.009903314 0.059080724 0.099294096 0.018739738 -0.002413361 -0.07480053 -0.33733138 0.11304826 0.09631432 0.07485021 -0.18215066 -0.14482054 0.035261568 0.15569597 -0.34744915 -0.31223917 -0.21321851 -0.120064884 0.2822836 0.009597355 0.1346468 0.14498353 0.045546114 -0.19057417 -0.14025308 -0.044689097 -0.03424073 0.089489914 -0.03305863 0.013692705 -0.06327449 0.2533466 0.055178788 -0.08615649 -0.21973066 0.04114903 -0.0001702293 -0.0096020335 -0.1338903 -0.042498946 -0.00029787124 0.09212014 0.06991134 0.07810101 -0.055701416 -0.021967942 0.055461463 0.0018477275 0.07932625 -0.002959953 -0.3011467 0.04610316 -0.197542 0.10906843 0.009252217 -0.021965628 -0.018729785 0.21294546 0.06841804 0.04957536 -0.17016976 -0.036075033 -0.005157633 -0.25392073 -0.26114997 0.043040603 0.059287995 -0.0037955511 -0.0003389976 -0.21848394 0.12166785 0.08842258 0.03541239 0.11918458 -0.10243681 0.15360859 0.05869945 0.12035133 -0.058315758 -0.017653741 -0.06664589 0.07612747 -0.0022195342 -0.014505924 0.0020008113 -0.0482988 0.10190509 0.0962178 -0.02885865 -0.018241825 0.11177927 -0.035195597 0.041953795 0.04439647 -0.30192629 -0.11443848 -0.060098298 0.052724622 -0.19403423 -0.01436953 -0.039958395 0.04344106 0.13645966 0.05251803 0.01588702 0.0010109827 -0.011945046 -0.18860589 -0.08492973 0.13353725 0.07698905 0.09352087 0.03692514 -0.07376276 -0.26386476 0.14197178 0.045022283 0.08371009 0.066565156 0.03777492 0.046549898 -0.042297523 0.13424632 0.12595351 0.07934601 -0.07471055 -0.16783686 0.3068659 0.19515966 0.124078095 -0.19358456 0.09524276 -0.019673977 0.0037756027 0.15729016 -0.032115538 -0.079500765 0.15852745 0.043970786 -0.2970478 -0.16135885 -0.09816857 -0.15601815 0.04671043 0.17382452 -0.108240545 -0.10347543 0.15177543 0.18416616 0.11155754 0.13652445 0.01505691 -0.03723676 -0.037694547 0.19483842 0.11912254 0.05335498 -0.014630265 0.17352843 -0.09677125 -0.07324401 0.0055569117 -0.097959474 0.058624208 -0.00041709724 0.088458516 -0.023465194 -0.022855384 -0.24705383 0.09662163 0.31622744 -0.01130345 -0.03352367 0.05560266 -0.028726412 0.029421376 0.18204463 0.036287833 -0.175269 0.0009787015 -0.02039897 0.034478802 0.056775104 -0.10783689 0.13858469 -0.1587013 -0.06167356 -0.34021297 0.15089841 -0.19470039 0.026609292 -0.18259692 -0.26242375 -0.044193786 0.08054014 -0.0088798525 -0.039494824 -0.19745278 -0.16306497 0.0027180165 -0.06972297 -0.15574966 0.1183181 0.0215651 -0.06490507 0.14606743 0.16697918 -0.31141135 0.04289915 0.19979861 0.021046663 0.006158649 -0.05528721 -0.094610184 0.122900054 0.07108661 0.06626784 0.058029257 0.05720648 -0.095604986 -0.044395376 -0.013786572 -0.039973628 -0.24053062 0.033887614 -0.07609466 0.095473275 0.037228506 -0.058645077 -0.01604686 -0.25784346 0.009670004 0.074750975 0.037793938 0.23590004 -0.21005923 0.01823568 0.024814866 0.06901874 -0.08719007 -0.16105554 -0.052478246 0.26317894 -0.18922348 0.04422013 0.07395954 0.03313933 -0.15132684 -0.12817268 -0.09711225 0.07281401 -0.13627669 0.08878901 0.060884785 -0.04356017 -0.028105736 0.095101826 0.12238438 0.06835357 -0.020173874 -0.25285253 -0.22234811 -0.044450283 0.0927932 -0.11308161 -0.07362529 0.05012743 0.033299603 0.07084012 -0.120940425 -0.10051059 -0.050478037 -0.18205829 -0.03934581 0.072161496 0.009586904 -0.07588418 0.019696712 -0.014330239 -0.04276708 -0.07211061 -0.07907038 -0.11597304 -0.070466585 -0.00066882547 -0.049645588 -0.21203992 0.24262333 0.115101956 -0.0963252 0.021461299 -0.031141214 0.0037753966 0.07192813 0.05618356 -0.03496823 -0.029400352 -0.021929523 -0.15495157 0.17543302 0.117485784 0.018956397 -0.022028657 0.05149837 0.038103383 0.0912531 -0.11999384 0.016209772 0.011608695 0.047779415 0.1332824 -0.01297709 0.06781758 0.12244042 0.056505382 -0.10470836 0.05778036 -0.023268413 0.19693875 -0.2471032 -0.1042332 -0.0046505732 0.12721734 -0.039542776 -0.08563989 -0.107119255 0.039317716 -0.082893066 0.037712347 0.011723869 0.026299048 -0.01839788 0.09378832 -0.057482637 -0.08759437 0.0189975 0.10453581 0.047887072 0.13068703 0.0024775732 0.07103889 -0.18303062 -0.2805491 -0.021682147 0.112330645 0.1218662 0.18927418 -0.086939484 -0.016170658 0.071582966 0.12496379 -0.093002334 -0.058177 0.004891218 -0.059907295 -0.067034505 0.081717014 -0.004015538 -0.15581587 -0.20246315 0.0069782706 0.023669727 0.05234937 -0.12241765 -0.035722002 -0.04801656 0.0087648025 -0.06775611 0.10706951 0.072752506 0.05524121 0.013890438 -0.1228857 -0.08769073 -0.17216077 0.0039183646 0.0051829983 -0.053699914 -0.08899741 -0.052533414 0.00052726024 0.042713266 -0.1849141 -0.06706885 0.20503955 0.19437106 0.013197473 0.030875746 -0.0067071263 -0.1548165 -0.106445774 -0.12892893 -0.023301607 0.11851068 0.10401297 -0.16089574 -0.123925015 -0.0086267395 0.022341052 -0.24954095 -0.13799828 0.24637285 0.116560616 -0.10573591 -0.115718625 -0.113798045 0.008277958 -0.0004498971 -0.19510756 -0.097972564 -0.023507407 0.07929367 -0.011695857 -0.089543685 0.087137334 -0.08866374 0.03199326 0.08395489 -0.10456853 -0.13639852 0.015920991 -0.003540555 -0.020381166 -0.04823078 -0.029202878 0.062137432 0.14132231 0.023935003 0.14448193 0.16395724 -0.040151376 0.040428508 -0.017665943 0.09172688 -0.04998655 -0.078032255 -0.3056772 -0.01794345 -0.03488887 -0.33898997 -0.06254941 0.055940554 -0.0069962856 -0.15973343 -0.074861035 -0.12354436 -0.008365641 -0.09836818 0.14248131 0.024062587 0.1468527 -0.24152713 -0.18292128 0.12757349 0.17797318 -0.05781564 -0.03891207 -0.36050344 -0.20919542 -0.089023836 -0.03177296 -0.06472427 0.030408652 0.07561886 0.2010857 -0.14533515 0.077652656 0.18476185 0.030624785 -0.18891822 -0.1661949 0.07149655 0.0823324 0.24197647 -0.033785943 -0.16184053 0.020625541 0.09343341 0.03442074 -0.14815153 -0.007453388 -0.020457076 0.053610947 -0.24057725 -0.050718956 -0.0025725455 0.08448012 -0.10779739 0.13498554 0.03619889 0.110278666 -0.22794025 -0.22631453 0.08199722 0.0914972 -0.21528627 -0.10410049 0.19795416 0.08648197 -0.22984739 -0.03717987 0.10350457 0.07724375 -0.017711513 -0.053223323 0.026911119 -0.1629269 0.10168085 0.3108651 0.2278966 -0.07927508 0.08386183 0.21773212 -0.1418811 -0.2411318 -0.29768074 -0.20079385 0.06354741 -0.13857862 0.038475268 -0.003034338 -0.019085247 -0.008454065 0.022315955 0.008280146 0.009467089 -0.09822885 0.00062286336 -0.036086373 0.114170425 -0.012589169 0.009418609 -0.049237482 0.0083992435 0.060237583 -0.062129546 0.03919683 0.069705024 -0.089333035 0.13337682 0.07160477 -0.017641662 -0.10978417 0.22198923 0.18242127 -0.095927455 -0.23370369 -0.10117611 0.089126386 0.06407508 0.006008965 -0.045838933 0.13245195 0.08235491 0.10362221 0.07153558 -0.031795193 0.0027716039 -0.17026305 0.05405929 0.016316237 -0.21996273 -0.16123356 -0.03962466 -0.05849988 0.26056695 0.13634454 0.052202597 -0.09287269 0.0968167 -0.039648306 0.0030241143 -0.018570056 0.10614219 0.21397124 -0.22012734 -0.0064892666 0.173117 0.07339562 -0.036228403 0.004831991 -0.007000965 0.18268707 -0.068054356 -0.003197156 0.021506207 0.033509944 0.044508815 0.037150033 0.18360099 0.045841224 0.051555615 -0.0061776866 0.10060632 0.16339009 -0.045978017 0.14573185 -0.024621932 0.056025684 -0.032105863 0.20755164 0.074880905 0.09134397 -0.20702848 -0.007399119 0.10193603 0.05912342 -0.00076446537 -0.053979885 0.0053156014 -0.2810111 -0.15292309 0.09468154 0.13483205 0.024898358 -0.08695657 -0.18365504 -0.12862264 -0.12702644 -0.06423833 -0.05315653 0.13215815 -0.09863023 0.13081792 0.314425 -0.018843351 -0.13763848 0.06428337 0.03195222 0.06307835 -0.12533876 -0.09861409 -0.023937905 0.12477819 -0.005251482 -0.094880104 0.021021266 -0.23024182 -0.23162852 -0.14258307 0.02667334 -0.17382768 -0.14057949 -0.07287725 0.10442944 0.16258654 0.03439756 0.06697438 0.028818134 0.064246185 0.016053222 -0.05200539 -0.1431593 0.058005627 -0.062289827 -0.17298266 0.08958835 0.102593146 -0.40346262 -0.21683508 0.003948439 -0.06972669 0.15750489 -0.11661117 -0.1120832 0.0028246967 0.19604017 -0.15207753 -0.040268634 0.031342734 0.066300504 -0.2740896 -0.09782785 -0.04269974 0.16786297 -0.34166723 -0.073329255 -0.0057407147 0.14489625 -0.1638047 -0.100393355 0.14155841 0.059198312 0.1017312 -0.057185225 -0.26366282 -0.20449574 0.032144614 0.028620124 -0.2590951 -0.3862432 -0.001043885 -0.11429889 -0.097796574 -0.062057238 0.11630017 0.1662424 0.020774407 -0.15058853 -0.12567964 -0.11305182 -0.019166848 0.13746062 -0.14014387 0.03825953 -0.051969748 0.4483205 -0.31970832 -0.29212263 -0.18828087 -0.09395262 -0.105143525 -0.10114387 -0.1267331 0.32305974 -0.0056376196 -0.10347127 0.25593665 0.13896033 -0.57155377 0.3482979 -0.036482416 0.13869658 -0.21290731 -0.20116822 0.091783494 0.0075848443 -0.055740938 0.123395205 0.14640814 0.0052727624 -0.21726382 -0.0880473 0.041887477 -0.06277859 -0.22503616 -0.15138867 0.14999682 0.047027074 -0.12337605 -0.14980748 -0.109492786 -0.1980594 -0.061184086 0.086403735 -0.2349496 -0.12990317 0.3334214 0.20123558 0.12078012 -0.041463833 0.25432512 -0.20825283 -0.025589276 -0.08932682 0.13457334 -0.13826062 0.023346893 -0.016573008 0.09131716 -0.10041756 0.04011024 0.05398386 0.07674326 0.045442536 -0.033890106 0.01912108 -0.088522896 -0.14715123 -0.14856027 0.024985561 0.013937177 -0.063176356 0.1742516 -0.17666894 -0.08175584 -0.026622985 0.02807534 0.10048917 0.15832733 -0.064007215 0.00019414276 -0.09779052 -0.05077505 -0.3197814 -0.24988186 -0.1837485 -0.113621555 0.026113575 -0.06969942 0.06595834 0.10865043 0.097390555 -0.15432207 -0.027489334 0.047913484 0.11234138 -0.0766761 -0.021844279 -0.018183598 0.071765795 0.09261013 0.12440327 -0.027253045 -0.088900305 -0.08252909 -0.07908238 0.075138494 -0.06878176 0.014231827 0.17992058 -0.062478032 0.01103547 0.07120756 0.17337252 -0.10513212 0.075600676 0.08505226 0.112633966 -0.092236966 0.026424956 0.08810588 0.104384445 -0.07252514 -0.028026903 -0.14756015 -0.03560843 -0.014467353 0.051882263 0.045380406 -0.07851998 0.058560144 -0.01513679 -0.014583369 -0.14356458 -0.017833909 0.017585214 0.29249847 0.17933194 -0.096979775 0.047719985 0.10136751 0.09394017 0.06396876 0.056631893 0.07169399 0.28631675 0.009348123 -0.0222659 0.079767935 0.03330902 -0.10260353 -0.1474726 0.04853829 0.08690429 -0.14681445 0.035164252 -0.038870398 -0.062819876 0.14387982 0.0037997067 0.11376973 -0.09985306 0.101145744 -0.006539572 0.00015926082 -0.04732627 -0.15241623 -0.02744706 -0.01645763 -0.022412676 -0.044922136 0.001895288 0.040650535 -0.11605197 0.13328958 0.011651335 0.095308214 -0.07745255 -0.12807456 0.07358466 0.04913191 0.07258698 -0.120630555 -0.06982465 -0.03824252 0.035920694 0.1290637 -0.071995296 -0.10326262 0.12277174 -0.093322806 0.05165146 -0.016650176 0.19496872 0.06994088 0.23679328 0.19660576 0.115912445 -0.14301762 0.014973735 0.0024818694 -0.064027525 0.06633473 0.050747402 -0.16491559 -0.12117625 0.14323631 -0.061037228 -0.07864307 -0.012535629 -0.1929552 -0.21295543 -0.08494151 0.13273945 -0.116022125 0.07466026 -0.07638103 -0.046539914 -0.2715217 -0.13887517 0.029414456 0.07534689 0.118694164 0.16897476 0.09617689 -0.0034068138 0.036639843 0.10878118 0.16764916 0.059963435 0.013634503 -0.062115382 0.02169084 0.11710682 0.0009062463 -0.04020524 0.06705306 0.08492216 0.077227086 0.025517011 0.2989088 0.1738986 0.19090465 0.107090704 0.14165178 0.09239067 0.1012245 0.024261199 -0.33465517 -0.18999726 0.1437331 -0.060664956 -0.21903767 -0.20501484 -0.07060836 -0.14216937 -0.045727074 -0.11645285 -0.26519483 -0.3245979 -0.055860236 -0.098863035 -0.34788543 -0.23181427 0.09303499 0.05046232 -0.06056762 -0.004774412 0.119929574 -0.03474172 0.063976884 0.12369024 0.2002297 0.073954836 0.15338527 0.1542573 0.18469688 -0.018331707 -0.13563542 -0.16665184 0.03282026 -0.18194117 -0.05972843 -0.048898365 -0.09564964 -0.19960019 0.22355025 0.107502036 -0.14935176 -0.16353603 0.1449563 -0.020541562 -0.014940827 -0.07255261 0.017189352 -0.014037726 -0.0073935916 -0.08646935 0.03659893 -0.039624322 0.035774708 -0.041970447 -0.011975588 -0.060454965 0.002846457 0.05078001 0.02710033 0.03314001 -0.070152566 -0.07271121 -0.0242178 -0.06927429 0.011450521 -0.0102487365 -0.059361212 -0.03370013 -0.07960869 -0.0634371 -0.04525308 -0.0318447 0.0065898453 0.020399554 -0.08349983 0.037620436 -0.051327195 -0.014261305 0.0022232626 0.034081895 0.0014028967 -0.067140274 0.016506694 -0.0001333932 -0.051768024 -0.035081275 0.0373561 0.031745315 0.029969094 -0.057663076 0.03437098 -0.011212479 0.00093572587 -0.027699575 0.038690194 -0.062365778 -0.02740192 -0.037727464 0.0350761 0.013558664 -0.06085166 0.05664369 -0.07809514 0.03613159 0.01874485 0.019944366 0.03269427 0.012823537 0.016710376 -0.0444695 -0.020999188 -0.010621834 -0.0055322973 -0.013236612 -0.06948822 -0.057639904 -0.07743267 -0.015097153 0.009897614 -0.0732323 -0.04790834 0.007870737 -0.0861672 -0.019936724 -0.07083209 -0.08598236 0.03893055 0.00013193914 0.0018374627 -0.008572421 -0.059754305 -0.061408136 0.026556017 -0.059041347 -0.024774129 -0.031475104 -0.041941293 -0.06445658 0.021360705 0.025751514 -0.031483214 0.00875666 -0.030324219 -0.073856406 0.020960132 0.037265144 -0.033269454 0.0505091 -0.0863856 -0.0728853 -0.044368606 -0.039711658 0.036225434 -0.07097312 -0.08572448 -0.04102694 -0.025281848 -0.074127115 0.01437306 -0.055999428 -0.07565206 -0.03367945 -0.035500623 -0.02699759 -0.0011553003 -0.00059111783 -0.066193014 0.006623593 0.016482953 -0.049693163 0.0070957835 0.020264506 0.0025485663 -0.0034558487 -0.080393784 -0.039682172 -0.07643335 -0.019822536 -0.040430337 -0.07955064 -0.03484918 -0.013576078 -0.07566749 -0.08155708 0.023424804 -0.03671724 -0.04021856 0.030421363 0.027487092 -0.05388217 -0.045793433 -0.025076345 -0.030425556 0.030353388 -0.07822892 -0.022275252 -0.045125738 0.016205397 -0.07389541 -0.020526573 0.02500064 -0.034726486 0.032238603 0.016890883 -0.076178394 0.006869642 0.032894045 0.009084862 0.024225269 0.01609752 -0.07210327 -0.06619992 -0.022583507 0.040921874 -0.07329421 -0.03924095 0.03616712 -0.06184366 0.011086392 -0.026567297 -0.04973268 -0.07038147 0.011562157 0.030940333 -0.057784494 -0.055907734 -0.023716472 -0.033238143 -0.04251325 -0.045025997 0.05244965 0.004897788 -0.042444546 0.031913668 -0.0053150966 -0.026736727 0.008750328 0.014478056 0.043112263 -0.04571675 0.020536887 0.035680126 0.018483728 -0.05742625 0.057932027 -0.038477957 -0.07392144 -0.027933702 -0.0687805 -0.009676875 0.011993905 -0.068707064 -0.08076155 -0.025323525 -0.03131017 -0.014572229 0.03176623 0.007040709 0.025985992 -0.07083496 0.04314548 -0.055912327 -0.011426237 -0.028271325 0.014047918 -0.053767458 -0.072163664 0.033862703 0.03588848 -0.06407752 -0.017765157 -0.022020638 -0.0039734915 0.0060793683 0.021185733 -0.052160427 -0.03192795 0.03840021 0.053359367 -0.019048758 0.0454596 0.05983761 0.005867228 -0.002442345 0.016805917 0.0059869587 0.044559598 -0.0072435765 -0.04909305 -0.051133495 -0.05364135 0.033299066 0.01844052 -0.02158403 -0.050220754 -0.04455002 -0.020557351 0.043234248 -0.044287115 0.025002394 -0.04436894 -0.026066704 0.2435788 0.15760866 0.094236836 0.24817583 0.15043983 0.07651778 -0.11866371 -0.0021822187 0.03804461 -0.09116861 -0.1265292 0.17054592 -0.09646148 0.04490811 0.035478413 -0.07089114 -0.056625206 -0.037789326 0.023956489 -0.055953063 0.08276584 -0.023915054 0.05860433 0.15730025 0.16289437 0.12344909 -0.05015982 0.113897525 -0.12599856 -0.047959898 -0.020600544 -0.050412193 0.04204135 0.06671832 -0.15054277 0.2557312 0.11214959 0.0520135 -0.11616703 0.012150861 0.1187071 0.008219072 0.02834638 0.19499828 -0.060233902 -0.08345648 0.14076243 0.10117506 -0.0625779 0.12441946 -0.107124805 -0.15780945 -0.06612298 0.084166415 0.044617824 0.16174373 -0.13326782 0.13190314 0.069136426 0.15363064 -0.3022076 -0.10985751 0.1214847 -0.033001915 -0.046942756 0.05898442 -0.070711754 -0.057224274 -0.39375177 -0.2855956 -0.07454915 -0.19645737 -0.10907187 -0.072157875 0.048010085 0.09973967 0.20881577 0.21153711 -0.19562365 -0.22353838 -0.034236755 0.11470247 0.06898544 0.08035152 0.007163204 0.022950843 -0.049374215 -0.10574754 0.00576338 -0.10928171 0.03684698 -0.054206148 0.036485165 -0.024937691 -0.039217506 0.08137829 -0.18029246 -0.0024866648 -0.13324754 0.02337783 -0.26303977 -0.20101468 -0.23339216 0.12227649 0.06401721 -0.12274394 0.0072130747 0.1303735 0.07907312 0.040938694 0.09387605 -0.062402133 -0.037957195 -0.12559737 0.055046223 -0.08232345 -0.04058244 -0.18470162 0.19106449 -0.05170938 0.05220978 -0.1087454 0.018255219 -0.0030087205 -0.008906611 0.12007473 -0.082479194 -0.05138568 0.04808459 0.06225108 -0.15571643 0.0041800286 0.2028495 0.052993823 0.06095062 0.1458162 0.12227028 0.05995167 0.12728669 0.12362752 -0.09930189 -0.07114977 -0.032001153 -0.12337314 0.09062479 0.06938634 -0.03668529 -0.13164003 -0.5689902 -0.23794653 -0.16108201 -0.27130446 -0.082089044 -0.013087 -0.09225099 -0.042873263 0.17744775 0.0054270695 0.0063665137 0.029694928 0.026553566 0.008863431 0.017220277 0.13676934 0.0793828 0.21229888 0.18398334 0.2088674 -0.15711598 -0.040045362 0.09109817 0.19092596 -0.062356714 -0.18479018 -0.10919729 -0.26582852 -0.14257963 0.0016572746 -0.06462637 0.13414632 -0.3568614 0.25375113 -0.26653332 -0.122967325 -0.07311508 -0.25348493 -0.20970418 -0.12095995 0.047431514 -0.10623919 -0.13540432 0.10982752 -0.31514373 -0.36530483 -0.3823086 -0.38381368 -0.1919158 -0.25897777 0.014698196 0.06309807 -0.0628714 -0.114171945 -0.028503502 0.032827266 -0.051119786 0.1502375 0.098606825 0.12179302 0.16663852 0.25692353 0.42662334 0.11708711 0.31644148 0.054596342 0.19279926 -0.07921056 0.26471743 0.03171732 0.06275233 -0.12384162 -0.21627529 -0.081685394 -0.3319883 -0.11277452 0.017717807 -0.20372815 -0.19378628 -0.015762853 -0.19096023 0.010119792 -0.052184116 0.23093192 -0.15201224 0.09795199 0.11169227 -0.028639048 0.48520032 -0.081666075 -0.5029748 -0.42716694 0.25358966 -0.0026709016 0.058272164 0.20148113 0.2717318 0.112647094 0.1053305 0.034490123 0.10911115 0.040492192 -0.1021888 0.09634928 -0.09145191 -0.021588124 0.11655796 0.023411125 0.21311519 0.17019914 0.22197425 0.062280778 0.044338834 0.16233025 0.16683474 -0.031515207 -0.20274076 -0.07907583 0.04398355 -0.054513924 -0.0034194856 0.011576675 0.014925183 -0.26888514 -0.052428856 -0.0035395748 -0.027026355 -0.0016023655 -0.13623466 -0.11319675 0.017410679 -0.08972822 -0.09342837 -0.045276638 -0.22210233 -0.19133334 0.05451976 0.040979434 -0.13020425 -0.5305015 0.14067711 -0.107186876 0.036245607 -0.30740833 -0.23219146 -0.03864036 0.15502737 -0.1910375 -0.11683071 -0.14434588 0.04027254 -0.31000522 0.0861598 0.21718436 0.035630744 -0.21990062 -0.025773555 -0.0041431794 0.020289369 -0.07289498 0.18384889 -0.09754727 -0.11220243 -0.10926276 0.10153297 0.018529812 0.17342988 0.041924585 -0.35536504 -0.021330945 0.21956229 0.13531119 0.0015429256 0.025628211 -0.0024568848 -0.15041038 0.07255959 0.058751572 0.124175504 0.03467978 -0.083762616 -0.22608301 -0.30931324 -0.0750795 0.015942609 -0.11868177 -0.07031235 0.14841715 -0.029792218 0.119444765 -0.16738616 0.025133593 -0.1374087 0.13794601 -0.07740373 -0.054576032 -0.15298687 0.14552623 -0.10504479 -0.19467457 -0.12710488 0.051982928 -0.17596832 -0.19289425 0.05130538 -0.032886226 -0.1722131 0.14897686 0.040624022 -0.2111721 -0.1483719 0.03124331 -0.219009 -0.12419274 -0.12092834 -0.08528072 0.0076818494 0.007446572 -0.29007825 -0.3105982 0.003411326 -0.1507862 0.13760911 -0.085867226 0.105015725 0.1375956 -0.070582606 -0.122681536 -0.035172794 0.029261732 -0.095191434 0.024433821 -0.010285883 -0.03245292 -0.060925134 0.3096686 0.031780563 -0.06909729 -0.15945221 -0.03711786 -0.09972316 0.06287807 -0.02363697 -0.08282997 -0.04505838 0.0068636253 0.068636194 0.072077185 -0.25593475 -0.11366461 0.018785333 0.25023216 0.13357928 0.21716633 -0.038458142 0.088987544 0.17568047 0.10583749 -0.24450724 0.18624794 0.20470865 0.13315503 -0.061574165 0.05321753 0.0841659 -0.047913063 0.08350782 0.23428713 -0.14997472 0.15822187 0.08524225 0.056547623 -0.12091804 0.2560201 0.0958798 0.049883854 0.17204408 0.1991748 0.03414263 0.02827756 -0.018608004 -0.1604043 0.062332332 0.16292459 0.3288975 0.111065045 0.11363817 -0.19373196 0.12235699 0.10292983 0.010444981 -0.014033645 0.13745955 -0.089139886 -0.013165215 0.00069459993 -0.03441605 -0.1868312 -0.07994867 0.14629103 0.0469622 -0.057555452 0.009043154 0.0023635917 0.013309398 -0.41398153 -0.6640344 -0.18705425 -0.122923136 -0.11735633 -0.17992881 0.041465867 -0.09519507 0.10620921 0.07437103 -0.010996139 -0.03467643 0.1962151 -0.18754783 0.038050458 -0.17391473 -0.23432346 0.27251005 0.060410734 -0.087421216 0.15468799 0.07496473 0.065338716 -0.04982597 -0.08843787 0.015537138 -0.0915324 -0.10288835 0.02952257 -0.09146977 -0.090757646 0.28536654 0.21281245 -0.0020307177 -0.00863748 0.1308214 0.15005875 -0.03153923 -0.15315177 -0.18798323 0.0129384445 0.08481947 -0.18555032 -0.057625663 0.1856565 -0.050065514 0.12966852 0.049339812 0.122883216 0.15878548 0.1291278 -0.13131528 0.15515159 0.136048 0.104092844 -0.021352684 0.06401746 0.020748015 -0.13532546 0.077853486 -0.028369179 0.16758387 0.07967448 0.07593856 -0.0087623475 -0.07210417 -0.01601878 -0.09706365 0.03935793 -0.081440024 -0.10060488 0.16625394 0.038345095 -0.088900894 -0.31574425 0.20109485 0.105960764 -0.081962876 0.03733166 0.05189582 0.042199228 -0.110127985 -0.1177319 0.03591312 -0.044605862 -0.106556766 -0.1772682 0.1907737 0.20700154 0.0678943 -0.08869638 0.010958879 -0.08482549 -0.09486053 0.020129722 0.07558918 0.055339403 -0.029764283 0.10145841 -0.06810219 -0.17769392 0.10733709 0.17026068 -0.048231848 0.025873056 0.072387986 -0.0327978 -0.0116932755 0.06482225 -0.00093565526 0.030993152 0.15653808 -0.011263921 0.011475892 0.13223998 0.11268452 0.05869426 0.08154836 0.17564505 0.086823635 -0.30206317 -0.041660056 -0.24727012 -0.07421674 -0.12180045 0.062203936 0.02635163 -0.042216048 0.024438575 0.09350877 -0.025367465 0.10960523 -0.06589035 -0.10996123 -0.09505917 0.03408863 0.0012179988 -0.10289338 -0.022640469 -0.08642826 0.006902154 0.02207619 0.04311512 -0.16903612 0.059415717 -0.021817183 -0.10825645 0.025217008 -0.14205389 -0.102997236 -0.03291777 0.10708114 0.15389512 0.013451089 -0.115974665 -0.019215053 0.12329633 0.13326342 0.14528127 -0.090405345 -0.057668623 -0.0615586 0.06742899 0.12858452 -0.038232762 -0.07971019 -0.16565938 -0.20019156 -0.0042733476 -0.17231865 -0.1258084 0.036752123 -0.019269748 0.06638705 0.14069809 -0.034058012 -0.020651186 -0.06021036 -0.10409133 -0.0071498454 -0.013938036 -0.13213632 0.023379892 0.012681112 -0.04761984 -0.1680225 -0.15256187 0.17170848 -0.0487366 -0.004509802 0.17091016 0.10546077 0.059912488 -0.12057217 0.11862278 -0.018897686 -0.083852366 0.11950092 -0.05584997 0.12520958 -0.21281332 -0.3149796 -0.077427216 0.04934201 0.053654548 0.11167256 -0.013660699 0.02461911 -0.008833928 -0.029195791 0.11557425 0.20469551 0.0024341384 -0.017629202 0.27941844 0.068887584 -0.054266695 -0.0873451 -0.026057126 0.080779284 0.0025653546 0.007559518 0.11041528 -0.06675296 0.085756294 -0.12845069 -0.11278092 0.22400571 0.047125686 0.0784279 -0.09504402 0.25566328 -0.13600327 -0.41152024 -0.40117463 0.1757996 0.0771195 -0.013020972 -0.18883733 0.036138553 0.046491224 0.11345506 0.15076981 -0.11168 -0.21652168 -0.0787478 0.077495195 0.11612737 0.054404046 0.05687601 0.108415015 0.08814075 0.046289697 0.043774568 0.116197996 -0.08831623 -0.20710696 -0.049732413 -0.067905694 0.11270184 0.16336966 0.009874123 0.13889518 -0.29692373 -0.28626126 -0.22621839 -0.114805736 -0.0024493085 0.07583595 0.069808535 0.047751002 0.0982667 0.0776758 0.13531889 -0.032819327 -0.16186972 0.14873393 -0.056601685 -0.06744282 -0.08594074 -0.082669914 -0.14177226 -0.12817931 0.06355591 -0.11802892 -0.06744395 -0.17789437 0.00334812 0.06447486 -0.09483497 0.03244178 0.32363036 0.1932843 -0.14900221 -0.075348906 0.13415313 0.22749749 0.2411732 0.23807283 0.006394855 0.025656326 -0.14613873 0.16992345 -0.0034684557 0.0045191324 -0.067320384 0.022764733 0.07674646 -0.009888054 -0.09712363 0.059254628 0.08839201 -0.018095614 -0.10173994 -0.1532521 -0.003931981 -0.10384575 -0.004012296 -0.14309463 -0.06717256 0.008799846 0.12083277 -0.0044433563 -0.08738853 0.07169825 0.14495221 -0.078703344 0.103971615 0.06790833 0.04705779 0.14407079 -0.007503843 -0.037444487 -0.030660788 -0.22173725 -0.035050336 0.1652842 -0.04010764 -0.03837722 -0.09851912 0.11595997 0.05450194 0.1354089 -0.04212938 -0.09052476 0.029123638 0.20990999 0.070899025 0.058793988 -0.19529547 -0.42086855 0.046481878 0.092608966 -0.11348517 -0.386068 -0.13381498 0.07865384 -0.10551702 -0.1621402 -0.08751229 0.019897051 -0.16547224 0.18917541 -0.07436853 0.052092664 0.18245855 0.0667568 -0.23284376 -0.051365722 0.033747513 0.0214802 0.13544267 0.026950467 0.06466458 -0.0685227 -0.045535866 -0.011556803 -0.20772508 -0.09057709 0.0031248154 -0.23484747 -0.14233594 -0.0039161243 0.17863986 0.06456447 0.009206081 0.07949269 0.022342572 0.04102262 0.0046555703 0.042676136 0.01350434 -0.12810434 -0.18540952 -0.08032292 -0.070444115 -0.2140969 -0.031640846 -0.07615798 -0.04068207 -0.056310993 0.006331781 0.024759281 0.018845836 0.03819583 0.07835073 0.15296666 0.09118922 -0.0908635 0.04835565 0.24241807 -0.026478894 -0.009408428 0.012542975 -0.050218876 0.14324105 0.1378268 0.07374634 0.032210235 0.02284643 0.07518166 -0.04868432 0.04282438 -0.060531024 -0.096911184 -0.04416617 0.21547675 0.2411815 -0.021882618 -0.046580166 0.3036788 0.058618464 -0.002588657 0.024961185 0.0790144 -0.17962688 0.020192359 0.10840634 -0.11091942 0.0929371 -0.1029972 0.20437832 -0.023445526 0.10362254 -0.021358587 -0.014829959 -0.027968448 0.005108496 0.16049431 -0.05170971 0.024623508 -0.1297935 -0.010488697 0.03603233 0.026570896 -0.08304056 0.07817998 -0.07307023 -0.2763388 -0.095700525 0.052482132 -0.069533795 0.17174363 -0.27427 -0.119701475 0.069526784 0.022900132 0.15064248 0.006541716 -0.042296357 -0.27124465 0.006627419 -0.0008958126 0.05568118 -0.07104721 0.13362272 0.074202865 0.061633848 0.07128053 -0.17747809 0.015768675 0.043894324 -0.033613138 -0.12418155 -0.033559423 0.117607005 0.0151747065 -0.062012114 0.034676593 -0.022866847 -0.13226135 0.06794221 0.24642496 -0.0072368886 0.23268422 -0.06720764 0.07707814 0.034208026 0.11532051 -0.044055905 0.11622585 -0.041074973 0.0774604 -0.02632003 -0.09762668 -0.105867505 -0.25537592 -0.07491867 0.11625699 0.043667875 -0.025350185 0.1078177 0.17236659 0.09423609 0.15834183 0.17952009 0.06849728 0.018806906 -0.24712342 -0.076259606 -0.08308308 -0.09746714 -0.09550725 0.0150316935 -0.015456816 -0.23432277 -0.09775321 -0.11593631 -0.030170448 -0.13811077 -0.08159217 0.04932924 -0.13816132 -0.11364276 -0.031853974 -0.11610623 -0.10630291 0.082908414 0.13110496 -0.20855099 -0.30762005 0.03989783 -0.095043965 -0.07717184 0.06890966 -0.13606231 -0.09268598 -0.19031167 0.027339185 0.0915376 0.22509351 -0.23433001 -0.19388483 0.02471593 0.08181979 0.39690784 0.010334673 -0.037801865 -0.013189408 0.028822092 0.05893096 0.043002754 0.08640091 -0.2050074 0.014052723 0.16904262 0.056298006 -0.013752045 0.13991469 0.052335612 0.1498303 0.053682458 0.112052485 -0.003924883 -0.1026559 -0.2258333 0.064875975 0.10771342 0.1378194 -0.14023091 0.17002197 0.07737107 -0.13423665 0.02433263 -0.037585128 -0.05268558 -0.017829474 -0.1592711 -0.005524439 -0.17283131 -0.1091933 0.02894988 0.09597115 -0.14573354 -0.12029308 -0.11246717 0.099293254 0.10066516 0.011699701 -0.060615834 0.14624414 0.02723991 0.1957327 0.026427252 0.04260792 -0.08798825 0.008145096 0.03757571 0.13199979 -0.08422828 -0.0421483 0.022618128 0.11776541 -0.06081551 -0.32447243 0.10492757 -0.047289524 -0.056159616 -0.28029406 -0.18917799 -0.13278654 0.023791993 -0.071376175 -0.14752197 -0.15177493 0.13343325 -0.05646625 0.3106809 -0.012811487 0.0045798193 -0.0062146755 0.089328304 0.028745323 -0.14375705 -0.028195499 -0.03455707 -0.074085265 0.15927425 0.094082564 0.13858475 0.12466711 -0.07146989 0.15192954 0.054110534 0.13733585 -0.0673724 0.09868886 -0.042776983 -0.041342918 -0.100230314 0.12640072 0.1966394 0.13938963 0.023880752 0.033247475 -0.06449499 -0.03841418 0.015246392 -0.031718243 -0.037782256 0.13450204 0.049796376 0.008966659 -0.0021800702 0.02119757 0.022727191 0.049514506 -0.04554975 -0.047702536 -0.022495305 0.025235761 0.047483608 0.046122104 -0.031065553 0.041839488 -0.081872426 0.03959812 0.09002445 -0.10796401 -0.038564924 -0.033535805 -0.0271068 0.17207424 0.18955922 0.1400305 0.049237575 0.0668521 -0.018501732 -0.017784026 0.07438409 0.23618373 -0.11567032 0.21697621 0.05082268 -0.07677328 0.102737725 0.0144092385 0.059519835 -0.24357931 -0.080851816 0.052888174 -0.109243184 -0.17705539 -0.07372154 0.019460585 0.07898978 -0.05003893 0.129831 0.09180813 -0.04420056 -0.036366392 -0.03240109 0.18483306 0.117719464 -0.0085425675 -0.09473406 -0.010487073 0.112815924 0.07128128 -0.25560915 -0.18961868 0.041224267 0.014374785 -0.04272463 0.045772094 -0.10094084 0.02454336 -0.02930712 0.019896507 0.020114766 -0.12740088 -0.020717282 0.02019227 0.035129953 -0.029147001 -0.22582209 -0.0586482 0.08865695 -0.018757507 0.1410177 0.09707727 0.062880374 0.06490693 -0.2883172 -0.057781886 -0.03495537 -0.014443191 -0.20441315 0.13183887 0.033506006 0.11678574 -0.101276115 0.04294821 0.11515933 0.15329248 -0.206573 0.07429762 -0.014099477 -0.065884836 -0.09315752 0.041522525 -0.11169011 -0.23747487 -0.21288347 0.14839067 0.15927604 0.16403754 -0.12694047 0.1373964 -0.039212007 -0.15411071 0.12698606 0.054691628 -0.01726566 0.00075543596 0.019393273 -0.098621026 -0.09558078 -0.0235065 0.07164785 -0.07607212 -0.26648507 -0.16492496 -0.14578876 -0.06539031 -0.12914948 -0.06287921 0.03556749 -0.18853611 -0.02498045 0.1593787 -0.16849475 -0.013956441 0.24716401 0.23218143 -0.5009804 -0.09167763 -0.013077317 -0.013041105 -0.11938288 0.043699656 -0.08412583 -0.03942597 -0.14948018 -0.10616532 0.052064523 0.231627 -0.2957933 -0.27804548 0.02252258 0.23248346 0.41436312 0.21463345 0.05795208 -0.23787817 -0.0241081 0.056233104 0.06961244 0.0069085243 -0.23859487 0.022472916 0.15490118 -0.017267853 0.095772 0.021918694 -0.0124354875 -0.059559766 0.04855805 0.020284308 0.15085346 0.1432894 0.081861645 0.0110866185 -0.23602611 -0.07203221 0.15335988 -0.037462298 -0.062033247 -0.03620863 0.18321319 -0.11761387 0.031267133 -0.098928444 0.25360873 -0.046385795 -0.08522961 -0.120463595 0.09049903 -0.022592375 -0.08903294 -0.06286835 0.09134871 -0.012113597 -0.15269914 0.027609782 0.071968906 -0.003140173 0.067220785 -0.027626999 0.23119977 0.15766992 0.21258076 0.17436755 0.0044606323 -0.0034050706 -0.008490776 0.047234703 -0.11376772 -0.12598501 0.075891696 0.1406439 -0.11491162 -0.12273009 -0.07013772 -0.2423406 -0.21746042 0.12021594 -0.044218972 -0.023402004 0.22225513 0.11677829 -0.015510953 -0.004608318 0.022114078 0.12702677 -0.091764785 0.17500836 0.015400722 -0.0033923725 -0.039584626 -0.073170714 0.11433603 -0.26190498 -0.26805001 -0.019151976 -0.03586243 -0.0825679 -0.0027168684 0.19013573 -0.0028568192 0.03724815 0.00065038115 0.37974232 0.028382095 0.15241013 0.096727066 0.013568177 0.10145106 -0.16116486 0.11778363 0.041991197 0.10313279 -0.11229969 -0.27278608 -0.021154149 -0.07034056 0.081391044 0.08776365 -0.076353714 0.26831365 0.1287748 -0.060927786 -0.045503933 0.0056264102 0.057722706 0.10455834 -0.11455813 0.07365284 -0.07326692 -0.0363489 0.05184807 0.021054395 0.06868974 -0.124504596 0.20055866 -0.019488953 0.07943921 -0.048639268 -0.002458484 -0.196491 -0.12045947 0.020109821 0.22963147 -0.004111918 0.07421682 0.031194711 0.12412326 0.075420976 -0.046476915 0.15062964 0.11143898 0.08461264 0.08643143 0.08109889 -0.02895402 0.07903969 -0.030128743 0.012293744 0.11123763 0.02222079 -0.009260472 0.022097476 0.036877565 0.14422135 0.24462944 -0.0045057065 0.005170709 0.049986303 0.1775446 0.04488482 -0.028510712 -0.24979846 -0.043313745 0.08368657 0.1901432 0.06683737 0.1790256 0.07670636 0.08346983 0.19310053 0.042262617 -0.029179007 0.3663085 0.011022683 -0.11254064 -0.13763526 -0.06492765 0.051749315 -0.0107042175 0.020036532 0.09826142 0.06204123 0.049693257 -0.025624696 -0.11370773 0.33561695 0.0508127 0.25740942 0.009971763 0.004823227 -0.025652803 -0.0767513 -0.05153391 -0.23309633 -0.098339476 -0.11166071 -0.00273777 -0.3683885 0.095211856 0.08525271 -0.036095083 0.0654685 0.054745205 -0.004493199 0.08112004 0.10166593 -0.020960808 0.028822154 0.03290486 -0.0014340649 -0.07669931 -0.21403758 -0.116091296 0.022183903 -0.0012296888 0.063963935 0.17928962 0.10919278 0.11064071 0.22447917 0.097948685 -0.0029836358 -0.072653644 0.09820667 0.03447351 0.16220431 0.36495745 0.014481501 0.2552453 -0.02199919 0.06813747 -0.0059160977 -0.061651293 -0.32015178 -0.10547582 -0.22892459 -0.100420445 -0.26906058 -0.117611624 -0.069027185 -0.19527084 0.24551211 -0.188966 -0.21406472 -0.31494522 0.10577582 -0.062226966 -0.07125374 -0.09096098 0.021930471 0.17610179 0.12121061 0.10234718 0.12967774 0.029278591 0.18641064 0.24849017 -0.021941688 -0.10355357 0.014678026 0.11863418 0.023122247 0.05891795 -0.11525678 0.04007633 0.09236148 -0.060987998 -0.092896014 0.06595205 0.16102935 -0.026997939 0.071106054 -0.071406774 -0.07510027 0.0081697265 0.13144512 0.07759005 0.009798193 -0.07045165 0.1327493 0.019171359 -0.2261674 -0.027634615 0.13391367 0.05102885 0.05777875 0.020970553 -0.058510542 -0.038723465 -0.102709204 -0.15527608 0.06718614 -0.027124591 -0.035145953 -0.042129993 -0.14234155 0.010699318 -0.16313067 -0.09126009 -0.052652948 -0.03882658 0.020446133 0.00037252202 0.21972083 0.3064917 -0.067357674 -0.0918515 0.012399569 0.12113799 0.12528425 0.07328313 0.10303055 -0.04596265 -0.07486428 0.0796724 0.078818075 0.014902159 -0.17825392 0.06265894 -0.018482726 0.2604963 0.067282 0.07418156 0.1514452 0.18605824 -0.1261372 -0.15705372 0.115305126 -0.08566996 -0.05809502 -0.07483676 0.089945205 -0.020495543 0.20313306 -0.12593453 -0.12821555 -0.19139782 -0.03770701 0.18681493 0.14790533 -0.2619866 -0.05570761 0.060107563 0.09968164 0.039516386 0.22590968 -0.008018086 -0.08717925 -0.19097243 0.041194916 0.005616685 0.056799855 -0.33511358 0.05200812 0.036002275 -0.013752271 0.048718393 -0.14335208 -0.06425677 0.07748754 0.037173893 -0.01638118 -0.06275545 -0.0033309143 0.05445753 -0.14133137 -0.18816712 -0.03965554 0.08608992 -0.028743064 -0.106377296 0.21952406 -0.11165948 -0.053784095 -0.2337757 -0.11736496 0.036084287 0.12570672 0.09090193 -0.050133348 -0.17925794 -0.2353343 -0.044840008 -0.13223104 -0.080980346 -0.009126699 0.11017841 0.033833105 -0.022302367 -0.063451745 0.0454504 0.051401723 0.041689366 -0.098358124 0.039356727 0.023890123 0.14116493 -0.043885764 -0.05640827 -0.1134909 -0.1799831 0.091188565 -0.051570773 0.09295455 0.093718864 -0.023580432 0.051412806 0.05838756 -0.009444911 -0.1924635 -0.05213785 0.030535262 -0.045390293 0.07428835 -0.16535164 -0.13684668 -0.14145188 -0.008505236 0.054362457 -0.034484345 0.011240601 0.006909811 -0.034423567 0.21690167 0.06744097 0.09308133 -0.11019462 0.077956 -0.017868472 -0.08208322 -0.35238683 0.08270602 -0.3383311 0.069272056 0.08194568 0.024533207 0.0021303403 -0.044028193 0.03405982 -0.0075427336 0.01249767 -0.113347374 -0.07701828 -0.05571537 0.03145464 0.23096077 -0.009660099 -0.19844256 -0.304834 0.04462716 0.24894793 -0.08222916 -0.03572922 -0.054169644 0.030161597 0.12696049 0.13142563 -0.005324124 -0.090436414 -0.22817373 0.06791371 -0.09938996 -0.039532315 -0.0010316612 0.0035492661 0.06208925 0.17730348 0.21604247 0.020430425 0.0021065958 -0.04320243 -0.17195928 -0.1315341 0.0743023 0.12475227 0.07537462 0.013345501 -0.19573036 -0.19403107 -0.003922453 0.030748235 -0.002295993 -0.09327427 -0.21256237 0.06289448 0.03291843 -0.1718083 -0.108141474 -0.06929161 -0.23751515 0.233936 -0.06358983 0.043003824 -0.2422775 -0.15669808 -0.09402908 -0.18060437 0.11256524 0.031873256 0.053883057 -0.093353346 -0.20895427 -0.11853026 -0.10573189 -0.07009224 -0.010544621 -0.017930914 -0.13396162 0.15128703 -0.11002693 -0.0927191 0.026562775 0.22480592 0.09058031 -0.018204458 0.017490098 0.19422568 0.015325664 0.08132748 0.1668869 0.096697755 -0.06736933 -0.0017059962 0.05156421 0.13339722 -0.15889046 0.073799126 -0.045938283 -0.17750305 -0.09013435 -0.14502762 -0.15154654 0.023667555 0.089071624 -0.06518984 0.09968358 -0.023890214 0.14877522 0.049529187 0.11625353 0.21354572 0.072180904 0.04085746 0.12648447 0.10852803 -0.02529974 -0.06339996 -0.0018921939 -0.009732514 0.19906358 -0.025361933 0.19991182 0.1502863 0.005518448 0.24849643 0.1915598 0.021842385 -0.08028271 0.051611263 -0.19491017 -0.22723493 -0.025515089 -0.053862166 0.06877491 -0.120262265 -0.005967239 0.08479905 0.11255341 0.037356425 -0.03001989 0.2020407 0.22452252 0.1798189 -0.07139511 -0.0899097 -0.113636896 0.013128349 -0.17666247 -0.16435334 0.010430425 0.021648396 -0.19648622 -0.05120179 -0.04608791 0.00204077 0.049229685 -0.066697575 -0.13966462 -0.44482848 0.1424176 -0.0017422969 -0.16305129 -0.42167166 -0.10043011 0.066357255 0.04734775 0.18373346 0.056498416 0.007658927 -0.023044204 0.2910888 0.065677285 -0.1116191 -0.13446853 -0.16377234 -0.014765036 -0.18597874 -0.11136467 -0.28858343 -0.008127871 -0.050122436 0.041276187 -0.06643519 0.13842605 -0.06988153 -0.0270676 -0.15463528 0.09682298 0.08571243 0.12782015 0.101952665 0.10652658 -0.016280465 0.16966726 0.098947726 -0.08258843 0.2333625 0.03682298 -0.20640822 -0.14834498 0.024809495 -0.06247738 0.0033343248 -0.16194491 0.03443262 0.2385439 0.035994556 0.10378064 0.005822719 0.07898772 0.06957343 0.009413448 -0.04745103 -0.057647325 0.2866879 -0.2016368 0.015161999 0.06301173 -0.06537988 -0.061307944 0.03751067 0.1769155 0.11924816 0.11120605 0.113336 0.15080161 -0.092414536 -0.090327516 -0.0668347 -0.035098378 -0.046312876 0.16361696 0.08168089 0.060633626 -0.039711438 0.037723783 0.024570683 0.12935334 -0.089514166 0.1654006 0.1697292 0.023175905 -0.26891595 -0.24990173 -0.23506893 -0.1438884 0.0022523229 -0.20267798 -0.1706013 -0.117516205 0.112737685 -0.57284003 -0.26118153 -0.049634542 0.020914953 0.07012585 0.16579907 0.22792295 -0.028616596 -0.05082708 -0.029064469 -0.030782435 0.12540787 0.11389357 -0.0798089 0.0049465173 0.062243897 0.085829794 0.006612627 0.021770377 -0.054759406 -0.12361406 0.0031507325 -0.09831329 -0.13408622 -0.4218505 -0.24435756 -0.35231218 0.094890945 -0.17781858 -0.190619 -0.04587642 0.12801033 -0.3757592 -0.30019048 -0.19674504 -0.0249502 -0.21973185 -0.03961181 0.16422388 0.113563456 0.0603082 -0.015911723 -0.04212429 0.1262486 -0.320364 -0.13751777 -0.06892502 -0.07238877 0.07025033 -0.15641916 -0.2648021 -0.60690254 0.049943868 -0.01710805 -0.2853756 -0.35200322 -0.14516267 0.07640405 0.037069608 -0.20992368 0.029785318 0.15627111 -0.12952031 -0.21358636 0.31809253 0.34758985 -0.02311009 0.17241746 0.19125712 0.27976248 0.12743062 0.20442046 -0.16349243 0.008852005 -0.28565282 -0.11227247 -0.14150326 -0.08638905 0.20668125 0.26826534 0.070712976 -0.019187437 -0.08016519 -0.21342504 -0.022710595 0.22410882 0.04238327 -0.2232407 -0.1850654 0.08886572 0.049822345 0.08378385 0.0075545325 0.05721828 -0.17754959 -0.1199431 0.09637766 0.028217906 -0.09445905 0.13176379 0.13019863 -0.060887117 0.06465772 0.041492 0.07414503 0.14580329 0.022341473 -0.039001547 -0.040183406 0.0670861 -0.02276441 -0.0077559585 0.014191677 0.1016511 -0.045325346 -0.07240688 -0.10110148 0.14101322 -0.16926251 -0.10192332 -0.051081967 0.043343823 -0.046045233 0.03727771 0.12590347 -0.09191949 -0.049398754 -0.031473752 0.067320295 0.014821509 0.033227164 0.06836881 0.089833766 0.03220342 0.13622664 0.009340367 0.055776622 0.041897785 0.17231366 0.43818915 -0.049914554 -0.10478696 0.09971889 0.08575788 0.0028744615 0.11047173 0.03813107 -0.046779953 0.04424428 0.15613279 -0.100920916 -0.22095743 -0.034144986 0.04570281 -0.08800204 0.04338999 0.27934855 0.08899546 0.029622966 -0.026447766 -0.33192158 -0.013600414 -0.036963873 0.04803574 -0.20015456 -0.17290275 -0.027397435 -0.0058296733 0.072889544 -0.013553371 0.035367947 -0.074946776 -0.07214082 -0.026944825 -0.11660287 -0.020433154 0.04652189 0.040026665 -0.059604764 0.19600984 0.07228851 0.08171782 0.13435362 0.17985474 0.2772588 0.07725026 0.045806356 -0.056771968 0.024059646 -0.067723155 -0.07756357 -0.011012594 -0.13081175 0.118438914 -0.036630355 -0.13295884 0.15526396 0.13266513 -0.054900005 -0.097238705 -0.060683716 0.068390116 0.39826006 -0.0116612045 -0.03360335 -0.25876358 -0.15144818 0.02767391 -0.08455749 -0.09695143 -0.24579284 -0.04663432 0.1149128 0.28708673 0.08339899 0.12663445 -0.05238541 0.114799626 -0.06285807 -0.20634112 0.037549905 0.09041369 -0.06146201 0.08648878 0.14826955 -0.06526035 -0.12803467 0.016186956 0.0550732 0.075019665 -0.038717248 0.079425916 -0.07801121 0.05802207 0.0043156752 0.031322688 -0.021466305 -0.019741956 -0.03589602 -0.037676904 0.04324736 0.018231714 -0.19430959 -0.029219024 -0.1234393 -0.0075970897 0.036943965 0.15531613 -0.22613858 -0.13426945 0.026122294 -0.15442717 0.09006317 0.10865412 0.028456273 -0.0927037 -0.03560916 0.067013234 0.024889838 -0.029874923 -0.3393631 -0.18440147 0.018629288 0.18416624 -0.08028404 -0.07336774 0.00844254 -0.01957469 0.08122797 0.12736471 0.008460231 -0.023048436 0.3080456 0.06123416 0.081563026 0.0070379013 -0.26025006 -0.017607428 -0.08948971 0.11335845 -0.07464002 -0.071733564 0.054604836 -0.08372086 -0.14822263 0.067750536 0.110126816 -0.049782954 0.087964006 -0.107800364 -0.10920623 -0.03621946 0.003495487 0.0052877124 -0.13387342 0.033121593 -0.055698037 -0.14905079 -0.15975721 -0.028323485 0.033321332 -0.053188365 -0.16971892 -0.009097773 0.09343305 0.031996466 0.042784758 0.24884003 -0.08732487 -0.009735217 0.07130911 0.19819802 0.08755526 0.2716961 0.2845692 0.14219111 0.026350904 -0.031747703 0.063160144 -0.013730678 0.1838607 -0.24016294 -0.027793122 -0.04670101 0.058696885 -0.036149696 -0.19263715 -0.10959225 0.20245482 0.013870939 0.031894978 0.077941 -0.013462361 -0.035981674 -0.08345936 -0.18169712 -0.6081162 0.12519681 -0.03458282 0.068017684 0.15971579 0.12930843 -0.021667892 -0.14894903 0.068009935 0.050773032 0.07445383 -0.2125267 0.04578901 -0.02039587 -0.0068644043 0.096248664 0.04210731 0.073579274 0.040459786 0.08298935 0.15409738 0.030795196 -0.08849749 -0.087339796 0.067896955 -0.002025578 0.08053132 -0.049887862 -0.24043551 -0.06008986 0.11768607 0.023892777 -0.021268735 0.14592087 0.066803545 0.053251665 0.02873385 -0.039581593 -0.09139032 0.024672078 -0.04736095 -0.048913985 -0.15081532 -0.17979564 0.268525 0.11287263 -0.14087237 -0.15832226 0.12671211 0.097348824 0.039860647 -0.065813005 -0.029279416 -0.0044200206 0.054702383 -0.20447685 0.16332658 0.14185637 0.095040314 0.17594539 0.08797925 -0.09633024 -0.042902496 -0.30427158 0.06971452 0.17027324 -0.1961295 -0.38928592 0.39551455 0.35154957 -0.25618595 -0.19368228 0.056856826 0.054860048 0.06397771 0.07624503 -0.16347344 0.20939937 0.14513884 0.046900395 -0.12321786 0.0027930718 -0.11430052 0.017996771 -0.2925315 -0.17765282 -0.017735858 0.07181407 0.003702164 -0.094138265 0.039689347 0.13405743 0.14536637 -0.07603513 -0.08637359 0.1716249 0.1286237 -0.059518065 -0.16120623 0.2892224 -0.00021627941 -0.03897366 -0.19658689 0.05133528 -0.0009620978 -0.048523486 -0.14637606 -0.007584312 0.22389534 -0.19439922 -0.12702481 -0.009192463 0.03172759 0.13659695 -0.0480922 -0.048101287 0.5005723 -0.027531572 -0.045345787 0.025260895 -0.066291675 -0.30430505 0.045942742 0.13564695 0.04970908 -0.09659842 -0.13569343 -0.01833156 0.097643025 -0.020698693 -0.056726187 -0.050900098 0.09472429 0.12594807 -0.06625346 -0.08371021 0.15358232 -0.059943758 0.06932999 0.16741496 -0.024023995 -0.122444734 -0.08126866 0.2706043 0.0052161193 0.08054133 0.014818317 0.3304732 0.025518304 0.07366521 -0.04652997 0.021444941 0.022803882 -0.005007333 -0.09131572 0.1155059 -0.19295862 0.2031629 0.07144134 0.0036824034 0.03777051 0.10452215 0.05756518 -0.13665342 -0.3032038 -0.021746667 0.10561604 0.04451041 -0.19946569 -0.1602259 0.08027368 0.23860204 -0.21448076 -0.29224852 -0.11174933 -0.005068891 -0.06000602 -0.10067828 -0.088434525 0.054687433 -0.31693536 -0.2819526 0.059833266 0.06789168 0.020654127 -0.009750022 0.07812038 0.011566196 -0.08900757 -0.018872343 0.07778716 0.0017873978 0.018230893 0.16127269 -0.08491779 0.028666804 -0.20328449 -0.13752471 0.0037414134 0.050181694 -0.24994579 -0.0845359 -0.116608284 0.1442796 -0.07050173 0.020728247 0.09402678 0.21844265 -0.21854292 -0.08262531 -0.0478576 0.1464427 -0.33370045 -0.19257379 0.002378806 0.024642458 0.011216265 -0.14360447 -0.13182347 0.102129355 0.20484218 0.19932626 0.14084671 0.103778 0.047543246 0.084636234 0.043962974 -0.069956936 -0.11502123 0.020962587 0.005964863 -0.15562329 0.048851233 0.14859936 0.22556333 0.112941064 -0.26403725 -0.019092716 -0.053875238 -0.11150936 0.12323355 -0.1289182 0.007700899 -0.21002595 0.010922783 0.08257055 -0.07195744 0.06550812 0.15856871 -0.14521219 -0.15721445 -0.029974278 -0.22194383 -0.08635665 -0.2049009 -0.008898093 -0.5045233 -0.17940241 0.067483805 0.13389859 -0.4557554 -0.29045197 -0.20014083 0.17538406 0.06692466 0.1395821 0.09196984 0.050816968 -0.0010477563 -0.07242077 0.07314747 0.0759998 -0.11985852 0.18969405 0.12225063 -0.028579855 0.048441254 0.14996962 -0.12018555 -0.092742264 0.11870237 0.0061789164 -0.0713243 0.09170581 0.04723458 -0.1691417 -0.023489151 -0.037168752 -0.098095655 -0.052707307 0.01608944 -0.074788176 0.011322078 0.11273515 0.060953297 0.00054120837 0.2339074 -0.12742688 -0.14270936 -0.22596006 0.11212355 0.08979706 -0.0023491713 0.061164428 -0.10667527 0.082357794 0.024193315 0.056789197 -0.002579763 0.003463152 0.008390305 -0.058811545 0.08828485 0.1387395 0.20515704 0.011455812 -0.01764353 0.041514475 0.38686663 -0.31703556 -0.057773374 -0.12068254 0.14875089 -0.2371179 -0.21732911 0.010741614 0.012960007 0.050476845 0.11919618 0.1744444 0.10569496 0.10775457 -0.025673522 -0.04457873 -0.018608846 0.07356513 -0.1348494 -0.21658745 0.028665127 0.06275529 0.028909197 0.022848887 -0.04472615 -0.14468445 0.109199 -0.014197062 -0.28808245 -0.21827641 -0.07729969 -0.03658692 0.13904332 0.031250697 -0.00641441 0.013669147 0.014184184 0.07662034 0.048582174 0.07761797 -0.054642547 -0.18461345 0.004755701 0.14512809 0.038909417 0.10772662 0.13575822 -0.09288972 0.03135052 -0.14428556 0.05956429 -0.0039329655 0.032739893 -0.07559352 0.016288064 -0.056854855 -0.004886783 0.004764252 0.030078368 -0.03426603 -0.24581534 0.063325055 -0.03988104 -0.04231331 -0.2796108 -0.22157322 -0.10505491 -0.03583419 0.01709615 0.092716984 0.0029767842 0.0509072 0.021317238 -0.11886157 -0.3064513 -0.21479054 0.023156917 0.01568277 0.059721358 -0.06693628 0.070597105 0.15696527 0.10485488 0.013219928 0.00825324 -0.111320004 -0.019402768 0.13706177 -0.008351805 -0.099323995 0.04396443 -0.1263506 -0.00280371 0.21585497 -0.016835192 0.057725575 0.12468982 -0.02192606 0.075682685 -0.08271658 0.07360847 -0.038903173 0.0021051595 0.09273344 -0.009712817 -0.05076545 -0.030946208 0.24844809 0.13625695 0.109204784 0.26966372 0.08764411 -0.04522188 0.12795497 0.28046823 0.076990746 -0.012350195 0.24171557 0.21368523 0.0738972 0.05779309 -0.020720676 -0.08636365 -0.11915248 -0.0012215214 0.20883733 -0.13747077 -0.03918689 0.23326343 0.079667635 0.1029961 -0.08380471 -0.019516293 -0.037909314 0.15837924 0.050826676 0.05141109 -0.05079119 0.36348912 0.31603393 0.0861523 0.13019422 -0.04971577 -0.051484708 -0.045133173 -0.041984797 0.108488284 0.041333392 -0.014477884 0.03187749 -0.14983508 -0.07923045 -0.017221903 0.06564269 0.2779569 0.13102375 -0.007818721 -0.20663735 -0.09378675 -0.19322509 -0.08851314 0.23730344 -0.08181193 -0.11370709 -0.07945489 0.008015195 -0.025363775 -0.018238489 0.06738057 -0.061706968 -0.011785524 0.42058456 0.2644726 0.14160101 -0.16723634 0.32679465 -0.06161736 -0.21231358 -0.36571264 0.28031117 -0.051613852 -0.060176544 -0.1975872 -0.011847409 0.055693787 -0.14191462 0.32101932 0.23030105 -0.12230762 -0.25008002 0.09967822 0.07236068 0.3332536 -0.03852906 -0.19016851 0.033124488 0.09959877 0.19868091 -0.025388127 -0.008264841 0.10463556 -0.044526946 -0.112797126 -0.081618704 0.07779683 0.12427506 -0.070971325 -0.05163406 -0.051450793 -0.02366908 -0.07086293 -0.08770305 0.00086107646 -0.008401062 -0.18469802 0.05770939 -0.009290448 -0.002011686 0.047000125 -0.12657066 -0.052806586 0.10717006 -0.04422725 0.10890975 -0.09305519 0.15985204 0.17991467 -0.011387887 0.039988015 0.059060983 0.021322256 -0.03833476 0.067597665 0.070493266 0.036198787 0.049550205 0.054583378 0.030509923 0.0063007246 -0.060292248 0.014814492 -0.07048468 -0.008960381 0.19322015 -0.050792664 0.0069086887 0.13601908 -0.041285865 0.051343188 -0.05551146 -0.05323735 -0.17634575 -0.23403409 0.25971174 -0.10348156 -0.09302465 -0.055872105 0.30278066 0.03200689 0.026127685 -0.031606745 -0.018955715 0.27363256 -0.00030682958 -0.28597605 -0.21703696 -0.04264347 0.07422243 0.07629956 0.013074401 0.3053052 0.01205444 0.022269912 -0.054928392 0.12213036 0.18061732 0.08430706 0.029736344 0.10040651 -0.0423662 -0.1193144 -0.2811668 0.2301152 0.13234857 -0.022210265 0.16792075 0.053861897 0.017451895 -0.01560041 0.05140592 0.113649905 -0.044916194 -0.17992435 0.13513996 0.044111513 -0.029889962 -0.07029595 0.15512198 -0.08204535 -0.00444227 0.101745 0.13996702 -0.13506448 -0.15597446 0.058198605 0.05926137 -0.02210989 0.07240807 0.01942445 0.03918531 0.1654564 0.05696986 -0.06922988 0.07483363 0.03024428 0.08343586 0.015523121 -0.06592053 -0.07791264 -0.02625102 -0.07985845 0.032795567 -0.067648254 0.096244 -0.16337043 0.0046897354 0.07841734 0.07857332 -0.017510284 0.10231985 0.0834259 0.13023241 -0.059220817 0.059718717 0.007449182 0.062550396 0.1050432 0.2380946 -0.021953227 0.0035367368 -0.0005441563 0.23249574 -0.05315229 0.044662826 0.118678436 0.047349077 0.11972605 -0.07279352 -0.039437715 0.123365216 -0.012016639 0.0012050571 0.039764855 0.12348459 0.063718356 0.0030517948 0.12954573 0.20371437 0.13103847 0.14053598 -0.0052487664 -0.0707024 0.07146594 -0.07245905 -0.008211164 -0.17171924 0.19894044 0.004626792 -0.052804396 -0.06604225 -0.0018852351 -0.081743166 0.039444104 0.34733206 -0.18118894 -0.098928764 0.055529896 0.09546081 0.0021634279 -0.079438314 -0.04473302 -0.018316858 0.05217396 0.107122816 0.05987733 -0.04429533 0.43455398 0.10879199 0.11750166 -0.10082261 -0.15548578 -0.23034549 -0.15627544 -0.10141056 0.24020052 0.07915612 