-0.11935619 -0.021815175 0.15558952 0.009101144 0.07659409 -0.042523835 0.06336668 -0.011812418 -0.09763247 0.09306076 0.17745079 -0.051871523 0.15153159 -0.025499512 -0.07720958 -0.030376764 0.21142149 0.0075906734 -0.06274279 -0.054519765 0.20907222 0.057745844 0.11865412 -0.091009215 0.111808956 -0.00085110054 -0.10098302 -0.007304173 -0.0555049 -0.08282339 0.01757274 0.17562155 -0.16590548 -0.039825264 -0.16386014 -0.040585287 0.044572037 -0.11859634 0.034384415 -0.090189025 0.04061432 0.15476808 0.107844844 0.026362225 -0.0806426 -0.012584201 -0.123886265 0.19775607 -0.06444687 0.14671351 0.22452341 -0.089723766 0.15109348 -0.08121451 -0.0206025 0.11643082 0.020303197 0.03382919 -0.029659908 -0.1550163 -0.018863522 0.07150442 0.029374357 0.073442735 0.15350378 -0.0013608345 0.10016461 -0.012621489 0.12643869 0.045808557 -0.07229325 -0.04385363 -0.118139625 -0.049746115 0.047721505 -0.03706645 -0.083682984 0.0019828044 0.068671905 0.1297863 -0.01856608 -0.0049024336 -0.12315882 0.09879583