37 85 46 13 -26 9 0 -34 -87 -83 4 -31 -65 -30 14 -11 -91 8 50 32 -111 -81 29 43 -1 -66 -24 9 49 5 -55 -4 12 16 22 -36 5 43 10 37 12 25 27 26 -21 40 9 41 -18 -37 -37 19 47 9 1 -55 78 69 -19 -97 56 25 10 -46 -84 35 -2 -17 -45 -80 -43 -26 -19 -36 -76 3 38 67 25 -55 -18 39 50 -23 -72 77 45 0 -117 -105 -16 -31 -28 -65 -8 -31 5 -53 -47 -67 46 42 13 -13 2 49 37 20 -60 -3 25 30 37 -25 -54 3 35 4 -21 -46 23 43 15 -41 -43 -60 32 23 39 -14 94 11 62 36 -1 -72 -10 26 25 -48 15 30 11 15 -40 -10 0 16 0 -62 -86 -29 43 93 44 40 -36 -18 10 17 27 -6 5 -21 15 15 26 33 -25 -71 -12 24 1 -84 -16 5 67 83 25 14 -6 -57 -61 -59 -33 65 -18 -78 -40 23 15 -7 -12 3 -10 -4 -11 9 37 0 10 -20 -10 55 54 -1 -43 -74 63 55 -13 -104 -127 4 80 -116 123 -52 14 39 -71 1 26 28 46 4 44 15 -88 -69 -12 -1 -81 -39 37 -13 -44 -28 42 22 -13 -23 11 44 22 6 70 17 -6 -2 1 4 60 96 -47 -12 -19 -21 36 49 9 -75 -45 27 28 29 1 -15 -3 36 2 30 11 31 44 -4 -7 -84 -68 0 -37 39 -38 -82 -51 22 3 119 -109 44 37 21 -86 -2 19 34 -48 -5 -23 18 -74 -56 6 11 51 -94 -14 4 43 11 -50 -114 125 -98 -75 59 124 69 -47 -70 46 120 83 34 -15 -9 -22 -23 -47 6 -7 72 62 61 20 -85 -59 60 -3 -4 13 -36 -52 -51 -24 66 82 51 20 -33 91 49 49 56 -15 -45 3 -17 -8 -31 -13 -15 -119 -69 -34 -9 -18 -50 -42 41 -26 29 57 16 9 -60 -30 38 63 23 -7 26 -7 74 52 8 2 -12 -16 -23 8 -83 -57 -81 -23 60 48 -5 0 14 -20 -31 -11 -18 -50 -19 -85 42 26 25 -18 -82 -70 -7 3 37 -47 -103 -72 -44 59 99 3 34 8 22 8 37 28 -6 -48 -44 -43 8 24 67 75 59 31 -10 -5 -29 -43 -59 -34 15 -56 -38 13 60 -34 -39 -95 -77 -7 -24 -17 23 73 63 15 43 14 -17 -25 19 26 -12 -19 -61 -18 -38 -63 -33 -12 5 -39 -101 -125 -15 -70 124 -59 20 9 -72 -45 -1 39 -1 -67 17 42 40 28 -22 -8 31 30 -40 72 -56 67 -68 -15 -18 107 -32 2 -11 -99 -16 119 45 9 -101 43 75 45 -3 25 53 45 -10 -12 33 -15 -25 -42 -14 -72 -38 30 94 50 120 4 78 111 37 8 63 46 -6 -45 -9 -5 -12 -60 -105 -36 -43 -119 -57 -64 -37 -41 -20 -8 21 -38 11 2 13 68 -16 33 68 33 -16 49 19 69 -13 -59 46 72 17 28 -12 72 23 53 43 55 -44 -87 -13 -3 52 -83 -77 62 58 5 -100 -65 -31 40 -10 -2 -23 -83 -80 -14 -19 -75 -117 -69 -123 43 -3 57 -6 -8 64 57 76 82 34 38 43 48 48 50 -2 3 15 -14 -22 -85 -59 -10 18 31 -90 -23 -27 -4 6 24 -20 24 71 31 56 -11 -36 4 39 -55 48 70 75 56 -56 -44 -70 -63 -35 -35 -80 -93 -51 -27 11 -36 -63 -36 -1 0 13 -6 -3 -3 11 28 3 -8 -32 5 30 -31 40 -28 20 -66 -27 -33 -25 24 28 53 3 -14 23 42 14 32 12 -58 3 19 25 -46 -60 -44 -18 -75 -11 -32 -24 -41 -32 -47 57 74 65 52 -13 9 10 64 57 16 -9 31 -11 -34 -40 16 52 25 0 8 13 18 9 -7 -29 29 20 -15 -41 -14 7 13 3 -3 37 22 3 -68 -60 -44 121 68 7 109 67 28 49 105 73 22 1 -2 9 30 46 -78 -15 36 -48 -68 -42 -46 -1 45 10 70 14 -94 -46 -32 11 77 92 19 -67 -58 -29 50 58 33 17 28 -1 19 76 -5 -46 -29 -10 -12 -16 5 -9 -10 -5 -37 -13 3 48 25 23 -27 8 19 25 -40 -28 -26 -28 48 -12 -23 -9 6 55 -13 -65 -32 -31 -18 82 39 -76 -60 -62 60 19 33 -10 5 -3 26 45 44 -30 -54 -40 -44 -21 9 -15 -52 -59 -95 -54 75 58 3 -40 -83 36 78 48 38 3 60 43 34 28 3 2 -4 5 3 -13 -78 -16 44 32 -3 24 -85 105 -128 -37 22 -4 14 -56 -22 8 -15 -21 -42 -1 20 -16 -73 -48 20 -5 5 -12 -52 -45 -51 39 10 -46 -53 -13 11 3 9 -1 -2 10 64 65 21 -28 -42 -59 -46 5 -37 -7 -77 -75 -74 -6 -22 -100 -97 -3 25 53 -27 -33 -25 25 57 93 39 37 111 54 -16 23 65 59 45 19 58 12 67 89 62 -10 27 9 83 42 -6 69 -65 -71 -48 -18 1 -41 -26 -3 4 16 -2 -66 -58 14 -17 -37 42 16 6 42 5 -32 15 9 33 39 17 42 28 -10 0 -56 -47 -40 -16 36 18 -45 -38 8 14 26 10 1 -23 -16 38 20 -66 -7 33 27 44 9 19 -115 -3 -12 9 -2 -14 -6 -45 6 -28 -100 -36 -3 -38 -20 109 -56 15 -49 7 -73 -69 9 30 29 2 -36 -57 -26 -38 35 41 52 78 65 1 12 5 -1 -46 -56 -111 -103 -63 -59 23 -7 -30 -51 -66 -15 -43 -42 -101 5 59 1 37 62 11 85 88 32 5 -46 -47 -57 -96 -122 -83 -53 -60 -65 -17 74 9 33 25 -36 21 12 6 -34 1 23 -8 -15 -14 -3 -8 -13 0 -61 -116 41 -27 30 3 -17 -29 -31 8 -37 -19 20 -26 -19 11 67 47 29 58 30 59 -69 -67 -34 -65 -62 -32 -30 -53 -25 11 25 -18 25 -34 -52 -69 -23 21 28 13 19 8 6 37 37 11 -29 -32 -71 -37 -72 -18 -43 -63 -45 8 -28 -6 65 -14 5 -43 -65 -21 13 41 -6 41 127 111 55 -10 47 62 19 -31 -32 -12 -27 -8 54 -43 -11 41 48 42 -10 36 93 60 -22 49 15 -14 -27 -43 -7 -30 -33 -63 -26 -45 -23 6 -26 36 45 9 -21 -55 -80 14 58 -1 -23 -23 -13 -16 -55 -33 -28 14 -10 -32 8 48 -90 13 -16 24 72 21 -12 -63 1 83 -7 -11 111 -27 95 0 18 21 78 117 -16 -65 -85 1 90 -85 1 -27 -30 63 -49 -57 61 -54 -46 7 16 9 -9 68 1 23 -60 16 25 -14 -77 -64 25 -38 -42 -74 -49 6 28 6 -59 -18 21 46 -44 -33 -33 42 100 -3 -43 -26 17 79 -2 -99 -58 34 92 -3 -70 -7 19 71 1 -11 -82 -116 -53 -17 27 16 -63 31 31 45 -38 87 18 50 23 100 119 36 15 -23 -31 -59 2 -2 60 83 36 -89 -17 58 72 62 12 -3 -9 -25 22 16 1 -33 -105 -113 -52 37 -22 -104 -96 29 60 57 5 -38 -22 46 51 29 -4 -85 -36 -41 -18 38 -5 -44 -35 -12 -33 -18 29 30 17 30 38 -95 8 19 21 -30 -12 -40 6 69 3 -34 -21 60 76 14 -33 3 49 57 -7 63 34 -5 -40 -66 -25 33 44 -34 -54 87 -7 121 -73 -63 31 -9 15 -14 25 -9 12 33 11 -26 36 66 25 24 -30 -31 3 -34 20 -32 11 54 34 17 -125 -17 0 48 5 10 -33 -87 47 1 5 -59 -59 54 4 7 -24 -43 -17 24 -23 -4 -64 107 -96 -46 14 -33 -114 -33 -2 64 20 -33 -14 5 64 86 32 40 -29 -23 -19 -20 -66 -14 1 3 45 24 35 -57 -13 69 88 11 -9 -63 -113 127 -26 -71 -17 -17 26 -69 -1 -32 3 -71 -88 84 43 4 -30 -17 18 92 109 62 42 -51 -61 -39 16 -20 -66 -19 0 -51 -55 10 -20 1 17 -56 -6 -26 -18 -30 -38 -13 -41 -5 -12 10 34 -31 -23 -48 -23 -19 25 -8 5 -9 32 8 24 28 -82 -5 -62 11 -45 30 23 31 7 47 3 -39 -58 25 -12 29 -66 -47 -27 -13 -23 7 20 10 73 -37 4 -34 20 52 -11 -15 58 33 49 50 -43 -23 37 35 -4 2 -56 -43 -49 -66 -23 4 52 74 51 -48 -57 -39 -37 -3 17 -27 -69 9 35 5 21 61 93 51 21 -36 -37 10 -19 -22 22 76 54 -5 40 -33 4 21 16 32 24 -25 8 31 16 -80 -37 -67 79 49 -5 -30 -20 -96 -77 -39 -18 -86 -46 -46 -49 -33 -20 -13 69 16 -8 13 -23 85 58 -2 85 75 -15 -8 -39 -62 -19 16 -4 6 10 -11 6 32 38 53 23 -61 11 6 26 38 -35 -36 -22 -51 -39 -52 -50 -20 -61 -63 -14 8 -25 1 -4 -64 19 13 -4 61 -35 52 -29 2 36 35 2 -45 -61 -26 -15 -30 -119 -44 -32 -26 55 16 -26 -3 -25 7 -12 6 -9 37 59 9 -25 47 46 74 22 -6 65 4 11 -38 -78 -43 -21 -6 -33 10 -60 -51 -4 -94 2 47 -124 -17 -25 19 46 5 31 -5 -20 -22 23 0 9 8 13 18 27 4 5 31 60 32 16 72 38 -73 4 87 48 -28 -118 -5 26 50 21 4 -66 -74 -20 -25 -46 -43 -17 -17 -37 -4 -28 -41 -53 -8 41 58 -4 -24 -11 26 109 79 14 -7 -60 -53 41 79 -13 -5 22 -8 21 -26 16 -3 -31 20 -26 -23 16 20 15 -50 -112 126 -69 2 5 -55 -22 -93 -7 -21 22 30 70 36 -43 42 48 23 53 -19 6 -3 -5 34 39 39 21 -42 -52 9 -16 73 35 -22 -10 20 34 7 20 -55 58 25 8 11 34 5 63 19 -5 -19 -9 0 23 22 -37 -44 12 25 41 -23 54 -11 16 -16 5 -83 -4 13 -3 -32 -81 -82 -79 19 15 -90 -61 -43 -18 60 40 35 41 -6 8 -51 -39 -11 -1 22 -12 6 -21 8 -24 34 -1 -48 -46 -24 -8 -10 -10 -65 -18 -5 5 -58 -35 -2 -11 -8 -43 -60 -5 45 8 -68 2 9 38 -36 -51 15 -2 -26 -77 -46 -26 25 -86 -50 -3 2 0 118 -26 -113 87 12 115 -11 -105 104 23 78 -46 -58 96 6 13 -48 53 82 -41 -1 85 29 7 5 -32 -30 -53 -12 25 10 -13 -45 44 13 -14 -87 -12 8 7 -48 -93 47 40 -6 -11 30 56 22 10 -20 -104 -31 71 -5 59 -114 11 55 14 38 -90 6 30 11 2 -72 -14 27 -5 -70 -64 30 23 -21 -43 -24 -105 3 -24 22 31 -68 -18 33 81 54 91 43 33 124 -48 -82 13 -29 25 -52 1 -7 -9 -12 1 2 4 -15 -5 -1 12 8 -12 1 10 -15 -11 -22 -29 -1 -26 2 4 -8 7 7 -18 -8 6 3 1 -16 3 -13 8 -8 -17 -2 -11 5 -11 -11 3 -10 -19 -24 -7 4 7 -8 16 -17 -14 -13 -23 -13 -17 9 -12 9 -8 2 18 -16 1 4 -12 -16 14 3 3 16 8 -18 0 -19 -23 -3 -3 8 3 -22 7 10 -16 16 -13 -4 -22 -11 18 -22 -10 -25 -16 -5 0 11 -6 -25 9 9 -2 -5 -19 16 -18 -22 -3 -18 4 8 4 17 0 -21 8 -4 -7 18 -5 -10 -19 -2 -1 15 -11 -19 -5 12 -19 2 -25 -13 4 -21 10 -2 -23 17 -1 8 8 -10 -7 3 -8 15 -25 14 -1 -21 -10 -33 -68 -4 71 -33 -8 18 26 -51 14 -15 45 -14 35 -3 -16 -4 56 -28 -80 64 57 -35 -99 -37 4 60 110 9 -29 -3 22 -29 -90 -47 -56 -61 -38 -21 -35 -32 -27 -4 22 -27 81 76 -25 -62 19 42 -7 28 -6 -6 4 -13 -44 -23 6 -12 -54 -40 68 51 -6 -76 54 59 -36 -38 -2 28 -81 -64 14 1 -8 -84 -104 -26 23 -86 -38 -39 40 -52 -26 79 63 -89 -21 115 59 -35 75 94 36 -44 -14 11 21 -29 43 -15 9 3 -23 33 -36 -38 17 -28 -37 -21 -34 -20 -34 10 0 28 -8 46 19 -43 -24 -1 -15 11 -7 -61 -15 40 -68 -42 -10 40 -123 12 48 22 123 42 59 -11 -75 72 92 7 14