6 -2 -3 -10 -5 1 5 8 -9 -14 -1 -7 -6 0 3 5 -13 2 8 10 -15 -10 -9 -8 0 7 -15 0 -12 -7 -1 -14 6 -4 -11 0 -19 2 6 3 -1 -21 -5 -9 9 0 -10 1 -10 -12 4 2 2 -14 -7 -13 -13 4 6 2 10 -15 -15 6 -7 -5 -18 4 -8 1 -13 3 -8 5 -3 -11 9 -8 -3 2 -6 -11 -10 2 4 -5 -3 -13 7 6 2 -10 -2 -12 5 9 -1 -2 -16 -13 -10 -10 3 -20 -2 3 -3 -7 -14 -16 1 -2 -12 7 2 3 -7 -11 -11 1 -17 -15 -2 -20 -12 -1 -16 1 -18 7 -10 -4 -5 10 -3 -7 7 -4 -7 1 -4 -3 -2 -14 5 -13 1 7 -14 -3 -10 -10 -14 -3 -14 -14 -5 -16 -2 -6 -11 7 10 1 -18 -13 -19 3 -15 -15 -6 -21 -9 -14 -1 -9 -8 -3 -12 6 -7 -10 -11 4 1 5 -6 -16 8 4 0 2 -3 -15 1 -15 4 -8 -4 -17 -1 -4 -1 -7 4 -6 0 1 0 -9 0 -10 0 0 -7 -7 -10 -9 -11 -9 7 -6 -4 4 -3 4 -10 6 10 -3 10 4 1 -10 8 -1 -5 -10 1 -7 -16 3 -6 -5 -5 5 5 -16 -4 -13 -11 -10 -4 -6 9 -6 10 1 -4 -16 7 -15 -12 -12 -7 -2 -9 2 12 -5 -4 -1 -17 -11 -15 3 3 -12 -11 8 -17 -10 -4 -4 -10 -4 1 -1 -9 7 -12 -7 1 -5 -9 -1 -18 1 -4 -6 7 -15 -12 5 -4 -3 -2 -19 -3 -4 -11 4 -8 -4 -5 2 2 -7 -6 5 -5 -2 -8 2 -15 6 0 -16 -7 -4 -3 -13 -12 -13 -13 8 -6 2 -14 -9 4 -14 7 -18 -6 0 -17 -7 -7 6 -4 -10 -9 -6 1 1 2 -2 3 2 -3 2 -2 -13 9 -12 0 -8 3 -5 -5 -9 -3 -6 5 -12 -4 -6 5 -11 4 -1 -1 1 0 -9 -6 -7 2 -12 -12 -11 -1 -7 -9 3 -10 -11 4 9 -13 6 4 -14 -7 -11 -1 3 4 -10 -1 2 -14 -12 -14 -9 2 -2 -10 4 -3 -11 -10 -2 -2 -13 5 -7 -15 -5 -5 3 3 -4 -9 -5 -8 2 1 -10 2 -3 -14 -2 0 0 4 -9 -18 -8 -15 -4 0 -6 -4 1 -15 2 2 -5 -3 0 -19 -15 -1 -3 -12 -16 1 2 -8 -11 -11 -3 1 11 -14 -10 4 4 -4 -3 9 7 -3 -11 9 -7 -9 -4 -5 10 1 -4 -2 -3 -2 1 3 -18 -11 -5 -2 4 3 -8 -4 -5 -11 -15 -15 -4 -7 0 -7 -7 -4 -3 3 6 -11 5 2 8 4 -11 -6 -7 -1 -13 8 -9 -2 5 -9 12 -12 -2 4 5 -1 -9 -10 9 -1 -10 3 -8 0 -1 -12 8 -13 -11 9 -1 -7 0 1 6 3 5 -6 8 -6 -8 4 3 -4 -4 -12 -8 4 -6 -14 3 -5 -10 -2 -9 11 -11 -10 4 -4 -2 -12 1 -10 2 1 1 8 1 1 -3 0 -12 10 -9 -9 3 8 -1 3 -5 -7 -6 2 2 -9 -2 3 4 -6 2 5 1 -1 -6 -4 -12 9 8 -5 -6 5 -4 -12 -13 -3 -2 5 1 0 8 9 3 -4 2 -11 1 -11 11 6 -9 -2 -2 1 1 -5 -7 8 -3 -4 -6 -1 -12 7 10 -8 -9 3 -12 -11 8 4 5 -9 -11 -10 0 -2 -11 -9 -5 -4 5 -7 -4 -6 -12 -6 4 -4 9 -6 -13 8 0 -7 -12 -6 0 -5 -7 1 8 -7 -11 -13 -6 -3 -12 7 3 -12 -4 -3 -1 -4 -11 -7 -11 0 -9 -4 3 4 7 2 5 -1 7 -13 8 -2 1 -9 9 -10 -11 1 2 -2 -12 11 -10 9 -11 6 -1 10 0 -7 -8 -2 -7 3 0 7 6 -10 -3 -8 -11 5 4 -3 5 -6 -13 -5 -6 -9 -2 -12 2 -16 -39 -41 -14 8 -25 3 22 -14 -64 10 18 -5 -41 -7 20 -20 17 -22 -24 -56 -4 44 24 -40 0 3 26 -24 -8 -12 -12 15 47 41 -7 -16 6 21 -11 1 2 11 -32 19 6 -46 11 0 28 9 -66 23 6 -9 -3 -18 -37 29 53 16 34 -4 -13 20 43 29 5 62 17 2 -21 48 -7 7 15 12 -13 -49 23 -44 35 46 25 -5 10 -13 -49 28 -1 -6 18 -32 -9 -19 44 -53 -18 9 -2 -57 -22 -11 21 8 -10 -17 3 5 -77 -36 32 -50 9 40 3 -4 13 1 -11 -23 -2 26 18 -11 -8 -20 -15 -45 -50 -4 41 -20 -3 -26 -40 1 -6 28 -23 -14 5 20 18 -46 -43 10 65 -79 -40 41 38 4 -20 14 13 -34 -48 22 18 -13 50 46 -24 6 0 38 -74 -24 24 20 -32 11 -22 8 -3 12 5 10 -28 16 -34 -16 14 6 7 22 -7 45 11 2 2 14 -4 -30 -7 -5 -11 -16 -16 -25 24 12 12 -11 -8 1 38 -21 -39 -47 1 -3 -25 16 31 -8 -48 -18 21 -15 -14 14 -11 2 3 -5 -5 -7 7 -10 -1 7 -12 -2 -1 -1 -7 -10 -4 -21 17 14 -18 -12 -40 47 32 -39 30 2 35 0 -4 -14 -63 -37 -28 -5 36 -83 -44 4 20 -118 -13 2 -11 -34 -31 -9 -9 -42 -17 32 32 -54 1 -12 -60 -9 -11 -56 -78 11 -20 -8 -14 16 5 34 11 24 33 22 20 29 -10 7 42 36 30 -29 -85 -27 -27 -19 -15 10 -5 -2 -18 33 22 -25 -67 9 -21 -32 -26 -8 -9 21 -31 26 27 34 17 8 -5 9 -12 12 1 -10 -15 11 12 -11 -6 -27 -10 3 -36 5 1 59 31 35 -5 33 40 8 -56 -34 -28 2 -26 2 -12 11 8 33 -8 29 7 -7 7 28 60 72 11 58 10 16 35 7 -2 -38 -5 16 8 27 -5 -27 19 8 -15 -48 20 -28 123 -13 -12 -52 -34 25 -1 -41 -3 -16 -20 18 26 -1 12 -25 -16 -25 4 27 -5 33 40 57 8 40 50 30 -35 28 7 3 28 50 15 -9 9 27 1 21 -5 29 -18 17 25 -32 -36 12 25 -32 1 7 -32 24 15 13 21 -33 42 5 16 -41 -23 8 24 -2 12 32 39 27 -2 -7 -13 -25 -20 12 24 -22 -31 2 -29 2 9 -59 -120 24 -14 -12 31 5 0 4 5 -14 -6 12 -10 -8 9 6 10 -10 9 9 5 -39 -20 21 34 -36 14 25 10 -11 -6 6 -57 -10 -8 23 19 62 37 10 -9 16 35 -37 -6 -5 0 -22 11 20 14 4 19 -5 44 23 4 13 28 24 38 2 3 44 30 13 -1 1 20 0 14 -74 -46 -57 -4 -11 -87 -21 -21 11 -52 -96 -2 -7 -14 3 26 21 -14 38 18 -48 -117 -33 -16 -45 12 -4 -30 24 -5 12 32 -12 -13 4 -37 -48 -48 -27 9 -32 -54 -10 14 19 9 -1 10 -10 -11 4 -56 -19 25 -16 13 -74 -82 -3 -11 2 -27 -13 -29 -11 42 -15 -31 -13 54 -26 1 38 -32 28 29 64 -3 7 24 32 -38 1 -51 -82 -73 -9 -42 -51 4 -113 -90 -33 -10 -30 11 21 -25 3 22 28 -2 5 21 2 63 17 18 -46 -32 -84 44 40 3 -31 -27 64 5 15 59 -14 2 33 42 -29 -14 -40 -14 6 -19 -42 -89 -51 -53 -18 -75 -85 105 -73 -31 2 20 -43 9 -3 -51 -3 -1 -30 -48 -2 -25 -64 -38 -4 19 24 31 -35 -8 14 35 20 -21 11 31 -7 -14 -1 -69 15 6 18 37 11 -2 -10 -14 12 26 19 5 -8 -12 51 26 13 -40 9 90 -5 11 -4 -6 -4 -8 7 -10 -9 -11 9 1 10 4 -10 13 -1 36 -12 -51 -7 -18 -43 -2 3 -58 -2 -7 37 60 34 39 -60 -51 -29 -3 5 -45 -5 4 -63 -16 33 19 -20 -10 15 -11 5 -20 -28 -37 -3 -32 15 22 -20 16 -51 -66 -1 23 5 4 -9 5 22 3 -29 -9 13 -1 77 35 26 43 6 7 -41 -13 11 37 1 -31 33 3 -48 34 -21 -29 7 34 43 -4 -60 -97 1 5 14 22 -38 -24 0 4 -25 -76 -63 -7 61 -4 -51 -17 -60 10 28 8 -7 -20 -25 -50 42 14 4 -32 41 -3 -10 18 -36 2 5 5 -17 15 23 -14 -54 -18 17 2 -16 -36 -5 26 3 -41 2 -13 -35 -21 30 48 21 1 28 34 -76 -54 -8 20 12 -7 -48 20 18 5 -36 -16 -10 24 1 -25 1 -25 -22 37 -77 -28 -17 -5 -28 -9 -24 6 -7 36 -20 -38 28 2 35 -8 -37 -26 -6 -24 -15 -10 -45 -13 39 58 7 -2 -1 15 18 -17 3 32 22 -20 30 7 -22 28 4 -11 12 -15 29 6 23 -9 -11 -5 -12 -25 41 43 -14 -30 -3 24 32 -6 22 7 -22 -7 -25 -6 -11 7 26 -9 -10 -4 -4 53 -10 -43 5 -15 -44 48 -4 4 2 0 14 6 -4 -6 2 0 -2 10 -6 7 -13 9 11 18 11 -7 59 -20 14 19 -2 7 -16 -8 7 -15 15 -9 -46 -67 -24 -5 -71 -36 -1 28 -39 -22 0 37 -1 -27 26 -20 -19 21 11 53 4 -20 46 38 11 -31 -13 4 17 -2 -8 77 -12 -22 -24 -23 19 20 -1 5 1 7 17 -3 37 30 -11 -12 -16 -46 -49 -24 -2 7 -53 -37 20 26 31 30 -6 -32 14 23 -6 -20 -36 -31 4 -15 -2 -54 -12 -20 -4 36 -6 7 5 36 -11 -6 33 0 -32 -25 23 -7 -5 -3 -19 -10 -3 -16 9 10 -43 -3 24 46 5 28 11 51 38 32 32 -20 28 -13 -33 -16 47 -19 -34 -102 5 -8 -11 7 -10 -11 11 12 14 10 11 5 -23 -8 9 73 17 -28 0 -40 24 -19 -5 62 -25 -59 -44 90 -13 41 13 -22 -11 -15 17 3 -2 -4 1 10 26 1 18 19 -5 -18 -56 -61 -1 -11 29 -28 11 48 45 9 13 2 6 9 24 -18 -67 -47 18 -20 7 69 3 -11 -9 -6 10 -4 -25 3 12 -2 -3 -2 2 7 13 13 -1 34 58 22 5 -14 -4 -6 -34 7 0 37 -21 -14 36 22 -2 4 1 0 -7 6 10 -10 -12 -5 -3 -5 1 -9 4 -7 4 -8 -6 4 -4 -5 -1 -10 31 -14 -3 17 12 -11 16 17 -3 5 38 23 21 39 8 13 -8 -1 0 3 9 7 -2 -11 4 -8 -6 -9 -20 -19 -4 -10 -11 0 4 -6 -2 -17 2 8 -6 7 -5 3 -2 5 2 -10 -21 -18 -19 -4 -11 1 3 -10 -13 -1 -15 -20 12 -13 2 -2 -6 -15 4 -4 -5 -16 -8 -16 -9 3 -12 -3 -3 -9 -4 -21 -14 -22 -9 0 8 -12 -15 -14 3 -17 5 -11 -11 -3 -14 -14 -20 -7 -18 -6 -6 -11 6 -14 -5 3 13 -12 3 -15 3 -6 -2 -1 -14 1 -3 -9 -10 -5 -13 -5 2 -9 -11 4 -8 -18 -15 -17 -17 2 0 -11 -17 -17 -6 -1 -4 -19 4 0 11 -4 -12 -6 -14 -13 -16 -8 -5 -4 -1 -14 1 6 -6 -7 0 -5 10 4 -11 -15 2 -6 -26 -9 -12 -3 -2 -11 10 -1 -7 -11 -5 -7 1 -15 -18 -3 -11 2 -10 -9 1 -13 -6 2 -1 13 -17 -20 -17 -9 -7 0 6 -7 2 4 -14 7 -7 -10 -11 -7 1 -19 -17 -6 1 -15 -11 -14 -6 -10 -7 -4 -14 -3 0 -10 -5 -5 10 -12 -10 -8 -3 -3 -3 -14 -1 3 -13 -15 10 2 10 4 2 11 -10 6 10 2 8 6 -6 -5 -8 -12 -7 -6 -9 -16 -14 2 3 1 -1 -10 -3 -6 -14 -1 4 -20 -12 -18 -75 -76 60 7 -23 -49 55 21 -22 -24 5 -10 -17 -16 -28 -10 19 1 -7 -14 -29 16 2 7 -17 -18 9 -47 -52 -14 28 42 -46 -22 -22 1 9 -3 -60 29 -39 4 37 -11 64 52 8 -5 20 18 15 4 19 24 21 -11 -6 42 16 -12 -3 -42 6 -13 25 11 16 3 -41 -42 -17 1 -31 -44 -14 -25 -9 1 6 10 -26 37 48 26 -102 -31 23 22 -30 -55 -57 15 -7 -2 12 -7 -41 19 38 29 -26 -31 -14 18 -36 -32 -23 36 34 8 29 -9 -8 -14 -16 -34 5 13 -16 -37 -1 17 0 -46 28 -15 -72 -74 -38 3 10 -59 -20 3 -29 -11 17 -3 -5 54 -13 16 -5 29 -56 -14 12 -4 -87 9 23 -2 -11 -67 12 18 9 -29 32 23 16 3 -19 -81 5 13 25 -65 17 19 -36 -21 12 -4 -43 -87 18 -23 12 14 11 -4 13 13 6 14 28 -64 -14 -17 -10 8 -17 45 15 7 -42 2 20 51 0 37 -7 14 -42 -15 -13 -21 -17 -40 -34 19 -2 -13 -16 14 21 -20 -20 12 -6 -14 17 20 -3 -8 1 11 -10 -12 10 -7 5 -6 9 1 4 -9 -3 -7 18 4 12 9 -6 26 42 -5 -4 -11 11 14 -89 -13 1 4 65 33 -3 7 -49 -43 15 -25 -61 -34 -14 -37 -124 -24 22 25 1 -25 7 -41 -23 1 -10 -42 -11 5 -10 -13 13 8 -43 -12 36 -10 32 85 45 10 39 38 25 12 -6 -47 -25 -11 -48 -20 -37 -17 -14 -44 -8 11 53 16 -25 34 32 -1 -5 23 30 4 -25 -16 13 -11 22 32 55 52 17 16 0 -31 -9 6 -30 4 -50 -31 -38 -31 -5 -12 44 51 36 31 13 41 -3 1 24 -30 -6 -41 -8 -16 29 36 31 -3 -1 7 26 -2 13 5 5 -1 39 33 0 14 49 -2 48 -13 -13 53 11 -55 0 38 13 -9 -7 23 24 -119 -18 8 33 -47 -7 25 -10 -67 37 -61 -60 -54 32 16 15 4 -35 -19 -34 -22 -13 -4 5 81 37 15 30 -28 24 -1 -17 -44 -3 17 -2 -16 14 31 -29 -39 34 17 -2 3 -24 -52 -23 54 -42 -53 3 -44 -19 19 -11 -4 -9 51 49 44 -72 -22 -50 -34 -31 0 -31 -40 0 -12 4 2 22 1 10 9 24 8 52 -34 2 19 26 -13 -21 -19 -42 27 7 -87 11 -38 -8 10 1 7 6 6 5 9 12 1 -4 2 8 12 12 -1 -46 -7 -3 2 -10 -12 27 -34 -53 11 20 5 -24 0 31 2 -7 -5 2 -8 8 -12 -11 -9 -8 -13 8 4 7 2 4 8 9 -8 5 -4 -1 -5 3 -14 7 -9 5 -2 5 2 6 -12 -1 3 2 7 7 3 -12 2 1 8 1 5 5 -13 -14 -10 -6 6 -11 -2 -2 8 -11 -7 4 -14 -2 3 1 2 2 11 5 -5 -9 8 3 4 -11 1 -7 0 -14 -7 -13 -9 7 -10 -11 -13 -11 2 -14 -12 -12 2 -10 -1 6 -3 7 -14 2 -1 -5 -3 -10 -7 1 9 -13 5 10 -2 8 1 -1 -2 -12 2 -9 -2 8 3 -5 -14 -5 -12 5 -10 0 2 -8 3 7 -8 2 -11 -2 -1 -9 -14 -10 -4 -5 -9 -10 3 2 -5 -8 -6 9 5 3 3 7 4 -7 7 1 -9 5 0 -11 -6 6 2 -11 -10 -7 -7 9 -7 2 0 4 -8 -9 4 -4 -6 0 -1 -13 -13 -13 6 4 7 -13 8 -3 -10 1 -8 8 -5 1 4 -4 5 1 -14 4 -10 6 -5 -12 7 -13 -12 -9 -1 -10 -8 0 -4 6 6 -12 -5 -3 3 6 -2 -2 3 -5 -6 0 -7 5 6 -8 4 9 0 4 -11 3 8 6 -5 -7 -2 -3 2 -8 -13 -12 4 7 1 -9 -1 8 -7 -13 -13 -12 -12 -11 4 0 12 -10 -3 15 50 -6 -31 43 32 -34 -10 63 19 16 6 -11 22 44 29 13 6 -28 -23 28 -37 -12 54 -17 7 -8 16 -11 -37 -28 -6 -32 -6 40 48 54 18 15 -10 22 23 8 -39 -53 -5 24 74 -6 32 11 12 14 -12 -22 31 -29 -26 -7 10 -17 -5 -33 -19 25 21 1 -2 7 39 40 39 -42 -31 10 -43 6 -60 -79 -18 -5 21 -15 20 17 53 28 9 -5 31 -22 -48 -15 8 -15 14 46 44 1 -5 38 2 10 -30 25 21 -28 -48 -72 -88 -25 7 -60 -23 -11 35 5 5 23 25 13 12 -6 24 0 39 -10 27 15 4 -12 0 5 -18 -6 23 -15 -3 -29 49 89 2 -43 -34 58 -61 -38 -44 3 -13 -11 14 4 9 8 -9 -117 -64 -20 45 -70 -31 11 82 2 4 14 58 -10 19 12 6 101 -61 26 36 -1 8 13 22 36 20 6 63 -4 18 -8 -12 -72 -93 -17 24 -2 -11 -7 37 9 1 -42 -31 21 3 5 -50 -12 69 61 19 5 49 18 39 -4 -12 23 -59 -33 -33 -18 -22 -4 9 -7 -3 3 -5 7 7 1 8 5 0 8 4 12 -4 20 15 3 -20 7 6 -50 -33 8 -39 15 33 -11 57 -8 -20 -34 2 -4 -15 17 11 41 -4 21 15 3 10 -68 21 11 4 27 -15 -30 9 36 9 8 39 -42 -1 -3 49 32 0 4 45 16 -33 -34 -24 -25 0 16 31 -12 5 -6 -54 51 -12 2 -10 8 -19 -5 13 -14 -28 3 12 -7 -15 17 32 4 20 23 14 -25 -16 -1 -2 -27 5 8 25 5 20 0 12 -23 -27 -3 -61 1 12 16 7 -12 2 -31 3 -22 -4 -31 -21 3 -29 -57 -43 -36 -3 20 -5 -3 3 -4 -14 55 8 -28 -23 -9 -69 -107 -61 17 -8 -1 -16 -66 -15 -44 -13 -33 -21 17 -2 17 6 0 11 33 -3 31 35 28 20 9 6 -5 -6 26 53 -2 32 3 52 21 46 8 7 9 -1 -13 15 2 19 29 5 -8 9 -25 -16 18 -12 -1 22 -23 -18 12 -12 10 20 36 -19 20 -26 8 -29 -6 10 -32 -20 2 10 -8 31 15 -17 15 27 -19 -30 -3 -37 14 -1 15 24 -14 32 14 -28 9 29 10 -9 -28 -29 -58 11 13 19 38 -52 32 -28 5 -23 6 5 -10 -2 -32 52 31 -23 -6 -12 -3 -10 3 13 8 -8 9 3 -2 -3 9 8 12 -2 8 -16 0 7 22 -13 -17 23 -18 -5 -12 26 39 24 -37 -13 82 24 29 5 62 -22 46 12 2 -20 20 4 -34 -21 -15 -2 -2 22 -2 -7 -29 -5 12 -1 -10 20 -12 -12 3 -13 23 10 -13 -62 -22 39 6 3 -15 -6 -28 -8 9 15 3 -24 -15 19 23 13 11 -67 -10 15 -2 76 -11 13 20 -16 -12 -27 -30 -21 -25 1 26 18 -50 -31 23 26 -12 -2 -2 -50 -32 -5 -7 -3 -50 -23 8 -10 -43 -11 -24 39 9 -1 -1 17 -14 -14 11 10 -36 -12 24 -32 -29 12 -15 -17 4 -4 -21 -9 12 -4 18 78 48 -6 3 -29 -24 13 47 -21 -32 19 6 -45 -29 13 17 -15 -2 22 -19 -24 -11 2 -11 -18 11 35 25 -71 21 -10 30 -13 30 16 2 7 8 -14 -24 -8 -3 -26 -22 16 -4 21 25 3 -1 0 -32 -33 8 17 -5 -35 -13 10 -4 -91 24 3 12 -7 27 -22 -36 -38 -20 -21 -1 14 -31 -2 10 -26 -1 26 10 -17 -18 16 -42 -79 -33 20 -1 -37 -30 13 0 10 12 -14 33 54 29 12 -2 31 11 -11 -23 -17 8 2 -68 -22 4 -12 1 -1 4 -9 -6 -1 -2 9 10 -10 5 1 -5 -6 8 1 -8 0 43 3 29 -23 -7 -9 52 -27 -25 -27 5 13 -62 -69 -5 -5 -14 -45 -76 -83 39 -15 -15 -10 15 2 -17 -6 -34 -4 -3 14 -10 -6 -30 -76 -20 -16 -5 -9 -39 -21 16 50 48 21 4 -6 27 46 43 29 28 27 3 -8 -50 28 -22 -51 4 -24 17 34 17 5 -21 -28 -5 -9 34 12 -45 -65 -8 -13 -4 30 8 26 29 26 31 24 -6 -29 -11 26 3 18 5 37 -69 -54 -16 -43 10 20 36 35 16 24 15 10 17 -12 -17 -35 -23 1 -32 2 8 19 23 2 -34 -11 15 -12 7 -6 -26 20 -29 -31 -67 -15 17 46 34 29 -15 10 50 21 -4 19 -5 -3 -5 -7 30 2 -42 -22 -7 -36 -20 -32 -8 -10 -2 -27 22 36 39 40 58 -19 -15 -55 -37 12 -7 22 2 23 -15 -23 31 -2 1 -27 -24 -42 22 -4 15 31 -5 14 54 34 5 9 -15 -30 18 0 -30 -12 24 -14 -20 -16 -2 7 13 33 -11 8 4 30 -54 -50 -24 -31 49 -1 -21 27 10 13 -7 -11 5 33 -5 -13 -17 -51 -27 16 -26 -23 -40 -34 13 -28 -22 -9 -1 -10 6 -15 -27 3 37 -11 0 6 -10 3 -12 0 10 -1 -9 10 -5 -1 -3 1 10 -7 -5 -10 9 3 -9 -14 1 -33 -27 -8 -57 15 -6 -6 -46 -36 -81 31 42 19 -9 27 29 -14 -57 -13 29 -3 -77 9 -44 -45 5 -22 -30 -122 6 13 -33 -33 -50 -8 -33 -61 -70 -8 16 0 -27 7 20 47 -21 6 10 3 27 18 2 -2 47 41 7 -21 42 17 -44 -33 21 -11 -6 30 -64 -19 -13 -9 -29 -49 -49 -16 -4 -12 -10 -13 -86 -49 -32 10 -2 -9 -26 -5 54 29 19 41 -7 50 7 -28 -43 15 24 -1 6 -13 16 17 14 -11 14 24 -13 2 9 -32 -32 -3 24 -24 -35 -18 40 26 -10 17 20 66 17 27 21 -18 31 26 18 -23 -9 10 -22 -105 41 46 -5 -84 3 3 -9 -85 -26 22 -38 -49 -43 25 -4 -13 -54 2 19 105 -26 -9 2 -12 -50 27 9 4 35 7 -4 -14 26 6 16 43 29 28 -12 -46 53 33 -5 1 22 15 -34 -17 4 21 -6 -26 44 -12 -9 -10 24 -9 -4 22 -3 20 20 -32 -17 6 9 -21 -32 35 15 -4 3 30 -4 -27 -1 26 -5 24 -54 -32 -14 -4 -12 -3 -12 56 34 -53 6 -31 -5 23 -29 -26 -42 -29 -2 52 -11 8 -3 -6 7 -3 -8 -6 10 8 3 -7 -7 -6 -3 3 11 5 29 -15 -9 22 27 0 -58 0 0 -15 -61 -27 46 16 -57 -48 -24 -31 -54 11 4 19 -1 22 10 -13 -15 22 20 4 38 45 -13 55 42 39 3 -12 3 -33 -26 4 27 12 -1 -45 28 -5 -10 37 3 7 -9 11 -36 -21 45 14 32 2 -41 -21 -29 -12 -15 11 17 15 29 8 18 17 13 5 -9 9 33 0 13 32 20 18 25 11 -28 -40 13 16 23 33 -47 -83 -38 -52 23 21 23 22 9 -21 8 4 -15 -9 11 17 -39 -1 -2 0 24 20 29 15 -17 -32 -22 -14 -23 19 30 7 -25 -79 -73 -93 -1 27 22 17 26 19 7 10 42 -19 -17 -13 18 4 0 3 22 -32 -39 24 5 -20 19 19 19 -47 -20 7 5 26 33 0 -3 63 -7 -23 2 24 17 13 12 -38 -37 -16 -5 3 -27 13 12 5 31 19 -20 -12 7 19 -5 -24 6 32 -5 16 24 -8 -16 -41 9 3 -3 5 35 14 26 -7 3 11 -25 -50 -59 -35 20 -8 27 1 -4 -35 -24 9 19 16 0 16 -55 -43 -70 -29 3 12 -20 0 -21 -14 30 37 -26 -3 -6 1 -53 26 26 8 11 -12 -5 -10 8 2 -4 9 7 -2 -2 -2 0 5 -10 -10 -17 26 5 27 34 26 -8 -9 -20 -16 -14 5 -15 -20 -47 -49 35 29 8 -24 -29 5 8 9 10 50 2 2 60 43 4 -10 -3 16 -24 39 21 38 -2 -6 33 -9 -29 -67 -13 -5 18 -14 -44 -28 23 28 -31 -54 -5 33 3 -15 7 24 18 13 15 0 0 -25 5 61 -40 -33 21 47 61 26 -41 -11 8 33 -42 -29 -50 -26 12 27 -4 20 7 -30 20 0 -31 -73 -13 -16 -18 -78 23 -13 5 29 -21 -22 -8 -13 2 -30 -28 -10 -11 1 25 8 13 13 12 17 9 34 -14 -55 -19 -8 -8 -22 -25 -29 -12 10 -24 -75 -59 -3 -54 -35 -24 63 -14 2 38 19 -13 -5 -9 -39 52 42 1 33 47 12 11 7 -15 27 -1 -104 -8 -25 -12 -34 52 22 10 -21 105 -14 -38 -25 13 13 -10 -25 -14 16 0 39 -32 -57 -39 34 -25 -7 -27 42 -8 1 4 -26 -2 30 4 -67 -28 -23 -29 2 -15 11 15 26 17 -1 -13 -12 5 -12 -3 25 35 -29 -37 -2 -6 5 -35 -27 16 11 9 -14 15 10 49 32 10 56 43 31 28 39 32 -12 29 74 19 -46 1 11 -28 -42 -9 7 1 10 -6 -10 -3 16 -10 9 4 9 9 1 5 5 -25 -45 -2 44 -8 40 -5 22 63 -8 -30 -13 -12 -13 24 -21 -69 -65 -26 -22 -13 -3 -3 -6 -20 -35 5 31 -51 1 11 -18 5 -4 -31 -94 -15 -30 17 51 2 -6 16 11 1 -11 13 45 -62 -66 -48 -55 6 21 -8 -20 -18 7 -7 -38 30 34 23 2 25 46 4 -56 -29 -10 -4 -63 -49 4 47 36 14 -4 33 13 -20 4 -28 -2 -15 -13 -2 14 29 12 -9 14 36 25 16 -1 -45 8 33 32 -15 18 -50 -51 30 11 -32 -66 36 -2 0 -2 -48 16 14 1 -13 25 3 15 24 4 -11 -46 54 35 -15 -8 21 0 26 25 -42 -3 -1 -41 -65 -14 6 37 -12 14 -8 -20 22 -11 15 15 28 -7 -22 -6 4 -5 -20 57 -18 3 -14 69 -62 -6 -24 -20 -109 -101 -28 19 7 26 31 -2 36 5 3 -8 0 -13 -6 10 -43 19 20 -33 -2 22 3 7 31 -25 5 -9 -5 50 -13 41 10 18 6 29 -5 -14 9 27 -18 -8 -22 -23 -32 22 -1 3 -23 -2 27 -5 14 35 26 -2 15 -16 -29 -14 -14 -22 -3 -68 10 12 -16 -27 -16 2 8 28 -50 2 34 4 -9 -7 5 -7 -6 11 -6 -1 -7 11 7 -1 1 -10 -5 -9 -14 9 14 -84 -29 -65 22 1 -25 38 40 14 34 0 -21 -51 67 34 9 4 23 10 1 -34 -3 -35 -1 -20 -48 -29 -2 26 32 -24 -36 -107 23 -9 -47 -63 32 63 -19 -21 30 24 -5 6 -9 -39 -11 55 7 -11 30 35 29 -23 -14 12 -11 -5 11 -59 -3 48 40 30 -19 3 33 5 -14 -13 -12 9 3 2 -29 -32 -40 7 54 33 -5 -22 25 62 27 14 4 -51 12 11 8 -14 -42 -9 -25 14 1 12 7 32 37 16 31 1 -9 -11 15 -26 2 1 -26 -52 19 2 18 -18 5 17 8 4 -39 8 8 9 -16 -8 24 81 -24 -6 7 -13 12 -42 -14 -42 -15 18 2 -13 13 -3 -57 -58 27 16 -40 -26 -3 28 -26 -24 19 -22 -43 -34 16 -20 -64 -25 -7 36 -67 -19 -8 31 7 38 7 6 35 9 0 10 6 38 -25 -7 -13 41 -7 -34 -18 -71 30 4 14 -38 -35 -12 26 38 -2 -6 -9 -69 -5 13 -6 33 -12 3 13 11 7 -15 -5 -5 36 17 -6 -41 4 15 27 -10 21 15 18 15 45 44 -44 -40 -1 50 -42 -69 -28 31 11 -30 -1 -13 4 -15 -2 6 -7 14 9 -10 10 10 -5 10 -8 14 -1 3 5 2 -4 2 11 -44 34 1 1 0 9 3 15 -5 15 -44 28 -9 85 24 0 25 59 -1 -2 -31 -15 -37 -11 -26 -12 -15 -4 5 39 -17 29 -37 5 -41 -16 11 33 -4 11 -31 24 3 -33 -5 -38 -6 23 26 -8 -3 20 7 -26 -38 -16 17 -25 -32 -37 -22 24 33 19 -18 25 7 27 25 -5 -41 18 -17 24 5 -28 -54 -48 14 15 13 5 27 13 10 -9 10 5 -33 9 -17 -23 1 -77 -24 -32 -13 -8 28 23 56 17 17 7 11 -30 -14 -13 18 -1 29 -24 -4 11 4 8 -16 -54 0 0 -15 -34 -9 18 27 -27 -19 19 43 -40 8 18 10 1 0 -4 1 -63 -1 14 3 25 -30 36 -39 19 -22 -6 -9 17 -15 -22 -67 45 0 -44 0 48 -40 -35 -4 -28 -18 -52 -3 -34 -28 -20 12 10 36 18 -14 -38 -21 -6 -7 11 6 -25 -12 -1 -8 -8 -14 1 25 14 35 -33 21 14 2 -22 -24 -33 -24 12 -18 -23 3 -19 14 32 -10 10 -3 -29 -12 10 0 -28 -1 -7 -6 -12 -29 18 9 49 16 52 6 30 -7 27 -10 -17 55 -16 -22 -21 -36 -6 -35 -51 -26 9 8 -6 -5 -10 -10 -9 -2 3 -4 3 2 -4 3 -11 6 32 26 -14 -31 -5 10 8 -1 4 -2 24 1 0 -29 4 -44 -69 -13 19 22 -2 -26 8 21 -51 -36 21 2 -32 -8 -1 8 -6 -16 -30 -11 -26 -2 2 -44 -16 2 5 -9 -27 1 28 16 -26 31 21 1 -8 5 -29 27 37 2 18 -25 54 9 -9 -22 18 14 -17 -47 -14 -24 -14 20 -43 -1 -5 -11 16 14 35 -6 -7 -2 6 -30 -44 -20 23 52 2 -20 5 31 24 18 -15 -6 -15 51 33 -8 -37 -24 15 -8 29 2 6 3 31 6 15 1 -21 -8 15 -7 -31 4 22 21 -23 -51 -12 15 20 -18 -27 1 8 20 42 13 -9 -30 -16 -18 19 16 -4 9 -8 -4 7 -11 -18 -8 -18 -17 -16 25 -49 -57 -4 21 -10 -4 -29 -14 25 -7 -33 -81 -7 30 -17 27 23 -6 -10 0 8 16 -7 -39 31 6 1 -7 -15 -16 24 0 -13 -12 22 33 19 -2 11 -13 -8 -73 28 -16 3 -10 40 3 23 21 -11 31 42 4 -7 10 10 -21 15 26 -4 -6 24 29 5 11 -47 30 24 12 -1 -10 2 -36 4 -19 -65 7 19 -36 -31 -46 14 7 -23 -2 -6 -17 11 49 -2 -13 -6 3 9 -9 -6 0 7 -7 9 -4 11 -5 7 2 -13 -7 13 6 -10 -10 32 -9 -17 -1 -6 41 -37 39 15 11 6 6 -29 -1 -35 5 -10 17 -102 -15 -4 -6 -13 20 31 -18 -2 28 18 -33 -28 29 16 -17 -9 -9 -1 -6 12 -11 10 -81 36 18 16 17 31 42 -31 -41 14 25 -5 1 -25 21 50 19 -9 -24 -32 -25 7 6 2 -5 38 43 -3 2 37 32 3 20 -2 -13 -24 -1 33 -9 -28 -27 59 27 3 43 -1 0 -3 25 1 -6 13 -9 -28 -26 -30 -22 -34 -31 -7 9 37 20 -16 40 -7 -4 5 -9 -86 -89 -32 35 -13 16 -7 20 17 13 7 -10 37 38 -1 -47 40 27 -10 22 0 -7 -20 33 21 17 33 33 -18 6 -2 -31 -39 -17 17 -28 -4 -19 23 -49 24 18 20 -58 -17 19 38 7 -13 15 7 -10 127 -43 34 -48 -39 -2 -23 -18 33 41 21 -8 4 -12 5 5 1 -1 -24 24 -3 2 5 56 40 -4 -22 -56 -9 -21 -7 6 -20 7 0 23 31 18 0 4 9 30 0 -3 -46 -49 -54 -19 -57 -49 11 -8 20 16 9 19 6 -34 4 -5 -24 16 50 33 2 -19 2 -35 19 -12 -32 0 7 9 3 -6 -4 12 -4 -9 8 8 6 2 -2 -4 11 15 -3 10 21 -8 8 43 10 -8 27 16 4 -18 4 -4 6 -30 -87 -54 -36 -36 12 -9 10 9 40 -15 30 22 -19 -30 15 2 33 -16 -37 -76 2 -11 -4 25 -14 1 11 42 13 10 -5 10 -48 -21 -4 -1 -22 4 2 -4 -18 11 -1 -109 43 12 -10 -69 25 45 9 -18 -4 9 -6 -54 -27 -25 37 36 2 -7 42 16 25 20 17 5 -15 -27 -16 22 -12 -16 -1 1 1 -13 -15 -33 -24 19 13 36 -11 0 8 7 -3 -20 -66 -31 -14 -43 -109 -32 -31 18 22 14 -1 1 25 -5 41 19 -22 -46 42 -22 -62 -18 -28 -3 21 22 -66 7 3 -3 -12 -6 7 -7 -9 -1 -17 -42 7 -53 -2 0 36 3 -19 -22 -1 -2 21 39 -46 17 4 34 -36 -20 -41 6 -63 -14 6 21 11 -11 24 34 9 11 4 -6 -4 -12 14 8 -27 20 44 -21 4 12 9 -64 34 -23 -16 -26 -33 33 -10 3 12 16 0 38 8 -9 2 7 -26 -8 -2 -30 -17 5 -4 31 -18 7 3 -4 17 27 -7 -20 -4 -21 -69 -31 -6 2 -33 -41 25 12 -45 -26 22 13 10 19 -45 16 31 14 7 1 -6 -7 -1 7 7 2 8 -3 -10 -7 8 12 6 -9 10 7 7 -14 0 -29 12 16 -11 13 8 33 25 15 -3 -47 20 3 7 6 -70 35 -31 -17 47 -10 -24 -9 68 -4 -12 6 28 9 -4 34 24 12 20 -38 30 3 -8 39 -27 -6 -14 12 13 -22 2 40 38 15 29 20 -15 -61 -33 57 -6 15 -36 -12 -33 -19 -11 -2 26 -9 -4 -22 64 20 -14 -54 25 20 6 20 20 -12 -11 -5 50 39 24 14 -13 -16 -30 25 -8 -43 -71 -39 53 -25 -24 -21 34 25 28 30 -67 -6 45 53 -41 -89 -56 44 54 37 15 48 -8 27 21 48 -57 -10 -12 13 1 14 -78 -1 -67 -27 7 -27 65 -11 -3 4 54 -2 -20 42 0 -11 -46 30 59 -3 30 57 28 3 59 6 20 -11 -35 33 -34 5 17 -26 60 58 -1 -47 62 -7 1 -15 19 31 12 -17 -41 -26 22 1 -29 11 0 -32 10 -43 56 89 10 -20 13 100 -36 -14 -16 33 17 27 29 -34 32 1 15 -4 6 -20 -43 4 10 16 -8 17 24 20 19 -9 -8 -26 13 35 -13 -11 9 28 -9 -15 -21 -7 13 23 11 -25 1 -12 63 3 33 17 4 -23 28 -14 23 -26 -4 2 1 -3 5 14 -2 -14 6 -5 2 8 -12 8 -6 10 23 -3 -87 -14 65 -49 -47 -13 25 -25 8 -18 1 3 8 17 -39 -36 -96 -10 12 3 27 28 -75 -27 7 16 -27 -13 -6 -23 30 31 -16 -40 -10 10 31 45 -10 -1 -7 -10 48 -21 26 -10 -34 -32 -30 -5 5 14 -5 -28 12 -6 25 -5 -6 -37 4 20 55 38 -7 -110 -4 4 9 21 -36 -25 9 34 46 -10 -2 20 -9 -35 -37 -14 -23 -3 -28 -18 36 -4 22 30 -7 -13 -5 46 -40 4 25 15 21 11 -17 -14 36 -3 -10 -12 -39 -32 -7 12 -42 34 14 10 -17 5 25 22 32 -5 -21 -3 21 -35 3 31 -8 10 13 -20 -62 -6 -11 -11 -16 4 -10 -10 -4 -2 -34 13 36 -27 2 64 13 -9 -25 -14 37 -17 31 -36 18 -14 26 43 -70 16 -7 53 -80 -32 -11 -2 2 17 6 14 -30 23 -2 0 0 -18 -23 6 -9 30 12 -97 5 -8 -16 -21 12 6 -3 24 39 7 -101 -54 21 41 33 61 -3 -12 -19 -4 15 -17 -23 -9 26 27 -11 -38 19 22 24 2 -4 16 -37 -21 5 -8 13 34 20 -23 -19 -22 11 -16 -15 -16 -17 31 -9 10 -12 11 18 3 10 9 -3 -5 2 2 -8 -12 -2 -10 6 9 1 -8 1 7 21 5 34 -13 -42 34 37 20 -7 14 28 46 12 -13 -3 -6 -16 -7 -8 -14 1 -16 -13 -10 2 -11 -11 -4 -3 1 -7 -1 -1 -9 -15 16 -3 10 -4 -15 -10 -13 -6 -4 -17 -5 -8 -3 -18 -18 -8 -9 1 5 9 -4 -3 -8 -6 4 1 9 9 4 -7 -12 -13 -10 5 -6 -4 -6 4 3 4 1 2 0 -14 -7 -3 7 8 -3 -10 6 5 -4 8 7 5 -8 -6 -10 -12 -2 1 -6 0 -8 -15 -10 4 -1 -7 -15 11 4 -8 -16 -6 0 9 11 3 -14 -13 -21 -3 1 12 0 -1 -18 -17 -8 -12 -13 5 3 -13 6 0 7 -5 -8 -10 -6 -13 4 -8 4 -3 7 -14 6 -3 -11 10 7 -5 -15 -15 -14 -9 -11 -9 -1 -4 -4 6 -7 -11 -17 15 5 -10 -5 4 -4 -6 -7 6 -3 -18 1 2 -1 -2 14 -7 -9 -3 11 4 -12 -10 0 6 -4 1 -3 -3 4 1 4 9 0 0 3 -9 -5 3 7 -14 10 -7 -18 -7 -4 -12 -14 3 -10 -4 -11 10 -12 4 1 2 -12 -13 6 -11 -9 -4 14 9 -16 -2 -4 -8 -12 8 -5 5 -14 -4 -13 -8 6 -5 3 -9 0 10 10 -4 11 3 3 8 -10 -13 -10 -13 -7 -11 -8 10 1 -5 -15 9 -2 -11 8 5 -14 -9 -13 -49 -9 -27 -3 -68 -9 27 19 -2 -7 22 7 4 55 8 -28 18 11 -16 -57 9 -6 -16 -33 -52 -4 -26 -69 12 6 3 -38 -86 -52 -9 -5 -63 12 3 5 38 42 -20 -82 9 8 39 111 5 4 4 -7 17 -10 7 11 -29 -14 6 10 29 0 -41 -29 0 -14 -11 -3 -24 2 19 -10 -39 -13 -39 -75 -37 -87 13 34 -12 -27 20 11 -39 12 25 -20 -24 45 -25 -27 -47 -20 -16 -52 -8 20 -7 3 13 39 21 -6 -98 -53 -89 -57 32 -60 -49 -24 -57 -25 9 2 -39 -4 -21 -15 10 20 -12 -1 6 21 27 12 19 -10 11 -12 15 25 -26 -19 -34 27 31 -92 -38 36 -41 -42 24 -27 -20 38 -16 -43 -9 -4 -17 4 48 -32 -25 -37 -23 -89 -43 -31 -11 8 -20 20 32 6 16 35 1 -27 -20 -27 50 70 -40 -31 -40 -17 37 52 24 23 20 -11 26 30 -67 -42 -71 -91 -3 -13 -73 6 32 48 55 -40 -5 26 9 -21 -45 -109 -27 -3 31 28 -19 -21 15 -59 -51 -27 -35 19 30 -22 39 41 30 -27 -5 9 2 11 9 2 -13 -4 -8 1 -3 11 9 3 -9 -11 35 15 23 10 -5 -62 -4 2 -81 11 -2 -58 40 12 -98 -41 -2 2 0 3 -11 -16 -14 -4 -4 -18 -12 -17 -14 1 -3 -15 4 -9 8 -10 1 3 5 -8 -16 -5 5 -1 3 1 -11 -6 -6 -7 -3 2 9 1 -10 -8 1 0 10 -11 -18 -5 -2 -1 -18 0 1 -13 -9 1 -10 -1 0 -4 -4 -3 -12 -12 -9 2 -14 -1 -13 1 -7 -5 -16 -5 -3 -10 0 -11 -3 -13 1 -2 -4 0 -7 -9 -12 -11 1 4 4 5 -3 2 7 -4 -10 4 -18 -1 -1 -9 -14 -2 0 -16 -4 11 -3 -11 -6 -4 5 -7 3 -17 -3 -16 -8 -8 1 -5 -16 -9 -11 -13 7 -11 5 -7 -14 -10 -9 -11 -16 -11 11 -4 -8 2 0 -16 -6 -10 0 -6 -3 7 -12 5 -8 -12 -6 6 -4 5 -1 3 -6 2 -11 -12 -14 5 -13 -1 0 -7 -10 -1 -16 -11 5 7 -1 -9 -7 -10 -10 2 1 1 -1 4 2 -1 -9 -2 -2 -8 5 -9 -13 -10 -1 -14 -8 -12 4 5 -3 -4 2 4 6 -11 -12 -10 -2 -15 3 5 -3 -16 -14 -10 9 -9 1 -10 -15 -15 0 8 6 -1 9 6 6 6 0 5 4 -6 5 -4 6 -1 1 -12 7 3 5 5 -7 -7 -7 -8 -2 -9 3 -2 -7 -8 -10 -7 -7 -1 -7 -11 -17 -2 4 -13 -13 5 -6 -12 -5 -8 6 -9 0 -17 -7 5 8 6 6 3 2 -6 -8 -6 4 -11 -8 -2 -16 -8 6 -10 -13 -9 7 8 -9 6 -6 -15 -2 -7 -2 -3 7 5 -8 -11 -3 -1 -13 -3 -15 -16 -7 -8 0 11 7 -6 5 2 2 -4 2 -10 -7 -5 -13 7 8 -1 0 -9 -14 -14 -8 -11 -14 6 -8 -13 7 -2 -4 -6 -7 10 7 0 -7 -1 5 -4 -10 6 1 -11 13 -2 -11 -5 -6 6 3 2 6 2 -2 -15 -9 1 -10 -2 -1 -3 5 -11 3 -9 3 2 0 14 -8 3 0 -6 0 -9 -17 -15 -16 -9 -15 -2 -11 -14 -14 7 -4 6 -12 -1 -14 -13 -15 -11 -10 -10 -8 -9 -10 2 -11 10 2 -9 -6 5 5 -10 -1 10 -13 -5 10 -16 -16 -9 11 10 18 3 -11 -11 6 2 -11 -5 -2 0 -12 -10 2 -1 -14 1 6 -9 -7 -9 -2 -6 5 4 -12 -6 3 6 -11 -5 -15 -15 -10 -13 -2 -6 0 3 -5 -15 -11 -12 -16 -9 2 -10 -11 6 8 1 11 -11 -7 -7 0 9 4 -8 10 7 -3 4 7 11 10 8 4 1 -6 -14 -8 -13 1 -3 -10 -11 7 5 -4 -7 -6 -5 61 8 -8 -26 70 -18 -9 -1 90 7 14 6 22 -42 -5 12 -15 36 -11 8 -6 -5 -31 56 12 -21 -11 44 25 -32 -54 14 32 29 14 6 -59 -32 -8 -32 -73 -21 9 11 19 14 18 37 -2 -19 2 -9 33 29 -4 -20 21 10 46 33 -19 -54 -61 0 35 13 -1 18 1 -12 19 -10 -21 -12 16 26 -45 -5 19 29 -13 -27 -23 22 -11 23 27 14 -21 23 -14 -40 -23 21 15 -8 -40 -16 10 45 17 -15 -34 39 51 18 -18 -53 20 33 11 -25 28 -4 -7 -62 -15 4 8 0 125 -79 5 53 7 6 2 -1 -29 -9 -26 -49 12 15 -25 24 35 -12 -24 38 34 -56 -38 -84 -21 20 23 -8 3 -55 19 12 -18 -44 1 24 10 0 -14 -4 -32 -6 5 -13 -70 -35 13 -34 -39 -14 34 -12 29 31 7 4 -46 -28 -41 -27 -33 -7 -11 33 -11 5 30 11 23 8 7 3 -92 -52 6 -8 2 -42 22 5 1 35 4 -1 15 39 54 26 12 34 -26 -4 7 34 9 20 10 -2 12 -3 10 1 -28 -36 -7 5 4 -4 11 -1 6 1 -6 -2 9 1 -9 -11 9 9 36 23 47 -9 13 7 37 3 -20 -19 10 -2 -68 -13 -31 5 78 89 83 14 38 30 39 -1 84 12 -39 6 -45 -5 12 23 -3 51 38 40 24 12 -10 -9 12 -14 26 35 -4 46 36 19 -17 -8 -22 43 -94 -62 -20 8 -31 1 -5 11 0 -12 -10 35 -39 -22 44 57 -25 21 15 -9 15 -3 6 15 -31 -15 -19 -31 -8 -19 2 0 13 33 20 49 -58 -13 19 -4 -15 -19 16 -21 6 -44 -32 -26 10 11 9 62 -106 -27 7 25 -59 -22 1 40 -4 33 32 -1 20 -1 5 7 19 45 14 29 -48 -16 -26 0 -13 -45 -30 -19 -37 7 -7 -28 -18 -6 -17 2 53 -15 -28 -20 5 7 23 -33 25 -14 18 33 55 0 45 10 -7 36 88 45 81 40 -1 -8 90 21 -16 7 14 -28 5 12 -23 -16 11 -14 -61 -42 -18 4 -26 -67 14 43 -18 -35 36 -16 22 4 -2 27 -123 -41 -42 -15 -45 -6 -18 -35 0 -7 -9 -5 -23 -4 -10 -13 -29 -53 -47 1 -34 -30 -12 -16 -11 -2 24 2 -22 18 1 22 33 76 33 5 21 38 -4 40 2 -58 -14 11 -21 6 73 -21 -4 -1 -4 -7 6 0 -5 5 -8 -11 4 6 -3 2 -11 -12 23 -2 13 -8 38 35 -29 3 17 -62 -9 3 -29 6 -26 -40 -17 -65 -90 -41 -51 -8 -18 6 -9 10 8 5 76 -9 -23 -2 -3 -31 -28 36 4 44 -3 6 38 5 7 -25 -18 -29 -13 -16 10 3 48 18 7 -15 15 5 6 -6 -6 3 13 63 2 19 -12 -14 -24 -13 -22 -10 -20 20 57 22 -38 -5 37 -27 -18 18 25 23 50 32 37 -21 -20 -5 -10 -22 -34 -19 33 6 -30 4 66 48 39 25 21 -7 2 -39 -24 -26 -3 -19 25 11 17 14 33 2 35 -4 -26 -21 -6 -47 -23 -10 -3 -34 12 7 8 26 8 0 31 24 31 -28 -3 42 63 -3 8 32 -16 20 23 31 4 10 -38 22 21 26 -12 -9 18 -52 -30 -29 -44 -10 -33 -34 -57 -23 -35 -4 35 50 -32 18 -9 4 -15 -29 -30 -10 14 -13 4 36 28 15 -8 -1 10 -3 8 8 -7 76 3 28 -7 22 29 -8 -6 6 -17 -8 41 10 -1 -7 -11 -39 14 -1 20 24 21 58 41 2 2 5 9 8 -14 -8 6 8 14 20 16 14 -42 -65 -68 -54 -12 29 6 -4 38 40 2 -33 13 -76 -23 34 -9 -1 8 -1 7 9 12 9 12 -7 11 9 -10 6 0 9 -28 -32 -8 37 7 39 4 46 31 26 26 -30 -22 -17 -33 -18 -3 -11 1 -11 7 -11 -12 -11 -1 -1 -3 -12 8 -7 -7 -4 2 1 -5 8 -4 2 -1 6 -8 4 -7 2 7 -5 -12 -11 -3 6 -11 4 -12 -6 -8 1 -4 -10 -12 10 1 -10 -12 -6 -1 -15 -8 -10 -8 -5 -8 3 -5 4 7 -10 1 2 -2 -9 -3 7 -7 -5 3 -12 -13 -7 -8 -9 -10 -1 5 -3 -11 -1 -8 7 1 -5 7 -3 8 -5 -3 5 -8 -9 -3 -10 -10 4 5 -11 -6 -8 -2 -3 3 2 -13 -2 -5 -2 7 -9 6 3 -6 6 -4 -3 2 -7 -4 -11 -2 3 -13 6 -13 8 -1 -12 7 3 4 1 -9 -4 -6 7 -14 -7 -1 4 1 6 -6 -2 -12 -11 -15 4 -13 4 -6 2 -4 0 -10 2 3 6 -10 5 -1 -3 1 -5 -7 -12 6 -1 -3 4 -3 -6 -10 -8 -3 -6 2 7 -11 -12 -1 10 -5 -3 -14 -11 -13 -1 6 -13 -7 -8 6 1 -3 0 -5 3 0 -6 -6 -6 5 0 1 -2 4 -5 7 -9 2 5 0 6 -2 -2 -9 -2 -8 -10 0 -4 0 -4 9 8 7 5 -10 -2 -7 -11 -2 -9 4 6 -2 11 -1 -2 4 0 -2 0 -10 -5 -10 -3 -13 -8 1 6 -4 4 7 -2 9 3 -42 -15 20 8 22 -51 0 3 20 -40 61 12 -17 -5 35 0 11 -76 31 16 -56 -6 42 19 -35 -37 -2 -57 -36 15 -26 -5 14 14 -7 1 18 0 -1 -40 -3 48 -24 21 39 -11 30 16 30 -23 5 10 0 -67 16 -22 13 20 -2 -39 -25 -4 -9 14 18 44 -10 0 -13 -1 -8 10 -11 -52 26 37 12 4 0 10 11 24 27 9 13 5 -9 33 8 -18 15 -7 39 -12 -4 21 -9 -11 -4 -17 -27 -8 15 17 -10 -17 29 64 38 14 -49 11 20 39 0 5 32 18 -3 -5 -5 48 -28 -2 7 13 19 -6 -86 -68 37 34 -38 25 5 -36 -39 -19 -10 -91 84 -102 -33 -38 -46 -16 1 43 -17 12 14 35 5 3 -7 40 20 6 17 -11 -9 52 3 13 -20 6 0 -14 3 28 8 28 9 4 -30 -12 39 33 -43 17 30 -25 19 29 19 -4 -11 18 -2 17 -11 5 16 16 23 -7 -2 15 14 15 -11 -3 48 35 1 -3 46 -36 17 -86 35 25 -47 7 25 14 -38 -12 14 -62 -106 -50 -10 8 -3 7 1 -2 8 3 -11 10 1 -1 -4 1 -1 0 -19 21 18 -28 9 40 -5 22 26 40 4 -13 -20 11 16 4 -9 0 -12 1 6 -13 -3 -11 -6 -7 -17 6 -8 -7 -7 -9 -11 -12 2 9 -10 -7 2 4 -3 -13 -5 8 -3 4 -5 5 -7 5 1 5 -10 -10 4 -13 -2 8 -9 -12 -5 -1 -10 -7 -2 -15 4 -11 5 -9 5 -12 3 7 -14 -8 9 -5 -3 9 -9 -2 1 -14 -3 0 -5 8 -12 9 1 -2 -6 -13 -10 -13 2 5 -7 -1 6 2 -9 0 -13 -2 -7 5 -8 -4 3 -14 -10 -13 -13 -8 -5 -5 -5 -2 -12 5 3 -8 -9 -9 -3 -7 1 -11 4 0 -9 -1 -2 -1 -14 -2 -6 -5 2 -3 -12 -1 3 -8 -4 11 5 -1 -6 3 -2 -7 5 0 -1 -5 -13 -10 -10 8 -9 -6 -5 4 6 1 4 2 -4 -4 8 -8 -13 -10 -2 2 10 1 6 6 -7 8 8 -4 -6 3 0 7 2 7 -10 -5 -2 -10 -2 -3 1 -4 -2 2 1 -9 -14 -13 -12 6 -2 -11 -1 5 -9 -3 -12 -1 -3 -5 -5 -3 -3 -11 2 1 6 -7 4 1 4 3 -17 3 -2 0 6 -14 -2 -4 -9 -5 10 9 -6 -3 4 5 -1 0 -7 -4 8 6 -10 -1 -3 -4 -9 3 -8 -3 -12 -1 8 -2 7 4 4 -9 -5 6 -12 -6 38 44 -16 -14 -47 11 -24 -28 -45 -32 -1 -1 39 44 3 -13 -26 -3 6 -3 -37 -24 27 -15 5 -13 7 18 52 -27 -15 -79 55 3 -12 -9 21 58 50 -12 -41 -18 5 8 -33 -29 -20 -11 10 -15 -68 -65 20 -33 15 31 30 26 -2 12 32 38 -19 79 -7 -3 -31 -33 39 42 53 8 13 23 12 35 -73 -59 3 61 -9 -18 -12 -33 23 32 -20 -41 -8 25 55 10 -48 -27 3 45 21 24 -39 -5 -35 13 24 16 -15 21 -21 13 -39 -10 9 44 23 21 30 25 14 -10 -21 -17 0 36 7 35 27 15 -8 -8 0 -24 38 33 -39 -9 30 -13 43 -18 33 -61 66 6 15 -9 -78 41 18 -21 -2 -56 -29 -27 -38 10 42 -31 -7 6 -7 -16 27 24 27 -9 5 -35 -52 2 -10 10 -18 49 20 42 12 28 32 29 -20 -4 -11 -51 -36 -24 -26 -2 -45 22 16 17 1 21 5 -9 7 -17 -27 -84 -52 -9 21 -40 -25 -21 -6 -28 -4 45 -4 -69 -4 -25 -54 -43 25 20 26 -5 47 10 99 5 49 -33 4 -9 -1 5 3 4 -3 8 4 11 -11 -1 8 -11 10 14 3 -8 -41 -16 -29 -26 9 6 30 13 31 6 31 -2 -31 -28 -6 4 -6 0 -2 6 -5 -3 -10 11 1 -11 -8 9 -5 -11 7 -3 8 5 10 -12 -8 -4 -13 -4 6 3 -5 6 -4 -7 -8 -10 -8 -11 -4 -1 -8 7 1 -3 6 -10 2 -13 0 -6 7 7 -2 2 1 7 -16 2 0 -8 -7 -15 -6 6 -4 4 -5 -12 -3 -13 -12 -15 -3 -11 2 0 6 9 9 0 -7 -4 2 0 -5 -5 3 -13 3 -12 -5 -1 -13 -1 -13 2 -3 3 2 5 1 2 -1 -6 -3 -10 -8 -6 -13 0 -13 2 9 0 -11 8 1 1 -11 -7 -13 9 -7 -10 -1 6 -5 -8 -8 -15 -9 -5 4 4 -4 2 6 -7 -6 -3 -11 -3 0 -9 7 4 7 6 7 -7 -7 9 0 9 -8 -12 -3 6 -13 7 -2 -15 -10 -13 -12 12 -3 -13 -10 7 7 -13 -6 0 3 4 -8 0 3 -13 6 -7 6 -7 -5 0 -14 -3 -15 -9 -14 6 -13 1 -13 -5 -4 -13 -7 3 -12 8 4 -6 -15 -3 -8 -14 1 -14 9 -9 -9 8 -11 -14 -1 -14 3 -16 5 -9 -1 -14 -7 1 9 -4 -11 7 6 1 -1 -11 -3 -9 -5 5 2 -11 -10 -7 2 -1 -11 -2 3 2 -2 -7 -14 1 -9 -15 1 -9 -5 -11 7 -13 -7 -1 -10 -16 -10 4 -63 -10 -9 -14 -28 -25 22 2 -40 9 22 11 -38 15 26 31 -55 -69 2 -8 -32 -15 -2 -11 17 17 -10 -2 14 9 -3 2 11 45 -2 -1 -24 6 2 28 -14 -32 -19 -52 -5 18 -6 -5 31 24 -4 5 27 -15 2 1 12 -19 -10 -11 26 -6 -5 -25 37 17 10 42 2 4 3 30 33 7 5 8 -86 -70 5 -17 -32 -7 3 13 27 28 26 28 -18 -7 -9 14 -42 -50 -30 25 -15 0 23 -4 -1 6 35 21 65 10 1 -38 41 20 12 5 -28 -19 -10 3 -8 7 -1 24 -64 25 18 30 -57 -11 8 4 -29 -35 -12 -25 -21 -5 -29 50 29 10 38 15 8 -22 0 37 -106 -80 6 2 19 21 7 -12 34 42 9 -40 8 12 0 -37 -8 15 1 28 5 -6 -9 57 56 -6 -36 4 14 -38 -14 -3 -49 -48 -28 4 6 25 10 -2 -1 12 -16 -8 -64 -19 -36 -2 -40 -24 29 12 23 15 14 21 -11 -27 -1 61 -35 2 5 21 -1 -28 -22 -15 27 -52 -10 -41 -9 1 4 5 3 -4 -4 -4 -7 11 -6 12 -8 3 -13 7 -10 -16 12 -9 -20 4 -12 -11 -17 -12 9 8 -2 32 24 -6 83 50 41 -11 26 -13 0 -29 14 6 18 9 79 29 20 -22 9 17 11 46 -16 -28 41 44 29 40 11 -15 -17 19 -35 16 -28 -23 32 13 -40 -15 -26 -5 -15 -12 18 19 1 -37 -4 24 10 18 32 0 10 18 5 27 28 -3 -20 25 8 -16 -29 -43 -26 -24 -23 -34 16 14 24 -45 28 -11 6 12 -11 -1 -3 29 -52 -48 -46 -29 21 43 4 -11 -45 20 16 13 -47 -18 19 34 32 5 -4 3 38 4 -37 -10 -16 -35 -15 -25 -2 17 19 36 -58 -22 -17 -8 -42 -2 5 -3 -23 -4 -15 0 -14 -1 -6 7 6 -7 -10 7 -7 -14 -7 39 8 65 -23 -13 6 24 -49 60 32 -45 8 49 34 -14 -2 -21 -18 30 4 -4 -28 28 -8 21 -23 7 -22 -1 -2 -7 -13 -21 -27 -29 4 7 -27 -11 22 14 -9 -28 -36 -35 -12 -1 -34 12 -29 15 -26 -14 41 48 4 3 -33 -44 -32 -33 0 9 -20 -22 -7 -34 0 2 40 25 45 68 54 18 0 47 8 -11 13 41 0 -32 -11 28 17 -26 -42 37 -1 -3 -2 7 -7 -4 -4 9 3 2 10 -12 -1 8 7 -3 8 43 13 12 -3 50 31 2 53 -22 -26 -16 -20 -35 -15 -9 -43 27 34 49 -38 43 17 -16 -31 14 -23 -24 -42 1 -5 1 18 -35 10 80 10 -38 -22 -33 -46 -47 -7 39 -26 17 24 23 49 8 9 9 -7 -2 10 5 -5 21 32 6 16 7 22 -14 -43 -40 -17 78 -29 -28 -4 3 7 22 11 -66 27 7 55 36 9 -18 8 -23 -5 -31 11 13 14 27 6 24 7 -6 26 19 70 -5 -39 -35 -29 -42 -17 -4 -29 1 17 50 -18 17 7 1 35 -2 -20 -46 -6 12 -1 -3 8 6 15 -6 -38 9 -32 -70 47 5 -10 5 28 27 28 -1 37 12 34 3 29 18 -12 -9 48 27 18 8 2 -31 12 -22 -6 -46 -20 74 -13 21 27 23 77 46 -4 -45 37 -16 -37 -15 -17 -51 -18 2 -9 -2 -5 23 69 34 27 13 37 41 22 25 16 12 27 11 -6 -5 -21 -42 26 30 48 45 6 4 40 -6 -7 -4 -14 1 -35 -35 -24 -13 34 -4 -11 -32 -16 2 -9 5 -13 5 10 13 -55 -21 -46 -57 -30 20 74 20 -13 -6 28 -3 -10 -43 28 17 -30 0 45 14 5 -6 -9 8 -7 -4 9 10 -10 -5 -5 7 -6 10 -9 -1 -43 -54 -39 33 6 1 -30 -5 16 18 14 -12 18 14 7 47 -10 15 -22 -15 38 15 -62 -38 38 13 -116 -34 60 -3 -28 7 -7 -105 -79 -35 -2 -96 20 -11 -4 6 28 16 -14 -46 23 11 87 41 33 12 21 16 -39 -3 -25 6 14 7 -19 -12 -6 -26 -4 -7 -62 -46 -12 6 -128 121 29 -29 -12 10 15 -5 0 -19 18 5 5 3 27 2 27 31 23 -18 -44 -69 14 41 10 -35 48 17 14 -30 -33 -7 27 14 -14 -47 -14 14 10 8 -30 -61 12 -3 -1 15 -13 -68 -58 29 4 0 -40 -16 15 13 -12 -3 20 23 -2 4 -2 -9 16 -19 7 11 -24 11 -27 -21 -24 -20 20 -109 -14 -66 27 -52 15 -6 15 10 41 -15 -15 -3 27 -32 66 -15 -35 20 -32 2 -11 19 39 -21 38 13 -25 -56 -11 -10 46 52 25 2 -24 24 12 11 -9 -37 -16 32 -3 10 -43 -27 41 50 14 -6 -25 -25 -32 -73 -24 21 -105 -34 -11 -24 -18 20 23 27 31 8 -34 -54 9 32 18 -76 -57 -15 11 -7 -35 -31 -21 -61 -59 -74 6 -77 -43 -49 48 22 34 18 18 22 30 40 8 12 -9 0 8 -3 -8 7 12 -8 -2 -2 -3 7 -5 13 -45 -34 -77 -125 -12 -68 -104 -33 47 -14 1 16 50 -41 2 41 2 16 -13 26 15 -10 -29 7 19 -9 -15 -11 -9 -1 -2 -7 -10 -24 27 -13 -23 -35 8 -4 -23 -19 -2 -7 -1 -14 5 30 29 4 -15 -17 1 11 3 16 -4 -5 4 -43 -11 -14 -7 -27 -2 -10 -3 14 11 -8 -1 1 -30 7 -2 -14 -15 5 -14 -19 -2 -20 -29 -24 15 9 7 -16 -9 -4 -10 -15 -20 -22 11 8 -2 -12 -13 -2 4 -6 -10 -15 15 -11 -5 1 -20 -9 -26 -16 -4 -8 -24 -4 12 10 1 -21 -15 -25 -21 2 -14 12 -3 -14 -15 -5 -1 -3 -16 -7 -4 -27 -4 13 -8 -23 -5 7 -20 -16 -19 -14 34 20 -12 -19 5 -7 -7 -16 14 3 25 -4 9 29 24 -1 -8 18 -2 -14 0 17 -10 -32 -5 18 -9 -2 -11 14 -29 -31 -8 -8 -3 -5 -16 -7 12 14 0 21 -31 -25 -13 32 -8 -32 9 -26 8 5 -14 -14 4 9 -7 -3 -1 -11 11 10 -41 -23 0 -2 18 -18 -18 4 6 -9 -43 25 -10 -2 -27 11 -15 -6 32 -5 -17 -16 30 -2 -24 22 1 -11 4 0 -13 5 -4 -1 1 -11 5 1 -2 -2 1 5 -4 -3 4 11 4 8 8 -4 6 8 1 -4 9 -4 -16 24 -30 -12 -15 -20 -33 1 -38 -10 -5 39 19 -11 15 33 -53 -19 50 16 -9 -23 -20 -8 22 -25 6 -35 -25 -3 -23 -19 -2 16 -8 8 -22 -23 38 35 -43 -7 15 3 76 11 -19 -4 36 7 -4 1 16 -19 5 -22 48 15 -9 -32 -36 -44 -22 32 -18 -13 -14 -28 19 33 44 -7 -44 -25 3 -19 -17 -16 -7 22 47 19 -14 -22 24 34 8 9 -15 27 2 -16 11 -14 -11 18 52 -9 14 16 20 5 -14 19 -8 19 -3 -3 -18 47 31 -15 22 -69 -48 4 18 -4 -10 2 -19 -17 7 -5 -10 -12 -26 4 45 18 29 3 -1 0 11 -6 29 -14 -25 35 -2 46 -40 -55 -15 18 -7 -4 15 -33 -14 -24 -20 -83 0 6 -32 21 -12 -16 19 34 -15 4 3 -35 11 17 -4 -25 -42 -39 54 32 12 -3 33 38 5 1 6 -4 -31 -57 56 15 -19 -7 65 24 49 50 -44 4 6 3 11 -30 -14 9 64 59 0 -26 47 71 26 25 -9 5 1 3 23 -4 17 -14 -11 -10 9 -46 -21 -2 -29 -34 -34 34 -20 9 -14 33 -3 34 2 -4 10 -4 -5 -10 10 1 -12 -4 -7 -7 -7 -6 11 1 4 -37 -13 9 -37 2 13 6 3 0 4 39 -68 3 35 22 2 -11 11 3 -35 -34 25 8 -38 0 11 -17 13 -7 16 -14 -5 -12 -15 41 -44 24 23 -6 1 28 4 8 -27 5 -1 14 23 5 -7 20 -24 3 -7 27 -23 7 -5 -18 38 15 -9 -7 23 -4 -10 -22 -14 -20 -9 46 38 -6 -41 -41 8 -15 2 -6 -4 -2 12 -13 10 22 38 34 -5 -17 -35 -23 -23 12 2 -13 11 -18 2 2 26 7 0 17 9 -26 -28 -12 20 12 -7 -56 43 -11 19 4 -32 -18 1 17 -12 -62 -43 -13 -7 15 22 -27 -17 -18 18 3 19 -10 -10 -12 34 -3 35 62 -8 -41 -6 13 14 19 4 46 -29 15 -14 -33 -5 17 -64 7 19 17 14 -33 19 19 29 24 40 48 -22 -6 -24 9 -41 -18 -17 17 10 -3 8 7 8 -29 56 -2 -23 -23 24 14 33 37 -11 22 -10 -49 25 -13 -3 -46 14 -29 24 33 -33 -14 28 -6 -5 -26 -1 -9 40 30 2 19 -1 24 -36 18 -15 -8 -3 -3 1 6 24 -34 0 -23 -22 13 -42 -12 -30 -21 -3 35 -40 26 -17 32 -17 63 -2 -2 3 6 -8 -14 3 -8 2 8 -8 0 0 11 12 9 10 -23 10 17 -5 11 13 23 43 -31 -61 20 -88 -29 7 18 16 -30 26 -21 -14 -46 2 7 -72 0 -10 -15 -75 7 5 -39 -12 36 24 -29 -8 39 -1 -35 -28 -18 -39 -49 -1 39 -18 -11 40 20 -11 -59 -1 -7 8 13 39 11 -2 19 12 61 76 55 -42 22 24 27 -38 15 22 -33 7 0 -30 33 7 0 -19 -6 -21 -33 -39 30 34 -7 -58 -42 28 21 2 -16 54 37 62 67 5 -17 -27 -13 1 -12 -98 -79 24 -20 -56 -25 63 52 34 50 57 31 -12 -12 -37 -27 6 -44 -17 28 28 22 16 18 20 2 6 4 30 48 49 12 29 27 20 37 -53 -44 24 1 21 37 5 55 7 -92 -23 2 21 -23 -33 3 -25 -60 -7 35 57 11 -12 36 19 -23 10 13 5 -17 -51 47 -8 -89 3 27 -30 -36 -25 -15 45 74 42 -9 -42 20 -12 -65 -41 13 -8 24 72 50 -1 -6 31 55 4 20 -8 -58 29 -35 4 -7 7 8 26 9 2 4 7 18 -1 -24 -66 -35 -10 -8 -6 -44 22 0 -5 26 -57 36 23 16 -44 25 64 19 -22 -7 28 1 -19 15 -1 -37 -4 -5 11 -10 1 9 -8 -2 -10 -5 4 8 -2 3 1 0 -56 39 -22 -2 2 26 -20 -6 20 0 -20 -2 24 17 -28 -19 -34 -32 15 6 -36 -44 16 38 -57 -47 -11 -6 -41 -48 16 -2 -69 -3 40 81 -104 21 -13 19 -77 -41 -19 -3 -32 29 2 -13 45 26 16 27 9 44 18 -2 17 33 5 11 6 14 -6 11 -56 -76 -1 14 -38 10 40 2 -6 22 10 -27 -56 -11 6 -15 -4 -11 -8 -37 16 2 8 13 1 -5 -11 -2 10 31 28 16 14 -1 -3 -14 -50 -37 -4 12 13 -18 -3 20 35 36 18 23 -17 -23 0 -8 -32 -22 -1 -24 -4 -14 10 0 51 -17 -19 12 29 37 29 -48 26 39 25 -15 -7 2 32 36 -1 -21 8 2 -48 16 44 57 -106 4 -8 -31 -41 14 -21 39 -40 46 -46 15 31 -6 27 -3 -14 -48 -31 -9 -15 -54 -1 3 25 28 33 -5 30 50 30 -35 14 4 -1 -1 20 38 1 7 -23 -28 9 -20 46 -26 9 5 -18 -48 22 26 -33 -16 31 7 -5 -14 34 39 -6 3 -2 -14 -72 -23 -13 -4 -36 19 29 17 -16 -7 21 -24 -87 -22 11 68 -71 -32 -22 1 -30 -18 -61 -7 -71 23 -14 -36 9 2 9 7 6 -1 -5 -3 2 -13 12 10 6 2 1 10 -40 -32 24 35 -60 24 15 12 -46 -61 9 11 -33 30 1 2 0 18 16 -19 5 19 -21 9 -39 21 23 6 -33 -26 -42 -4 22 -15 -89 -15 6 2 -14 -30 54 31 -34 -80 -8 1 14 75 -29 18 2 5 -18 -10 -5 52 -43 -55 -14 44 -16 9 6 -76 51 41 14 -16 32 42 8 -11 -15 29 -3 -13 11 -22 -48 -48 16 23 -3 -2 -59 -32 -28 1 -18 -1 31 52 -27 -2 -28 16 3 14 22 8 -45 -7 0 -7 -33 -10 34 76 -33 -12 -16 3 19 -35 -18 -22 -25 -26 -2 -14 6 -14 19 18 -44 37 83 3 19 27 28 53 -15 -25 -22 -45 -32 -20 -23 -33 18 -10 -77 -125 -19 -38 -46 0 9 -1 -47 -30 30 19 -39 9 49 33 -26 42 -22 -45 5 49 -15 23 4 6 8 -24 -24 -13 -10 28 8 62 -4 17 31 -6 45 4 -75 -40 6 -3 -19 5 -28 -36 -64 -82 30 9 20 -18 27 -1 -9 -3 -17 10 7 -70 0 -43 -25 -52 -35 15 -12 -15 -27 1 -4 4 -13 -14 4 21 -76 8 25 -29 35 4 -14 27 41 -17 5 29 41 21 0 -24 18 -8 6 50 8 8 -10 4 10 2 4 -1 -10 9 -1 -1 0 0 -6 7 22 24 9 3 11 -36 28 -16 17 38 11 -46 18 -19 84 88 10 -10 44 -30 12 -19 -15 -2 75 -1 -9 16 69 -15 -14 -10 7 18 3 45 -22 24 28 -9 24 11 5 4 -13 1 18 1 21 -18 -22 33 16 -23 -36 45 -29 -72 -46 26 -21 -33 -25 8 18 -14 -32 -13 -23 -60 11 37 20 11 -57 -54 -38 -14 -14 13 -1 -18 -4 15 49 15 1 -21 24 -11 -29 -29 -61 -40 -31 -70 11 -25 24 28 72 6 -2 14 18 -40 -3 17 -36 -17 -32 -29 60 -21 37 35 26 -22 -3 -6 0 -38 -26 29 9 20 15 22 -32 -28 -38 -50 -6 -27 6 45 25 -8 -6 47 -45 -2 -13 5 51 49 -6 12 13 -3 -4 5 17 21 -23 -20 30 -2 5 19 36 70 23 -2 76 22 -20 -8 15 -12 18 -14 9 -11 9 24 5 13 -12 -11 -15 -22 36 37 -7 -17 10 58 -36 -27 -37 18 27 13 -15 -35 3 -29 -4 12 -7 -38 -38 4 15 -1 -17 3 8 28 52 33 5 -34 -4 54 -20 -45 -21 33 12 -8 16 -10 5 -10 -46 -5 -47 17 -33 -42 25 48 1 -34 11 28 35 29 -5 -4 -6 13 3 5 5 1 -3 4 0 -3 -4 12 1 -4 -1 -47 8 32 8 13 -3 13 55 4 -76 -10 -34 15 13 31 5 -45 -84 -20 28 4 -1 20 11 17 -3 16 20 11 -11 3 25 11 -21 -14 7 -18 11 25 9 27 35 -66 36 -28 9 -33 -6 24 21 -44 30 8 -33 -8 -36 -17 -18 10 -11 -57 5 62 54 28 -29 -33 -23 -1 -3 -5 -29 -44 10 42 33 8 10 -8 -8 -9 -12 -13 -52 -45 -35 -38 26 20 26 18 -42 -22 -8 -18 8 16 20 7 43 21 -18 -37 29 17 4 0 -4 9 12 15 -24 38 13 4 -2 -7 -1 -2 13 -4 -8 22 12 -24 15 7 6 -3 -3 10 -62 -36 -16 8 -14 -31 -15 22 -20 -43 1 55 33 -24 -24 21 23 0 7 19 30 -15 32 -42 56 2 -5 -5 13 8 8 38 17 -4 -4 -9 14 -12 7 -14 -41 -8 -35 -19 10 3 9 41 -11 22 2 -62 -8 -28 7 -11 -18 -6 -2 0 26 24 -31 -35 9 19 12 10 -25 10 18 30 -22 -36 -17 -3 47 48 -1 -35 24 29 20 -19 -2 -14 -29 -3 6 -9 3 41 25 -18 14 -27 -7 -22 21 -3 25 -4 2 -1 -10 42 11 -20 -5 -3 -8 -8 -7 12 -2 -5 -2 0 8 -12 -1 13 9 -10 0 5 30 26 -52 -47 -1 4 13 16 -19 12 7 -31 -50 6 -14 15 12 -39 -20 18 11 -34 19 -6 28 -45 18 -38 -21 -20 19 -20 -14 -65 12 -2 18 6 -11 -21 -21 -11 -12 -55 -90 -63 25 22 41 49 22 27 -8 -1 5 -26 -32 -10 -31 31 36 10 20 -2 -16 97 16 -24 -9 -54 34 -11 6 25 -21 2 -30 38 27 -1 -23 -31 37 9 11 31 -6 -8 4 32 -40 -17 9 55 5 38 16 7 19 -8 -2 11 -14 18 28 -13 -11 -26 -9 18 -3 39 9 12 1 -5 23 18 -18 4 17 -6 -35 56 40 24 -6 28 20 -31 33 3 -21 -44 4 -3 -21 24 4 8 32 54 -2 -27 17 -30 10 20 23 5 -16 -5 -21 -48 26 -81 -128 -67 -64 27 19 8 -54 36 16 11 -32 7 16 -39 39 -26 -24 -26 33 38 -34 2 -20 0 19 4 -3 -9 4 72 19 13 23 58 -7 7 23 -12 -26 -31 -35 -71 17 25 15 33 28 1 11 33 -38 24 30 42 -29 -41 -16 -32 6 -13 26 12 22 8 24 45 37 -17 0 -51 15 -2 18 5 -8 -31 -22 -2 6 -124 -43 -58 0 9 -5 8 -4 1 -2 -3 -13 -5 3 -3 -5 -12 7 4 -20 30 -53 -58 8 3 -8 -22 16 45 -9 2 -48 -49 7 -22 -76 29 20 19 31 -10 20 23 -21 -25 15 31 51 51 13 -32 5 -12 54 8 -17 -2 5 3 -12 4 7 121 -26 -2 -2 -46 104 -42 -4 -40 0 7 -55 -84 -20 -5 -37 -28 35 -4 24 50 39 38 -15 20 -21 -17 -17 20 -36 -8 16 -38 -23 -1 -33 -7 -25 -1 -24 -24 -33 6 21 -16 10 -18 -21 -70 0 -23 72 82 -40 30 4 -33 -25 37 -1 -1 6 -13 -38 -45 14 -11 19 37 -55 22 31 -17 20 62 19 -8 5 -8 -19 10 28 9 15 59 -22 -35 -38 -68 -34 35 -43 -68 4 48 -9 -26 53 9 -31 -54 26 -17 11 -18 10 18 -5 -119 -6 19 56 -55 -13 32 -18 -23 6 -51 -22 -6 -62 -2 45 3 -31 -24 32 -16 -4 27 -12 -21 -1 -57 -84 37 -22 24 -21 -119 9 5 -40 -63 28 -3 34 34 28 -4 -54 -2 6 19 5 47 33 10 22 -14 17 -4 -22 -8 -33 8 7 -31 -17 28 42 -2 55 17 -13 -20 25 -16 -21 34 51 -8 -20 43 24 -31 -15 37 11 11 17 4 29 12 23 22 -13 -11 6 1 -2 4 6 0 1 -5 -10 -8 -9 2 7 4 27 -5 20 -3 -93 8 45 -19 6 -22 -5 -103 -12 25 -13 55 4 2 5 4 6 2 -4 5 9 -8 -8 4 10 -12 -10 0 -7 -3 -5 -3 -2 4 4 10 9 -4 9 -4 -13 -2 -8 -7 -6 9 -10 -5 -13 1 2 6 -10 -10 2 -4 -13 -8 -9 6 7 -11 -1 2 -14 -14 -11 -1 6 9 -7 9 1 4 -2 -2 -12 1 -3 2 -10 -2 -1 -5 5 -9 -6 -10 6 -11 -9 -3 0 8 -7 -4 -2 -4 -4 2 -3 -5 -2 -13 6 1 0 -9 4 2 7 -3 -7 -5 7 -7 6 9 1 -10 -4 0 7 -5 -10 6 0 -8 -7 6 -2 -3 1 -8 -8 1 3 2 0 -8 10 5 -12 -9 6 8 1 -13 -12 -9 -3 -8 -12 -2 -9 3 8 -12 -15 -13 -4 9 10 -9 -5 3 -10 3 10 7 -1 2 0 5 -4 10 6 -9 -1 2 7 -7 4 3 -5 -14 9 -11 -1 -10 -10 -6 -3 -4 -8 -8 7 4 -1 -2 -2 8 -8 -2 -1 -4 -7 1 5 0 -1 -4 -7 -2 6 -8 3 -7 -8 -5 2 -14 5 6 -11 -11 -4 7 -6 -4 9 -13 -9 -11 -14 -1 8 -10 -7 -11 3 10 -8 0 -2 -8 -5 -8 -9 1 -5 -7 1 -7 1 4 -3 -10 5 -12 3 1 6 -13 2 -8 -11 -5 -60 -12 46 -3 19 58 32 -22 7 -34 -20 -30 125 -34 9 12 11 28 -22 -55 11 20 -55 -49 -31 -18 8 25 -16 30 44 6 3 10 -5 19 -2 -15 6 -14 -14 31 37 0 17 39 4 -19 -31 -5 -5 -8 -10 3 25 -22 -65 -44 -41 -57 -38 -33 9 41 35 3 9 4 -12 -8 -6 9 5 -14 -6 14 2 14 49 2 31 -11 -11 -4 -34 -1 31 33 -22 -29 -16 0 47 37 26 -18 21 -16 2 6 -27 3 23 20 -21 3 47 51 16 8 5 -1 4 30 12 11 23 34 20 13 8 5 -3 -27 50 8 -20 -13 0 49 20 -87 25 2 -17 -17 5 -39 30 85 -34 32 44 -7 20 12 7 -64 -46 2 16 -23 35 10 33 33 49 27 6 -11 4 2 -4 17 3 10 11 76 6 12 -8 -41 17 4 -13 -10 -20 21 29 45 0 -3 22 16 -17 -36 -10 -17 -24 -24 3 8 2 -22 3 26 -14 -6 -1 15 -19 39 -5 -24 -7 0 -18 -39 -31 28 -17 -21 -20 32 -47 -53 -26 -56 1 6 -51 -30 72 29 -5 7 -7 -2 -9 -6 11 7 -5 -8 2 10 8 5 2 1 -22 6 -28 -18 -35 34 -57 -29 -74 -10 -5 -19 -1 59 -10 13 -35 -31 -63 0 29 6 -50 -14 16 -33 -41 25 -19 19 25 5 15 2 0 -22 -9 -21 16 43 -7 6 1 3 29 41 -23 -8 35 -42 -41 -22 -41 15 45 -2 -13 15 -3 -6 7 7 10 -21 24 27 -7 -25 -21 -50 -37 -63 -39 -22 6 2 6 -4 22 -10 -8 10 -1 16 -6 13 12 23 -9 7 1 1 -3 20 -15 -49 3 9 32 32 37 8 -17 12 -6 24 -25 -52 49 -20 -41 -51 -8 -12 29 40 -43 27 42 8 -17 8 8 -37 3 -15 -32 -37 4 -17 -30 -37 -58 -26 -12 -14 -48 -15 53 71 -36 -7 21 13 37 -7 -23 36 37 -33 -14 -1 23 -11 19 51 32 22 20 23 -21 25 6 -17 -46 -88 -27 30 19 41 5 19 12 0 19 -8 3 -32 -14 -26 -37 -44 -9 15 -8 46 55 -37 -15 -29 10 -1 -37 27 4 -10 10 13 -16 -5 -15 -33 27 38 -9 -14 -16 -54 18 -13 18 -5 -1 11 -11 -24 -29 20 40 12 31 3 -63 -33 -10 9 24 -38 15 -17 -11 -64 -1 0 -19 -11 -17 52 -4 -17 11 -9 -5 1 -3 -1 2 -6 -10 -2 11 0 -7 6 -11 13 16 -5 -36 -75 -12 -35 6 39 -22 6 1 26 23 -9 -36 -27 -19 33 2 -37 39 45 25 -54 -66 -2 26 -3 -54 56 11 -18 18 -6 -81 -114 37 23 -73 -36 -14 -11 -43 18 -7 37 0 -18 -38 7 18 33 -46 21 38 5 41 19 24 -5 -6 4 16 7 -5 15 8 -21 -12 16 10 9 -58 -10 -48 -11 -12 -11 19 10 -28 -4 33 21 -55 -15 27 23 -26 -23 11 -36 32 19 28 5 -16 12 20 22 18 16 16 -7 -27 -49 -7 -12 2 9 5 -27 -7 2 -20 -37 8 26 9 -44 -36 -41 15 -4 -37 -30 -30 23 -49 31 40 77 -9 40 6 17 28 26 8 -60 -14 9 1 -43 -3 37 -75 -26 1 26 -59 5 1 24 41 -6 -25 8 1 17 3 -29 -46 -41 -39 -26 -16 -39 -3 34 47 11 -1 15 14 -13 3 15 38 66 -12 2 -2 79 29 10 -11 2 2 26 20 -11 -30 -31 25 46 25 28 12 2 38 7 -3 -22 -35 -25 -6 -35 -37 -46 -12 40 54 30 9 -18 13 38 -4 -14 8 -20 -42 -12 -9 8 -57 -38 7 54 -83 -62 -8 41 20 21 -15 -3 20 12 -5 9 6 6 -3 9 13 0 -12 -10 8 2 5 -8 3 -4 -22 11 8 -40 -13 47 -31 -42 -37 -12 -17 -8 5 0 13 -5 5 -12 1 -7 -15 -9 -19 -13 5 -13 -15 4 -12 -11 6 -18 4 -6 0 7 4 -17 -6 -5 -9 4 -2 2 3 -20 -16 -8 -9 -9 4 -10 0 17 -11 -6 9 -13 -21 -13 -31 6 1 -3 -1 10 -10 -6 -5 -12 -7 -9 -9 -8 12 -7 -5 6 -3 -5 -11 -5 -7 -3 -3 -17 4 -13 5 8 6 -13 6 5 -14 8 3 -20 -14 0 -21 0 3 -10 -11 11 -18 3 -7 0 -5 -19 10 -12 -4 -6 6 -15 -19 -11 -8 -1 -19 -21 -5 -9 1 -15 -12 -16 -10 -10 2 -4 -5 -1 -13 -4 -18 -12 -7 -8 -2 7 9 -13 2 -9 -6 0 7 10 -11 -25 -2 1 -21 -12 -1 -12 -9 -13 -9 -1 -10 -5 -3 -5 -6 -3 2 4 -15 -18 -20 6 -4 2 9 -9 10 5 10 15 -20 -5 -11 -18 3 -18 -24 2 12 8 -2 -6 8 -1 -6 -12 -27 -22 -5 11 -9 -4 0 -11 6 1 7 0 -15 -11 -8 -4 -8 -23 -22 -18 -1 4 -14 -20 -8 -25 -12 -1 2 -3 -22 -12 -8 -8 -17 1 4 -7 -18 4 7 -8 5 4 -9 -2 -12 -3 -9 9 -10 -2 -6 -3 7 6 -14 2 -7 3 -23 -2 -6 -2 -18 10 -5 -7 5 -5 -2 3 -41 -60 -38 11 24 39 2 23 16 35 14 -8 -80 -16 -9 9 11 -11 -19 -17 41 -2 -27 -88 -6 20 -18 -64 -5 15 44 -29 55 65 8 -4 -11 -16 -10 35 -11 -13 59 54 72 30 -30 -91 -5 -5 -22 83 -6 -30 13 -20 -24 7 -10 -22 -44 -19 3 -42 21 27 33 13 -53 -5 -2 -13 -5 -4 -19 0 11 -5 -22 -42 42 12 5 -3 -84 -43 -4 -31 -20 -10 17 12 10 49 56 22 20 6 9 -21 -74 -43 -31 -38 -89 -35 21 -3 -6 -13 -28 -36 24 30 13 27 36 0 38 34 40 -8 -21 -16 27 -9 -28 -55 27 1 11 -63 20 10 23 -54 1 -22 -5 -35 -12 27 56 14 6 -8 -12 -17 1 9 -20 -8 6 -14 -12 -26 -2 26 40 34 35 29 25 -19 1 -5 -4 47 44 6 7 1 -1 3 28 -53 -12 -6 19 33 -11 6 14 -7 18 -2 -7 -42 -38 -67 -44 -35 57 11 -8 -11 -16 -19 3 25 -12 40 21 5 -75 -61 -33 -45 2 -34 8 -12 16 -9 18 3 13 12 -20 -36 -67 24 15 -15 5 2 -8 -4 -8 6 -5 -6 5 8 10 12 0 4 6 1 -11 5 19 22 55 -1 -3 -25 -20 8 -33 -36 -9 -2 25 -2 2 -13 -3 -28 102 27 -36 -40 53 18 -26 -23 39 27 14 -24 -2 -2 -16 33 21 -32 -44 7 24 -13 -49 -11 40 41 -30 34 33 32 22 -4 -16 15 33 19 -29 -19 7 74 7 -21 1 -18 -10 9 28 58 30 39 -18 -11 -4 -47 -11 -23 -24 -52 -58 -46 17 27 8 0 1 41 -3 4 -56 -9 48 67 -31 -29 17 19 -17 -1 -29 4 14 22 -5 23 11 22 -6 19 -21 20 48 -11 8 -9 -26 -3 25 38 -30 8 -8 10 -5 -18 15 -5 36 -44 0 -11 4 7 -59 31 9 47 -58 -11 23 35 0 -7 -35 -11 -22 -18 -48 39 8 -24 -34 -11 27 18 -24 -14 37 14 -54 46 56 16 -24 0 17 -51 19 -31 28 33 -29 -20 -6 39 -3 5 -29 18 12 -7 -15 -31 -17 57 -1 7 16 38 -4 -5 6 29 -84 -9 19 -19 -47 -34 -8 54 9 -7 -11 -12 1 24 6 8 -75 -78 -13 2 2 -14 -24 28 52 22 -29 -12 38 36 28 -12 -13 34 8 14 15 -2 42 4 -1 -55 -4 -46 -31 -28 -23 25 0 -8 4 3 -10 -8 -1 -1 7 -13 -10 9 -3 -6 -8 1 42 22 8 17 27 19 16 -5 8 -12 -33 -10 -12 -17 -28 9 65 -5 -1 23 125 15 16 18 98 -44 7 7 -56 -27 13 22 -18 7 13 -6 -19 -26 14 -14 -8 9 -20 -11 -14 24 -5 31 -29 -54 -70 -9 -84 -35 25 47 19 47 27 -11 -21 26 16 19 19 -5 35 51 22 32 38 64 -14 9 38 4 -53 21 -3 -20 12 -12 -26 2 -38 -18 24 63 -37 -33 -15 -25 34 50 16 -30 -27 -28 -11 -19 -63 -12 7 21 -56 -4 2 42 45 8 -15 13 -21 -63 -57 -25 -29 1 -11 19 67 21 -21 -16 21 -8 -43 17 20 -9 -5 -16 -20 -13 -25 -5 -62 13 -4 3 -15 15 1 -26 -60 -38 35 -50 -29 -11 15 -61 2 20 -1 9 -7 -18 30 1 5 -32 11 0 -10 -83 -26 -23 -4 -19 7 19 5 -25 30 7 -24 -24 -33 -5 -27 -84 -47 -30 -27 13 41 -28 43 -15 -7 -15 -1 -2 -25 22 0 -6 -28 27 -45 -26 39 17 11 30 18 -6 -63 -98 -72 -23 -57 -32 12 -68 -13 -16 28 16 34 7 -9 -34 -7 39 -3 5 16 -2 -34 -33 19 -2 10 -24 17 15 23 -34 -8 -6 -10 7 -5 6 -10 10 12 8 11 -2 9 9 11 7 70 7 48 23 28 -15 19 -10 -59 -26 31 13 -5 30 -2 -1 -49 -46 -43 -27 31 -27 -4 50 25 -9 21 32 -1 -12 -6 4 -1 26 2 -30 -32 -15 24 47 -12 -29 19 29 0 -20 2 20 -39 35 -16 -34 -47 8 -25 -30 -10 17 4 -89 33 28 20 -30 29 20 -31 -55 28 43 -27 -51 -21 2 7 36 -14 -28 -1 7 26 7 23 -25 -17 -13 -24 -26 -28 -25 7 9 21 5 -13 -9 -45 19 39 38 -6 -16 -1 -19 0 -23 -31 -16 11 -5 -47 -22 -42 -28 -6 4 -2 -7 -10 24 13 20 -21 1 43 7 10 -2 -3 21 8 -34 -39 11 -17 -31 -19 2 -31 -39 13 19 20 -31 -47 -33 23 -8 -17 -3 -3 -28 21 6 24 25 -32 -11 4 66 -37 -48 39 13 -98 -32 44 8 9 -55 38 24 -7 -6 -12 21 -13 -3 7 -23 -29 20 41 -46 1 7 -5 -46 21 -11 -7 -1 -2 6 -29 -5 15 3 -28 -5 12 7 33 -1 16 -6 -21 1 -31 0 -15 4 -10 -8 13 19 -9 36 28 7 -19 1 -50 -10 -29 16 -29 -14 11 2 -23 3 18 2 3 51 29 -15 18 11 -4 -12 2 -2 2 10 -6 10 -5 -3 -8 -12 9 -9 -5 -8 38 10 43 -36 6 -31 -18 -1 -46 0 0 13 12 36 -7 -14 8 -8 -9 3 -9 5 6 0 -10 3 4 7 2 -15 2 -15 -10 6 -9 3 5 -12 -12 12 1 -6 3 8 -11 -3 4 -2 -12 6 4 8 6 0 3 5 3 -12 2 8 1 -10 -1 0 5 0 -16 -9 5 -9 3 -11 -3 -10 9 1 2 -3 4 7 2 -11 -5 7 3 -10 -11 -10 -3 -13 -4 -1 -10 -8 -15 2 -12 2 7 -13 -10 -5 -6 -11 -9 -9 -12 -4 4 -10 2 -13 -3 -1 -15 1 5 -3 -14 6 -5 -3 -3 -3 -13 4 1 6 -10 8 -10 -13 5 0 -11 2 -3 -11 5 -9 -14 5 -9 3 -2 -13 4 -4 6 -9 11 -9 -13 11 2 -4 -1 -7 -3 -6 -12 5 -1 1 4 -11 -3 -16 -7 3 6 1 -9 -12 -9 -15 -13 -8 5 -3 0 -6 -5 -12 -6 -9 4 -4 -12 10 1 -6 0 -12 -14 6 -15 1 7 6 -10 6 -6 -13 6 4 -3 6 -15 -14 -10 0 -12 2 3 -10 -11 0 -5 -7 -10 -11 -14 -11 -5 4 -9 -10 -12 -6 11 -12 6 -10 6 -11 -8 5 -10 -11 -3 8 10 -8 4 8 -7 4 -11 2 5 -7 3 7 3 4 -16 -4 5 -4 5 -12 -10 -6 -3 -3 -12 3 4 -15 -1 1 15 68 -2 -70 -5 45 3 -29 -15 -4 20 6 7 -30 3 -22 16 24 27 -97 2 48 40 -34 25 9 25 8 20 16 -16 -25 17 -3 21 46 -16 -54 -12 13 -18 -11 7 13 -20 -3 -19 57 -21 -71 -83 -127 -20 -26 -47 -32 61 37 -2 -6 -22 1 -10 -5 -23 -48 -56 24 14 -5 49 51 7 -23 -23 1 -2 -27 -38 21 4 37 40 -37 -49 49 24 51 -42 -63 4 -2 -2 -26 -4 34 -21 40 46 -4 -32 42 33 2 -18 34 26 20 -43 -12 -19 37 32 -24 -52 -56 -9 9 -21 -5 0 12 -4 18 -23 -9 -23 6 21 36 25 -51 22 52 47 -7 26 32 17 -25 21 -7 24 30 23 127 7 -104 66 35 -20 -17 -50 -8 4 -23 3 23 15 -4 3 -5 14 -4 -17 -18 3 2 -27 -16 -15 66 -38 3 2 38 1 -14 -23 -82 -21 -22 -42 -39 13 33 3 -11 -13 22 42 13 -12 6 41 61 -57 8 7 4 7 5 41 -3 -4 -4 13 42 43 -5 -29 -45 -24 15 17 -13 -38 -9 24 -15 -11 9 -43 27 7 4 5 6 -1 -2 1 -12 5 -3 10 -3 3 1 -8 -11 -4 -1 -34 -47 21 21 -33 0 33 -2 38 1 -31 29 -17 -42 -21 -47 61 -22 7 -71 -27 8 35 -11 11 12 48 38 5 -48 -38 8 21 14 -18 25 31 49 -19 5 -37 8 11 -11 -114 -19 -33 17 -13 -33 45 -4 -30 3 18 6 -44 4 37 -16 14 58 -29 -22 15 51 26 -14 36 35 12 1 5 30 -13 30 -16 33 27 5 1 6 11 -10 -24 -51 -26 -8 -8 1 13 16 34 68 -12 18 11 19 5 13 -68 -26 15 -39 -77 -60 -13 -33 6 20 24 23 -4 -3 11 -20 -2 -4 -7 -10 -13 5 31 18 44 4 -34 25 1 32 9 32 -51 -27 49 52 -61 6 54 24 -9 11 -52 19 -4 41 -60 5 25 51 -1 14 -60 7 7 27 -17 -9 -38 -80 -4 -14 -102 39 30 -4 -73 9 -13 -86 -25 -1 -77 -77 -10 -31 -24 16 22 -14 -15 39 30 -32 -21 53 -21 -4 31 37 -42 -28 1 -2 -1 14 -10 -30 -2 28 -9 20 6 35 8 34 -20 -4 -2 35 -7 10 0 19 -7 -16 -12 -10 -1 -29 -15 31 -77 -7 3 30 -26 1 33 12 6 1 24 50 30 4 -38 -64 -8 -11 8 -10 -4 9 -2 -13 -7 8 2 -6 5 1 3 -7 -7 23 -5 11 13 13 -41 -16 11 -2 20 36 25 44 -31 1 -77 33 8 1 -6 19 10 -32 -54 -9 -20 -30 -65 -23 21 2 -7 -9 18 -93 40 11 -79 -25 21 8 4 -6 15 25 -6 0 -42 -23 -22 6 14 14 10 -2 -24 -16 10 -6 1 6 10 -74 -20 25 29 35 1 -6 -43 -70 -7 8 -63 -17 -31 -34 32 -18 9 6 6 -13 -3 -12 -14 -11 -39 -32 -18 -11 23 8 16 10 7 26 -3 -5 13 -9 1 12 24 5 8 -5 -2 0 20 -48 33 0 -11 -1 12 18 20 14 -24 9 22 -1 4 41 30 -51 -52 -16 13 55 13 50 -13 -44 27 10 -12 -32 13 -17 -52 -44 -19 34 -22 -18 8 36 -46 15 1 -20 -8 23 14 -12 -43 -19 -12 -11 -17 -39 -37 22 13 -3 35 34 -1 28 29 53 0 -8 23 2 -9 22 15 19 -48 50 1 -8 -8 30 -12 0 -18 -8 3 32 30 18 -21 -9 -13 -28 -8 0 -20 -15 -2 -19 1 -13 -2 8 37 17 26 10 -12 -2 22 15 -9 10 3 4 -44 -67 -11 -10 -23 -68 12 27 -48 -88 -22 4 36 0 -38 11 16 20 5 11 -1 -4 4 5 12 11 -5 -5 -6 5 -3 0 2 0 -54 8 -5 -39 -30 22 -96 -5 -2 13 19 -30 66 62 21 0 -14 53 12 -16 -56 17 -19 -20 -84 -11 14 -3 22 -17 20 -23 0 -8 -55 0 -14 -8 -6 -4 5 34 17 -2 -16 -3 6 56 -39 19 -1 22 -5 12 -2 33 18 -1 -10 36 -18 7 -14 -7 11 33 27 -46 4 22 -26 -19 34 -13 -5 -50 35 9 -8 -69 -33 -2 8 0 34 11 -10 4 75 44 16 23 2 7 -24 55 -66 7 20 19 0 15 -30 -23 29 7 27 33 -15 7 34 42 -45 -71 -48 -23 -14 -26 -12 -12 14 1 -3 8 -1 15 42 47 -27 11 64 61 -69 -52 -12 -6 32 8 -10 -9 13 -14 -80 -66 -21 16 -32 32 -13 15 -32 -16 -12 23 4 -25 10 -4 -6 64 -70 -19 -18 31 -41 -10 2 16 6 10 3 -28 -4 14 21 49 -41 1 12 26 12 -13 -54 -10 8 -18 -10 -12 -7 -28 -57 7 -28 9 0 -6 -24 -22 0 -12 2 10 -28 -61 29 6 -6 -42 -59 9 5 -7 -13 5 1 -3 17 -18 -27 14 33 15 25 40 34 -35 -36 19 7 -16 -3 23 21 -5 39 -15 11 7 -20 83 5 9 7 7 11 0 6 7 -3 2 3 6 4 10 -10 -13 -24 -7 -25 -21 -36 -25 12 5 35 42 34 -89 -13 -16 8 42 -11 -15 -26 -29 -29 8 19 -15 -35 1 -21 4 -49 40 55 10 8 25 -29 33 19 0 1 13 -35 -13 7 23 67 24 -19 -52 27 -8 -36 31 13 26 27 -13 5 19 20 -36 19 -74 -7 -23 -7 -16 7 17 -23 -3 7 23 -25 -23 24 33 7 37 49 36 4 26 33 23 3 20 17 8 10 8 16 -13 -31 -73 -41 -63 15 -7 16 19 56 -25 -8 31 -6 9 -2 -25 -39 -2 -41 -45 11 20 17 8 -15 28 1 0 -37 11 -9 -30 -47 -83 -80 -116 16 5 16 30 6 14 24 29 11 3 -1 2 0 -31 20 5 21 -9 -24 32 25 -3 13 15 -2 -40 23 -2 14 23 21 -34 45 8 6 -17 12 30 5 30 -21 44 -8 -2 1 12 -35 -27 46 19 10 31 8 5 19 27 31 5 20 -13 -40 -14 11 21 13 -6 -7 -12 -4 25 29 27 1 -9 23 53 -73 -52 -57 -54 44 -6 20 4 2 14 -4 -7 8 5 14 -6 -71 -82 -81 -10 -2 21 3 10 5 -9 -2 40 -16 0 -1 19 -41 56 41 -11 9 7 -9 -6 -3 9 -8 -10 7 -11 8 -5 -6 4 7 5 -17 4 24 11 -8 11 9 23 -13 4 -26 -7 54 16 -49 -63 26 2 12 22 -62 9 -30 -12 -28 -22 -39 17 57 15 6 -19 6 0 -6 -18 -14 -40 15 31 -1 -2 16 79 -8 -13 15 65 -66 -59 -20 -30 2 18 29 -32 55 0 -47 25 -26 -27 -21 -15 -31 49 49 -37 -2 -1 -60 -68 22 -48 -2 -4 32 4 2 -54 -63 -46 -9 -9 36 5 -20 -28 46 22 7 -36 27 5 -15 -12 -36 -48 -34 -13 43 38 -21 -4 55 26 16 -4 0 8 33 66 12 22 -8 -1 34 7 -8 0 -4 10 32 25 33 -8 -19 70 124 -72 -31 40 9 26 8 -5 20 18 -6 -29 1 6 -15 -32 32 23 3 29 0 -1 23 45 -43 32 35 -8 -6 -8 28 103 25 -7 -41 -4 1 -38 -8 18 -1 79 2 -11 30 47 36 25 -67 -26 4 53 -2 16 -25 -46 -27 -8 0 -9 -21 -32 2 -6 10 24 14 44 45 26 25 -89 37 -17 -29 -29 36 26 10 -6 9 22 32 -10 7 33 20 -24 4 -18 -1 -15 32 -16 14 62 -8 55 -12 -27 -46 10 36 18 -19 -55 20 24 -33 -1 26 37 -2 12 7 0 -7 -9 6 -2 5 4 -6 0 2 0 -7 -9 -28 -16 -18 -60 7 -40 -12 -7 51 -33 35 32 88 -7 -9 -44 -37 -36 12 27 -5 7 18 -11 -5 -10 -6 4 -66 -8 26 0 4 13 15 23 -3 25 -24 -10 -38 10 7 -91 -7 62 -20 -34 36 19 32 -61 -24 27 -18 35 -33 -4 -9 17 7 -24 -24 36 6 5 28 66 12 -29 15 -6 0 -32 -6 -27 18 -22 -41 -82 31 20 -3 -11 14 -18 18 17 15 34 5 6 -73 -41 -48 -64 5 -13 -9 -15 -50 -55 11 -43 4 1 16 46 -17 13 5 8 -11 -10 -3 -10 -89 -35 32 4 -26 -3 -18 40 -101 -67 -1 -1 2 28 -3 3 9 -8 -7 53 -5 -6 24 75 46 4 8 34 -13 0 24 -18 -15 4 11 -48 -7 13 41 -12 39 89 20 -66 25 -34 2 27 8 23 -19 -36 -36 1 22 -101 -66 -9 -7 -46 37 23 4 13 6 -12 -49 57 15 -4 32 33 23 4 19 -8 12 2 17 -3 -40 -74 -24 -44 -38 -32 21 20 -35 -37 4 21 22 -15 -25 8 9 -54 -7 -41 8 9 4 -12 -31 -3 23 12 7 -17 45 -16 -6 -28 16 0 46 -9 18 -14 -21 53 49 -4 -3 -9 -1 0 -3 -6 -5 -11 -8 1 8 8 12 7 10 3 18 13 -14 8 -38 -4 -29 -14 -1 -22 -58 -29 -29 -32 -109 -90 13 7 -18 -14 4 7 -11 4 4 9 -1 -18 -10 7 -5 -15 -3 -13 0 17 -6 1 -9 0 2 -12 1 15 -8 -3 -10 20 -3 -2 -20 -20 0 1 -8 -8 5 0 -5 7 -11 -6 -2 -12 9 -19 2 -10 -10 -9 -18 -6 -5 -17 -2 -5 10 -15 -6 -5 -10 -7 -14 -16 -12 2 -12 7 -8 6 9 -10 -9 -7 -1 2 3 -7 -13 -5 8 8 -12 7 -13 -12 5 0 -2 -1 7 -4 -2 8 5 -16 -13 -6 -13 -12 -1 -2 -5 -1 6 10 -5 -4 0 -13 -12 8 0 -5 -3 -11 -13 -2 -9 -10 -8 0 -11 -2 -11 -9 2 -5 8 -6 -16 12 -3 4 -11 2 -17 4 -5 2 8 -1 -7 -13 10 -9 -12 -4 0 -15 3 5 -4 -13 -19 13 1 -14 -9 -11 2 -8 0 -15 -2 -6 -9 3 -4 1 -14 -3 -14 -6 -6 -2 4 -4 10 -6 -7 -16 -5 6 -10 1 3 11 4 1 -14 0 7 1 6 5 0 -6 -9 5 -2 8 -1 1 8 3 6 11 -11 -11 -2 -5 -9 -3 -6 -4 1 -10 6 0 -3 -2 2 -5 -9 1 -2 3 8 -3 -3 2 -10 3 2 7 -11 -19 4 2 -16 -17 -18 -9 -12 1 2 -5 9 -2 4 8 75 32 20 -4 67 -2 2 -4 5 -12 19 -3 -5 -19 32 24 22 3 -12 25 5 -31 -47 0 30 28 -20 -28 14 3 -40 -33 17 -46 37 52 -49 -24 -9 21 -6 -8 -2 40 -20 -51 -34 -25 6 20 38 35 15 12 57 72 -3 -12 37 12 17 -12 -26 -40 0 -5 8 22 -16 16 15 18 19 -6 -3 -5 -12 -10 -12 -38 -63 -20 -32 -33 -22 -25 12 31 5 44 4 31 -58 3 -5 16 1 15 27 7 15 24 7 -28 1 9 -5 -20 -19 0 -8 -9 -48 -46 -36 10 -88 -10 23 27 -56 -17 37 18 -58 -20 -7 -7 24 -7 -19 -46 27 -13 -25 -11 2 24 -29 -86 28 -23 -43 -83 32 -23 -60 3 39 -27 -45 -24 16 -15 -31 34 14 12 23 4 -19 -27 -17 -15 -15 -22 -20 -7 -6 21 30 -27 -3 6 11 2 -48 -14 0 -16 -41 -41 -33 10 -14 0 -7 6 -8 16 21 -2 -30 -30 -58 -65 17 5 -33 -35 14 0 -4 -1 20 29 39 35 44 39 29 57 25 11 -9 43 -5 17 -13 -10 -16 12 -72 8 -5 2 -4 2 -8 5 -1 14 -8 5 10 3 -8 -7 12 -3 30 11 3 14 3 -14 38 -12 23 -6 -9 13 -48 -28 20 -43 6 -16 -15 -6 2 -1 -15 -8 -4 3 -4 -3 -5 -13 -6 -4 -13 -16 7 5 6 -9 -13 -1 -9 -6 -3 1 -11 -7 -10 -11 -5 2 -10 5 -2 -7 -14 -2 -7 -16 -16 -5 0 -11 8 -10 5 -9 -16 5 -3 2 -16 4 -11 11 -2 2 -9 3 -7 -5 1 -1 -11 -5 0 4 2 -4 -8 4 -11 -1 -7 -12 -13 2 5 -11 -3 -12 -7 3 6 -12 -4 -6 6 -11 -1 4 -3 -3 -1 -15 -3 -14 -11 -14 4 -17 4 -6 -8 -10 6 4 -9 -8 -12 -6 -15 -12 2 -5 -11 -7 -9 -6 -5 -2 7 -6 -12 3 1 -10 -3 -7 -17 -8 -5 -10 5 4 1 5 2 -6 1 -2 -6 -11 -4 0 -7 -6 1 -9 -12 10 -7 6 -8 -15 -14 3 -3 -2 2 5 -15 -2 -10 -12 -2 10 4 8 0 -14 2 1 -10 -3 -16 -9 -10 3 -15 -1 -2 4 -13 -16 -12 -13 2 -2 -10 -2 -6 -8 -3 -1 8 -15 -2 -14 -13 0 -8 4 -14 -16 -17 -1 -15 -6 1 7 -10 -14 -1 -1 6 2 -3 -11 -4 -9 10 0 1 -10 10 -3 7 3 -4 11 -5 -10 10 1 8 11 -1 -10 7 -1 -2 -9 4 -6 -3 8 -4 -14 -3 -10 -4 -5 52 -34 -11 -6 -44 -11 -24 -29 2 -3 -11 -12 86 25 0 -4 -34 14 9 21 -16 -16 8 17 28 4 -13 -2 24 -1 16 -26 46 17 33 -26 33 37 17 -34 12 -28 -55 28 -29 10 -32 -21 -28 -23 -9 -70 -1 23 -1 -9 52 19 -2 28 13 0 -13 5 14 -12 -40 -34 59 16 -10 -36 26 5 -14 12 -33 -60 -71 -13 -31 -60 -27 -4 68 58 1 -28 -1 31 76 23 -43 -47 -18 41 33 21 -8 31 11 16 1 21 -20 -5 0 10 -44 27 -21 20 -11 -16 -24 -37 17 -14 2 18 10 3 -31 -11 -5 -10 2 38 -9 -13 19 36 -15 -35 1 23 16 9 4 -17 21 2 26 -29 -22 16 40 -7 14 -38 -19 -35 -33 66 23 -53 -31 40 27 21 -52 -6 -38 -66 35 17 -4 18 9 1 1 20 -24 -3 1 56 -9 13 -4 -9 20 2 11 -16 39 11 -26 9 15 -1 7 36 -12 6 20 -3 3 16 24 -9 1 -17 31 18 11 -16 3 36 -14 -10 -25 17 -59 12 17 12 -11 -16 19 -17 11 -48 13 -17 0 -3 -4 -5 3 -1 7 -5 -1 7 11 8 1 -12 -5 4 -1 40 17 -3 24 29 -8 10 27 28 -11 -7 -31 -12 -2 -39 -12 1 -8 3 7 2 -9 1 -9 -3 -12 -10 -4 -5 -7 2 7 4 1 -9 -11 9 -10 8 -3 5 -4 6 4 -3 0 -9 -3 6 -9 -10 -14 0 -4 -4 7 -11 -12 -5 -9 -8 -6 -3 -3 0 6 -7 0 -2 5 -7 6 -1 -10 -1 -2 1 -6 5 -6 1 -10 -8 -6 9 -3 -5 6 -11 -12 1 0 -8 -5 -2 8 -12 -7 -6 -2 -8 -14 -7 9 4 9 -11 -6 -7 11 0 -13 -8 -8 -7 1 -10 7 -8 7 -1 -11 -2 7 -11 8 8 9 -9 -11 -2 -8 -2 1 -11 9 -14 8 -12 -7 -7 1 -11 -12 -10 -2 5 -6 11 -7 -3 -11 -5 5 3 8 -5 -11 -12 -1 -10 -9 -13 8 0 -1 -14 -7 2 7 -7 -9 3 -2 -9 9 -14 -7 7 -2 -4 -2 6 -9 5 -13 7 7 2 -6 2 -6 -7 -10 -5 -6 5 -14 -13 4 3 8 -2 4 -7 -11 5 -2 -10 7 1 5 3 -5 -5 -11 9 3 -13 -2 -8 -12 7 0 4 10 4 -11 -10 0 -5 -4 -9 -10 3 -2 -9 9 5 -11 5 4 4 7 4 -9 6 2 4 -2 -3 11 11 11 4 -9 -1 -5 -14 -9 9 -8 -2 -4 4 -7 0 1 -5 3 9 28 -63 -31 -27 13 -26 26 19 28 20 8 -2 6 35 0 -3 -10 -2 -40 13 -13 30 27 8 -35 -13 -6 86 17 -1 -26 22 37 16 12 27 -8 -12 -16 -31 -42 14 -4 -78 50 -46 -40 -40 -22 -10 9 -3 -9 3 49 6 1 20 18 6 -1 49 76 84 16 1 25 13 18 38 38 46 -41 -28 -26 -16 -35 -26 -11 -47 24 29 29 24 26 10 -4 14 -28 -54 -50 -29 -80 -59 -96 -112 20 26 4 8 -21 -14 -9 -7 -74 -52 -38 -22 23 -67 -87 -112 -17 25 37 39 -35 -3 -14 -17 23 22 -4 -21 39 -27 1 -31 -36 -27 -24 9 -34 1 22 27 -42 -17 -15 68 -21 51 21 -35 13 38 -1 -19 -9 22 -2 5 40 15 6 25 10 -54 -29 -12 -5 -12 2 -4 -14 -28 11 6 26 -1 -2 -42 -56 -8 9 -27 -11 -24 28 -7 6 1 56 10 24 24 17 11 -13 -24 -30 -19 33 38 27 1 -7 23 25 16 -8 0 -6 -15 -89 -93 -74 -47 -30 -23 0 -30 -10 10 -2 39 -5 5 1 60 -25 34 -15 -19 -3 -9 -10 3 -7 -11 -10 8 5 12 7 3 0 -1 -6 2 -47 7 9 -4 6 9 5 9 18 -3 -6 38 50 35 -38 4 -31 -7 39 28 -38 1 -15 33 0 23 -2 6 -52 2 -7 -29 -18 -20 21 44 20 4 16 -16 -28 -35 -44 -13 -28 25 49 65 5 4 -47 -54 -36 -17 -25 -12 58 38 23 23 17 26 26 9 -27 -50 -20 39 -1 3 -16 -15 -8 -8 -18 -51 -17 -35 -36 13 1 -18 0 -47 -24 -40 -3 -27 -8 -6 -22 -4 49 21 10 17 7 3 -4 2 -36 -13 -6 -31 -6 -12 -23 4 38 14 17 20 26 -17 -24 -7 11 -8 -5 6 10 17 28 6 -21 0 7 9 25 -19 -24 -23 36 32 3 3 24 -1 -6 -6 33 27 19 -8 -5 32 64 56 -31 -24 16 -30 -27 0 11 26 -54 8 41 85 47 -5 16 -14 44 -23 13 -20 6 3 -18 -9 21 26 3 19 20 14 -1 -16 31 -26 -58 8 30 24 35 -6 13 0 -2 -44 6 1 -29 -7 16 13 -23 -28 18 4 16 -19 -15 -14 6 -1 -5 -39 -44 -20 -1 2 -6 13 -9 16 26 21 -23 -2 -3 -26 -54 31 48 32 1 -12 14 -43 -16 -31 3 -24 -34 -35 44 32 10 -8 -1 -16 0 3 3 -2 6 11 -8 -4 -8 0 0 5 57 -14 -14 24 59 41 2 -23 -47 -13 -46 -10 -39 -5 -8 30 -57 -8 -45 26 15 28 -22 29 3 45 3 26 54 54 -25 14 -26 23 33 18 49 50 48 24 36 -1 19 74 21 -50 -6 38 49 2 38 10 -8 -11 -15 -106 -17 -2 -54 -52 0 -72 -62 -108 -56 1 -14 3 -32 6 49 -14 40 16 22 62 15 22 28 -10 2 1 11 2 25 -17 -89 -99 -10 -3 -25 -32 -24 -8 -56 -87 28 16 20 29 -33 5 -34 -2 -27 -87 -94 -116 -55 -87 -96 -46 -21 11 25 12 -5 -61 -7 -25 6 -15 -21 24 14 -1 -42 -60 -16 -18 -31 -55 -13 -13 -20 -44 -15 -50 -66 -20 27 5 35 -16 7 39 13 34 41 19 44 89 17 2 -6 85 -6 19 27 -2 75 -21 21 21 58 65 33 46 41 -30 -15 -15 -8 -70 -21 28 12 1 -6 -16 -40 -39 -44 9 -46 -117 -73 116 -35 -28 -52 -45 -30 -34 31 -30 4 10 22 -9 -23 -1 10 26 12 -2 -2 15 40 3 42 45 -29 -20 -6 15 -21 -19 -66 -46 -6 -12 -27 -51 -25 -9 22 -23 22 39 32 23 36 19 42 -3 13 -18 -21 5 2 8 -4 -5 4 -4 12 -7 0 10 11 10 -11 -6 -7 -2 -68 8 15 -11 37 30 3 31 72 18 0 1 9 9 -9 -21 18 -13 18 20 47 -15 -10 25 -25 93 21 21 -69 47 13 -22 -119 2 22 45 -47 7 56 -82 20 -4 38 21 13 -7 -10 -36 -66 -50 -72 -4 10 -65 -15 40 22 2 -16 -33 -12 7 2 5 -85 -25 32 8 -13 17 40 69 -31 36 -11 16 -17 13 -41 -25 12 9 35 47 7 34 41 3 -37 -32 -30 -124 -8 -11 -20 -31 25 20 13 14 44 -4 -72 1 15 -51 -76 -25 19 47 0 -61 25 -15 4 18 -10 7 -33 -22 -11 -24 -16 -12 -74 -53 23 -2 -73 -61 -86 27 -13 -15 -4 27 2 25 -9 -29 7 -18 -30 -30 -110 0 20 3 -24 -6 51 -41 19 -2 35 38 0 25 47 -23 -98 -77 16 -24 -65 -29 22 -20 35 0 -14 12 10 39 -20 24 -82 -71 -55 -18 22 -34 -18 82 -14 -49 -36 -22 -4 3 -13 -9 -75 -51 37 40 -34 20 19 -12 -22 -6 -15 -23 11 43 8 -32 -7 -54 32 55 13 -14 -32 30 32 16 -8 26 7 43 -15 -41 107 -38 17 -4 -59 -4 27 4 -2 4 19 47 31 -7 22 2 -1 -3 -2 5 3 6 -7 -1 3 -1 1 -12 9 -3 11 -12 -73 0 4 2 -28 7 14 7 -36 -29 -20 19 16 -8 -3 -22 -43 -6 75 -34 33 29 -4 -41 73 -6 -54 -43 -6 -45 -50 1 33 -19 -25 -51 9 -40 2 42 -31 -22 16 39 -30 -2 -5 -27 34 22 -1 8 -38 2 -5 -19 -33 30 29 11 51 42 6 -20 8 18 -6 -1 54 -26 17 -69 -34 -77 5 -35 -12 -5 16 15 78 0 0 0 -20 -40 -40 -18 -14 -7 3 41 31 19 49 5 84 15 -31 -13 10 24 -2 -13 -65 4 -5 3 12 28 -3 30 51 22 -1 20 -7 -11 -13 26 0 28 29 21 -12 42 35 5 -47 37 40 -47 10 3 8 17 -5 -50 -44 -23 32 13 -8 23 -2 -22 -31 -12 39 -6 34 36 -8 17 17 47 -61 -7 7 -42 41 3 2 24 54 21 9 -4 33 10 -7 -8 -4 -20 -22 -4 12 25 11 27 -20 -22 47 46 -27 -29 -43 9 20 14 -3 42 -2 -2 34 -28 44 12 -20 5 1 -19 -32 -23 -9 15 29 26 -5 14 -8 30 7 -35 25 6 34 -14 -20 -3 -7 -2 18 -7 14 66 -30 -11 22 -15 31 14 -14 -4 30 55 -15 -3 27 -16 -1 -3 10 -6 1 -10 -4 9 7 10 -6 -5 -4 9 -10 4 24 28 -52 -2 -4 -61 -50 -41 -26 -32 -55 8 6 2 3 24 -95 -57 -63 -5 20 -24 4 15 -7 -35 -7 34 -27 24 7 -6 18 3 9 -36 13 -16 -24 3 -25 0 -2 -18 53 29 18 -27 14 -6 -24 -57 5 9 -4 -13 -2 37 24 -6 15 -17 -2 -6 18 30 3 -5 25 32 -25 -20 -14 -42 3 30 3 5 10 -40 10 24 14 7 40 7 -49 -21 6 -9 7 32 -28 -28 -8 -3 -24 14 33 7 8 -16 2 -31 34 -6 -26 -22 7 1 -3 20 -30 35 27 14 21 12 34 6 6 30 11 28 -34 -60 -31 -35 47 8 -24 -33 -23 6 15 14 26 11 32 -2 -2 -21 4 26 -7 -22 -15 -17 -4 -9 -2 -5 16 -2 27 21 33 39 36 25 -26 11 0 3 -92 -1 11 -3 -7 -25 19 -12 -5 -25 -1 -11 -8 -7 -36 -17 -19 2 -17 -19 8 19 14 -38 12 8 17 0 2 18 -28 -19 29 36 -2 29 32 -16 -19 35 -3 -49 -26 -23 -3 -38 -22 -16 25 8 16 -27 33 10 7 -4 -5 7 -16 -16 -25 1 -1 -11 -11 -7 2 17 -9 25 5 -5 -21 53 39 16 -1 -6 -3 -4 -6 -5 -3 7 -13 -3 11 8 9 -7 10 -9 45 24 12 1 34 -6 -12 13 3 -17 -25 38 -6 -24 -38 -42 39 4 -7 8 -15 -23 20 23 -16 -26 -10 5 -43 -21 0 1 6 -20 6 61 -8 -27 27 11 9 26 -14 -19 -13 14 8 -19 53 -31 -7 15 0 -61 -5 21 -14 0 15 17 -28 -65 -12 28 28 -28 -14 -4 -12 -31 -24 25 33 -12 -18 -33 -3 -8 -4 -36 -36 -34 -8 -21 -17 -14 -12 -18 -1 -21 3 -20 -50 -7 -20 -37 4 -28 -14 -9 -16 -4 7 8 -20 -22 11 16 -30 -12 -3 -10 17 22 8 10 6 8 23 2 17 -13 -40 -15 -66 3 -16 11 61 -47 -68 -20 -25 -41 6 -16 2 -28 4 29 -9 -18 27 13 47 -15 22 39 21 -66 15 -14 14 37 4 -50 35 19 0 -28 24 35 9 -5 24 22 -35 -23 -59 27 -11 11 -19 -25 24 17 19 -31 -34 -17 3 -12 -6 -49 8 15 25 9 7 10 -18 -30 48 -33 -110 -39 6 -8 -4 36 -33 -36 0 16 12 -8 12 9 35 3 -47 -54 12 34 14 8 -8 -26 12 4 25 17 29 -31 9 -2 72 40 16 -45 17 2 -19 19 -6 29 12 72 -3 -9 5 3 6 -11 3 6 6 11 10 10 10 5 -5 -2 -4 -11 12 -11 9 28 34 40 1 5 27 0 -12 19 -60 -59 23 7 53 33 -12 -7 99 63 8 -17 -8 -24 -7 -6 -86 -7 41 -8 25 34 -3 -5 27 26 14 -12 3 -3 0 -30 -5 19 -27 -72 42 -31 -26 63 -47 -36 -2 -47 -28 -51 9 41 -105 4 16 120 20 22 25 5 13 29 14 -3 -9 0 19 6 83 20 15 26 35 17 2 6 -56 -77 -48 -21 43 20 42 39 15 10 28 81 61 47 -1 -16 -68 -122 -26 7 -37 -44 -34 4 -27 -25 21 28 28 26 20 -11 -101 -61 -32 12 -37 -5 6 -14 -33 -16 29 41 21 25 19 -16 27 16 37 -37 6 -34 -3 7 -74 -76 -27 15 9 14 -13 13 38 -23 32 34 1 13 -1 -64 -18 43 -7 -57 4 66 -13 -9 53 31 -2 15 42 -23 -54 -34 -37 -10 -34 -36 -6 -11 10 42 24 -26 -17 9 -21 -53 -69 49 -50 -41 5 64 5 42 51 17 7 -27 -13 -21 7 -59 -37 0 -13 12 -1 -8 -2 1 -9 -29 12 -59 -71 6 -83 -45 -35 -29 3 9 40 18 24 -23 47 23 6 14 51 -5 20 2 -15 -42 16 -2 -4 -59 2 -10 -2 -7 1 8 2 -14 5 12 3 4 4 9 6 10 30 20 7 11 -15 8 -21 17 44 21 30 14 6 -21 -16 -7 -64 45 -19 -45 -8 41 26 -15 -48 -52 16 -18 -66 -23 -44 5 28 1 30 -40 -3 11 -28 57 -38 -76 6 32 -43 -13 49 -16 0 4 -15 8 14 37 47 9 62 17 12 -30 1 15 3 -67 6 14 -21 -28 -13 -3 -5 -52 -15 -17 -39 -12 11 -77 46 -2 -14 -20 0 -16 6 -17 -8 10 41 32 16 27 26 12 3 -30 -21 9 -2 9 12 -26 9 2 44 36 27 26 20 15 -27 4 -9 -17 -10 -25 -2 2 20 11 59 -2 6 31 29 23 -42 15 -34 31 12 -11 18 35 -6 14 9 13 -16 -55 70 39 -34 -47 37 8 33 47 -9 5 14 -22 -36 -59 43 7 -76 -116 9 107 -6 -12 4 -19 -47 -34 16 -12 27 -47 9 24 40 -51 34 24 34 10 1 30 15 46 39 39 -1 8 -30 -6 27 -39 -32 -7 5 -27 -28 24 32 -6 7 42 12 3 -20 -29 30 16 -6 -1 -25 -5 31 28 7 12 19 -9 25 16 21 1 35 3 -37 -8 -20 31 -7 4 -7 30 -12 -29 -35 -75 -13 16 -34 76 80 12 11 9 -12 -2 13 13 -4 -5 9 -1 9 7 -7 -10 3 1 -21 -12 -11 -13 -28 -1 -26 -20 -34 -18 13 2 -31 29 37 -21 -55 -20 -61 25 22 29 -14 22 26 38 6 22 44 46 -48 9 1 -21 -13 -69 22 14 -26 -73 19 16 22 -27 -19 -9 63 12 -14 -7 0 -41 -1 -12 -18 -4 7 2 -3 1 -9 -30 -16 4 8 20 1 24 -41 -27 -38 -36 29 -11 -25 -46 60 7 -21 -32 -20 -23 9 -21 11 -19 -22 3 27 4 -12 -11 2 0 -18 -46 -22 -18 -7 20 -8 -4 -39 -30 -9 -40 -28 -7 7 10 -10 10 -2 2 -23 -33 -14 -22 -26 -43 32 16 9 40 -7 2 -16 16 -4 -16 -13 62 -6 -7 15 19 62 14 7 15 13 19 12 1 55 57 51 31 24 20 18 -19 4 -2 56 -46 -25 14 61 76 53 -67 -18 -3 43 30 -31 -23 49 -5 24 -13 16 -5 3 0 -19 -3 8 13 31 31 -5 25 -29 -29 -36 -25 49 19 -11 -27 24 -11 19 34 7 29 7 1 -7 -36 -24 -6 28 -6 -2 -2 41 44 -14 -33 7 7 21 8 -21 -19 -9 -11 -11 -8 -13 -3 6 6 25 -69 30 5 -5 -93 56 43 3 -45 18 34 39 -22 8 1 -3 3 8 12 8 6 1 6 -8 -1 2 -4 12 -7 4 -55 -28 -13 27 27 -15 -15 47 39 10 10 12 -41 -45 6 59 13 -50 -63 77 19 -30 -6 -5 23 -37 21 -33 -33 -10 25 6 14 -45 -49 -7 -40 36 24 -9 6 47 34 63 15 -9 -62 44 57 21 17 2 4 15 -11 -28 5 -33 -47 -47 -81 4 60 33 17 -32 -57 -6 -6 35 67 -79 -61 -7 44 -4 51 9 20 24 22 -5 2 -5 -11 3 2 23 37 22 23 -19 -11 -17 -19 24 35 26 15 56 49 11 10 15 3 -14 -21 -28 -17 -13 -34 14 -3 29 9 -23 -19 11 5 -38 25 7 -25 -64 -25 17 -32 27 33 35 -30 -7 -21 -34 -6 -37 -35 -37 3 -5 6 18 7 -18 -42 2 -52 -2 -26 -5 -5 28 4 33 -26 98 54 29 26 -10 16 -1 8 4 -27 -2 8 -13 -19 -5 -3 7 -14 -42 -19 30 12 -7 -6 4 -22 2 -4 -1 0 -14 -17 -1 -9 -24 -20 4 41 -6 -23 6 -6 -37 -24 -3 -29 -12 18 -37 -21 -3 -3 42 -6 1 23 27 1 -22 -17 -4 12 -21 -17 -18 5 32 -19 -17 16 -45 -27 -10 9 4 25 -33 -31 51 48 -26 6 15 10 6 -5 -4 -13 -8 -1 6 4 -9 -7 -7 -6 -1 -7 -7 -3 -1 -17 -65 -8 -30 -45 -27 8 -23 25 34 72 16 -25 -17 -35 29 48 -25 -33 18 41 -33 -50 46 17 -52 -19 12 -10 -28 2 38 -22 -70 -93 7 -73 -16 0 19 -57 21 56 -8 -20 8 -8 28 26 29 3 -26 0 15 -42 -44 1 25 -14 10 -26 28 22 3 23 -13 -40 -6 -36 -59 -36 -25 -56 -25 -33 -29 -9 76 16 0 7 5 32 -10 -11 -4 -6 -30 -26 8 22 0 17 3 -35 41 1 26 12 37 48 6 23 -63 -2 41 -13 -14 10 12 -11 15 13 -1 -2 27 12 -12 -1 -31 1 5 -6 -12 -3 5 -12 -44 29 18 32 -51 1 35 -13 11 4 -25 -11 10 24 10 -28 26 -59 -32 -88 43 -75 -16 16 37 5 39 58 -16 12 -19 -33 67 -48 -51 2 26 -9 -36 39 39 -4 33 5 -24 -13 15 14 21 18 5 60 -37 -27 35 57 18 -3 -2 17 -3 -20 -47 7 -13 26 24 22 12 12 13 -16 19 27 -22 2 -22 -24 -14 15 -8 13 23 36 5 -5 0 19 16 -8 -28 -14 -16 -9 4 -31 26 -15 -91 -45 15 44 -32 -22 51 -43 42 12 -3 4 32 -1 -1 10 -3 9 3 -4 -4 9 2 2 5 -3 -12 6 5 4 -35 -38 -90 -48 -46 -25 -59 -13 -12 -92 -8 8 34 2 1 -3 -42 -14 -4 37 5 -33 -8 31 -39 -16 38 19 -86 -52 -33 33 -8 -15 6 3 10 3 -39 -18 -6 4 12 4 -25 13 40 13 -62 -25 24 21 28 -21 -27 20 27 23 2 -9 58 47 -11 -45 -8 9 8 44 16 9 23 44 -12 -7 -49 -54 11 -29 -11 -39 0 -11 35 7 -14 -31 -16 29 -2 -6 -18 -44 49 48 22 -27 -34 -29 -8 29 -57 -56 33 11 39 -40 -68 -31 24 32 -17 -31 -26 -32 -35 -15 29 -29 -1 -6 44 -16 -4 44 55 26 16 19 -12 -8 15 15 -8 5 -20 25 14 8 8 -15 -8 28 16 -14 -17 12 22 10 -2 4 -34 -71 6 2 47 29 -11 -57 -15 -68 -36 -66 -26 23 -57 -3 -57 -28 -16 -27 16 45 52 10 41 -31 -5 -14 -3 -1 10 17 0 81 8 12 -24 -73 27 6 -42 -34 11 -30 0 7 6 -18 4 38 -4 21 -3 -34 6 3 30 10 -13 -14 -21 10 5 28 9 19 25 13 -11 -8 35 17 10 -23 -17 7 -21 23 -14 -18 -62 -87 -23 22 29 -47 -35 -21 45 27 -2 3 -10 -2 8 2 -6 -5 6 0 -13 -5 6 4 -8 10 -19 -21 14 47 -33 -2 -6 5 -27 -18 13 -19 -24 77 55 8 -9 8 -3 -11 -9 -12 8 8 -7 8 -5 -1 -6 -4 -1 4 -5 11 4 -9 10 2 -9 -6 -4 1 -3 -1 -6 5 -1 8 -9 7 7 1 -9 3 -9 -3 -7 -7 -10 7 0 -7 6 -6 1 0 -6 5 1 -8 -4 9 8 5 -5 -2 1 7 6 -7 -7 2 5 0 -7 7 -13 -2 -9 7 8 8 -13 8 6 -10 9 8 -1 5 2 -9 -9 1 -7 -9 -4 -9 -10 10 -10 -12 5 -4 -5 4 5 10 8 -8 -6 -3 5 -5 -4 -11 -9 4 8 -8 -12 11 1 -8 5 -12 -9 9 6 -7 -2 -1 -4 6 1 10 -10 -1 -4 -12 -7 1 2 -8 -1 1 -9 -9 -10 10 5 -1 0 -2 8 7 -12 -10 10 1 7 5 -4 -12 9 -2 -8 -12 -3 -4 -6 -4 0 -7 -8 -10 -10 2 -5 1 3 -4 -5 -1 5 -12 -4 -5 -12 1 -2 -8 5 -6 -8 -7 8 -3 -8 -9 3 -7 -11 -3 -1 10 11 -5 0 -1 3 9 -11 3 -5 -10 5 -10 -12 -4 2 -4 -13 -8 -10 -10 -13 6 4 -1 9 9 9 -3 5 -10 3 -4 -12 4 0 -12 8 -6 5 -4 3 -12 -13 -12 -7 2 10 5 -7 -6 -3 4 -8 3 -4 2 4 40 -17 9 -21 22 -23 -12 -47 7 2 -16 -21 12 -10 16 -4 -21 -6 -39 11 -9 -26 -85 30 14 -10 -37 9 -4 16 15 -70 -59 -4 38 22 6 13 36 39 -21 -28 -2 -26 3 -12 -96 -30 -1 25 57 -16 -15 24 -5 4 -6 -41 -37 0 -43 15 -27 -2 10 25 3 -7 1 -24 -35 24 42 11 -31 1 3 -7 -42 0 -15 -22 0 -7 1 -10 -7 55 16 41 11 15 3 25 -20 34 20 -19 -42 15 38 -15 -38 23 13 21 19 5 31 4 -17 -38 -36 -6 69 17 1 2 10 20 7 -31 -55 -15 -1 -4 -24 21 16 -39 -35 24 -6 2 -6 -3 -23 -1 2 -2 -18 -21 -34 31 -15 -58 -13 -9 17 -27 -22 27 32 -22 43 34 62 39 37 -16 -23 -9 41 -4 9 -30 38 18 -25 -27 -13 23 -22 -19 -48 -38 6 47 40 -23 26 2 -50 8 -8 -8 -44 4 12 -10 -5 10 9 3 22 33 -14 -14 14 9 20 -29 -30 22 7 -2 -19 0 44 11 -68 0 18 -21 -97 -8 12 6 -38 -40 -23 -12 4 0 9 -3 -4 12 5 9 -7 12 10 7 8 -7 8 -8 11 -59 -2 -20 -3 1 -2 -57 -25 20 15 -3 -7 48 -7 27 24 -10 5 -13 -18 -11 -14 -9 0 -7 -5 -2 2 4 -7 1 2 -3 0 6 1 0 -1 3 -4 -12 0 -9 2 2 4 -10 0 5 -3 2 -6 -9 -14 -3 -7 -10 -11 -13 -10 -12 3 -18 2 5 -2 -14 -8 -14 -10 -1 -7 -8 -10 5 -8 -7 -10 9 -5 -7 -1 3 5 9 -6 -18 -15 -11 -12 -8 1 -2 -8 -15 -3 -9 -11 -11 -5 2 -6 0 -16 6 -14 -12 2 -3 -11 -2 -12 -13 7 0 -6 1 -2 0 -18 -8 -10 -6 4 -6 -8 -10 -12 -2 -3 -2 7 -5 -6 -9 -9 0 2 -1 -17 -3 -6 -17 -8 0 -6 -9 3 0 -4 -7 -10 -2 10 -18 -8 2 1 3 4 -5 -13 -7 -2 5 10 10 -6 -7 6 -11 -13 -10 -5 -1 0 -18 1 -4 -3 -13 -7 -13 -12 -2 -5 4 -4 -2 0 -12 -3 3 -1 -9 -9 -12 -12 9 -9 -9 -3 -11 -1 -7 -8 -7 -5 -10 -3 4 -8 -3 -17 -14 4 -10 -10 -13 2 -11 1 -2 -7 -1 -9 -9 -11 -8 7 -12 -1 -5 2 -7 -15 -4 0 -3 -10 7 4 4 -11 -12 9 9 8 7 -11 -7 -6 4 9 3 4 -2 -1 -11 0 -3 -5 5 -16 -6 -7 9 -12 -10 2 -5 -15 0 -5 -12 9 10 -10 8 6 1 1 6 -7 -3 6 2 -3 -7 -4 -4 0 9 5 0 -9 7 10 -7 3 -7 -3 -10 8 6 -8 -2 -5 -14 -10 2 -7 -9 -2 -7 9 -10 3 -2 -4 -13 0 -12 -11 -12 -11 -5 -1 -10 -7 -12 10 -6 3 2 -1 -14 1 6 -9 -7 4 3 2 -3 -11 -5 -3 4 3 -8 -8 -14 -12 1 -12 3 0 3 3 2 -8 -13 -5 -10 -3 7 -9 -13 -14 2 0 -11 -11 3 -6 -11 5 -11 -13 2 -8 6 -11 -6 -14 -4 5 -10 -8 -6 -9 -11 2 -4 6 -6 2 -2 3 -1 -12 3 11 -9 2 -4 -3 -4 -9 -5 -4 -6 -3 7 3 -11 -12 2 -12 -10 -11 -13 6 -5 -11 -4 3 -5 -2 9 -12 -3 -3 5 -14 -10 0 -9 -3 -2 1 0 -9 7 -2 -5 0 3 -2 6 -2 -6 -9 7 -13 7 -1 -8 6 1 8 -3 5 -1 -9 -2 -7 -4 -11 -14 4 3 -10 2 -5 -4 -10 1 -12 -9 8 -12 -12 3 5 9 1 -11 8 -9 -10 -6 8 -3 -5 -12 6 4 5 2 6 11 0 -12 8 -6 -6 9 1 4 -2 -5 0 9 -6 2 -2 -11 -4 5 3 8 0 1 7 4 -11 2 -60 -14 8 -4 -34 23 -2 45 23 13 -8 72 -6 8 11 0 7 20 -23 33 -11 -20 27 22 20 -26 -14 -18 -39 -19 33 5 25 23 -16 19 -28 0 8 -22 2 5 -19 17 10 18 -5 19 -12 -3 -40 7 -2 -14 -25 23 11 21 20 -29 -19 -2 -2 31 37 1 5 -4 -22 -9 1 -37 -10 -11 -14 -30 3 -12 -31 42 23 11 24 15 -43 17 6 -34 -9 -25 -38 22 -23 -11 -58 -3 -13 6 23 -2 -2 1 12 5 -27 -6 -24 23 21 27 9 11 -9 -61 -65 6 -35 -23 -3 -25 -58 22 45 -29 -3 25 33 -10 6 -31 -5 46 14 -45 36 13 -12 -43 44 12 -25 91 -125 -46 15 29 5 43 20 -10 27 -16 6 -17 18 -8 -23 14 -7 9 -26 -25 -73 -22 -2 -24 -42 -16 4 10 14 24 35 -2 -38 -14 -24 -13 -8 -11 3 15 22 -26 5 12 27 18 1 10 8 15 0 -2 -7 -22 -6 6 -1 -24 -19 -46 -27 13 29 27 -41 -1 -12 10 -33 13 13 -16 4 14 35 -10 -33 -3 7 -109 -21 5 11 -8 14 6 -4 5 0 -8 -5 -11 0 1 8 0 -5 -13 -6 19 3 36 -9 17 17 45 25 -12 11 -87 -13 15 28 -5 10 2 0 -1 -2 -9 -11 0 -10 5 -3 6 0 5 9 -5 -17 0 -7 -10 -9 1 -7 7 -10 7 -5 1 -1 7 -14 -14 -8 -11 -9 -9 -11 -10 -15 -17 -15 -3 -12 1 -14 5 3 8 5 -2 6 -6 -9 0 8 -6 -2 0 -5 -8 -1 -6 1 -8 -7 -2 5 -3 4 -15 -14 -1 3 -12 -1 -6 1 2 -6 -8 -10 5 -15 -16 7 -14 -4 2 -4 -13 -13 -2 -18 -5 -4 0 -5 -1 8 -11 -15 -11 -15 2 -11 -13 -12 -16 3 -6 7 -4 4 -12 -14 -7 -15 -2 7 -5 4 4 -6 -5 6 -1 -2 -5 -6 -1 13 -11 -1 2 -12 -12 -4 8 -7 -10 12 0 -13 -6 -2 -14 -13 1 4 4 -6 -13 -2 3 5 -14 -10 10 -4 5 7 3 -5 4 -14 -12 -11 -15 -2 6 -15 -9 -10 -5 6 -11 -10 -13 8 -1 7 -11 -5 4 -12 2 -13 0 -3 -5 -3 7 3 -6 -2 4 6 -3 -5 -8 -4 -11 0 -13 1 -15 5 9 -13 4 7 6 -16 -9 -1 -14 -12 11 -11 -1 -1 -1 -1 -5 0 5 -2 3 -4 10 7 5 7 -10 -4 -8 0 -2 2 -14 -2 5 6 -17 2 -3 1 -1 -1 3 -14 2 -3 -9 -15 -67 -38 -24 51 -24 -22 -13 0 -6 0 17 33 34 -7 43 -7 -9 5 28 73 2 17 17 18 -36 17 -9 -16 -10 37 -2 -6 -5 -54 -57 -30 28 13 1 21 24 7 13 10 -11 -47 -23 56 -4 -11 26 75 10 -31 -51 -1 24 -28 -7 44 26 -42 -13 -56 13 4 -31 -48 45 31 -6 -21 9 26 -24 -25 -82 -63 -40 -25 30 -16 -50 -61 9 -36 -8 -9 53 43 12 24 5 -25 30 7 13 25 21 7 50 0 26 38 5 3 -6 -2 -63 -79 -27 8 -30 -37 -13 2 -17 -36 -11 20 39 10 33 30 18 -23 -28 3 17 2 3 53 -4 -15 19 -33 -32 36 5 4 -7 19 -3 -20 45 41 -22 -45 13 52 1 -54 -4 1 9 -27 -25 0 8 3 -27 -1 -5 -29 -16 -46 -54 34 33 -1 11 34 -7 -17 5 -29 -23 10 2 1 33 5 9 5 25 5 -10 33 30 -17 -47 -13 23 -11 -45 -70 37 4 9 -29 36 3 16 -6 21 22 13 8 -7 6 38 32 -21 4 21 -5 -32 6 29 27 -16 49 33 -31 11 4 9 -10 12 -10 6 8 -1 -5 -8 1 -1 -4 -4 6 50 7 -8 17 34 38 -20 -9 21 -24 -39 -16 -33 -46 -57 -29 110 25 77 23 28 -64 -4 4 28 -11 35 1 6 -17 -4 -3 -26 -29 -13 6 -16 9 17 -14 -16 74 -12 9 -28 27 26 14 -10 -10 18 21 20 -46 -32 6 9 -4 6 23 36 -10 -8 -19 4 19 31 -20 -19 -55 -6 84 14 22 9 38 37 43 -23 -14 -35 -37 14 22 -17 -16 36 39 34 13 -20 -80 53 18 2 -28 -20 -49 -22 -34 -19 30 12 36 26 -25 -13 11 -7 -29 -5 -6 19 -23 5 -6 57 11 4 -5 -4 -38 -30 -1 -24 -5 -7 -4 -31 -47 -11 -14 -18 -16 -10 -1 23 15 24 26 -10 -13 31 1 7 18 0 -18 -12 13 0 -17 -39 88 19 -56 -9 12 5 -3 43 -34 17 -13 47 46 -9 -10 -23 30 -42 10 -34 10 19 10 -13 -22 -36 -38 14 0 -26 -26 -2 -5 47 -18 16 13 43 -15 29 -35 -20 -20 20 -21 -24 11 -13 -8 -7 -3 8 14 30 18 14 29 -39 -58 -14 29 23 -8 15 -39 -10 1 25 4 27 24 8 29 5 27 3 -30 0 -35 -9 60 -11 50 -7 46 8 25 12 1 -7 7 8 0 -6 11 0 -1 -7 -2 -8 -11 4 4 0 -4 -11 -6 -19 24 20 -1 38 38 -25 36 -4 -36 34 -22 54 25 -41 -23 18 26 -10 -15 42 16 -48 -16 13 -35 22 11 0 -21 19 -8 37 23 26 34 -2 -16 30 48 -28 5 -15 -27 34 15 -4 8 -36 -16 20 -25 -32 -6 -4 20 2 27 -61 -17 -1 -34 -13 23 -21 -28 29 -16 37 15 -3 6 12 -22 8 -16 23 10 -6 -26 35 22 19 -16 -5 -9 -7 24 -94 -61 -82 -93 42 -32 -22 -15 59 20 18 23 -63 1 26 28 -48 6 -42 11 22 35 3 15 -21 -23 1 46 0 25 -12 16 -88 -35 -58 -44 25 -2 -29 -57 6 -30 5 20 12 -23 -2 33 8 3 31 59 27 -3 46 22 37 33 54 16 35 1 11 19 -43 34 0 -6 47 4 -7 -13 86 4 -25 13 -8 -57 34 -14 -29 -32 -9 -30 18 -12 -49 -6 0 9 29 22 -37 -32 11 39 15 12 8 35 -14 -10 -24 -59 -11 -23 39 15 5 -36 -27 50 -14 -7 6 3 61 -29 8 -13 -1 -41 -4 -25 10 6 7 30 -8 -8 -23 4 38 -15 15 -39 -8 -37 53 57 5 -46 63 27 25 12 58 15 2 -2 4 5 9 -9 2 7 9 9 -9 -6 2 -4 -9 10 1 -26 -10 5 18 -3 -32 8 17 -49 -31 -27 -20 -17 -49 -42 10 30 -17 -21 58 6 -41 -31 31 19 -67 -3 31 31 -24 -4 51 -34 -58 -74 38 -29 -62 -49 35 27 39 1 45 1 4 10 23 26 28 11 -13 19 -7 -16 -52 -19 -10 50 -27 21 34 -35 40 45 -24 -3 1 -23 -61 -73 -21 -33 -66 -67 -3 17 16 3 -16 28 34 49 -20 -9 -1 -11 -23 16 26 3 24 30 1 -15 19 14 15 4 -9 15 19 23 3 13 12 -3 10 -4 12 11 22 -5 -5 15 11 -3 -39 -8 -8 16 5 11 8 32 -5 -14 -32 39 11 26 -48 -17 11 16 -1 -7 -53 -10 -26 9 20 2 11 7 -54 -44 25 -8 -47 2 24 34 17 15 52 16 -44 -28 35 -35 -21 0 -36 -10 26 -4 9 25 45 6 1 13 43 3 7 20 14 61 -46 -8 19 88 36 -37 -46 7 17 3 -24 36 6 53 -10 19 -22 -4 -5 -1 5 13 7 -28 -19 -23 8 10 -36 35 33 6 37 -15 8 25 30 -2 -12 -18 19 7 -22 -12 40 -29 -92 -50 -2 24 -38 -89 38 11 23 -53 1 23 -2 -2 -4 -8 2 -5 -10 -6 8 -9 -10 2 -10 8 -8 7 -12 4 -26 -25 -91 -57 -40 -35 -20 -33 24 12 7 -24 46 3 0 9 71 50 -31 -75 -4 -8 -12 -58 -22 -28 -18 -16 2 -16 14 -19 11 6 10 -57 11 23 -11 22 -16 -18 -9 7 -4 -53 -69 -28 34 15 -15 -17 -6 4 41 30 -10 0 -15 10 -52 34 17 -22 13 9 23 -63 26 25 14 -64 -6 10 -8 31 12 -12 -4 28 0 -1 -17 30 8 -5 -14 -9 9 22 21 12 6 -4 13 38 -32 22 21 -2 10 4 17 6 4 38 40 -18 3 22 6 16 -26 27 -2 2 8 -14 2 33 12 16 3 4 8 55 26 -24 -2 12 -1 -8 35 7 5 -3 -3 20 -15 5 11 15 29 17 -15 10 -32 -50 -14 24 12 43 -25 -41 13 -2 -16 -123 118 -57 -73 21 4 -18 -46 3 -3 11 -23 -5 5 -32 31 3 -12 -12 14 6 2 47 19 16 -18 33 -16 5 -1 50 -1 20 2 70 -29 -2 7 46 -2 0 22 -62 -32 -30 -39 -3 21 17 25 25 -34 -16 32 55 -12 -29 7 -23 -5 -46 -23 21 41 16 12 -9 21 -73 -14 -70 6 55 13 45 -1 20 31 39 40 -96 -85 -2 -1 7 -1 -10 10 -8 2 0 2 10 2 -8 -9 4 7 3 -35 16 -1 -43 -31 25 -7 4 2 58 41 -4 1 29 36 -24 6 11 -12 -12 -17 2 5 -8 -13 2 3 -8 1 -5 9 -11 6 -9 -7 4 -2 -8 -7 -2 7 4 -2 -3 4 3 -10 -13 -3 -12 -2 -2 -14 6 2 2 -2 -3 -21 -1 4 3 -10 -10 -14 3 -1 1 -14 -12 0 -5 -13 -11 -6 -11 9 -1 -13 -9 4 -10 -8 -12 -10 -15 -14 -2 0 -4 -8 0 0 -4 -14 -10 -6 0 -9 -7 -4 -9 1 -16 2 -12 0 -11 -11 -15 -6 -7 -14 5 -10 -9 -8 -14 -3 -5 0 5 -2 -3 -1 -14 4 5 -12 -17 -4 -20 -3 3 -12 -1 -16 5 -4 -8 -9 6 -6 -18 4 -8 5 3 -1 5 -11 -4 -1 -15 -15 -14 -8 7 -9 -4 -4 -12 -19 -15 -18 -4 -1 7 -2 -9 -11 -18 -2 6 -15 2 -2 -13 -4 -10 -4 3 -10 -15 3 -1 -1 -16 -16 3 -1 4 13 -3 14 -7 -16 -6 -2 10 -12 6 -9 7 -11 2 5 -11 -7 2 -14 0 -2 -7 -17 -8 1 6 -12 -14 0 -9 -12 -8 -6 -3 6 -10 -6 -16 -18 -7 -11 -6 -12 -5 -4 3 7 -1 -1 5 4 1 10 10 13 2 -3 4 5 1 5 6 -6 -3 -9 -10 -16 0 -13 -4 -13 2 -3 -16 -7 0 -12 -11 -8 -14 -47 -25 -19 -26 -16 -2 -49 -14 -3 20 17 29 40 18 0 -9 24 -1 4 -20 -20 -31 51 68 30 -6 5 6 -18 -57 -40 -33 2 44 29 -38 -43 15 24 -49 -7 41 16 -23 -5 34 -8 -44 7 37 24 -53 -4 14 -40 -68 21 -13 1 7 16 22 -24 13 1 -16 -30 -31 26 21 -34 -88 18 5 -17 -15 16 43 26 40 -40 -56 -4 52 11 20 -59 -66 -29 2 -5 -79 30 -11 -24 14 -1 -39 -56 3 -13 -16 3 -45 -24 1 -9 -45 1 -6 -6 -14 -26 13 36 15 -37 -44 -16 24 -27 -33 -5 41 2 21 25 -1 15 -46 21 79 -1 -14 -6 62 34 -4 -27 49 8 9 -64 -46 -39 -46 -12 75 -60 -2 -1 58 2 21 4 -22 -58 -14 -27 -3 -40 16 47 11 -57 -46 -28 2 13 28 48 -13 4 12 0 -9 -62 -30 -35 -48 8 42 -14 6 -21 23 -12 10 8 16 8 1 -25 -5 -3 11 -22 -3 1 -25 -27 -7 -15 -21 29 31 -33 11 19 -2 -33 -6 1 2 22 21 34 -13 36 10 34 -10 -46 -9 1 0 9 -5 6 2 11 6 -13 -8 -11 -1 7 -6 -9 -7 1 46 2 -47 10 -23 4 48 32 36 51 -6 -27 -13 3 1 12 -27 -27 28 -11 -8 30 38 -32 -3 -14 19 -15 -10 32 19 -21 39 7 42 -54 3 51 -23 -8 -1 6 -45 4 -3 9 2 59 6 -1 18 0 -20 -24 16 14 -9 3 3 6 7 2 30 10 -37 -8 5 11 -19 -7 74 6 37 12 26 27 17 -17 2 34 5 -15 -28 -48 -7 4 -24 9 27 17 36 -13 17 -15 -14 47 -6 16 11 -18 -6 3 -11 -44 -21 8 2 10 -9 -5 -25 4 0 39 20 -98 -37 0 17 -7 -11 -31 -12 14 -12 16 -10 76 29 -3 -21 54 -10 -34 28 -20 -39 -12 35 -52 -51 29 27 4 18 17 48 -34 -46 -21 -51 0 -18 -30 -26 30 0 8 -8 45 41 55 4 51 16 -4 -17 -97 -18 -5 2 0 -4 16 -13 11 32 13 -28 51 3 -7 0 -23 14 9 6 -24 1 13 -3 36 -10 16 -24 30 -17 -2 19 -27 -34 6 9 3 20 -10 0 22 36 -14 11 -33 0 -15 21 -67 -34 27 12 9 15 9 -12 -9 -39 32 66 -21 -36 13 -8 -7 -12 -64 -75 36 -41 -47 -10 5 -4 8 10 4 -1 -7 7 5 6 13 -2 0 1 -3 -5 34 9 16 31 -3 21 52 46 8 -24 15 2 -37 -6 16 -3 7 -23 -67 44 55 11 -31 -22 -4 4 -2 -1 -33 55 56 -33 -4 -47 -15 44 21 -30 -17 13 35 7 -34 5 54 25 -22 25 37 34 -30 2 -21 29 41 4 39 -14 -15 31 -65 -7 -1 -8 22 -17 -7 45 17 -5 -35 11 -66 -82 -8 3 17 -30 -23 -15 -25 9 -11 -7 -11 30 4 -11 -38 11 -18 -25 18 -15 18 20 -15 32 -31 -60 84 21 -9 -2 28 33 -8 -26 -5 -1 19 5 18 31 -31 -23 43 67 11 -15 -26 18 11 -28 -68 -45 8 -8 -61 -8 12 -10 2 33 15 36 26 -5 18 30 -31 -40 -31 5 -16 -15 5 51 17 -11 4 42 28 -7 -5 31 42 14 -13 61 42 30 -15 -60 29 -58 5 -36 35 50 10 -22 -36 51 4 2 -21 -24 8 -19 59 45 13 41 20 35 -11 23 0 -11 -46 -29 1 -17 33 -38 40 -3 12 16 19 -39 9 24 -24 -10 17 -12 30 -21 -40 -52 92 38 -13 6 11 6 -4 12 14 2 -23 -14 11 -55 67 34 14 -42 36 29 26 0 16 -24 38 -10 -31 20 -12 7 4 -9 1 -8 0 -11 -4 -1 8 -7 7 8 2 -7 21 4 -18 -9 1 7 -7 8 8 48 -16 -32 22 -9 29 27 39 44 31 1 -2 20 -1 -22 37 34 -28 -5 9 54 -24 0 19 0 -57 -48 23 24 -9 -43 7 1 4 -3 -11 34 8 17 -51 3 12 7 -32 -60 -43 -2 26 -4 2 16 14 12 19 47 -1 27 33 49 -33 -31 -6 57 3 -27 -19 -13 41 33 -3 -41 -47 -3 12 21 -26 -23 -14 13 36 13 5 -34 29 -10 -8 -32 -9 -6 0 7 -67 15 -6 22 -4 -35 -41 17 1 22 15 24 30 19 21 -16 -12 -19 -24 -25 -7 21 15 35 18 -30 -66 31 -87 13 37 49 -41 -8 1 22 9 -16 -20 16 4 -6 26 -1 46 50 -16 -36 14 12 19 23 -23 -14 6 -38 -35 31 40 29 58 -10 -35 -32 34 29 -18 0 26 17 18 -25 -3 26 -1 11 -33 -15 2 52 -1 5 -1 31 -33 -74 2 -16 18 33 26 -18 -24 -18 33 18 8 44 11 -57 36 -38 3 16 15 -9 10 1 21 45 -4 -42 -3 24 8 0 -7 -4 -3 6 4 -29 0 36 41 18 -55 7 43 2 -57 -52 48 10 -17 -59 -16 0 11 -32 4 5 2 2 -10 9 6 -4 0 6 12 9 -11 4 1 5 -19 -11 -31 -27 31 18 -5 19 35 -3 -1 38 89 -37 -47 -43 -43 -55 10 34 0 -73 -20 31 -44 31 -3 41 30 40 5 23 -17 -14 -8 35 -30 4 49 -8 -4 52 17 -53 -12 8 -12 55 -11 36 25 -58 -4 -2 -30 24 28 13 7 13 71 21 -9 -9 8 -12 12 20 -23 -32 -40 -25 14 12 -7 1 7 -1 -38 -76 -22 -8 13 15 -51 -11 24 -35 -12 -22 -12 -28 12 35 -26 -32 -19 4 25 37 11 -12 -42 -40 -7 -5 10 9 11 -23 21 -18 -31 -19 26 24 -14 -7 -17 -12 -84 -40 -13 -4 35 -13 -3 -26 4 -10 -40 -22 -3 -16 13 26 11 -14 -19 -2 -28 -18 -19 -1 10 21 -6 8 -5 10 0 9 12 46 -53 34 1 21 -57 -3 36 -49 28 38 34 51 13 26 -11 -9 -27 -14 -18 -31 11 37 11 0 -11 -33 11 -17 17 -12 16 20 7 -14 -50 -15 -1 -62 9 3 32 6 12 -32 -15 -34 -16 39 50 -9 -18 -12 -9 5 8 17 32 23 10 38 -10 11 -45 24 49 39 -20 -9 15 -27 -44 -30 -18 68 -7 -34 14 -7 47 42 -28 -60 30 10 -72 -26 -5 1 6 11 -11 -3 4 7 -1 5 10 -9 5 -5 -4 6 22 -26 -4 12 -9 2 32 -8 32 -10 -27 2 -19 -32 1 32 67 48 4 5 38 37 -31 -10 53 5 5 -26 -18 4 -1 -9 24 -14 -9 11 46 -15 -34 -21 17 -17 -8 9 13 -6 -9 36 -43 -32 16 59 -19 -38 1 18 21 -1 -3 50 7 15 34 15 -17 -22 6 46 -24 -26 52 46 2 15 17 -18 -41 21 22 11 -28 -9 24 57 3 17 14 29 -26 -4 5 -6 29 19 33 18 31 -14 -44 -19 -10 -23 1 31 6 0 2 30 21 28 35 -9 45 35 -5 -13 35 58 -24 -69 27 22 -28 5 33 26 18 3 -120 -36 -49 20 4 22 24 31 12 15 18 -33 -34 -5 -15 1 64 8 -13 -43 61 -9 -2 54 7 -15 9 12 -14 -4 -17 -65 62 -20 -57 -39 78 -60 -50 4 38 1 2 10 1 1 28 -3 -62 -72 -64 -12 -30 -8 10 46 -8 -2 -31 -49 -6 2 10 5 -69 46 24 53 -15 -6 22 -23 16 8 -6 -21 -8 15 8 18 -19 -42 -7 -16 4 -14 -16 -3 14 4 -6 -4 18 13 26 12 62 48 25 -45 59 19 11 23 -23 -14 20 -3 -38 3 -61 -11 -8 -1 -6 11 9 10 11 -11 -4 -8 -11 1 -11 -1 -10 5 -47 -37 -29 23 -10 9 3 6 14 20 25 5 24 8 -19 1 -49 -66 -74 -16 -2 -32 -9 9 19 15 -19 -14 14 -50 -12 10 -32 31 8 78 -5 29 2 15 -5 -38 -1 25 4 6 28 25 64 20 14 43 -3 -21 5 -28 -52 -11 -2 11 -1 33 -6 24 -20 -56 1 23 5 41 27 11 39 30 21 -3 -39 -33 7 -8 41 28 7 26 26 -24 -35 -25 -15 -18 22 29 -40 -12 -19 -17 72 7 5 15 -16 -85 -4 7 -3 19 12 -22 9 18 33 -35 -42 -20 8 13 -18 -17 -32 -11 -5 0 5 -19 34 -23 0 -18 88 39 -12 -51 19 20 60 58 -5 -71 -21 19 -17 -4 -12 3 -61 24 -3 70 -11 9 8 56 2 -32 -33 71 -3 10 -48 -65 -7 11 2 -41 51 23 2 16 31 16 -27 -6 25 -15 -4 14 31 8 14 8 -31 23 63 5 -26 -14 -6 -23 -16 2 -19 -21 -8 -42 1 -8 12 12 71 36 2 -9 23 -19 -22 -38 -21 4 26 -14 -1 -28 -16 -12 2 23 -26 23 26 -5 -22 -7 21 -7 -37 -21 13 -35 -57 11 32 47 10 8 2 -41 -37 7 -6 -25 3 -3 -6 12 -5 7 4 -7 7 -2 5 4 -12 -10 -7 4 -5 -9 20 8 34 37 -22 38 -25 -14 -6 -33 -56 -25 -14 27 -10 -14 3 7 -14 -11 5 2 2 5 -2 8 -3 -15 1 0 -2 12 -1 11 -6 -3 -14 -6 1 -12 4 5 1 -1 -2 -13 -12 -11 -4 2 -9 -13 -8 6 -5 -1 1 -2 -12 -8 -2 -2 1 -15 -5 -8 -10 -10 -3 2 9 4 7 -9 -10 -4 2 -5 -5 -9 -13 -7 1 -9 -5 1 -5 -8 -3 -4 7 -11 8 2 -2 -4 -14 2 -2 6 -8 8 6 1 6 -3 -7 -4 7 -16 1 -6 -9 7 5 -3 -15 -2 11 -2 2 -14 -15 -5 -10 -13 -4 7 8 -13 5 6 7 6 -9 -5 -6 -7 -9 4 -2 -7 7 -6 -9 4 -4 -16 -1 13 11 -7 1 1 -11 -2 4 0 -11 -4 -4 0 2 -11 -2 3 -15 -5 1 0 -12 -12 -12 6 -15 -9 -9 -14 12 -1 -10 3 1 2 0 -3 5 -14 5 -6 7 9 -6 -10 0 4 -11 2 -2 -7 -12 -4 -8 -9 7 -1 -4 -6 -13 6 -2 -15 1 -15 -4 -2 -8 -11 -2 -6 7 4 4 -2 -9 8 14 4 3 -5 4 -4 -1 8 14 1 -11 -12 2 -3 8 1 2 -10 -6 4 -12 11 -11 -1 3 5 -4 -3 -6 -2 0 -11 -3 -9 -7 -13 5 1 -15 -4 -4 -13 -9 -1 11 -22 30 23 -30 -15 7 -38 22 -7 -2 -21 86 13 -11 -49 -12 2 17 -34 1 -4 34 0 19 -17 -31 -22 -8 -40 -39 -17 5 2 53 58 34 11 -25 16 -49 -49 -24 -1 -36 15 34 15 26 12 -17 123 13 -15 -22 19 44 33 30 21 -18 24 -7 17 16 -2 -5 -46 42 23 52 26 -7 -25 -19 11 -91 -15 15 39 5 -4 -2 -27 36 25 31 1 -16 -9 14 43 7 -17 -20 -1 9 19 4 -11 13 -6 21 8 -34 -34 -11 3 -29 43 33 35 6 -3 27 -16 21 -38 14 -11 -9 19 24 36 -32 -17 16 21 -24 2 46 24 -5 4 -14 -79 -2 -2 -54 -75 46 -40 -26 -1 36 18 16 35 8 33 -34 -21 -50 38 5 -14 19 -19 -14 -21 4 -19 -33 -63 8 -44 -20 -35 -12 -17 -17 38 25 34 22 58 12 -2 -9 1 -40 -34 -5 12 -10 45 32 38 21 2 15 28 -6 10 -7 -18 -4 -16 -37 -28 -2 -4 2 25 31 26 24 25 16 -29 -30 -28 -36 -26 -3 -11 17 -4 -35 0 44 -11 -37 -14 -11 -8 4 11 -11 11 0 4 0 -8 0 8 -4 -10 12 4 22 -9 -15 -7 13 28 15 17 41 33 4 4 -87 -44 -11 -17 46 -3 -10 11 -20 -19 5 -18 9 -5 -1 -10 85 27 9 -35 17 20 37 48 13 -25 14 12 33 23 -9 8 10 -35 -27 34 40 -21 11 -33 10 2 8 -1 9 -15 -17 29 7 -12 -12 13 17 5 3 18 6 -3 1 13 54 18 1 28 16 -23 -66 -25 -24 -25 -54 -20 20 29 -10 -29 30 0 -6 7 -31 4 11 39 -42 -58 -30 -21 20 2 -20 -9 4 54 5 -4 -21 -16 -3 15 -7 38 -6 13 24 17 0 6 14 -6 -5 2 26 10 -3 20 1 -34 -21 -42 -70 -35 -1 25 -10 8 25 50 -8 -2 -3 26 6 -12 19 41 -2 -12 -22 -13 2 26 -24 7 33 -43 -5 26 74 -8 -1 15 50 15 -18 -32 8 20 0 -3 -9 0 13 14 -42 -22 -16 -40 -4 -11 -12 -9 -6 13 30 35 2 0 -6 12 10 -28 -43 -56 -23 -10 -4 30 3 26 -2 -8 46 21 -23 1 5 6 -12 -53 2 28 -17 -15 5 -23 0 -5 47 9 10 50 17 13 25 25 1 -2 15 41 8 19 -37 -48 34 -12 -16 18 9 11 -3 -6 -1 -7 -11 2 -10 4 -13 0 -9 -4 2 -13 21 21 17 24 29 6 31 25 69 30 -13 -3 -9 -47 -15 12 -23 -33 -9 13 -85 -42 -10 18 0 7 -2 10 59 50 1 -3 -17 -5 19 -12 31 -11 21 4 28 -7 -5 26 23 13 5 36 -13 16 13 -60 52 50 7 -18 -22 9 -31 -38 20 -18 -52 -13 -59 -14 3 8 -24 44 -1 3 16 20 -3 -25 -11 -31 -57 -3 -14 -6 -6 1 4 -1 1 24 -22 -25 -37 15 -86 -113 -76 -51 28 -32 -13 -16 20 34 34 28 22 26 -10 -15 -88 -59 -20 26 -13 17 -21 -27 27 4 32 21 -11 10 6 19 -83 -126 -111 46 -18 -17 -5 -21 -25 13 -28 -32 -26 14 -7 2 38 25 22 21 3 -2 40 -34 23 -46 -30 -2 49 5 6 78 15 -7 45 107 -18 0 -15 -7 5 24 -6 -35 -8 27 9 -31 -9 -5 32 0 -16 26 -6 -24 -64 -42 -51 -31 -19 -16 17 65 32 22 37 41 -57 -48 -31 -7 -58 -27 -58 -12 57 46 29 43 26 21 -7 3 -42 -43 -42 -38 -35 -16 14 30 26 27 46 20 -36 -66 -44 44 -49 20 -9 -9 5 33 -20 14 16 -13 27 8 1 -14 54 -12 -3 -6 0 8 -9 7 -7 -4 -7 1 -7 -2 1 -1 1 -3 -16 13 32 -7 30 37 32 7 -1 -3 8 -43 23 16 -69 -100 -6 -14 -13 7 -9 -7 -12 -11 -4 -5 -5 -3 -10 -13 2 7 4 -7 -11 8 -1 2 -7 6 5 2 5 -17 -9 -14 10 -10 -7 -2 -11 -14 3 11 3 5 3 -14 -2 -15 -2 -4 9 -6 -2 -11 2 8 -7 -13 -13 -1 2 -7 -7 5 -9 -3 2 -2 9 -9 -11 -14 -16 8 2 -4 -5 -8 4 -12 -9 -6 6 1 3 6 -18 -8 -5 -10 -9 -12 -11 4 0 -8 -10 -11 -2 4 7 6 -11 -4 -10 6 -16 -5 -11 -9 -12 5 -8 -15 2 -15 -3 -10 1 -5 -5 -7 -2 -2 4 -1 -17 0 -11 1 -3 -17 -2 -3 0 6 -4 -7 -1 -5 6 -9 -8 -8 0 -6 1 5 -12 -17 5 1 1 6 -16 -6 11 -9 -10 -4 10 -9 -4 3 3 -13 -10 -10 -6 -7 -6 7 -9 -11 -10 -9 -8 0 -6 -3 2 -16 0 -17 -2 5 0 1 -1 -4 -17 -10 3 -5 -3 -1 -7 -15 7 8 -10 -12 8 -4 8 -12 -9 -11 -10 -11 -6 -12 -13 -10 -3 -14 -7 -4 0 0 -11 -12 9 -12 -11 2 -8 5 -1 -11 -7 5 3 10 4 -2 -6 -9 8 -4 -4 10 5 -3 5 -11 6 0 8 -6 -14 -1 -5 5 8 0 -2 -12 1 2 -99 -30 -29 -1 -52 -23 1 16 -63 5 21 7 -45 -30 -17 1 -19 -15 42 -40 -25 19 13 8 -4 -27 -2 -43 -58 -26 8 15 -14 -9 9 -14 -7 -16 -7 24 50 2 33 8 46 39 9 -20 7 -24 -22 -36 15 18 -10 3 22 31 -5 12 -2 -59 33 22 0 8 17 16 10 -8 -1 -10 -10 -47 -17 -21 16 5 -7 28 -23 8 21 10 -38 -63 -6 15 6 -14 -34 -8 14 17 35 -17 -22 -27 -13 5 -4 -24 -28 -29 0 -50 -18 -9 39 2 21 19 14 -5 7 -19 13 4 9 39 28 7 17 21 17 17 -17 -19 -36 28 48 -24 -36 27 -37 -71 -15 -22 -14 5 -58 -41 -35 -5 -58 -20 -8 -9 -34 30 -16 -1 -14 -47 -24 28 18 1 43 22 15 8 0 -35 28 21 -3 20 19 43 -22 -15 24 13 0 7 32 -3 -9 15 17 -6 27 59 -22 8 -10 -66 0 -15 -14 12 -9 4 20 -7 10 32 10 23 -6 30 30 23 -13 -7 5 -12 -49 -28 7 -8 -9 1 -17 -21 8 -16 -6 -16 -11 0 -6 -4 -11 -6 -5 1 11 2 -7 1 1 -1 3 -4 0 -12 -4 -12 0 -22 14 11 6 2 -10 24 -15 -9 8 -25 -18 20 48 27 -4 24 27 18 12 14 29 -8 -3 -17 -9 -36 -16 -32 -30 -14 10 2 -1 -52 32 -11 -9 10 22 -24 -36 -39 -4 -60 -36 39 -21 -67 39 89 9 -46 -17 44 -3 -28 -17 -1 -32 -7 -3 -24 12 10 24 -75 30 20 9 6 20 38 35 29 -11 -25 -4 17 34 23 11 -32 1 -9 33 56 -27 -28 -5 0 -19 -16 -14 8 0 11 -13 -15 -40 -40 16 32 -43 8 49 46 -36 -11 -8 14 -9 12 12 -30 3 -5 17 1 -2 -17 10 -13 9 18 -2 27 17 26 13 -18 37 14 -3 -34 -10 33 15 -13 -31 -11 8 3 -8 -3 49 -66 5 26 -3 -33 -9 -33 -56 -31 2 -128 -80 11 23 12 -3 39 2 20 -20 -13 9 -13 -26 33 2 -64 -3 4 22 4 1 -18 10 -18 13 5 -17 -8 12 15 2 -1 17 8 12 15 37 1 -19 -41 -27 -64 -39 34 46 -10 22 22 32 27 -17 -18 -32 22 -15 -10 -40 -42 -12 -16 24 43 21 22 40 11 24 35 7 9 21 8 -8 5 -7 -31 -21 8 -9 -93 -16 -73 7 -5 -6 -9 4 6 7 1 -3 10 -9 -1 1 -5 3 5 34 30 -3 -20 3 28 -37 -41 26 8 2 -3 -52 -11 46 18 -46 -41 -27 27 17 -24 20 33 -29 -28 12 -11 -52 -39 -32 -19 -25 10 11 -7 -28 14 -27 14 -18 -11 -17 -25 -21 -13 26 60 0 -18 -20 -19 -4 -23 -18 6 47 18 34 17 21 15 1 27 32 7 -23 -42 17 25 -22 -7 -4 8 15 15 22 -43 8 23 -10 -8 -14 -18 -23 -23 -28 3 -20 -25 8 37 17 30 -6 36 -13 15 18 -2 -41 -50 16 0 5 12 -11 5 13 16 5 -6 -32 -16 -14 4 5 19 11 -8 51 -16 -4 0 23 -20 13 34 56 7 -8 -38 -4 -4 29 4 -7 1 21 -34 -13 -12 -22 -17 -49 -10 1 39 -23 -4 -19 -35 4 -15 5 22 -47 -46 -15 75 -57 -8 12 16 -55 0 -1 12 20 -8 -22 31 33 8 30 30 2 -10 0 -67 -4 10 16 -70 26 51 12 -29 17 -21 -26 -41 16 20 -15 0 24 7 19 40 -16 11 25 -53 3 4 -27 -6 -19 -1 -29 -16 18 47 22 11 -19 40 18 -1 9 -6 16 -24 -58 8 9 6 -16 5 -36 0 -5 26 -41 -13 -25 -26 -14 9 4 7 6 4 -5 5 11 5 1 7 -9 7 -11 5 10 10 56 -17 13 0 24 5 17 33 -35 20 25 5 2 -3 26 57 -38 -57 -38 9 0 -27 -22 -7 -27 51 -12 4 23 -10 -14 23 -5 -15 -61 9 9 -12 -23 11 61 34 13 -39 29 -26 -2 -7 48 45 15 -24 11 -3 -2 -1 -34 -44 -7 25 -12 -17 -12 -13 32 8 -13 0 18 37 5 -8 8 -28 -4 -21 44 -5 -4 -44 22 35 4 22 -47 -44 -71 -60 24 -15 -21 -21 -15 24 -16 -7 29 46 28 7 2 17 -8 -66 5 26 11 -45 -46 -40 16 -4 36 5 15 -10 -81 -48 -16 -31 -19 0 6 8 -21 39 39 28 21 5 10 29 -26 -34 1 21 -25 -61 -52 4 -43 -76 -31 -9 3 -21 -52 6 27 -37 -63 57 35 8 1 -25 57 -5 -46 -45 -46 11 14 29 -6 -2 -11 10 29 37 13 -21 -64 1 4 16 -1 0 10 43 7 1 -46 -70 -15 -28 -42 17 -13 29 -64 -107 13 11 9 -4 18 29 -9 4 -17 -55 -68 -43 22 -5 17 -21 29 19 14 -11 29 3 14 -3 -9 -28 -23 -38 2 6 21 -9 -37 -52 -14 -5 -7 2 -3 8 50 33 18 -60 15 -2 -48 44 -1 3 0 -2 -11 8 6 6 0 -7 -3 2 -10 3 9 4 -5 4 6 16 12 -2 7 24 67 46 4 -8 -13 -14 44 21 -50 -17 -46 4 19 1 -13 -6 -35 -56 -2 26 -51 -15 23 10 0 5 24 -57 -16 -24 -18 4 21 4 18 3 36 20 16 45 2 -33 -18 -64 -34 -28 11 -9 14 6 -48 -54 25 31 2 -85 15 20 -1 -2 5 2 -19 -55 -69 -7 16 23 47 -18 18 -47 -5 12 14 17 16 -2 -12 -7 53 31 19 -22 20 -33 -66 -89 -53 -22 -6 17 0 -19 -4 -2 76 27 -20 -9 27 5 -54 -25 -32 -13 -16 19 31 21 -15 -6 33 21 -18 -10 13 2 -61 -15 -22 -43 -14 26 -59 -10 7 -5 -2 18 9 -14 -10 20 4 -30 19 44 18 -58 7 -24 1 -19 9 -6 28 13 11 -22 -2 97 -40 -37 -25 -15 -127 -47 -43 15 4 11 28 49 55 38 18 16 -13 -26 18 17 -6 17 25 3 7 24 -18 -51 26 -7 -6 -15 -9 26 24 51 18 -18 -33 30 8 -24 9 30 17 8 13 -5 -67 -31 1 37 22 13 13 -10 37 33 -3 -30 40 20 -26 6 -8 -51 -14 -38 -16 -17 -36 -15 -28 0 -4 -30 6 24 41 17 -4 1 1 -1 10 11 -6 1 -6 -1 3 -8 -7 10 -10 8 23 -17 -12 -25 -40 -32 -19 3 5 13 23 7 36 25 19 -32 -10 -4 -3 -17 -6 -8 -5 -2 -8 -11 0 -6 6 2 -1 -10 9 0 -3 -6 9 7 -4 -13 -2 -8 8 4 -10 -1 5 1 9 -13 -10 -13 1 -11 -12 -9 0 -12 -3 -1 2 4 -14 0 0 1 5 -10 -8 -8 -4 -12 8 -10 6 -12 6 5 -6 5 -9 -10 -4 -8 7 3 -8 -12 -16 5 -4 8 -14 7 0 -10 -4 -11 -10 -1 -8 7 -1 -8 -3 7 -6 10 7 -3 5 8 -6 -3 4 -2 6 4 -10 -1 -12 -1 -3 4 -2 3 -3 -13 -1 0 -2 -8 4 -10 1 -5 1 -11 5 -2 -11 -5 1 -5 8 -8 6 4 -12 -11 -9 3 -13 5 7 -8 1 -3 -4 7 -10 -3 -2 -12 -4 -9 -5 -5 0 -3 4 -8 -2 2 -11 6 -11 -5 -5 8 9 4 -4 0 -2 9 8 9 -8 -7 -1 8 -6 -8 8 6 -6 -5 -2 -10 -5 -9 3 1 -5 3 -14 6 -1 -2 -11 -9 -9 7 -13 -1 -7 4 -3 8 9 -4 6 -5 -4 -4 -11 10 10 -1 -1 -12 -9 -1 -4 5 -15 -13 0 8 -8 -3 -9 -2 1 -2 -10 2 -11 7 3 7 -5 9 6 2 -2 -1 -12 -9 -4 -14 -1 5 -3 2 1 -11 3 -1 -9 5 74 23 38 33 -25 -26 -2 -3 16 4 -8 9 9 -30 18 19 -15 15 41 83 29 -30 3 16 3 -12 8 62 14 8 0 22 29 -22 -42 23 2 -18 5 29 40 17 10 14 3 -1 -42 -17 -38 -75 5 71 -18 -20 13 43 7 32 15 38 -40 19 53 -10 -26 -21 -15 13 -2 37 16 13 -20 28 18 -7 -21 -10 -5 -57 16 -28 -55 -35 50 24 37 40 21 26 19 -9 0 -4 -5 -47 44 14 11 36 30 34 8 13 44 23 -2 -27 1 -14 -62 -51 -19 -82 -83 -83 40 7 -2 27 13 5 -5 21 10 25 52 63 28 21 7 56 7 -13 15 41 1 4 -15 20 -4 17 4 -51 35 63 29 -77 96 3 -29 -43 2 20 -11 38 10 -4 14 -22 -56 -41 -71 -81 26 -1 16 58 15 24 36 28 1 36 22 -1 -17 -31 -4 26 7 23 18 12 20 -22 8 23 4 39 30 27 12 -29 2 -38 32 12 7 6 1 0 16 -24 1 1 24 -7 -16 39 40 39 4 14 1 5 -40 -36 31 13 7 -4 -17 -56 -7 -2 12 -5 1 9 -11 -9 3 4 2 -2 10 -7 -7 -12 -20 -18 -14 56 0 27 3 16 -4 23 34 33 -15 -6 -14 -7 -23 -33 12 0 -33 -20 23 -18 -4 15 27 24 56 49 3 -12 36 18 39 43 -19 7 -13 13 54 42 -32 -43 53 -37 -27 -21 14 -24 15 -3 -10 19 1 12 -43 -31 -8 21 -54 -16 42 15 36 18 12 -9 0 6 7 44 32 30 0 -18 33 20 -48 -25 -5 16 -5 7 4 38 12 -34 36 -6 -42 -23 -43 1 -3 5 -28 8 6 -10 52 41 -13 -8 -57 -20 -7 -20 -26 -47 -20 -7 -12 3 23 17 -18 -3 -21 5 0 -52 -34 -12 25 55 9 -28 -20 4 3 7 -37 -8 -35 15 -38 -22 9 72 -118 -46 28 27 21 26 -18 24 -7 27 -39 22 18 1 -66 -30 67 -51 -115 -22 -41 20 16 6 18 19 28 -10 -17 54 9 15 -23 -51 -34 18 -9 20 -15 9 3 -27 -42 -50 4 -15 -5 23 -45 19 -2 21 -4 -25 -29 -45 -36 -2 -23 30 -68 13 8 4 8 -5 -8 13 -11 8 48 5 29 10 -6 0 -44 -43 -47 8 20 19 -8 -19 47 -32 11 8 -1 10 -38 34 40 50 -77 -9 58 47 -56 20 -5 -7 -1 -4 -8 -9 -6 4 -9 -2 8 -14 -9 -4 1 11 2 37 30 32 -10 26 16 28 49 41 -23 15 -5 -10 5 10