27 -36 25 -33 32 -30 27 50 -66 -97 -32 21 -13 -67 -77 79 28 -56 109 -10 24 0 -48 -106 -79 -20 56 -32 -65 35 63 -44 19 29 -13 -102 -117 -35 -30 26 -22 39 -125 -33 -69 31 -13 -19 -61 -46 49 73 23 -31 2 21 47 22 54 44 22 -93 28 -72 -17 -21 102 89 -65 60 -66 -30 -48 -119 -9 0 -5 -21 88 27 -65 87 54 118 -69 71 35 33 25 24 -17 21 24 -46 -41 -10 48 -76 46 -68 -83 -64 58 -17 -7 -39 121 33 1 -9 116 3 9 46 92 -30 -53 1 -18 -85 -17 16 13 94 -9 -8 11 -13 12 -45 18 55 19 50 -35 -115 -101 55 -6 -43 -43 -90 -50 -25 -96 23 -79 -50 -2 -11 97 39 -96 53 -12 11 -73 -42 28 -7 -30 -33 -30 25 45 26 30 7 48 70 -106 47 -9 30 -74 35 34 -10 -77 -90 -13 15 -68 -8 -74 -51 112 -27 53 -9 -58 -1 -93 17 -100 46 -72 51 -77 24 44 -12 -23 -19 69 -31 19 -118 -77 38 59 -11 -48 5 44 -49 -61 30 -76 57 3 43 -36 -104 -37 37 -88 42 -39 -77 8 22 -8 10 -88 -18 35 15 -30 -4 41 13 -45 -17 -9 -101 -92 -8 -67 -91 23 58 -74 77 56 -89 -50 42 -57 -16 -5 36 55 -41 -89 35 -32 15 -92 37 30 -1 -24 4 32 37 118 -20 72 -46 73 -73 31 46 42 -17 18 -33 3 -60 -11 1 21 -50 19 -2 24 30 -58 50 -1 43 -53 -124 12 60 -99 -62 40 -74 -30 -79 27 -50 47 34 -24 -12 -44 80 -44 47 -79 5 49 55 72 -32 1 -24 -21 -9 -47 113 -84 -75 -41 53 -64 10 3 -85 31 -42 -124 -62 24 -17 127 46 -56 17 50 -48 -74 -12 -42 -15 -1 -1 -31 -8 -30 -20 -48 -33 -59 22 26 -23 12 31 8 24 -6 -39 14 23 -2 -4 40 -116 18 5 -23 41 -20 67 -43 -7 26 7 25 30 122 8 -13 77 70 23 -23 4 52 -39 23 47 26 11 38 -3 -118 3 -4 31 82 22 68 -84 -37 -65 16 -15 -20 52 60 -31 40 65 31 -16 -34 25 41 -78 68 -59 28 13 56 -6 -69 -22 57 7 40 17 60 19 54 -86 4 -2 4 20 8 -93 -14 -2 -36 -70 22 -34 15 -25 -108 -5 43 -55 4 23 120 -82 -14 -44 -76 -121 -43 13 73 23 34 -127 21 -66 -11 28 -65 -70 -18 -100 -47 49 -73 -13 -17 6 14 -8 121 -12 -56 -70 -15 16 5 -45 84 51 -118 125 37 -67 0 22 -86 41 -1 -88 48 42 13 -20 20 -3 -124 -23 120 79 43 14 30 -7 -101 -111 52 86 23 11 -38 1 -62 115 -18 22 40 12 -65 -19 6 33 -72 20 -12 -109 44 46 -11 54 -13 13 -7 -117 20 -6 -44 34 -16 1 -16 -26 -14 -1 -12 -57 10 -90 22 -73 -68 17 0 -70 10 -15 -18 6 -18 63 -46 -31 40 -108 46 -11 119 17 3 3 -56 12 -126 42 -50 -114 -40 0 -38 -35 37 4 -49 39 -85 15 -24 23 -19 38 -55 89 -19 2 13 -64 -2 28 -26 94 50 94 25 4 91 -72 40 -34 11 -49 70 31 -42 -65 34 -36 -14 -60 79 31 -57 -30 -40 27 -13 11 57 4 -34 -34 -58 -9 30 2 24 5 -6 27 80 2 -66 -99 -8 -91 -5 -37 -49 -10 -57 -31 39 -57 35 55 52 66 -51 -79 -16 118 -73 8 -70 -14 23 5 -25 -69 73 -22 -71 17 67 10 -60 -35 50 27 19 62 8 7 -34 -110 -74 -34 -10 -18 126 39 7 32 72 -95 -64 64 27 -50 29 35 -45 -19 -78 -29 63 -70 6 -70 -9 1 -89 1 19 -87 65 54 30 9 -30 -6 -8 63 -118 -28 119 -95 17 -74 6 49 67 3 15 33 32 -105 -91 -49 28 -100 -112 76 -89 62 4 -59 15 -22 8 27 54 25 -14 -5 -61 -102 -47 51 53 81 -59 -26 -8 -47 -115 35 9 -50 36 29 12 -19 -57 -74 -53 -36 45 55 -11 -34 42 -120 42 44 -25 55 -25 -44 -14 50 -9 34 8 -25 -102 -48 38 -5 12 -18 -24 -15 2 -11 -12 43 49 -17 63 72 -105 16