-9 -18 12 -12 -20 14 -52 -1 1 -1 25 4 46 -12 -7 71 -35 -25 13 24 9 17 -2 14 5 36 39 -24 37 -2 17 9 -70 8 0 48 16 30 17 -6 -8 -24 9 -2 22 -16 17 -35 -14 1 -4 51 45 17 -2 -25 7 12 -64 -14 -32 -1 4 33 35 12 28 -31 56 -10 -1 16 -19 -16 11 -68 -46 -84 -26 -7 -8 11 19 27 -53 29 26 -36 -8 12 -4 17 15 2 -43 -11 53 29 28 12 -4 -10 -55 -18 -39 13 0 20 39 -8 45 0 0 26 -27 17 22 -14 -28 33 -21 -8 13 0 -71 27 17 5 -4 54 -64 9 -52 -19 8 3 27 -7 37 4 22 -12 34 -12 -31 -17 -14 11 56 0 -2 -21 22 -56 5 -48 -3 -91 17 -77 24 -33 -14 5 19 25 -10 -12 -57 3 12 -58 40 -14 -14 -27 67 6 -38 -12 -2 37 16 49 17 13 29 7 33 -7 18 13 -4 -41 7 20 -13 6 69 -91 35 -29 -30 -32 4 -40 -62 8 -8 -51 -9 -18 -26 -6 16 31 -55 15 -109 16 -50 7 16 -7 39 -31 -67 -10 -4 9 22 -1 -61 -32 -35 -22 18 -2 -35 35 -15 -4 15 30 2 -70 11 54 -18 43 -1 -11 -22 -9 14 11 20 28 -5 41 -27 -5 27 0 28 -30 -3 0 24 -14 5 -6 40 12 -14 -67 -13 -35 -8 -5 -26 -45 -41 5 -1 1 24 23 -39 -41 -37 -34 -4 -8 30 18 13 -3 41 -37 29 27 -8 7 48 -1 -10 22 -34 9 5 -4 7 -66 8 61 -6 59 73 -28 12 -47 -64 -12 -30 5 -12 38 7 -4 1 9 13 -9 -42 14 -10 -25 -23 14 23 26 -62 8 23 -35 22 -11 -68 -40 12 6 -7 -67 -36 -64 23 20 -57 -33 3 -10 -3 31 -14 -34 -26 -21 13 -32 15 7 60 0 26 -10 -9 -23 38 0 39 27 19 -22 38 3 8 -15 -8 -4 14 -37 -9 -29 -12 12 -5 38 0 26 29 0 13 -32 18 -15 34 17 -29 -14 -19 8 25 5 -20 -82 49 12 -81 -12 27 -11 3 39 18 -14 47 2 117 -12 -9 41 4 6 -4 -40 -25 -24 62 -2 -34 -9 32 6 6 -31 54 -10 -13 0 -10 -9 -11 -5 -11 52 6 27 16 4 -46 -15 -18 28 13 44 -33 -13 11 18 45 -8 -16 35 -21 -31 36 -3 -22 -18 14 -5 -14 -12 2 70 -22 -18 -16 2 -4 9 30 3 -52 25 -38 57 29 10 -23 3 12 14 -18 50 -3 18 5 21 6 -24 10 36 -16 16 13 28 -15 -33 -66 33 41 9 -20 17 55 -6 -32 43 -13 -27 -19 -12 16 -45 49 7 40 13 5 6 5 11 29 8 -41 22 -16 34 20 -35 -6 -5 1 49 28 73 79 19 2 -41 -32 9 23 -18 11 -34 2 19 3 -8 -16 -17 -5 -39 44 10 26 11 4 -5 -17 27 3 -15 19 -5 -48 -32 30 14 -29 -43 -40 3 9 4 -7 -22 -20 14 9 38 32 20 15 7 -13 14 -1 7 -102 3 34 -15 51 -21 -45 8 -13 -28 17 47 -7 1 50 7 -7 -23 -5 3 5 -31 -1 -57 3 15 -5 0 15 -18 2 6 6 -1 -1 27 25 -13 42 -1 76 -9 20 -22 -1 7 -51 -20 69 6 -6 24 51 14 38 -4 -4 -15 12 -28 -11 -43 9 20 3 -39 61 -3 -3 2 4 43 17 1 -11 26 -14 -30 1 12 -39 -15 -5 -3 -36 -24 -37 8 31 3 -34 -6 -7 -58 -59 -18 34 15 16 -5 11 20 23 -28 12 -15 -24 -28 13 4 -4 -23 -38 -22 21 3 2 -5 -18 16 28 -4 24 11 23 10 61 27 25 22 17 -80 -4 -53 7 21 18 -8 -5 45 -12 11 -4 39 13 25 7 -47 27 -8 -30 21 -25 -28 -48 -43 11 3 -19 -7 25 16 15 38 63 25 28 46 0 -1 4 -49 7 -1 -23 -20 20 -45 12 58 2 -21 4 -50 16 -11 30 -45 -20 0 -58 19 -11 26 18 1 3 21 12 -14 4 1 8 -12 -14 40 7 -9 7 -27 66 33 -24 43 4 -8 33 6 15 16 -3 13 32 39 30 -5 -2 52 11 4 2 -19 -57 22 -13 -24 -16 32 19 -4 -12 -24 -58 -10 -10 -50 30 21 -24 -12 -8 8 38 38 32 19 2 10 -16 -63 -22 -17 3 -36 3 -31 -2 26 -73 28 69 -11 3 -5 10 34 2 -8 49 12 -56 -12 -22 -64 -1 6 18 -54 -31 45 14 25 -43 -25 -21 -41 22 4 3 -35 13 29 2 -30 -5 102 64 27 7 -47 37 -12 39 5 34 19 -18 -5 -7 -16 -11 -13 8 -65 23 18 -17 -10 -5 -39 -15 -30 -21 64 -15 12 14 -96 -61 -12 5 6 23 28 -4 9 -89 -28 -4 8 4 25 38 17 23 7 26 11 43 16 -31 -2 26 4 40 28 24 -5 -17 7 -8 -1 -32 22 -19 9 -96 7 -18 -20 -35 42 17 0 -9 87 15 -28 12 14 40 -19 29 25 19 -13 0 30 -31 48 -51 -2 -28 -1 -16 3 17 -12 -54 0 14 0 -30 1 34 5 24 7 -8 -36 9 36 16 -15 -3 -12 93 -29 -15 12 -56 -51 -19 -1 -13 -27 -17 -7 13 -5 25 -1 13 40 3 2 -14 -13 -13 3 -8 -23 18 2 -6 7 60 21 -13 -10 24 32 -31 3 -13 -11 -25 44 5 9 14 22 38 -75 37 5 -11 -1 40 -14 -27 -9 19 2 -5 -16 -13 -2 17 20 15 -2 -12 7 -19 15 -88 12 12 10 0 12 6 -15 -18 -21 -19 28 4 -13 -55 -5 -4 24 -67 -15 33 -5 19 -24 -36 -5 -56 30 -45 14 36 -17 24 -6 11 -33 -77 -31 42 -15 -40 -25 -1 31 -15 -17 9 -61 -27 -41 -50 -42 4 9 -27 -79 -34 8 -22 10 -16 0 17 -8 16 1 -2 31 9 -19 0 -6 -2 23 10 6 20 -14 13 15 19 21 -79 1 16 10 18 11 -30 15 22 -3 14 23 -6 33 5 -41 54 20 -20 38 -20 -2 -52 -4 13 2 26 -8 -14 25 3 -21 26 -4 32 -22 18 21 -33 -9 -8 -1 -3 14 -14 -45 11 -54 9 -16 20 -8 -68 6 20 16 -91 -2 7 -7 -10 -12 16 -5 -53 29 -1 19 29 15 28 45 -1 -7 1 -31 -11 -8 2 -71 -15 44 -13 0 7 3 19 -34 -33 -79 49 27 -31 -20 -13 8 -65 39 -12 -19 14 -17 -17 18 10 59 -52 -42 -33 1 -21 30 40 -48 40 -38 20 19 -5 -5 -51 -2 -4 17 21 12 57 -2 -12 -15 -4 25 17 -12 31 9 -2 -9 4 -4 54 9 -4 15 3 -10 10 3 53 -13 35 37 -17 -42 12 -6 -38 13 -82 19 2 -7 -32 14 -1 50 -10 -23 -23 -46 4 -22 -4 14 -5 17 -61 -4 31 36 33 -9 -50 -11 -4 -3 -2 -9 36 27 8 -18 9 -49 -56 20 -3 12 11 41 -23 43 15 -6 11 -30 -32 107 12 -15 -8 20 -10 -34 4 28 12 15 4 34 -7 -7 46 17 29 19 39 45 -20 18 -1 15 59 56 21 64 43 -13 20 18 -93 -12 2 -27 -24 46 -12 8 31 39 -18 -14 18 -57 -32 31 38 29 19 -47 -14 -2 74 25 5 -47 -1 -13 82 -2 -21 -15 -42 4 -14 18 -23 1 26 12 -10 18 36 -68 9 -41 -14 -10 -15 12 2 22 -2 23 -13 -12 12 -20 102 17 -9 -103 32 14 -10 -10 -10 22 10 20 31 -36 11 54 36 -97 -67 6 17 8 15 12 -13 14 -11 -6 28 7 9 -9 -7 14 10 31 28 -78 -21 5 -6 -3 -2 5 -19 10 20 6 -3 -15 -47 -9 -65 35 33 29 43 41 -39 -8 -76 26 53 -13 -32 -38 -12 -74 -7 -6 54 9 6 6 -16 38 61 -5 33 2 -14 -36 44 5 -4 -52 1 -13 -79 18 -39 4 -77 -15 5 44 -23 -3 -1 -1 -26 -10 13 6 -34 18 17 -18 -6 91 12 44 13 -11 -29 -12 -39 -10 20 57 -16 -3 -22 -66 -88 9 -16 23 -20 2 24 -10 0 16 -5 69 -15 -77 22 3 56 -3 19 -17 -16 20 1 -39 38 -33 -48 -39 10 -14 54 34 -19 23 -61 -16 2 -28 8 -1 -50 -11 20 -45 -37 -87 9 18 8 71 -48 -27 4 -25 15 8 -34 -1 8 -12 7 -46 11 -18 21 -10 -11 -9 -17 -5 0 -66 44 -21 -31 -38 -4 -42 60 -11 7 -3 25 -32 39 -41 42 14 44 23 -8 -44 -16 -20 -38 11 -73 -8 -13 -39 19 -28 -12 24 -8 43 -24 -4 4 44 18 5 3 17 24 26 0 9 -20 25 -26 20 15 -26 70 -2 26 -4 14 -46 11 -41 -5 30 7 -2 42 -8 -6 46 -9 3 -15 -2 22 22 57 27 -60 18 17 -4 12 -75 28 18 11 40 24 3 -1 20 -46 19 -14 20 13 15 -56 1 35 31 -31 52 -52 -6 42 -7 -4 0 4 44 -28 -38 3 14 27 -17 7 13 -4 -19 -20 44 -94 -9 5 -52 -5 9 56 -30 2 23 2 -44 -9 -39 22 6 -54 17 -23 -10 6 -13 -87 2 8 68 65 -14 -16 12 -3 12 7 10 34 -32 38 -11 -61 -24 -31 -62 36 -20 6 26 -23 3 26 -21 -8 -1 -34 37 67 -3 6 72 42 -4 17 114 -59 2 -4 31 -1 15 12 -63 -71 10 9 65 -40 2 21 40 -56 26 14 26 -9 33 15 -4 3 -13 -84 -48 23 42 24 12 13 5 -80 -18 -2 24 23 -11 -13 4 34 -13 -7 37 -18 2 -5 10 35 11 10 12 -14 -64 -47 -41 7 -9 -13 -38 -28 -6 51 -5 -18 -34 -26 2 58 0 25 15 -42 -71 -26 29 3 3 70 4 -1 26 19 -29 -13 27 -4 4 -6 -22 -8 -7 -2 8 8 -45 10 -33 -63 19 -13 -26 -17 15 19 27 40 -9 15 52 58 -16 3 -50 37 -11 -44 12 23 -22 3 25 6 22 8 -16 11 -18 -17 30 -6 -24 -109 18 -5 -3 31 22 -10 39 -6 21 8 -4 3 -21 5 57 -10 -14 -46 -27 28 35 -23 33 4 9 -15 14 47 -12 -18 -18 12 31 44 -8 31 24 13 -11 8 -20 -6 -55 -24 -9 2 -35 -7 17 -17 -36 -31 -18 5 -14 -4 -18 -1 -6 -3 19 27 -13 -11 -3 -32 11 -4 3 -45 15 -8 12 -2 13 12 -3 6 32 -15 13 2 37 -27 7 -53 20 -12 -4 -32 2 -19 -2 10 -3 -13 9 -13 -41 7 -10 16 -1 -9 -9 18 -33 -3 -33 -12 -33 -11 29 -9 -35 -24 -12 -18 -16 -70 -9 -23 -14 0 -3 8 -11 11 -5 19 15 -34 14 -33 -15 5 7 21 21 -10 -30 -12 3 -40 -15 22 37 -17 15 -2 5 -17 -24 -31 -4 -22 40 -13 6 -7 -44 50 11 17 -24 -1 31 41 10 1 9 -29 -25 53 23 13 -56 0 -24 23 -11 -49 -49 -30 -5 -21 13 -1 -57 -3 -36 17 -18 17 -11 7 26 4 45 4 -1 -11 24 53 54 25 -26 -49 10 -4 5 65 -49 68 3 27 25 24 -1 12 -27 22 46 34 8 -9 -8 -13 -30 13 14 17 20 15 38 101 30 -4 -10 -8 32 -4 102 10 58 -11 28 5 12 -33 14 -13 3 -107 2 11 -2 -107 -12 46 -12 28 25 -19 15 0 -40 -31 3 18 -3 9 -21 7 2 -28 -46 -3 -6 5 -21 1 -3 -7 -7 12 1 -26 6 8 -7 2 -5 -17 -10 12 -16 10 -5 -2 -5 -21 -35 -18 -7 -18 5 -9 -21 -8 -22 17 -4 10 -12 13 -24 -26 -23 -17 2 -8 -2 -21 8 -29 -7 -22 -8 5 13 -17 -26 3 -10 -19 -14 -23 -24 -5 14 -17 -6 -10 16 -11 4 7 5 11 6 -4 0 -2 7 -4 -7 3 -19 0 -6 -13 11 11 6 9 -17 -2 0 -21 -5 -12 -19 8 4 -15 2 -7 -6 -21 -5 -5 -3 -1 11 -21 -11 7 17 7 5 -27 2 -20 1 10 -10 -13 14 13 16 15 91 -10 -6 5 -4 -9 3 2 -21 14 60 -29 35 -13 7 -31 -24 16 31 -21 30 34 -11 -26 -3 19 16 -37 40 8 -5 -11 36 11 13 0 -15 25 25 30 -17 31 -22 -27 52 40 27 14 3 -11 11 -60 1 -45 -26 -19 2 -11 25 30 -24 19 -20 -14 23 3 -39 -14 10 -16 -17 -14 8 3 16 19 -2 -13 21 15 54 27 3 -15 -32 6 -4 18 8 13 -19 40 37 21 -2 84 23 -39 23 -23 -1 30 -5 22 7 13 17 -6 -17 -29 26 -38 14 -9 59 4 -17 -9 -5 -18 6 -27 -4 5 -20 -1 -1 -19 -14 1 -21 -6 -6 13 -22 4 -2 -28 3 -18 -19 -12 16 16 -18 3 7 -24 -4 10 -25 -9 -1 -2 -20 -7 -24 12 10 6 -4 -12 -24 -6 -22 -12 0 3 12 -6 -14 -16 11 -9 -21 -15 -25 -2 8 -10 -19 -22 -10 16 4 -21 -21 3 7 -4 -24 0 -4 -3 -13 1 -2 8 -2 -2 -2 12 -9 18 -22 -16 12 -17 -11 2 -22 -20 8 8 -16 -13 -6 7 -23 -1 -2 -20 5 -14 -8 -8 13 -3 -2 -18 3 -5 4 13 -9 -12 9 0 8 2 -84 32 11 4 51 19 -1 -16 25 5 11 47 17 -6 47 21 12 40 -22 40 -61 0 10 32 -9 5 10 -29 42 -9 -13 1 -31 14 21 -83 16 -69 0 45 9 -36 32 -25 -14 -21 -17 34 -13 24 24 27 8 46 -12 25 19 2 -37 4 8 -32 12 7 -78 -13 -8 14 -46 -11 -5 15 -77 67 -53 -1 1 -23 66 -7 3 -8 60 2 14 15 -1 -17 -21 -19 3 -39 -17 1 5 -47 -12 21 6 -15 -14 24 17 -33 -40 17 -14 43 24 22 -33 43 13 -10 -104 12 -19 10 1 3 -11 11 18 -14 8 -36 -15 -17 36 -13 8 50 45 -21 -30 -20 -43 35 7 9 27 -13 1 -22 -18 -18 -34 55 -15 4 -60 3 8 -21 -12 -14 76 -6 4 30 26 7 58 7 -13 6 -1 -2 -19 54 22 6 -2 23 -15 27 22 9 1 12 30 1 30 -42 7 -3 -62 -23 -20 -10 82 33 13 11 29 8 12 16 58 41 -28 18 -10 0 5 -14 0 -32 -15 -19 1 51 -1 -58 6 -12 2 -27 18 -9 -15 -23 -1 5 -22 7 16 -18 19 22 -50 -17 -9 -20 -57 -5 6 -11 -2 -4 -82 21 -37 -4 -43 57 2 46 19 31 5 -12 -18 66 53 76 58 4 -69 14 -38 10 17 -94 22 13 -29 -13 2 2 41 -15 28 7 -65 -16 -46 -54 10 -7 25 -27 -57 1 24 -25 16 -28 1 -9 49 57 15 12 31 21 -52 2 -51 -43 7 48 3 10 -3 -17 58 8 -41 -13 -61 -43 -55 40 -17 -4 4 14 -35 -2 29 15 7 -6 49 -5 -11 5 10 16 64 6 27 30 4 -21 -26 47 34 4 24 -48 8 27 9 -34 -2 -13 30 2 23 18 15 -23 40 3 -2 1 -17 -2 -13 8 -6 7 -18 8 -18 5 -6 3 6 5 2 -6 -13 -26 -6 -9 -10 -22 27 6 -10 -7 -13 8 7 -19 12 10 -8 -10 -1 -11 3 -5 3 3 8 6 -21 -10 -18 -14 -15 -7 -16 7 -13 -6 -13 5 17 -16 11 -14 8 0 -15 -9 -12 -6 -15 5 -13 -2 3 -11 -14 -10 -4 -11 -7 3 -24 3 -7 -5 4 -24 -1 7 8 3 -13 6 -16 -14 -16 -2 -17 -9 -20 -8 18 -9 12 -20 -14 -23 -4 2 -15 -12 -19 -15 8 -23 4 11 -19 -19 10 -14 5 3 -22 16 -102 8 62 -46 -3 0 -20 32 -13 7 -11 -20 -37 -14 -31 6 27 46 -5 -33 -76 4 49 3 5 -14 9 -25 8 -2 -14 -3 7 -13 49 19 -39 -22 39 34 -13 -6 -20 -45 -2 15 27 12 -12 -80 6 72 -4 15 -11 29 56 -9 -44 7 -4 12 52 18 -24 -16 -18 14 13 7 25 8 68 20 30 56 30 -38 -6 -50 44 8 -56 8 44 -10 43 10 -15 21 -3 -66 -18 -23 36 -6 -3 -61 -47 -34 -3 -36 27 33 -2 -18 0 17 -7 -11 12 0 44 -6 12 50 -40 5 0 16 6 17 6 6 9 6 12 11 6 -41 -15 -25 16 -42 -11 -3 -48 -29 46 22 -5 -1 31 -9 9 -89 4 1 -23 -59 10 -7 22 7 29 -15 1 31 11 85 5 11 19 3 -26 12 49 2 45 -23 3 -12 -2 -46 1 7 28 -7 -4 -10 13 -42 7 18 4 27 41 -17 4 -6 39 14 -59 -31 -56 15 17 29 32 35 -48 -34 44 26 -45 -15 -23 13 -8 -5 0 33 24 27 21 20 -4 29 17 22 -44 -22 -3 9 4 15 5 -59 -13 -12 -22 -27 31 -25 -10 2 29 2 -13 8 -2 53 4 33 -12 0 19 16 5 -52 -3 22 -63 66 -17 14 -19 22 -27 34 11 15 16 -1 3 -82 7 2 -38 -45 49 14 8 -15 0 8 21 -31 47 -18 -11 53 -3 -14 9 28 12 -16 -14 -41 2 15 -73 10 3 76 -52 -28 -19 -6 -35 -75 6 29 -36 7 -52 -15 -2 6 -3 6 -5 21 20 -12 -1 -2 17 3 35 67 -56 -50 71 11 16 -12 12 19 11 -35 49 -78 -11 14 12 -46 4 -8 49 22 9 16 -8 1 -17 -76 7 28 -2 7 19 23 -7 56 -33 -9 9 -5 9 -28 34 2 -5 5 34 -24 0 -62 10 37 10 37 -52 -6 26 -19 9 30 32 1 -14 32 -1 -22 -3 -1 -32 -10 -32 -8 -17 18 32 -3 6 40 -26 -10 -1 13 1 41 -33 -8 44 12 -17 86 16 17 -12 4 -9 -45 -46 26 20 -12 22 68 -4 -3 -62 27 45 -8 -14 1 -54 -7 -47 3 27 11 35 18 18 19 19 -11 35 11 -20 13 -47 -11 -2 7 4 30 35 -16 24 -1 -1 52 13 -10 23 -41 -33 -53 8 -5 2 29 13 -32 -38 -13 22 -23 1 -51 74 -10 -12 -5 34 -62 34 -34 28 10 9 8 4 9 1 21 9 -9 -29 -25 46 8 11 -12 -70 29 -59 -14 5 52 -15 1 43 26 -38 15 19 -7 -43 11 6 -35 -65 -60 -1 -31 6 -99 23 71 -37 -42 0 23 -9 42 39 1 -26 3 0 25 41 -11 -15 40 16 18 -10 -58 -48 -6 11 -7 -50 15 29 13 5 -6 29 -9 7 -87 30 -26 -12 -14 35 15 -22 -3 18 28 7 -54 17 -1 4 9 5 28 -17 -63 -15 9 -13 16 -4 16 -37 20 10 29 9 12 -18 30 -10 23 -39 7 -15 13 -35 59 -22 -29 36 0 22 56 -3 -1 35 21 -22 -38 1 19 -34 -15 23 0 -1 5 23 -21 12 29 22 2 12 39 -14 -14 0 -13 -32 23 0 3 33 -113 13 27 58 -45 78 -57 31 -41 -60 -23 -12 30 17 -10 -26 5 -30 28 -22 -4 38 -56 -22 -48 31 2 17 -4 38 9 34 6 41 29 10 -30 -40 -4 34 7 -23 -10 -11 -63 12 9 -7 -4 2 23 -12 -11 50 17 -67 -31 -11 -101 16 9 -14 -1 63 -11 -1 27 9 13 -2 3 11 13 -36 14 12 85 29 -6 -10 18 11 -1 -7 8 33 16 19 3 7 26 0 -10 -38 -39 19 36 -2 -46 -3 -2 31 5 36 31 15 -6 -2 -9 24 -10 41 6 33 -7 -16 5 12 21 -5 3 4 -10 -1 -36 -13 -3 6 18 -12 -13 17 -18 -9 -47 1 -11 6 -12 0 2 50 -55 -56 28 -5 37 -72 -12 37 -23 43 -14 -55 -5 -45 -79 -29 16 19 57 -25 -24 7 -45 6 15 -8 -16 17 7 6 22 21 -16 -28 41 -12 6 34 -13 -13 -14 -12 43 14 -1 12 -8 2 -3 17 32 -5 5 -4 61 34 -15 17 7 -24 6 -8 -3 2 17 2 -5 13 2 -1 -23 -21 -12 -28 -13 0 -8 -10 -19 -3 -22 -36 7 0 -6 2 11 1 8 -5 14 9 9 -12 15 -20 5 7 -13 -5 -4 14 -20 2 14 -19 -4 -12 7 -7 -11 1 -9 -2 -20 -8 1 -4 -13 -11 -12 0 -16 -8 -6 5 -1 -12 -10 -3 -10 6 -12 0 -1 -21 -26 -22 -10 11 11 6 -17 -6 0 -19 4 0 -13 10 2 -16 9 8 2 15 2 -3 -9 -22 -14 0 -6 -10 3 -22 12 -17 5 4 -25 -19 -10 6 -22 -12 -14 -5 -10 -7 -6 -8 -5 -20 14 15 -8 -5 9 -18 -11 -10 -17 -22 4 -22 2 -3 -8 -2 -2 5 16 5 10 -7 14 1 -5 12 15 -20 -8 -4 15 -21 -8 -22 -4 -12 -16 -8 -16 -14 -12 -2 -14 -7 -14 8 -5 -23 -11 -15 13 -7 -12 -22 9 12 -3 10 -6 -16 4 5 -3 -14 16 7 -5 14 14 -16 -7 10 16 -16 0 -8 -5 -5 -16 -15 -10 -4 7 9 9 -1 -12 7 -8 -6 5 -2 -22 -14 -8 -5 1 3 2 1 -13 -22 -7 7 -3 -8 7 -8 2 0 -5 6 -9 14 5 -50 -1 -29 -6 29 0 -27 -18 -10 38 18 -13 -75 -65 -14 26 6 -1 -7 -38 9 -5 45 6 21 5 -10 -3 15 5 36 7 -13 12 -1 8 -26 16 37 41 29 -26 -37 24 -78 -45 -9 8 -42 4 -11 -11 31 -83 -7 6 -10 -12 -25 -12 17 -2 -83 -54 -11 -11 28 14 6 10 -2 -7 4 35 -56 -30 -52 11 31 -48 -36 28 -64 12 12 6 -33 -12 3 -36 2 50 17 35 1 -29 15 17 -31 18 15 6 16 -21 17 -11 9 40 4 -9 -23 -37 -75 -18 7 37 -15 -10 8 4 36 32 30 49 1 -17 -16 24 1 -45 -54 2 -15 -47 20 -2 -4 -7 33 28 32 -27 73 20 -1 -54 -4 -1 -25 -58 38 -8 24 -4 51 5 21 20 -44 70 31 -9 21 19 3 -30 16 -4 -3 -51 6 -49 -31 -21 16 -45 -12 -39 -1 -15 35 -20 -20 31 -6 72 -35 2 31 1 38 -11 -82 -3 -83 -12 -49 27 10 81 -14 -6 -10 -36 -46 -10 31 -5 15 23 -10 31 22 6 -30 21 18 11 27 15 -3 -5 5 8 -8 36 23 26 -12 7 -9 -6 0 18 -16 13 15 -13 -12 -2 13 -51 27 23 26 -3 11 -34 4 36 5 -28 37 18 -6 27 22 -43 1 -2 16 25 13 15 -9 6 7 -4 -35 3 5 18 -7 -14 17 11 -13 26 26 18 -5 8 28 35 -7 -52 13 3 -56 52 -9 -2 32 18 -19 -34 9 -22 -12 13 -52 61 -12 -29 25 39 42 12 -15 -8 -16 -1 8 19 46 36 32 10 12 -47 11 36 16 52 -19 -7 -4 -4 -2 18 -3 52 3 15 11 -33 -1 23 -7 57 -5 -1 2 -28 -8 -13 22 28 -3 -1 -44 26 -58 4 -19 -41 18 -10 -15 -14 -8 -3 -16 -14 -17 -7 -21 -1 5 4 3 -24 -13 -15 1 -14 -11 0 -3 7 -4 -14 -17 3 -10 0 -4 3 4 -5 -4 -11 -12 -13 -10 -13 -20 4 -14 1 -2 2 -17 -15 -4 1 -9 2 -10 -17 11 -1 -2 -9 10 -16 -14 -2 8 13 6 -2 -14 -20 -1 6 1 -6 -7 2 -2 16 -2 -7 5 8 -6 -9 8 11 -19 6 -5 -19 10 8 1 3 4 -13 13 -8 -11 -7 13 12 15 -11 -14 2 -19 -15 -4 3 -6 -2 8 -14 -16 -21 -7 -3 -11 0 -16 -14 -22 -3 3 -9 -9 -83 54 -41 -38 -17 -14 -13 16 15 16 -2 -42 11 -51 32 -103 35 18 -32 -36 -93 9 9 5 -74 -1 13 15 52 -61 -11 17 -17 -23 3 -111 9 23 -30 10 -80 -9 -38 -16 -19 52 30 -35 38 11 7 -68 9 -2 -39 9 26 -35 0 78 -36 8 -9 26 -11 3 -2 29 16 -7 -12 31 -17 28 34 -41 -36 9 -26 -16 6 20 44 -12 2 42 6 4 -6 17 23 2 10 41 -86 -13 -64 8 -45 57 18 20 -94 -16 -38 5 21 -18 -69 -54 -96 -34 3 7 -9 10 12 -3 -6 -29 0 -62 -23 -49 -19 -46 27 -19 -27 38 10 17 -1 10 -11 -16 13 16 -19 23 2 -14 -1 11 73 1 7 -18 54 -45 -7 -21 15 43 -8 12 -1 29 34 13 -39 -7 33 -12 -26 -20 23 -17 -65 11 34 40 33 -1 15 0 54 -3 4 -54 18 42 -13 51 -29 38 11 4 -16 -7 -8 40 -37 10 26 41 20 6 -33 27 17 -19 37 25 13 6 -14 -13 -35 -6 -71 6 4 34 -24 -5 -43 -14 -18 15 -24 27 -17 -13 17 0 30 11 -24 -6 -16 6 -13 -13 -41 4 -4 -19 -2 21 4 41 -34 37 -6 2 -1 4 18 -9 -22 -26 -24 29 22 -15 20 -2 -53 -10 5 43 -18 -21 54 -14 10 48 26 25 3 1 10 24 3 7 35 -9 13 35 -41 -46 9 -27 -30 -11 -53 54 4 -1 -41 -12 -32 -14 -46 28 21 34 10 39 40 -33 26 -42 31 -21 21 40 -13 10 0 -31 29 -12 -18 14 -5 13 -46 36 -12 -12 8 -33 14 -16 -15 15 14 -4 28 -25 2 -13 26 10 -2 -26 -16 -4 -29 4 -12 -14 -19 20 109 22 -22 49 -28 -12 -56 -2 0 -27 -11 1 8 14 19 -35 37 -13 7 -4 47 -11 -32 -8 6 -12 10 14 -14 -21 -6 18 0 -3 18 55 -6 -5 -12 -20 -10 -32 -27 36 -17 -31 6 14 -7 -34 -4 34 75 2 13 44 10 0 -15 11 3 0 22 9 -17 -30 9 -21 -15 -23 -11 -4 -3 35 -8 7 38 15 17 20 18 0 -22 -2 15 20 -17 -119 -43 -11 -11 -19 67 35 17 -20 5 -42 -16 10 -8 15 -20 -17 -20 7 20 0 -9 7 7 -12 2 -11 -46 -1 13 18 6 11 8 -5 -27 29 -39 11 -6 0 -44 -25 -2 -13 -7 1 2 -12 7 -22 17 -22 -23 -3 -19 -14 -3 3 -1 -6 -18 6 -12 7 -23 3 6 3 -1 8 2 -3 -14 -8 -19 0 -13 -18 -13 -13 10 -9 -22 14 -2 13 11 -6 -1 2 -7 -25 5 -4 -19 5 -11 -12 5 8 -8 4 -15 -5 6 -6 -5 -20 2 -10 -7 -9 -15 -2 -5 -10 14 9 -5 -19 -1 -25 1 1 -3 -15 3 0 -5 -6 17 -6 17 -14 -27 -6 2 0 -22 -3 1 -2 -12 -14 -25 -20 2 -18 -9 -11 0 -6 -18 -18 -1 -8 -7 -7 1 14 12 -7 9 9 -14 -2 15 -29 -16 -7 -7 5 9 -12 -19 39 18 -13 -12 18 -10 -4 -55 -35 -3 23 25 31 -10 10 -31 -19 -2 -60 102 7 6 -63 10 13 11 16 -16 40 -25 -2 -25 15 39 32 -49 29 -7 -78 -52 -14 49 18 -44 -16 38 -48 -26 -13 -10 51 -22 -16 -34 53 -21 76 1 -47 8 39 7 56 -1 28 2 41 2 26 30 -9 23 -18 -12 -70 20 -43 19 -11 -28 16 39 6 37 -28 -42 -15 -32 22 -12 31 31 23 19 3 -6 10 -20 -6 -30 -53 -6 -37 -53 4 26 17 -16 14 -15 19 35 25 8 8 22 12 57 1 -18 -16 26 -21 -12 -17 29 3 26 15 -8 18 -7 39 6 -12 -89 -2 8 35 -7 40 -13 50 10 5 13 19 17 -64 -31 -12 0 22 -59 -43 63 16 12 54 -32 0 -13 21 -41 -17 -11 -22 23 7 -19 33 -31 -19 32 -27 -48 -49 -18 10 -11 1 -11 -50 -9 -11 16 -28 -12 -30 -4 -55 -11 12 -64 27 -14 38 12 9 38 7 -21 -14 -15 -7 39 22 35 4 -28 -5 -8 -17 25 1 30 14 -36 19 48 65 24 20 -27 17 9 29 -23 -14 17 11 15 60 3 17 3 6 -14 12 18 -23 -27 15 -36 21 44 -26 -41 7 -13 40 -21 84 6 -26 -41 5 9 1 -17 29 -3 -8 -15 35 17 3 -7 -5 127 25 -11 25 41 -9 -22 71 1 3 -43 -5 4 -17 -27 -23 -8 29 -51 -3 18 -11 -8 -3 24 4 59 36 18 -20 3 53 11 -11 -8 13 15 18 12 16 40 -40 36 -10 28 -78 -4 -17 -16 9 -13 1 20 12 28 39 17 12 18 -3 45 -14 -23 -17 -6 -14 36 1 -7 -5 -23 -32 -23 34 -14 -7 25 19 10 11 15 39 23 -22 26 8 18 27 11 11 -53 -29 -34 -73 24 -58 25 -32 -3 -5 25 3 -35 -15 -19 -12 -58 -11 1 -9 42 0 -15 -2 -17 -90 -2 -18 21 12 -11 9 5 30 -32 16 25 11 -9 -14 25 -1 -22 -18 6 -4 4 4 25 30 -2 6 -19 16 36 -67 -40 -13 -22 21 18 -1 -16 -10 -5 19 -6 31 -13 10 -31 -42 33 -1 -39 37 12 29 5 -19 12 -8 19 36 -31 -43 -25 0 24 19 -60 20 55 -26 -14 -17 25 -7 -61 -12 13 19 -13 -19 -23 -18 36 12 -17 -12 -10 24 7 -54 35 29 9 38 -15 7 -35 36 33 28 23 10 22 19 24 3 22 5 7 -44 -2 1 -43 12 8 -3 11 13 4 -7 -9 -12 -16 -6 4 -46 -14 -4 33 -2 -15 -27 14 36 -3 5 0 4 11 32 24 7 45 20 -24 -3 0 -33 -1 -6 -10 33 -35 45 5 17 3 -36 -9 6 -9 28 45 -26 31 8 -36 -46 30 29 -6 37 5 -19 5 -1 2 3 18 17 -32 5 -32 -5 25 -12 27 34 28 -51 -19 4 27 11 -15 1 9 -16 16 11 15 -11 -110 23 -6 -2 12 33 -13 16 26 16 -21 20 -15 6 20 0 7 -22 73 40 -26 7 4 -10 -11 6 16 -12 11 12 -4 10 12 20 5 -5 2 -9 -1 -19 -12 18 14 21 -36 -1 27 -1 -19 44 -6 -37 -5 5 49 -18 43 0 22 -5 -15 -19 -5 31 5 19 10 21 14 20 26 -60 20 -12 -4 -9 -16 -24 18 -52 -47 10 -24 -11 28 79 -5 -43 -11 46 0 2 -4 -20 -41 11 -49 -13 -22 -42 29 13 -4 -29 -10 -23 -31 -37 4 -4 -11 -10 90 -18 5 36 15 -40 10 11 -17 -117 -14 -4 -2 -5 -63 0 119 -7 -3 -16 13 -10 -27 11 -4 16 -18 18 -25 -20 8 -13 -44 -12 15 -24 11 7 -37 -5 5 42 39 -40 13 13 17 -51 1 -7 8 -47 13 15 -55 -65 24 -28 -10 24 6 5 1 -6 -16 -14 -26 13 4 20 -18 23 5 -15 2 0 -30 -25 -18 3 -5 19 9 -16 12 52 -7 79 -24 59 -34 -21 -5 -11 -4 6 48 -20 0 -52 -12 -10 -11 9 -30 33 22 33 29 14 31 -68 -14 41 -60 41 24 -7 -30 -30 -69 12 -37 11 -18 -6 -50 -6 3 -18 14 -13 -2 54 21 -15 -15 -42 17 -97 -44 5 32 -49 -50 11 -18 13 -24 14 -20 -28 -17 2 16 -17 -24 -19 -34 17 5 2 -4 1 8 -60 2 31 -3 -34 1 22 5 2 -22 -54 23 -13 -32 -27 27 -93 -7 -16 14 -51 -6 -3 -8 25 -54 27 -11 -23 -50 -62 43 8 76 67 -19 -6 -12 2 0 1 -20 -7 -52 41 27 -14 69 24 42 32 15 -77 -18 18 -16 -11 -96 -19 35 -41 -31 -51 -31 2 19 -21 35 46 -30 -20 -14 -15 -70 -25 1 4 -54 -63 -25 -2 17 17 -68 -12 -13 18 3 33 9 -37 -4 -2 0 3 -36 -1 -19 16 7 22 48 -27 -10 52 -5 5 -19 2 36 -75 33 -7 27 -18 -21 21 -50 42 7 42 -5 -40 13 0 0 -57 -87 24 34 33 -13 -46 15 9 19 59 38 12 -19 45 0 -8 -23 5 -7 14 -5 11 -4 -17 26 -13 -15 2 -19 9 5 -30 0 0 3 -1 -48 -51 -23 4 -40 -2 34 -3 -37 -4 11 10 -8 14 -2 -4 -35 3 -67 -19 -30 9 43 0 -23 -7 18 -40 -11 1 7 21 -29 -14 14 -11 15 3 26 7 -71 11 -20 7 18 2 21 -66 -3 29 9 11 38 5 -17 2 16 -60 6 -26 -19 -22 -32 -21 0 11 -35 58 6 12 45 5 -9 20 12 -16 4 -1 3 16 -15 2 15 35 -30 13 -20 -32 -8 51 -32 -8 -34 53 10 -10 3 -49 -31 14 -28 22 75 -4 6 82 -27 -22 -12 -7 15 -84 -11 6 -21 38 7 26 17 -27 55 27 -23 22 55 1 -62 -5 -21 -23 3 -33 13 12 -18 6 -6 36 -1 -35 28 -3 -17 9 -67 0 -5 14 -2 -10 32 23 24 -14 -2 46 21 -67 -12 -13 53 -10 1 0 -4 18 -32 -84 2 14 2 27 -53 -16 17 24 34 48 -24 -13 2 -3 7 2 -19 27 24 -34 17 -1 37 -1 13 20 42 -8 -11 -11 -13 -23 -7 0 14 4 -44 18 -6 -7 -9 -11 -24 19 17 -41 52 -5 25 26 -13 -10 11 24 21 -13 -17 -34 7 -14 -18 30 1 88 -11 -8 8 -10 10 -18 7 64 -61 35 26 14 -59 -14 29 61 -7 4 -3 -3 3 13 11 -17 57 -25 34 -19 -31 -11 25 -31 -7 34 7 -2 21 -1 -18 29 26 -1 20 -33 0 -19 -14 -14 -38 34 14 -3 -12 16 -37 -24 7 32 6 27 -49 17 -9 10 2 21 -21 -6 19 7 29 -5 -21 -6 11 -72 24 2 32 -3 -22 71 66 -2 11 17 -6 -52 22 -31 35 -84 -30 30 -14 -18 -53 -21 -9 -20 6 21 11 2 -15 51 -4 8 -15 27 41 43 15 5 22 15 -2 -12 -46 6 12 28 4 -58 7 -41 -10 67 -61 11 20 17 -118 -40 24 65 7 16 -4 -5 3 20 6 -17 25 12 -1 21 -2 11 49 -24 -17 51 25 17 2 3 18 33 -10 6 3 23 -7 14 6 -18 -30 54 -9 -17 5 -32 -5 10 -19 5 -4 7 -32 -7 6 8 -45 -23 -10 23 10 4 -43 -57 0 -27 25 21 -43 2 -24 13 2 23 10 -21 14 -21 -4 17 -6 -9 -33 23 -13 6 -8 1 -9 3 -20 -17 -34 -19 -14 11 -10 15 -49 -11 -11 19 29 18 -8 -1 -11 -7 -22 -34 -19 4 -11 -10 -8 0 3 -12 -25 -24 -65 20 -5 -2 -48 -4 5 -7 -38 -17 12 -16 16 -4 -8 -20 10 -5 -5 -42 -5 -12 -35 -16 -4 -54 2 -22 -9 -5 -29 -19 15 -14 -38 -32 -7 -3 -19 4 30 -23 1 5 11 -20 -36 24 16 36 -12 -8 -60 11 44 6 -25 10 22 27 13 24 -6 26 -5 -51 22 32 31 -24 79 -22 5 -8 -13 17 -9 6 -13 -1 -18 -11 14 -5 -78 4 41 -13 -10 -20 -32 -1 0 -7 44 4 5 16 60 14 4 38 -10 4 -3 -110 48 -9 -37 31 59 -4 4 -1 -15 -28 -5 8 30 -37 27 6 17 17 -111 61 13 -5 30 13 -12 16 -12 4 4 -15 26 -38 9 -15 25 -18 20 -66 56 -17 -45 21 -23 7 -29 27 82 4 27 -13 36 -31 31 -1 -17 -31 9 2 -3 -59 -22 57 -9 -33 -9 27 20 9 33 -19 -29 31 -25 32 41 -17 41 -16 -6 -65 5 43 -19 -2 -5 -7 -15 -33 12 1 -18 30 -2 -43 -15 -65 -52 -12 25 20 -17 -36 52 -42 35 3 13 20 1 -14 38 -31 32 9 33 19 -20 -25 15 -48 40 5 36 4 -16 -26 14 3 11 -30 18 80 -29 76 74 22 10 -66 30 17 3 -42 60 38 -5 3 -3 2 0 8 -38 -11 -14 30 -10 11 -25 -84 17 28 -31 46 24 -15 -24 -47 -52 -8 -3 13 0 45 7 6 -7 -15 -19 1 -20 -20 -20 60 -27 -3 -8 -20 7 -14 52 -25 -12 28 -65 5 11 3 -20 12 -24 1 -12 75 -9 3 13 2 -17 -45 -49 27 9 13 -18 43 -2 27 -3 29 84 32 -11 -36 73 -10 4 8 12 0 -49 16 19 -54 -19 5 -18 2 -13 14 -6 -11 38 -10 -12 -25 46 15 14 -21 15 16 -17 -14 -25 21 -6 24 20 -14 44 -2 -6 4 42 -45 16 -29 -14 -8 4 6 -12 -37 32 27 31 22 0 18 33 -9 -26 33 14 3 5 -3 13 -5 -10 3 -8 29 -25 -7 27 23 9 4 4 -16 2 16 47 23 -2 31 -32 -10 -30 24 -2 -8 0 -10 22 42 26 3 16 -20 14 19 14 12 -62 -12 0 12 -73 46 -8 43 7 -3 -1 3 -16 -30 -43 6 47 3 -34 -61 38 37 5 -7 -5 16 -44 47 -22 20 55 2 -10 13 -5 -35 -45 5 -22 -27 8 -54 7 -6 -13 10 3 -53 -4 5 -56 -66 1 34 -38 0 60 -27 -52 43 -20 16 -7 -15 37 10 9 -14 -44 6 25 -13 -16 -4 46 10 18 14 36 -11 -30 11 -40 -14 14 -17 31 45 11 -12 25 2 -4 -2 5 -6 -61 -37 -2 2 -16 12 -78 -9 -8 30 17 -2 44 9 20 4 5 -25 16 3 23 0 5 4 75 -14 14 35 59 -73 -2 -52 -7 -14 6 -26 22 -29 -2 9 -8 -20 30 -30 -111 6 15 1 30 7 -7 1 36 0 -9 15 43 35 3 29 19 -89 -39 24 20 -1 -9 8 -16 0 8 8 29 -7 -15 19 23 0 -14 39 64 -5 2 -3 -14 -76 8 5 -60 13 13 36 26 9 -56 -1 -26 -13 32 68 -13 -17 -33 -13 -9 11 69 -7 -67 -20 -18 -64 -4 3 -7 -6 7 -18 -13 31 44 61 10 29 -16 48 32 -10 -35 -19 -7 0 40 47 -28 1 -7 16 16 -35 7 11 -12 -16 0 2 -3 31 -40 40 11 28 1 16 2 -4 -52 -11 -31 -33 -14 -9 -54 -18 35 -16 -21 59 -29 6 13 -26 -16 -4 30 4 -1 -9 15 27 47 44 25 -21 -58 -56 1 -23 -1 -5 -9 28 -33 -52 27 -18 9 -17 -10 -13 -18 -22 -21 42 12 16 10 19 42 6 -35 -36 -15 18 6 9 16 -19 -14 3 -39 15 66 0 26 3 26 21 24 29 7 16 -5 -12 33 -56 2 6 6 11 7 -26 5 2 -15 29 -15 5 -59 11 48 34 -20 -1 -60 12 -54 -4 3 45 1 21 34 3 87 -11 -9 -20 7 24 -14 -25 3 15 4 4 -19 10 -79 11 25 19 -5 48 -27 -12 46 10 51 -15 42 -1 -21 -13 15 -58 22 24 -14 31 21 -15 -21 26 -32 18 2 -42 -8 -32 -2 51 14 -83 -56 -2 9 -5 51 23 1 13 -32 -8 -15 -43 -11 3 24 -16 -3 4 57 -51 -29 -13 -30 9 -27 -15 6 -31 22 -10 12 12 36 -5 27 8 13 -15 4 -11 -5 -1 -18 -20 15 -18 -15 5 -3 -16 12 -18 8 0 2 -6 -19 -19 -9 -26 -13 2 12 -6 -1 -24 -8 -11 0 16 -13 10 -16 -5 -17 -12 -5 -16 -17 11 11 2 -5 0 -18 12 -18 4 6 -17 1 -11 -22 8 15 -3 0 -12 -16 -16 4 7 -21 -5 -16 -4 -4 -6 -19 7 9 -18 -11 -6 11 -5 11 14 17 -14 4 -22 -24 -5 -10 -4 -24 -25 9 -3 15 -21 17 -7 11 10 6 -12 2 2 12 -4 3 -17 -10 -2 -6 -24 12 8 9 13 -2 -9 -12 -17 5 -6 -11 -5 -15 3 1 -17 2 -1 -11 4 -24 -19 -5 -4 -18 -15 7 -12 -24 -27 7 -6 -22 -22 -19 -9 -5 -10 1 13 -21 5 -8 -15 -15 10 -7 7 -14 -15 -17 -4 2 -27 0 -5 3 -15 -20 -3 -12 -8 4 -15 -18 -11 -2 0 11 -2 -15 -7 -20 -22 9 -27 -4 3 -11 -1 -19 5 -23 -8 -1 -21 3 -21 10 -4 -23 -8 -7 6 -14 -4 -25 -15 -20 6 -6 -22 0 2 9 1 -24 13 6 -4 4 -17 -17 17 3 -9 5 1 -7 -25 -2 15 -5 -8 -5 4 -29 -19 -2 -2 2 -12 1 4 -10 0 14 15 62 14 -19 -61 7 10 -4 5 -30 -29 14 15 34 5 1 -96 -28 -28 -29 30 -17 -107 -68 -7 -51 7 -4 -95 -4 -34 8 -89 -7 11 -1 3 10 16 32 18 -31 -4 80 43 5 -17 -85 -4 -16 13 41 -44 -22 18 2 -91 -6 -18 16 -67 38 -6 -16 21 -14 48 -19 4 -11 3 11 17 37 42 51 99 -21 22 15 0 -47 -38 -17 -28 4 -82 -1 -2 -46 4 10 39 -29 -82 -25 9 -44 -10 -15 -48 -4 -15 -2 -13 -33 -21 -46 -11 -6 -23 -22 -29 -99 -14 7 -2 -4 12 3 18 19 44 2 -18 14 -5 35 -13 18 21 8 3 -15 -9 40 -57 4 -17 13 -27 -9 -50 -1 15 -124 11 4 -35 26 -4 11 -14 7 3 17 -44 35 -29 7 4 -19 31 -56 24 20 41 21 25 4 6 55 0 45 13 29 -14 -8 -15 -2 20 5 9 15 10 28 35 -7 25 -6 -14 14 3 -69 93 42 7 -27 26 -18 -88 -26 28 5 -42 -1 31 0 -7 -9 6 47 18 -55 17 -2 13 -18 41 -16 11 52 -55 -2 10 -14 -18 -13 5 -48 -6 -58 27 6 -12 -8 62 12 3 4 18 -36 -107 -23 -1 12 -5 -20 0 29 13 29 29 21 -1 -40 39 -12 10 15 -2 29 -25 68 -26 55 -17 -7 -19 -4 -34 21 10 -16 -26 -25 -12 -5 -19 -83 10 51 -22 18 -39 -24 -9 15 5 55 14 0 -5 -3 16 -43 43 13 13 13 -10 -2 -33 1 20 18 -14 25 31 -1 -36 -15 -1 -20 -79 -5 -39 19 19 -10 20 -2 51 20 -2 7 -15 6 10 -27 2 1 49 -14 -22 5 -7 -27 -34 15 -28 0 -35 -17 -3 -6 15 33 13 26 7 20 2 33 -10 -42 24 3 -5 3 46 30 68 -35 1 12 29 4 0 1 1 -10 33 -11 4 -26 11 -36 -21 13 19 24 -37 -29 4 -59 -7 15 26 -38 24 -5 8 0 -16 22 24 18 2 -125 6 4 -15 27 60 -35 -42 -69 40 42 8 -7 -7 -60 8 -27 46 21 10 6 -42 17 17 -28 -32 -11 -37 9 -28 4 39 -7 31 -3 5 -3 42 -58 -42 -8 28 -60 -23 9 29 8 -19 -8 12 26 0 -44 -32 -35 -29 31 9 39 28 -76 -51 -8 -23 32 9 -40 16 -13 -20 -7 -23 -13 -43 23 -9 41 2 -13 -14 -6 1 -26 -68 17 -14 -9 -27 -23 14 -19 14 32 -4 6 -30 47 25 41 38 -10 0 -10 -75 32 -2 -28 5 23 30 15 2 -4 27 -9 -61 8 -44 12 -49 -50 25 25 16 -16 -58 -6 31 15 14 27 1 -50 39 -2 -23 -36 37 6 -22 -15 -1 -35 -14 39 8 19 20 12 36 -19 -2 -18 -53 -45 -30 -48 -5 24 18 -33 -34 59 23 -41 -6 -12 -6 3 -9 -4 -3 43 54 -21 -19 -20 23 5 -2 36 32 37 -14 -13 -7 21 40 -27 -13 -11 16 4 29 -8 -11 -41 30 -1 -13 12 -16 26 -31 10 7 -5 3 -5 4 -52 8 2 -17 32 22 52 4 31 -13 27 -30 -10 43 1 -12 -98 0 3 -27 -72 47 -1 29 -19 36 -2 -20 -26 11 28 13 16 38 13 -25 2 44 -7 15 -50 11 -15 17 -22 -1 40 10 -31 -24 -7 -75 -33 -4 -3 -12 -1 -22 8 1 -6 27 7 -6 -21 69 20 -47 -17 23 21 -52 33 -37 -20 -20 -8 9 22 -18 -5 6 22 37 -27 35 1 17 -6 -18 47 54 6 11 -3 -3 22 12 -65 -10 5 10 -23 4 15 2 -24 20 6 -12 0 -6 11 -41 -14 25 -11 2 27 -7 8 -16 24 -28 -78 30 -20 2 -21 -12 9 2 5 68 9 -18 12 -15 6 27 27 -10 0 -24 18 3 9 23 3 25 15 -18 13 16 -25 25 -18 28 9 -39 -12 -13 -2 22 -69 14 -23 -22 17 10 -12 8 -59 3 6 3 13 -2 4 30 -15 28 18 -17 -19 -44 -68 -42 28 36 73 -10 -19 33 -37 -3 7 -49 -16 -6 21 -3 52 14 39 -75 -5 -11 2 28 3 -35 -18 18 65 8 14 6 -17 1 -22 12 33 -3 4 12 40 15 10 11 -8 12 5 -6 51 10 8 22 -2 -10 -18 20 1 -48 -6 28 -52 -10 -39 13 0 19 2 69 15 12 -31 11 25 33 -21 25 -15 -33 -1 2 -9 20 19 15 -27 12 7 -5 -36 30 -11 -4 16 -16 -36 10 -9 29 -40 9 5 21 14 37 -8 39 -36 -12 17 -9 -15 -57 -4 31 2 18 -17 1 4 -69 -72 -41 -1 3 69 10 2 -11 -62 34 -12 -41 -1 11 -17 -5 49 31 4 -25 -38 22 22 30 -19 -43 38 -14 53 -14 -10 40 -25 11 11 9 -8 -19 -6 11 37 -11 -3 12 16 26 9 55 5 1 -17 52 17 11 -85 11 16 -22 2 36 -62 -1 0 -52 17 13 8 23 10 12 10 -23 3 5 18 -36 16 -41 -6 -21 3 1 -13 -8 -32 -1 4 -5 0 30 38 -17 19 18 -7 -13 55 3 -23 -22 44 -60 42 22 -18 18 7 19 21 25 -77 16 -8 -41 -1 -4 7 59 25 24 77 55 10 -9 -28 18 37 -24 -35 58 18 6 -2 -19 29 6 -21 -10 -33 -4 -54 10 38 -4 -38 14 44 -24 -5 -11 6 -37 -41 4 17 17 26 -30 -17 0 -4 -29 -9 5 -3 -6 -21 -2 -11 -15 -8 7 4 7 14 -10 -13 -1 -16 -1 -20 -8 -5 -2 -11 7 -3 -3 -6 -17 -11 -15 -17 -8 5 1 10 5 16 7 -17 -14 -3 2 -16 13 9 -16 -20 -10 -5 -4 -24 1 -2 1 -21 -1 7 1 -8 -12 2 -1 1 -18 6 -15 -14 -2 -5 -21 -6 12 -9 -14 6 -9 -7 -3 8 -25 5 -9 6 6 -14 -23 -20 9 15 9 -18 -4 -5 -16 -5 -8 -5 11 -4 -14 4 9 9 -25 -13 -4 -21 5 -3 -5 -3 13 -14 -16 -9 -12 -25 18 -12 -19 -1 13 16 6 -20 -10 -25 -19 14 -21 -26 -10 -5 -9 -3 -13 -7 -13 11 -5 -24 -7 -7 -4 -3 -15 -20 -12 0 -12 -17 -17 0 1 18 4 16 3 -3 1 -4 -8 -13 13 -16 -14 -3 -11 -16 -7 6 8 -21 15 -27 -11 1 3 -18 6 -9 -3 -2 17 7 6 -23 -2 4 -15 0 -7 13 -6 -9 -1 -15 -1 9 -19 -9 -17 21 -1 -14 -11 -7 4 16 6 -13 16 -18 12 -4 -6 -20 -15 -4 9 7 -13 -7 -10 2 -18 2 8 -1 4 -10 -2 9 -5 -3 -26 9 17 -10 0 0 19 5 0 -13 -38 39 27 9 39 -33 -12 -4 12 12 -8 7 9 10 -3 -15 -14 -3 -8 35 9 -4 16 6 -20 8 -6 21 -4 8 -11 -10 -8 -12 1 -19 3 -13 12 1 9 14 -23 -13 38 17 -51 22 -9 -6 78 10 9 74 36 -11 19 9 -73 -18 -17 -51 51 -18 23 -1 21 4 -14 6 0 29 82 -63 -15 45 30 -42 -41 65 39 -16 0 18 23 -17 7 1 2 44 30 36 29 -34 -15 15 -6 85 22 37 -10 -5 3 -28 -2 -5 -10 23 -66 26 7 30 -8 -36 -10 -9 5 3 39 -7 -43 0 22 3 2 -87 8 10 29 -27 47 -64 42 17 1 4 25 20 35 52 22 16 -11 101 2 17 -64 89 -15 4 -84 2 14 8 3 -24 41 9 7 15 -7 -1 18 -111 -33 27 -65 21 16 24 4 36 6 33 -27 3 0 15 0 3 -29 -68 71 -27 46 17 -14 12 0 -13 94 9 28 -46 -11 41 -11 -15 3 4 36 33 -51 9 3 -13 7 -36 15 37 -5 46 -28 -37 5 -33 22 25 -3 -3 24 26 -7 -48 -4 27 8 -15 -105 -26 -17 23 5 35 -1 -6 -12 -15 -13 -18 -11 7 10 5 -1 0 -5 -15 9 10 9 -11 0 3 -23 -11 9 -10 -15 -23 -12 1 -6 9 18 -17 -6 -12 -11 -11 -13 -18 -21 16 8 5 -22 6 4 -10 -2 -26 -8 -10 -15 -10 -27 -15 -7 -10 -15 13 -11 -10 -5 -25 -22 18 1 5 -11 -25 -7 -7 -3 -9 0 2 -15 2 -17 -7 15 7 -26 -19 -2 17 8 -24 2 1 -3 8 1 -10 -14 -7 0 -12 -10 -11 -26 11 19 -15 -1 -3 -22 -23 -16 0 16 -15 7 1 -9 -20 5 5 -15 1 9 -22 -19 -5 -20 12 1 -65 -3 23 18 -15 1 -88 -11 36 10 7 27 15 15 8 11 7 13 28 -24 16 -42 24 5 103 9 5 16 35 -57 -15 -22 -11 -76 -5 0 -6 -41 -44 21 43 26 25 -57 -104 2 3 -61 24 2 18 -4 74 -7 -47 -4 -32 30 -9 65 12 -1 -14 28 8 11 15 24 -4 -29 4 14 17 -16 2 -37 35 -17 -70 33 -10 26 -12 16 12 -21 19 -4 -26 21 27 29 -9 -22 -98 1 -5 8 -2 15 16 -38 -65 10 -27 -33 67 6 -11 -85 -18 -36 28 18 -14 18 8 14 -4 -15 -14 35 -94 -25 -16 -20 -23 -12 20 -22 -42 -85 -45 -86 37 20 -12 -20 -78 -5 -9 -73 -22 -2 -52 7 12 24 -27 -31 -18 12 19 -2 11 -37 16 -77 75 13 -51 -69 -13 -45 43 -27 -9 2 45 -12 -45 -67 -19 -1 -19 -49 59 30 -8 -17 18 16 14 -115 -14 -12 20 20 12 -1 16 -9 -47 103 17 42 -51 -15 -21 19 -2 6 -33 -18 -17 -8 11 -1 -6 -14 -58 -33 -41 -7 19 12 69 -25 -63 -59 -66 -24 -24 -3 -57 31 6 -17 -26 18 -7 20 3 -11 13 26 -11 -17 -2 -5 -20 75 -33 15 8 23 -26 3 17 -2 -13 2 -21 -22 49 -4 0 -23 11 10 -7 19 -26 16 -98 -18 23 8 -42 -1 7 28 -4 21 15 13 3 -41 51 2 -36 -1 53 -64 1 59 -7 49 41 -6 -12 -23 -16 36 -72 -21 -29 25 -4 34 44 -9 9 -36 55 9 3 -18 -9 22 6 -15 2 49 48 26 -4 -17 23 -17 -50 2 9 -5 13 -11 -17 -2 14 7 6 23 6 36 55 12 57 -25 -56 13 -5 16 -21 0 38 -17 10 -1 -3 -11 -11 15 -55 9 26 56 11 15 0 14 40 -54 -55 -9 -25 -39 44 -5 53 -50 28 -50 -42 -48 -2 10 17 -2 -52 33 -67 10 38 13 -51 -2 -7 -21 -1 -29 -1 6 11 37 -13 -3 30 -14 23 -20 -46 17 38 -29 7 -21 -19 36 3 -14 -37 -44 1 6 -62 27 26 -48 6 50 20 13 32 -57 58 13 -4 -14 -1 20 3 -66 -23 125 14 -15 -63 -12 33 22 -49 17 -1 -51 13 20 7 -2 6 2 -51 28 -26 8 9 18 -26 33 -51 -35 -41 -43 -47 3 48 35 50 -14 1 46 3 -7 13 -4 -37 17